svm_type epsilon_svr
kernel_type linear
nr_class 2
total_sv 1454
rho -0.8053179320253214
SV
0.002790178571428572 2:1.0 6:1.0 11:1.0 15:1.0 17:1.0 21:1.0 26:1.0 31:1.0 35:1.0 38:1.0 44:1.0 47:1.0 50:1.0 55:1.0 59:1.0 63:1.0 68:1.0 71:1.0 75:1.0 77:1.0 84:1.0 87:1.0 91:1.0 96:1.0 98:1.0 102:1.0 108:1.0 110:1.0 115:1.0 119:1.0 143:1.0 211:1.0 289:1.0 345:1.0 378:1.0 447:1.0 531:1.0 610:1.0 672:1.0 727:1.0 818:1.0 863:1.0 915:1.0 995:1.0 1058:1.0 1119:1.0 1172:1.0 1255:1.0 1331:1.0 1377:1.0 1436:1.0 1479:1.0 1587:1.0 1636:1.0 1702:1.0 1774:1.0 1808:1.0 1878:1.0 1967:1.0 2003:1.0 
-0.0016113340245562068 1:1.0 5:1.0 11:1.0 14:1.0 17:1.0 22:1.0 27:1.0 31:1.0 35:1.0 38:1.0 43:1.0 48:1.0 51:1.0 56:1.0 59:1.0 64:1.0 66:1.0 70:1.0 73:1.0 78:1.0 84:1.0 88:1.0 90:1.0 94:1.0 99:1.0 102:1.0 105:1.0 109:1.0 113:1.0 119:1.0 123:1.0 194:1.0 285:1.0 330:1.0 383:1.0 467:1.0 547:1.0 610:1.0 671:1.0 724:1.0 807:1.0 884:1.0 935:1.0 1011:1.0 1058:1.0 1120:1.0 1174:1.0 1262:1.0 1293:1.0 1354:1.0 1408:1.0 1496:1.0 1590:1.0 1646:1.0 1679:1.0 1746:1.0 1821:1.0 1865:1.0 1913:1.0 1979:1.0 
-0.0021404408276720585 3:1.0 6:1.0 10:1.0 14:1.0 18:1.0 24:1.0 27:1.0 32:1.0 36:1.0 39:1.0 42:1.0 47:1.0 49:1.0 56:1.0 59:1.0 61:1.0 67:1.0 69:1.0 73:1.0 77:1.0 82:1.0 86:1.0 90:1.0 94:1.0 99:1.0 104:1.0 108:1.0 111:1.0 113:1.0 118:1.0 158:1.0 206:1.0 270:1.0 336:1.0 407:1.0 500:1.0 552:1.0 631:1.0 690:1.0 735:1.0 785:1.0 860:1.0 903:1.0 1011:1.0 1058:1.0 1117:1.0 1163:1.0 1217:1.0 1305:1.0 1337:1.0 1402:1.0 1470:1.0 1550:1.0 1614:1.0 1679:1.0 1748:1.0 1832:1.0 1911:1.0 1969:1.0 2010:1.0 
0.002790178571428572 2:1.0 8:1.0 12:1.0 16:1.0 18:1.0 24:1.0 26:1.0 29:1.0 33:1.0 37:1.0 43:1.0 47:1.0 51:1.0 55:1.0 60:1.0 61:1.0 66:1.0 70:1.0 74:1.0 78:1.0 82:1.0 88:1.0 89:1.0 94:1.0 99:1.0 104:1.0 106:1.0 109:1.0 116:1.0 118:1.0 152:1.0 248:1.0 310:1.0 368:1.0 406:1.0 493:1.0 521:1.0 569:1.0 635:1.0 707:1.0 803:1.0 867:1.0 932:1.0 999:1.0 1074:1.0 1117:1.0 1162:1.0 1214:1.0 1294:1.0 1358:1.0 1422:1.0 1488:1.0 1557:1.0 1642:1.0 1663:1.0 1748:1.0 1830:1.0 1901:1.0 1932:1.0 1990:1.0 
0.0017898035307451726 2:1.0 6:1.0 10:1.0 14:1.0 18:1.0 23:1.0 25:1.0 30:1.0 35:1.0 39:1.0 44:1.0 45:1.0 51:1.0 54:1.0 59:1.0 63:1.0 67:1.0 70:1.0 73:1.0 77:1.0 82:1.0 87:1.0 90:1.0 96:1.0 100:1.0 103:1.0 106:1.0 112:1.0 116:1.0 118:1.0 142:1.0 206:1.0 270:1.0 335:1.0 401:1.0 474:1.0 511:1.0 595:1.0 676:1.0 741:1.0 811:1.0 834:1.0 927:1.0 979:1.0 1058:1.0 1119:1.0 1171:1.0 1250:1.0 1309:1.0 1353:1.0 1402:1.0 1471:1.0 1554:1.0 1632:1.0 1688:1.0 1783:1.0 1842:1.0 1888:1.0 1944:1.0 2038:1.0 
0.002790178571428572 3:1.0 7:1.0 9:1.0 13:1.0 19:1.0 22:1.0 26:1.0 30:1.0 35:1.0 40:1.0 43:1.0 47:1.0 52:1.0 56:1.0 60:1.0 63:1.0 66:1.0 72:1.0 75:1.0 77:1.0 83:1.0 86:1.0 89:1.0 95:1.0 98:1.0 102:1.0 108:1.0 110:1.0 114:1.0 118:1.0 161:1.0 217:1.0 251:1.0 322:1.0 414:1.0 462:1.0 527:1.0 596:1.0 679:1.0 755:1.0 804:1.0 872:1.0 952:1.0 1015:1.0 1074:1.0 1119:1.0 1170:1.0 1248:1.0 1303:1.0 1393:1.0 1435:1.0 1474:1.0 1565:1.0 1611:1.0 1666:1.0 1758:1.0 1808:1.0 1878:1.0 1966:1.0 1998:1.0 
-0.002790178571428572 3:1.0 6:1.0 11:1.0 13:1.0 17:1.0 21:1.0 26:1.0 32:1.0 35:1.0 37:1.0 41:1.0 47:1.0 51:1.0 54:1.0 58:1.0 62:1.0 65:1.0 70:1.0 75:1.0 78:1.0 82:1.0 88:1.0 91:1.0 94:1.0 100:1.0 103:1.0 105:1.0 110:1.0 116:1.0 119:1.0 159:1.0 209:1.0 281:1.0 313:1.0 378:1.0 448:1.0 535:1.0 625:1.0 665:1.0 699:1.0 771:1.0 866:1.0 926:1.0 975:1.0 1042:1.0 1118:1.0 1165:1.0 1226:1.0 1279:1.0 1362:1.0 1438:1.0 1488:1.0 1559:1.0 1650:1.0 1696:1.0 1751:1.0 1841:1.0 1882:1.0 1920:1.0 2007:1.0 
0.002790178571428572 1:1.0 6:1.0 12:1.0 14:1.0 18:1.0 22:1.0 28:1.0 30:1.0 35:1.0 37:1.0 43:1.0 48:1.0 49:1.0 54:1.0 58:1.0 63:1.0 65:1.0 71:1.0 74:1.0 78:1.0 83:1.0 86:1.0 92:1.0 96:1.0 99:1.0 103:1.0 108:1.0 110:1.0 115:1.0 118:1.0 128:1.0 214:1.0 302:1.0 334:1.0 400:1.0 470:1.0 559:1.0 593:1.0 667:1.0 708:1.0 805:1.0 874:1.0 894:1.0 975:1.0 1042:1.0 1119:1.0 1169:1.0 1243:1.0 1282:1.0 1374:1.0 1423:1.0 1490:1.0 1568:1.0 1624:1.0 1719:1.0 1779:1.0 1828:1.0 1894:1.0 1967:1.0 2002:1.0 
0.002790178571428572 4:1.0 8:1.0 12:1.0 14:1.0 17:1.0 21:1.0 26:1.0 30:1.0 33:1.0 37:1.0 44:1.0 47:1.0 51:1.0 53:1.0 57:1.0 63:1.0 67:1.0 70:1.0 73:1.0 80:1.0 84:1.0 86:1.0 92:1.0 96:1.0 98:1.0 101:1.0 108:1.0 112:1.0 116:1.0 117:1.0 184:1.0 246:1.0 301:1.0 329:1.0 378:1.0 446:1.0 525:1.0 585:1.0 636:1.0 711:1.0 819:1.0 865:1.0 921:1.0 955:1.0 1026:1.0 1119:1.0 1171:1.0 1250:1.0 1309:1.0 1356:1.0 1416:1.0 1526:1.0 1584:1.0 1624:1.0 1718:1.0 1773:1.0 1804:1.0 1864:1.0 1976:1.0 2037:1.0 
-0.002790178571428572 2:1.0 8:1.0 10:1.0 16:1.0 18:1.0 22:1.0 27:1.0 31:1.0 35:1.0 37:1.0 43:1.0 46:1.0 50:1.0 55:1.0 59:1.0 63:1.0 67:1.0 71:1.0 75:1.0 78:1.0 83:1.0 86:1.0 92:1.0 95:1.0 99:1.0 102:1.0 106:1.0 110:1.0 115:1.0 118:1.0 150:1.0 240:1.0 278:1.0 366:1.0 399:1.0 467:1.0 547:1.0 609:1.0 667:1.0 706:1.0 798:1.0 847:1.0 915:1.0 995:1.0 1058:1.0 1119:1.0 1171:1.0 1251:1.0 1315:1.0 1378:1.0 1439:1.0 1490:1.0 1568:1.0 1623:1.0 1715:1.0 1762:1.0 1822:1.0 1870:1.0 1935:1.0 2002:1.0 
-2.787615045711075E-4 4:1.0 8:1.0 9:1.0 16:1.0 20:1.0 22:1.0 25:1.0 32:1.0 33:1.0 38:1.0 42:1.0 45:1.0 51:1.0 53:1.0 57:1.0 62:1.0 68:1.0 70:1.0 73:1.0 79:1.0 82:1.0 88:1.0 90:1.0 96:1.0 99:1.0 101:1.0 108:1.0 112:1.0 115:1.0 119:1.0 181:1.0 236:1.0 264:1.0 374:1.0 429:1.0 460:1.0 517:1.0 618:1.0 638:1.0 717:1.0 779:1.0 833:1.0 921:1.0 955:1.0 1026:1.0 1118:1.0 1168:1.0 1238:1.0 1325:1.0 1355:1.0 1410:1.0 1504:1.0 1558:1.0 1648:1.0 1687:1.0 1777:1.0 1820:1.0 1864:1.0 1975:1.0 2035:1.0 
-2.9183520408536395E-4 2:1.0 6:1.0 10:1.0 15:1.0 19:1.0 23:1.0 27:1.0 32:1.0 34:1.0 38:1.0 44:1.0 46:1.0 49:1.0 54:1.0 58:1.0 63:1.0 67:1.0 71:1.0 73:1.0 77:1.0 83:1.0 87:1.0 91:1.0 94:1.0 100:1.0 103:1.0 107:1.0 110:1.0 114:1.0 119:1.0 142:1.0 207:1.0 275:1.0 355:1.0 419:1.0 484:1.0 550:1.0 622:1.0 656:1.0 726:1.0 813:1.0 842:1.0 894:1.0 975:1.0 1042:1.0 1119:1.0 1171:1.0 1251:1.0 1313:1.0 1369:1.0 1403:1.0 1475:1.0 1571:1.0 1634:1.0 1696:1.0 1751:1.0 1843:1.0 1890:1.0 1950:1.0 1999:1.0 
-0.002790178571428572 4:1.0 7:1.0 10:1.0 14:1.0 19:1.0 22:1.0 28:1.0 31:1.0 34:1.0 40:1.0 44:1.0 46:1.0 52:1.0 54:1.0 59:1.0 63:1.0 67:1.0 72:1.0 76:1.0 78:1.0 82:1.0 88:1.0 89:1.0 94:1.0 98:1.0 102:1.0 107:1.0 111:1.0 114:1.0 118:1.0 178:1.0 222:1.0 271:1.0 338:1.0 416:1.0 471:1.0 562:1.0 608:1.0 664:1.0 758:1.0 816:1.0 854:1.0 943:1.0 979:1.0 1058:1.0 1119:1.0 1171:1.0 1252:1.0 1320:1.0 1398:1.0 1454:1.0 1488:1.0 1557:1.0 1642:1.0 1662:1.0 1742:1.0 1807:1.0 1875:1.0 1954:1.0 2014:1.0 
-0.002790178571428572 3:1.0 8:1.0 10:1.0 14:1.0 18:1.0 23:1.0 27:1.0 31:1.0 33:1.0 40:1.0 42:1.0 48:1.0 50:1.0 53:1.0 59:1.0 62:1.0 68:1.0 71:1.0 76:1.0 79:1.0 83:1.0 87:1.0 90:1.0 94:1.0 99:1.0 101:1.0 107:1.0 111:1.0 114:1.0 119:1.0 166:1.0 238:1.0 270:1.0 335:1.0 403:1.0 483:1.0 545:1.0 604:1.0 646:1.0 752:1.0 790:1.0 877:1.0 907:1.0 963:1.0 1058:1.0 1118:1.0 1168:1.0 1239:1.0 1332:1.0 1383:1.0 1459:1.0 1507:1.0 1570:1.0 1630:1.0 1679:1.0 1745:1.0 1819:1.0 1859:1.0 1954:1.0 2015:1.0 
-0.0010807160410613898 2:1.0 6:1.0 11:1.0 15:1.0 17:1.0 22:1.0 27:1.0 31:1.0 36:1.0 39:1.0 41:1.0 48:1.0 52:1.0 55:1.0 59:1.0 63:1.0 67:1.0 69:1.0 76:1.0 78:1.0 83:1.0 88:1.0 91:1.0 93:1.0 98:1.0 103:1.0 108:1.0 110:1.0 113:1.0 118:1.0 143:1.0 211:1.0 289:1.0 346:1.0 383:1.0 467:1.0 548:1.0 615:1.0 689:1.0 732:1.0 776:1.0 887:1.0 947:1.0 995:1.0 1058:1.0 1119:1.0 1171:1.0 1249:1.0 1308:1.0 1350:1.0 1455:1.0 1492:1.0 1575:1.0 1649:1.0 1690:1.0 1727:1.0 1812:1.0 1894:1.0 1965:1.0 1994:1.0 
-0.0021437463410005765 1:1.0 6:1.0 10:1.0 16:1.0 19:1.0 24:1.0 26:1.0 31:1.0 35:1.0 39:1.0 41:1.0 46:1.0 49:1.0 54:1.0 58:1.0 64:1.0 67:1.0 71:1.0 75:1.0 78:1.0 81:1.0 86:1.0 91:1.0 94:1.0 100:1.0 102:1.0 105:1.0 111:1.0 115:1.0 120:1.0 126:1.0 208:1.0 279:1.0 372:1.0 422:1.0 495:1.0 531:1.0 611:1.0 673:1.0 730:1.0 765:1.0 842:1.0 894:1.0 975:1.0 1042:1.0 1120:1.0 1175:1.0 1267:1.0 1315:1.0 1378:1.0 1437:1.0 1482:1.0 1535:1.0 1618:1.0 1696:1.0 1750:1.0 1837:1.0 1867:1.0 1923:1.0 2020:1.0 
0.002790178571428572 2:1.0 5:1.0 11:1.0 16:1.0 18:1.0 21:1.0 27:1.0 30:1.0 34:1.0 39:1.0 43:1.0 46:1.0 52:1.0 54:1.0 58:1.0 64:1.0 66:1.0 72:1.0 76:1.0 79:1.0 81:1.0 86:1.0 90:1.0 96:1.0 100:1.0 103:1.0 105:1.0 110:1.0 115:1.0 120:1.0 139:1.0 196:1.0 294:1.0 365:1.0 395:1.0 450:1.0 542:1.0 591:1.0 659:1.0 738:1.0 800:1.0 854:1.0 942:1.0 975:1.0 1042:1.0 1120:1.0 1174:1.0 1264:1.0 1304:1.0 1399:1.0 1457:1.0 1498:1.0 1534:1.0 1616:1.0 1688:1.0 1783:1.0 1841:1.0 1882:1.0 1919:1.0 2004:1.0 
-0.0014039910634744848 1:1.0 7:1.0 10:1.0 14:1.0 19:1.0 22:1.0 28:1.0 31:1.0 35:1.0 38:1.0 43:1.0 47:1.0 49:1.0 54:1.0 58:1.0 63:1.0 66:1.0 69:1.0 75:1.0 78:1.0 83:1.0 87:1.0 90:1.0 94:1.0 97:1.0 103:1.0 105:1.0 111:1.0 113:1.0 118:1.0 130:1.0 222:1.0 271:1.0 338:1.0 416:1.0 471:1.0 563:1.0 610:1.0 671:1.0 723:1.0 801:1.0 858:1.0 894:1.0 975:1.0 1042:1.0 1119:1.0 1170:1.0 1245:1.0 1291:1.0 1346:1.0 1439:1.0 1491:1.0 1570:1.0 1630:1.0 1677:1.0 1739:1.0 1793:1.0 1883:1.0 1921:1.0 2010:1.0 
0.0012526444855583273 3:1.0 6:1.0 12:1.0 16:1.0 18:1.0 22:1.0 26:1.0 30:1.0 34:1.0 40:1.0 44:1.0 45:1.0 49:1.0 55:1.0 57:1.0 63:1.0 66:1.0 72:1.0 74:1.0 78:1.0 82:1.0 86:1.0 89:1.0 94:1.0 98:1.0 103:1.0 105:1.0 109:1.0 115:1.0 118:1.0 160:1.0 216:1.0 310:1.0 366:1.0 398:1.0 462:1.0 526:1.0 592:1.0 664:1.0 757:1.0 809:1.0 827:1.0 897:1.0 987:1.0 1026:1.0 1119:1.0 1170:1.0 1248:1.0 1302:1.0 1390:1.0 1422:1.0 1486:1.0 1549:1.0 1610:1.0 1662:1.0 1743:1.0 1809:1.0 1881:1.0 1915:1.0 1986:1.0 
0.002790178571428572 3:1.0 7:1.0 12:1.0 14:1.0 18:1.0 22:1.0 25:1.0 30:1.0 35:1.0 38:1.0 44:1.0 46:1.0 51:1.0 54:1.0 58:1.0 63:1.0 67:1.0 72:1.0 74:1.0 79:1.0 81:1.0 86:1.0 89:1.0 93:1.0 98:1.0 102:1.0 107:1.0 110:1.0 113:1.0 120:1.0 164:1.0 230:1.0 302:1.0 334:1.0 397:1.0 458:1.0 511:1.0 594:1.0 672:1.0 726:1.0 815:1.0 850:1.0 926:1.0 975:1.0 1042:1.0 1119:1.0 1171:1.0 1252:1.0 1318:1.0 1391:1.0 1425:1.0 1498:1.0 1533:1.0 1609:1.0 1658:1.0 1726:1.0 1807:1.0 1874:1.0 1949:1.0 1996:1.0 
0.002790178571428572 1:1.0 5:1.0 12:1.0 16:1.0 17:1.0 21:1.0 28:1.0 32:1.0 33:1.0 38:1.0 42:1.0 46:1.0 49:1.0 53:1.0 59:1.0 63:1.0 68:1.0 72:1.0 76:1.0 78:1.0 82:1.0 87:1.0 92:1.0 95:1.0 98:1.0 101:1.0 107:1.0 112:1.0 114:1.0 120:1.0 124:1.0 200:1.0 309:1.0 361:1.0 380:1.0 456:1.0 565:1.0 618:1.0 638:1.0 718:1.0 781:1.0 841:1.0 891:1.0 963:1.0 1058:1.0 1119:1.0 1172:1.0 1256:1.0 1336:1.0 1398:1.0 1454:1.0 1487:1.0 1556:1.0 1639:1.0 1714:1.0 1757:1.0 1803:1.0 1860:1.0 1958:1.0 2032:1.0 
0.002790178571428572 3:1.0 5:1.0 12:1.0 15:1.0 17:1.0 22:1.0 27:1.0 32:1.0 33:1.0 39:1.0 41:1.0 45:1.0 51:1.0 53:1.0 58:1.0 63:1.0 68:1.0 70:1.0 76:1.0 80:1.0 84:1.0 88:1.0 92:1.0 95:1.0 97:1.0 103:1.0 105:1.0 109:1.0 113:1.0 119:1.0 156:1.0 199:1.0 305:1.0 346:1.0 383:1.0 468:1.0 549:1.0 619:1.0 641:1.0 729:1.0 763:1.0 833:1.0 922:1.0 959:1.0 1042:1.0 1119:1.0 1172:1.0 1254:1.0 1328:1.0 1368:1.0 1464:1.0 1528:1.0 1592:1.0 1655:1.0 1713:1.0 1755:1.0 1793:1.0 1881:1.0 1913:1.0 1979:1.0 
-6.61418334602086E-4 2:1.0 6:1.0 10:1.0 15:1.0 19:1.0 21:1.0 26:1.0 30:1.0 33:1.0 40:1.0 43:1.0 48:1.0 51:1.0 53:1.0 58:1.0 62:1.0 66:1.0 70:1.0 75:1.0 80:1.0 83:1.0 86:1.0 89:1.0 95:1.0 99:1.0 103:1.0 108:1.0 111:1.0 114:1.0 119:1.0 142:1.0 207:1.0 275:1.0 353:1.0 410:1.0 446:1.0 525:1.0 588:1.0 647:1.0 756:1.0 807:1.0 881:1.0 922:1.0 959:1.0 1042:1.0 1118:1.0 1166:1.0 1230:1.0 1295:1.0 1364:1.0 1447:1.0 1522:1.0 1565:1.0 1611:1.0 1667:1.0 1763:1.0 1828:1.0 1895:1.0 1970:1.0 2015:1.0 
-0.0010760406750421722 2:1.0 6:1.0 10:1.0 14:1.0 19:1.0 23:1.0 27:1.0 31:1.0 36:1.0 37:1.0 41:1.0 47:1.0 50:1.0 56:1.0 58:1.0 62:1.0 67:1.0 70:1.0 74:1.0 79:1.0 82:1.0 87:1.0 92:1.0 94:1.0 97:1.0 103:1.0 106:1.0 112:1.0 114:1.0 117:1.0 142:1.0 206:1.0 271:1.0 339:1.0 419:1.0 483:1.0 548:1.0 613:1.0 681:1.0 699:1.0 770:1.0 864:1.0 918:1.0 1007:1.0 1042:1.0 1118:1.0 1167:1.0 1234:1.0 1310:1.0 1359:1.0 1426:1.0 1503:1.0 1556:1.0 1638:1.0 1709:1.0 1739:1.0 1794:1.0 1888:1.0 1942:1.0 2029:1.0 
2.030707132503269E-4 3:1.0 7:1.0 11:1.0 13:1.0 19:1.0 23:1.0 26:1.0 30:1.0 33:1.0 40:1.0 42:1.0 48:1.0 51:1.0 54:1.0 57:1.0 62:1.0 66:1.0 72:1.0 75:1.0 78:1.0 82:1.0 86:1.0 89:1.0 94:1.0 98:1.0 101:1.0 108:1.0 112:1.0 114:1.0 118:1.0 163:1.0 225:1.0 283:1.0 323:1.0 418:1.0 478:1.0 525:1.0 588:1.0 646:1.0 752:1.0 791:1.0 882:1.0 925:1.0 971:1.0 1026:1.0 1118:1.0 1166:1.0 1232:1.0 1303:1.0 1394:1.0 1438:1.0 1486:1.0 1549:1.0 1610:1.0 1662:1.0 1741:1.0 1804:1.0 1864:1.0 1974:1.0 2030:1.0 
-0.002790178571428572 4:1.0 6:1.0 9:1.0 15:1.0 19:1.0 22:1.0 26:1.0 31:1.0 34:1.0 37:1.0 43:1.0 47:1.0 50:1.0 55:1.0 59:1.0 63:1.0 65:1.0 71:1.0 74:1.0 80:1.0 84:1.0 86:1.0 89:1.0 95:1.0 99:1.0 103:1.0 105:1.0 109:1.0 114:1.0 120:1.0 173:1.0 203:1.0 259:1.0 354:1.0 414:1.0 463:1.0 530:1.0 605:1.0 651:1.0 707:1.0 802:1.0 863:1.0 915:1.0 995:1.0 1058:1.0 1119:1.0 1169:1.0 1243:1.0 1282:1.0 1376:1.0 1432:1.0 1526:1.0 1581:1.0 1611:1.0 1667:1.0 1763:1.0 1825:1.0 1881:1.0 1914:1.0 1984:1.0 
-0.0019439561627368122 3:1.0 7:1.0 11:1.0 16:1.0 18:1.0 21:1.0 27:1.0 31:1.0 34:1.0 38:1.0 42:1.0 47:1.0 50:1.0 55:1.0 57:1.0 63:1.0 67:1.0 69:1.0 75:1.0 77:1.0 81:1.0 87:1.0 89:1.0 94:1.0 97:1.0 103:1.0 105:1.0 111:1.0 114:1.0 119:1.0 163:1.0 228:1.0 294:1.0 365:1.0 395:1.0 451:1.0 546:1.0 606:1.0 654:1.0 719:1.0 786:1.0 863:1.0 913:1.0 987:1.0 1026:1.0 1119:1.0 1171:1.0 1249:1.0 1307:1.0 1345:1.0 1433:1.0 1467:1.0 1537:1.0 1626:1.0 1661:1.0 1739:1.0 1793:1.0 1883:1.0 1922:1.0 2015:1.0 
-0.00121911048581932 3:1.0 7:1.0 9:1.0 13:1.0 19:1.0 23:1.0 25:1.0 31:1.0 35:1.0 39:1.0 43:1.0 46:1.0 49:1.0 54:1.0 58:1.0 62:1.0 68:1.0 71:1.0 73:1.0 79:1.0 83:1.0 85:1.0 89:1.0 94:1.0 97:1.0 102:1.0 108:1.0 110:1.0 114:1.0 119:1.0 161:1.0 217:1.0 251:1.0 323:1.0 417:1.0 475:1.0 515:1.0 611:1.0 675:1.0 738:1.0 797:1.0 842:1.0 894:1.0 975:1.0 1042:1.0 1118:1.0 1168:1.0 1239:1.0 1329:1.0 1371:1.0 1411:1.0 1505:1.0 1561:1.0 1594:1.0 1661:1.0 1738:1.0 1792:1.0 1878:1.0 1966:1.0 1999:1.0 
0.0022633416701021555 2:1.0 8:1.0 11:1.0 14:1.0 18:1.0 22:1.0 25:1.0 31:1.0 33:1.0 39:1.0 42:1.0 47:1.0 51:1.0 54:1.0 57:1.0 62:1.0 68:1.0 70:1.0 74:1.0 78:1.0 83:1.0 87:1.0 92:1.0 94:1.0 97:1.0 102:1.0 108:1.0 109:1.0 114:1.0 117:1.0 151:1.0 242:1.0 286:1.0 334:1.0 397:1.0 459:1.0 513:1.0 603:1.0 642:1.0 735:1.0 787:1.0 866:1.0 925:1.0 971:1.0 1026:1.0 1118:1.0 1168:1.0 1238:1.0 1326:1.0 1358:1.0 1423:1.0 1491:1.0 1572:1.0 1638:1.0 1709:1.0 1738:1.0 1792:1.0 1877:1.0 1962:1.0 1981:1.0 
0.002790178571428572 2:1.0 7:1.0 11:1.0 15:1.0 18:1.0 22:1.0 27:1.0 31:1.0 35:1.0 39:1.0 42:1.0 48:1.0 51:1.0 54:1.0 58:1.0 64:1.0 66:1.0 71:1.0 74:1.0 77:1.0 83:1.0 87:1.0 91:1.0 96:1.0 99:1.0 102:1.0 108:1.0 111:1.0 114:1.0 119:1.0 147:1.0 227:1.0 290:1.0 350:1.0 399:1.0 467:1.0 547:1.0 611:1.0 674:1.0 736:1.0 791:1.0 882:1.0 926:1.0 975:1.0 1042:1.0 1120:1.0 1174:1.0 1263:1.0 1298:1.0 1373:1.0 1419:1.0 1475:1.0 1571:1.0 1636:1.0 1703:1.0 1778:1.0 1824:1.0 1879:1.0 1970:1.0 2015:1.0 
7.388257055348508E-4 3:1.0 7:1.0 11:1.0 14:1.0 17:1.0 23:1.0 27:1.0 32:1.0 36:1.0 39:1.0 42:1.0 47:1.0 49:1.0 54:1.0 57:1.0 63:1.0 66:1.0 69:1.0 74:1.0 78:1.0 82:1.0 87:1.0 91:1.0 93:1.0 100:1.0 101:1.0 106:1.0 110:1.0 116:1.0 120:1.0 163:1.0 226:1.0 285:1.0 331:1.0 387:1.0 484:1.0 552:1.0 631:1.0 690:1.0 735:1.0 785:1.0 858:1.0 893:1.0 971:1.0 1026:1.0 1119:1.0 1170:1.0 1245:1.0 1290:1.0 1342:1.0 1422:1.0 1487:1.0 1555:1.0 1633:1.0 1692:1.0 1733:1.0 1834:1.0 1854:1.0 1936:1.0 2008:1.0 
-3.31637976461732E-4 2:1.0 8:1.0 10:1.0 14:1.0 18:1.0 23:1.0 27:1.0 30:1.0 36:1.0 38:1.0 42:1.0 48:1.0 49:1.0 55:1.0 57:1.0 62:1.0 67:1.0 70:1.0 76:1.0 78:1.0 81:1.0 87:1.0 90:1.0 93:1.0 98:1.0 101:1.0 106:1.0 110:1.0 115:1.0 120:1.0 150:1.0 238:1.0 270:1.0 335:1.0 403:1.0 482:1.0 544:1.0 598:1.0 686:1.0 720:1.0 789:1.0 875:1.0 897:1.0 987:1.0 1026:1.0 1118:1.0 1167:1.0 1234:1.0 1312:1.0 1366:1.0 1453:1.0 1483:1.0 1538:1.0 1629:1.0 1674:1.0 1725:1.0 1802:1.0 1854:1.0 1935:1.0 2004:1.0 
-0.0027624565916445137 2:1.0 6:1.0 12:1.0 16:1.0 19:1.0 22:1.0 28:1.0 31:1.0 35:1.0 38:1.0 42:1.0 46:1.0 51:1.0 54:1.0 59:1.0 62:1.0 65:1.0 72:1.0 75:1.0 77:1.0 83:1.0 86:1.0 90:1.0 95:1.0 98:1.0 101:1.0 107:1.0 110:1.0 114:1.0 120:1.0 144:1.0 216:1.0 311:1.0 370:1.0 416:1.0 471:1.0 563:1.0 610:1.0 670:1.0 718:1.0 783:1.0 850:1.0 927:1.0 979:1.0 1058:1.0 1118:1.0 1165:1.0 1228:1.0 1287:1.0 1393:1.0 1435:1.0 1474:1.0 1566:1.0 1615:1.0 1682:1.0 1757:1.0 1803:1.0 1858:1.0 1950:1.0 2000:1.0 
-0.0015042920186081146 1:1.0 5:1.0 10:1.0 14:1.0 17:1.0 21:1.0 25:1.0 32:1.0 36:1.0 38:1.0 43:1.0 47:1.0 49:1.0 53:1.0 59:1.0 64:1.0 67:1.0 71:1.0 75:1.0 78:1.0 83:1.0 85:1.0 90:1.0 94:1.0 99:1.0 102:1.0 105:1.0 110:1.0 114:1.0 118:1.0 122:1.0 190:1.0 269:1.0 329:1.0 377:1.0 444:1.0 520:1.0 630:1.0 687:1.0 723:1.0 801:1.0 857:1.0 891:1.0 963:1.0 1058:1.0 1120:1.0 1175:1.0 1267:1.0 1315:1.0 1378:1.0 1439:1.0 1489:1.0 1562:1.0 1598:1.0 1679:1.0 1746:1.0 1821:1.0 1866:1.0 1918:1.0 1998:1.0 
3.472566617089469E-4 3:1.0 7:1.0 10:1.0 13:1.0 19:1.0 21:1.0 27:1.0 30:1.0 33:1.0 39:1.0 43:1.0 48:1.0 50:1.0 54:1.0 59:1.0 62:1.0 65:1.0 71:1.0 75:1.0 78:1.0 82:1.0 88:1.0 91:1.0 94:1.0 97:1.0 103:1.0 105:1.0 109:1.0 113:1.0 119:1.0 162:1.0 221:1.0 267:1.0 321:1.0 411:1.0 450:1.0 541:1.0 587:1.0 643:1.0 740:1.0 806:1.0 878:1.0 911:1.0 979:1.0 1058:1.0 1118:1.0 1165:1.0 1227:1.0 1283:1.0 1378:1.0 1438:1.0 1488:1.0 1559:1.0 1650:1.0 1693:1.0 1739:1.0 1793:1.0 1881:1.0 1913:1.0 1979:1.0 
8.716858841249005E-4 2:1.0 6:1.0 12:1.0 15:1.0 19:1.0 21:1.0 25:1.0 32:1.0 36:1.0 40:1.0 42:1.0 46:1.0 51:1.0 56:1.0 59:1.0 62:1.0 68:1.0 71:1.0 75:1.0 79:1.0 83:1.0 86:1.0 89:1.0 95:1.0 97:1.0 104:1.0 106:1.0 111:1.0 115:1.0 119:1.0 144:1.0 215:1.0 307:1.0 353:1.0 409:1.0 444:1.0 520:1.0 632:1.0 694:1.0 750:1.0 783:1.0 852:1.0 935:1.0 1011:1.0 1058:1.0 1118:1.0 1168:1.0 1239:1.0 1331:1.0 1379:1.0 1443:1.0 1506:1.0 1565:1.0 1611:1.0 1665:1.0 1756:1.0 1798:1.0 1903:1.0 1939:1.0 2019:1.0 
-0.0027344789550694873 1:1.0 7:1.0 12:1.0 15:1.0 18:1.0 23:1.0 28:1.0 30:1.0 33:1.0 38:1.0 42:1.0 45:1.0 50:1.0 53:1.0 59:1.0 64:1.0 68:1.0 70:1.0 76:1.0 78:1.0 84:1.0 88:1.0 90:1.0 94:1.0 100:1.0 102:1.0 106:1.0 112:1.0 115:1.0 118:1.0 132:1.0 231:1.0 306:1.0 351:1.0 404:1.0 486:1.0 557:1.0 586:1.0 638:1.0 717:1.0 778:1.0 829:1.0 907:1.0 963:1.0 1058:1.0 1120:1.0 1176:1.0 1270:1.0 1328:1.0 1366:1.0 1456:1.0 1496:1.0 1590:1.0 1646:1.0 1680:1.0 1750:1.0 1838:1.0 1872:1.0 1943:1.0 2034:1.0 
4.6593608246921296E-4 4:1.0 6:1.0 10:1.0 16:1.0 19:1.0 24:1.0 27:1.0 32:1.0 34:1.0 38:1.0 42:1.0 46:1.0 51:1.0 55:1.0 59:1.0 62:1.0 67:1.0 72:1.0 74:1.0 78:1.0 81:1.0 87:1.0 92:1.0 94:1.0 98:1.0 102:1.0 106:1.0 110:1.0 113:1.0 119:1.0 174:1.0 208:1.0 279:1.0 372:1.0 423:1.0 500:1.0 550:1.0 622:1.0 654:1.0 718:1.0 783:1.0 851:1.0 931:1.0 995:1.0 1058:1.0 1118:1.0 1167:1.0 1236:1.0 1318:1.0 1390:1.0 1421:1.0 1483:1.0 1540:1.0 1638:1.0 1710:1.0 1742:1.0 1806:1.0 1870:1.0 1933:1.0 1995:1.0 
0.0010354241275045864 4:1.0 7:1.0 11:1.0 13:1.0 19:1.0 23:1.0 28:1.0 29:1.0 36:1.0 39:1.0 43:1.0 47:1.0 51:1.0 53:1.0 57:1.0 62:1.0 66:1.0 69:1.0 75:1.0 77:1.0 83:1.0 86:1.0 90:1.0 94:1.0 97:1.0 102:1.0 105:1.0 110:1.0 114:1.0 118:1.0 179:1.0 225:1.0 283:1.0 323:1.0 420:1.0 485:1.0 556:1.0 583:1.0 691:1.0 739:1.0 803:1.0 865:1.0 921:1.0 955:1.0 1026:1.0 1118:1.0 1166:1.0 1229:1.0 1291:1.0 1345:1.0 1435:1.0 1474:1.0 1566:1.0 1614:1.0 1677:1.0 1738:1.0 1789:1.0 1866:1.0 1918:1.0 1998:1.0 
-0.002790178571428572 3:1.0 5:1.0 12:1.0 15:1.0 17:1.0 22:1.0 27:1.0 32:1.0 33:1.0 39:1.0 42:1.0 48:1.0 52:1.0 56:1.0 59:1.0 62:1.0 65:1.0 69:1.0 73:1.0 79:1.0 84:1.0 88:1.0 92:1.0 95:1.0 97:1.0 103:1.0 105:1.0 109:1.0 113:1.0 119:1.0 156:1.0 199:1.0 305:1.0 346:1.0 383:1.0 468:1.0 549:1.0 619:1.0 642:1.0 736:1.0 792:1.0 888:1.0 951:1.0 1011:1.0 1058:1.0 1118:1.0 1165:1.0 1225:1.0 1273:1.0 1339:1.0 1412:1.0 1512:1.0 1592:1.0 1655:1.0 1713:1.0 1755:1.0 1793:1.0 1881:1.0 1913:1.0 1979:1.0 
0.0010265367587349824 3:1.0 7:1.0 10:1.0 14:1.0 18:1.0 22:1.0 26:1.0 31:1.0 36:1.0 37:1.0 42:1.0 48:1.0 50:1.0 54:1.0 60:1.0 62:1.0 65:1.0 72:1.0 75:1.0 79:1.0 81:1.0 87:1.0 89:1.0 94:1.0 98:1.0 102:1.0 106:1.0 111:1.0 115:1.0 118:1.0 162:1.0 222:1.0 270:1.0 334:1.0 398:1.0 463:1.0 532:1.0 613:1.0 682:1.0 704:1.0 790:1.0 878:1.0 912:1.0 983:1.0 1074:1.0 1118:1.0 1165:1.0 1228:1.0 1287:1.0 1395:1.0 1441:1.0 1499:1.0 1537:1.0 1626:1.0 1662:1.0 1742:1.0 1806:1.0 1871:1.0 1939:1.0 2018:1.0 
0.0021455181429765042 4:1.0 8:1.0 11:1.0 13:1.0 19:1.0 21:1.0 28:1.0 29:1.0 35:1.0 40:1.0 43:1.0 46:1.0 52:1.0 56:1.0 59:1.0 64:1.0 68:1.0 69:1.0 75:1.0 80:1.0 81:1.0 85:1.0 89:1.0 94:1.0 97:1.0 102:1.0 108:1.0 111:1.0 114:1.0 117:1.0 183:1.0 241:1.0 283:1.0 321:1.0 412:1.0 453:1.0 555:1.0 580:1.0 679:1.0 754:1.0 800:1.0 856:1.0 951:1.0 1011:1.0 1058:1.0 1120:1.0 1176:1.0 1269:1.0 1323:1.0 1348:1.0 1445:1.0 1513:1.0 1529:1.0 1594:1.0 1661:1.0 1738:1.0 1792:1.0 1879:1.0 1970:1.0 2013:1.0 
0.002790178571428572 2:1.0 6:1.0 11:1.0 14:1.0 20:1.0 22:1.0 28:1.0 30:1.0 35:1.0 37:1.0 41:1.0 45:1.0 50:1.0 56:1.0 58:1.0 63:1.0 67:1.0 71:1.0 74:1.0 80:1.0 82:1.0 88:1.0 90:1.0 95:1.0 98:1.0 101:1.0 107:1.0 112:1.0 114:1.0 117:1.0 143:1.0 210:1.0 288:1.0 342:1.0 432:1.0 470:1.0 559:1.0 593:1.0 665:1.0 697:1.0 762:1.0 832:1.0 918:1.0 1007:1.0 1042:1.0 1119:1.0 1171:1.0 1251:1.0 1314:1.0 1376:1.0 1430:1.0 1520:1.0 1558:1.0 1647:1.0 1682:1.0 1757:1.0 1803:1.0 1860:1.0 1958:1.0 2029:1.0 
-0.0010022795400518418 2:1.0 5:1.0 11:1.0 15:1.0 20:1.0 23:1.0 28:1.0 30:1.0 33:1.0 38:1.0 42:1.0 47:1.0 50:1.0 55:1.0 59:1.0 62:1.0 66:1.0 69:1.0 75:1.0 78:1.0 84:1.0 87:1.0 90:1.0 96:1.0 100:1.0 101:1.0 106:1.0 111:1.0 116:1.0 118:1.0 139:1.0 195:1.0 292:1.0 359:1.0 436:1.0 486:1.0 557:1.0 586:1.0 638:1.0 719:1.0 786:1.0 863:1.0 915:1.0 995:1.0 1058:1.0 1118:1.0 1166:1.0 1229:1.0 1291:1.0 1346:1.0 1440:1.0 1495:1.0 1586:1.0 1632:1.0 1688:1.0 1781:1.0 1834:1.0 1855:1.0 1940:1.0 2022:1.0 
-0.0016440197336389923 1:1.0 7:1.0 11:1.0 15:1.0 18:1.0 24:1.0 27:1.0 29:1.0 35:1.0 39:1.0 44:1.0 47:1.0 49:1.0 55:1.0 59:1.0 61:1.0 67:1.0 71:1.0 74:1.0 80:1.0 82:1.0 86:1.0 90:1.0 94:1.0 97:1.0 103:1.0 107:1.0 111:1.0 116:1.0 119:1.0 131:1.0 227:1.0 290:1.0 352:1.0 407:1.0 497:1.0 539:1.0 579:1.0 676:1.0 743:1.0 817:1.0 859:1.0 899:1.0 995:1.0 1058:1.0 1117:1.0 1163:1.0 1219:1.0 1314:1.0 1376:1.0 1430:1.0 1518:1.0 1550:1.0 1614:1.0 1677:1.0 1739:1.0 1795:1.0 1891:1.0 1956:1.0 2023:1.0 
-0.002790178571428572 3:1.0 5:1.0 12:1.0 15:1.0 17:1.0 22:1.0 27:1.0 32:1.0 33:1.0 39:1.0 44:1.0 46:1.0 50:1.0 55:1.0 59:1.0 62:1.0 66:1.0 71:1.0 75:1.0 77:1.0 84:1.0 88:1.0 92:1.0 95:1.0 97:1.0 103:1.0 105:1.0 109:1.0 113:1.0 119:1.0 156:1.0 199:1.0 305:1.0 346:1.0 383:1.0 468:1.0 549:1.0 619:1.0 644:1.0 742:1.0 814:1.0 847:1.0 915:1.0 995:1.0 1058:1.0 1118:1.0 1166:1.0 1231:1.0 1299:1.0 1377:1.0 1436:1.0 1480:1.0 1592:1.0 1655:1.0 1713:1.0 1755:1.0 1793:1.0 1881:1.0 1913:1.0 1979:1.0 
-0.0024213014188145562 3:1.0 5:1.0 12:1.0 15:1.0 17:1.0 22:1.0 27:1.0 32:1.0 33:1.0 39:1.0 44:1.0 47:1.0 50:1.0 54:1.0 58:1.0 64:1.0 68:1.0 69:1.0 73:1.0 77:1.0 84:1.0 88:1.0 92:1.0 95:1.0 97:1.0 103:1.0 105:1.0 109:1.0 113:1.0 119:1.0 156:1.0 199:1.0 305:1.0 346:1.0 383:1.0 468:1.0 549:1.0 619:1.0 644:1.0 743:1.0 818:1.0 862:1.0 910:1.0 975:1.0 1042:1.0 1120:1.0 1176:1.0 1269:1.0 1321:1.0 1337:1.0 1404:1.0 1480:1.0 1592:1.0 1655:1.0 1713:1.0 1755:1.0 1793:1.0 1881:1.0 1913:1.0 1979:1.0 
0.002790178571428572 3:1.0 5:1.0 12:1.0 15:1.0 17:1.0 22:1.0 27:1.0 32:1.0 33:1.0 39:1.0 42:1.0 48:1.0 52:1.0 53:1.0 59:1.0 62:1.0 68:1.0 69:1.0 73:1.0 79:1.0 84:1.0 88:1.0 92:1.0 95:1.0 97:1.0 103:1.0 105:1.0 109:1.0 113:1.0 119:1.0 156:1.0 199:1.0 305:1.0 346:1.0 383:1.0 468:1.0 549:1.0 619:1.0 642:1.0 736:1.0 792:1.0 885:1.0 939:1.0 963:1.0 1058:1.0 1118:1.0 1168:1.0 1237:1.0 1321:1.0 1339:1.0 1412:1.0 1512:1.0 1592:1.0 1655:1.0 1713:1.0 1755:1.0 1793:1.0 1881:1.0 1913:1.0 1979:1.0 
0.0019958056596027975 3:1.0 5:1.0 11:1.0 15:1.0 19:1.0 21:1.0 27:1.0 31:1.0 35:1.0 37:1.0 43:1.0 47:1.0 51:1.0 55:1.0 57:1.0 62:1.0 68:1.0 70:1.0 74:1.0 80:1.0 82:1.0 87:1.0 91:1.0 94:1.0 100:1.0 101:1.0 108:1.0 112:1.0 116:1.0 117:1.0 155:1.0 195:1.0 291:1.0 353:1.0 411:1.0 451:1.0 547:1.0 609:1.0 667:1.0 707:1.0 803:1.0 867:1.0 929:1.0 987:1.0 1026:1.0 1118:1.0 1168:1.0 1238:1.0 1326:1.0 1360:1.0 1430:1.0 1519:1.0 1555:1.0 1634:1.0 1696:1.0 1749:1.0 1836:1.0 1864:1.0 1976:1.0 2037:1.0 
9.40390513472161E-5 2:1.0 6:1.0 10:1.0 13:1.0 18:1.0 22:1.0 27:1.0 29:1.0 33:1.0 37:1.0 42:1.0 47:1.0 51:1.0 54:1.0 59:1.0 63:1.0 65:1.0 71:1.0 73:1.0 77:1.0 81:1.0 88:1.0 89:1.0 93:1.0 97:1.0 103:1.0 105:1.0 112:1.0 114:1.0 117:1.0 142:1.0 205:1.0 266:1.0 318:1.0 399:1.0 465:1.0 537:1.0 569:1.0 634:1.0 703:1.0 787:1.0 866:1.0 927:1.0 979:1.0 1058:1.0 1119:1.0 1169:1.0 1243:1.0 1281:1.0 1369:1.0 1401:1.0 1468:1.0 1541:1.0 1641:1.0 1657:1.0 1723:1.0 1793:1.0 1884:1.0 1926:1.0 2029:1.0 
6.042968430566436E-4 4:1.0 8:1.0 12:1.0 14:1.0 17:1.0 22:1.0 26:1.0 32:1.0 34:1.0 37:1.0 42:1.0 46:1.0 49:1.0 55:1.0 59:1.0 63:1.0 65:1.0 71:1.0 73:1.0 77:1.0 84:1.0 86:1.0 92:1.0 96:1.0 99:1.0 103:1.0 105:1.0 109:1.0 113:1.0 118:1.0 184:1.0 246:1.0 301:1.0 330:1.0 382:1.0 464:1.0 534:1.0 621:1.0 650:1.0 702:1.0 781:1.0 843:1.0 899:1.0 995:1.0 1058:1.0 1119:1.0 1169:1.0 1243:1.0 1281:1.0 1369:1.0 1404:1.0 1478:1.0 1584:1.0 1624:1.0 1719:1.0 1779:1.0 1825:1.0 1881:1.0 1913:1.0 1978:1.0 
-9.492859877986938E-4 4:1.0 6:1.0 10:1.0 16:1.0 20:1.0 23:1.0 27:1.0 30:1.0 36:1.0 38:1.0 44:1.0 48:1.0 50:1.0 56:1.0 59:1.0 62:1.0 65:1.0 69:1.0 73:1.0 77:1.0 84:1.0 87:1.0 92:1.0 94:1.0 99:1.0 104:1.0 108:1.0 110:1.0 115:1.0 120:1.0 174:1.0 208:1.0 280:1.0 375:1.0 435:1.0 482:1.0 544:1.0 598:1.0 688:1.0 728:1.0 822:1.0 880:1.0 919:1.0 1011:1.0 1058:1.0 1118:1.0 1165:1.0 1225:1.0 1273:1.0 1337:1.0 1404:1.0 1479:1.0 1588:1.0 1638:1.0 1711:1.0 1748:1.0 1832:1.0 1910:1.0 1967:1.0 2004:1.0 
-0.002790178571428572 3:1.0 5:1.0 12:1.0 15:1.0 17:1.0 22:1.0 27:1.0 32:1.0 33:1.0 39:1.0 41:1.0 46:1.0 51:1.0 53:1.0 58:1.0 64:1.0 68:1.0 70:1.0 75:1.0 80:1.0 84:1.0 88:1.0 92:1.0 95:1.0 97:1.0 103:1.0 105:1.0 109:1.0 113:1.0 119:1.0 156:1.0 199:1.0 305:1.0 346:1.0 383:1.0 468:1.0 549:1.0 619:1.0 641:1.0 730:1.0 767:1.0 849:1.0 922:1.0 959:1.0 1042:1.0 1120:1.0 1176:1.0 1270:1.0 1327:1.0 1364:1.0 1448:1.0 1528:1.0 1592:1.0 1655:1.0 1713:1.0 1755:1.0 1793:1.0 1881:1.0 1913:1.0 1979:1.0 
0.0018771539558983094 1:1.0 8:1.0 11:1.0 16:1.0 19:1.0 23:1.0 25:1.0 29:1.0 35:1.0 39:1.0 44:1.0 47:1.0 51:1.0 54:1.0 59:1.0 63:1.0 66:1.0 71:1.0 73:1.0 79:1.0 82:1.0 88:1.0 91:1.0 93:1.0 98:1.0 101:1.0 107:1.0 111:1.0 114:1.0 119:1.0 135:1.0 244:1.0 295:1.0 371:1.0 417:1.0 473:1.0 507:1.0 579:1.0 676:1.0 743:1.0 819:1.0 866:1.0 927:1.0 979:1.0 1058:1.0 1119:1.0 1170:1.0 1247:1.0 1297:1.0 1371:1.0 1410:1.0 1504:1.0 1559:1.0 1649:1.0 1690:1.0 1725:1.0 1803:1.0 1859:1.0 1954:1.0 2015:1.0 
-0.0011851441431866396 2:1.0 7:1.0 11:1.0 14:1.0 18:1.0 22:1.0 26:1.0 32:1.0 36:1.0 40:1.0 41:1.0 45:1.0 51:1.0 54:1.0 59:1.0 62:1.0 66:1.0 70:1.0 76:1.0 80:1.0 84:1.0 88:1.0 90:1.0 94:1.0 98:1.0 102:1.0 106:1.0 110:1.0 113:1.0 120:1.0 147:1.0 226:1.0 286:1.0 334:1.0 398:1.0 464:1.0 536:1.0 632:1.0 693:1.0 745:1.0 763:1.0 834:1.0 927:1.0 979:1.0 1058:1.0 1118:1.0 1166:1.0 1230:1.0 1296:1.0 1368:1.0 1464:1.0 1528:1.0 1590:1.0 1646:1.0 1678:1.0 1742:1.0 1806:1.0 1870:1.0 1933:1.0 1996:1.0 
0.001436171968881793 3:1.0 6:1.0 11:1.0 16:1.0 18:1.0 21:1.0 27:1.0 32:1.0 33:1.0 38:1.0 44:1.0 48:1.0 49:1.0 56:1.0 59:1.0 62:1.0 68:1.0 71:1.0 74:1.0 78:1.0 83:1.0 87:1.0 91:1.0 96:1.0 100:1.0 103:1.0 108:1.0 111:1.0 115:1.0 120:1.0 159:1.0 212:1.0 294:1.0 365:1.0 395:1.0 452:1.0 549:1.0 618:1.0 640:1.0 728:1.0 821:1.0 876:1.0 903:1.0 1011:1.0 1058:1.0 1118:1.0 1168:1.0 1239:1.0 1330:1.0 1374:1.0 1423:1.0 1491:1.0 1571:1.0 1636:1.0 1704:1.0 1783:1.0 1844:1.0 1895:1.0 1971:1.0 2020:1.0 
0.002790178571428572 2:1.0 6:1.0 10:1.0 16:1.0 18:1.0 23:1.0 27:1.0 31:1.0 34:1.0 40:1.0 42:1.0 48:1.0 50:1.0 56:1.0 58:1.0 62:1.0 65:1.0 70:1.0 76:1.0 78:1.0 84:1.0 86:1.0 90:1.0 94:1.0 98:1.0 101:1.0 106:1.0 110:1.0 114:1.0 118:1.0 142:1.0 208:1.0 278:1.0 367:1.0 403:1.0 483:1.0 546:1.0 608:1.0 662:1.0 752:1.0 790:1.0 880:1.0 918:1.0 1007:1.0 1042:1.0 1118:1.0 1165:1.0 1226:1.0 1280:1.0 1366:1.0 1456:1.0 1494:1.0 1582:1.0 1614:1.0 1678:1.0 1741:1.0 1802:1.0 1854:1.0 1934:1.0 1998:1.0 
-0.002665712101260485 1:1.0 7:1.0 10:1.0 16:1.0 18:1.0 22:1.0 26:1.0 30:1.0 33:1.0 40:1.0 44:1.0 46:1.0 50:1.0 54:1.0 57:1.0 62:1.0 65:1.0 69:1.0 74:1.0 79:1.0 83:1.0 86:1.0 89:1.0 95:1.0 99:1.0 104:1.0 108:1.0 112:1.0 115:1.0 118:1.0 130:1.0 224:1.0 278:1.0 366:1.0 398:1.0 462:1.0 525:1.0 588:1.0 648:1.0 758:1.0 814:1.0 846:1.0 909:1.0 971:1.0 1026:1.0 1118:1.0 1165:1.0 1225:1.0 1274:1.0 1343:1.0 1427:1.0 1506:1.0 1565:1.0 1611:1.0 1667:1.0 1764:1.0 1832:1.0 1912:1.0 1975:1.0 2034:1.0 
-0.002790178571428572 2:1.0 6:1.0 10:1.0 14:1.0 18:1.0 24:1.0 25:1.0 30:1.0 36:1.0 38:1.0 42:1.0 45:1.0 50:1.0 54:1.0 59:1.0 63:1.0 67:1.0 71:1.0 75:1.0 77:1.0 83:1.0 87:1.0 89:1.0 95:1.0 98:1.0 103:1.0 108:1.0 111:1.0 116:1.0 119:1.0 142:1.0 206:1.0 270:1.0 336:1.0 405:1.0 490:1.0 512:1.0 598:1.0 686:1.0 717:1.0 778:1.0 830:1.0 911:1.0 979:1.0 1058:1.0 1119:1.0 1171:1.0 1251:1.0 1315:1.0 1377:1.0 1435:1.0 1475:1.0 1569:1.0 1627:1.0 1666:1.0 1759:1.0 1812:1.0 1895:1.0 1972:1.0 2023:1.0 
0.0019213787918315988 3:1.0 7:1.0 12:1.0 16:1.0 18:1.0 22:1.0 27:1.0 30:1.0 36:1.0 40:1.0 42:1.0 47:1.0 50:1.0 56:1.0 59:1.0 62:1.0 66:1.0 71:1.0 74:1.0 78:1.0 83:1.0 87:1.0 91:1.0 94:1.0 100:1.0 102:1.0 108:1.0 112:1.0 114:1.0 118:1.0 164:1.0 232:1.0 310:1.0 366:1.0 399:1.0 466:1.0 544:1.0 600:1.0 694:1.0 751:1.0 786:1.0 864:1.0 919:1.0 1011:1.0 1058:1.0 1118:1.0 1166:1.0 1231:1.0 1298:1.0 1374:1.0 1423:1.0 1491:1.0 1571:1.0 1634:1.0 1696:1.0 1750:1.0 1840:1.0 1880:1.0 1974:1.0 2030:1.0 
0.001393549922579611 2:1.0 7:1.0 10:1.0 16:1.0 18:1.0 22:1.0 26:1.0 29:1.0 33:1.0 37:1.0 42:1.0 45:1.0 49:1.0 55:1.0 59:1.0 62:1.0 66:1.0 71:1.0 74:1.0 79:1.0 84:1.0 88:1.0 90:1.0 93:1.0 98:1.0 103:1.0 108:1.0 110:1.0 113:1.0 118:1.0 146:1.0 224:1.0 278:1.0 366:1.0 398:1.0 461:1.0 521:1.0 569:1.0 634:1.0 701:1.0 777:1.0 827:1.0 899:1.0 995:1.0 1058:1.0 1118:1.0 1166:1.0 1231:1.0 1298:1.0 1375:1.0 1428:1.0 1512:1.0 1590:1.0 1645:1.0 1674:1.0 1727:1.0 1812:1.0 1894:1.0 1965:1.0 1994:1.0 
0.0019413632140234903 4:1.0 6:1.0 12:1.0 14:1.0 17:1.0 22:1.0 27:1.0 32:1.0 35:1.0 37:1.0 42:1.0 47:1.0 51:1.0 53:1.0 59:1.0 62:1.0 68:1.0 71:1.0 74:1.0 77:1.0 82:1.0 87:1.0 92:1.0 95:1.0 99:1.0 101:1.0 106:1.0 110:1.0 113:1.0 117:1.0 176:1.0 214:1.0 301:1.0 330:1.0 383:1.0 468:1.0 551:1.0 625:1.0 666:1.0 703:1.0 787:1.0 865:1.0 923:1.0 963:1.0 1058:1.0 1118:1.0 1168:1.0 1239:1.0 1330:1.0 1373:1.0 1418:1.0 1471:1.0 1556:1.0 1639:1.0 1715:1.0 1761:1.0 1818:1.0 1854:1.0 1933:1.0 1993:1.0 
-0.002790178571428572 3:1.0 5:1.0 12:1.0 15:1.0 17:1.0 22:1.0 27:1.0 32:1.0 33:1.0 39:1.0 41:1.0 46:1.0 52:1.0 56:1.0 57:1.0 64:1.0 65:1.0 69:1.0 75:1.0 80:1.0 84:1.0 88:1.0 92:1.0 95:1.0 97:1.0 103:1.0 105:1.0 109:1.0 113:1.0 119:1.0 156:1.0 199:1.0 305:1.0 346:1.0 383:1.0 468:1.0 549:1.0 619:1.0 641:1.0 730:1.0 768:1.0 856:1.0 949:1.0 1003:1.0 1026:1.0 1120:1.0 1173:1.0 1257:1.0 1275:1.0 1348:1.0 1448:1.0 1528:1.0 1592:1.0 1655:1.0 1713:1.0 1755:1.0 1793:1.0 1881:1.0 1913:1.0 1979:1.0 
-0.002790178571428572 2:1.0 8:1.0 11:1.0 15:1.0 18:1.0 22:1.0 26:1.0 32:1.0 36:1.0 40:1.0 43:1.0 47:1.0 51:1.0 56:1.0 58:1.0 63:1.0 68:1.0 70:1.0 76:1.0 80:1.0 82:1.0 87:1.0 89:1.0 94:1.0 98:1.0 104:1.0 108:1.0 110:1.0 113:1.0 118:1.0 151:1.0 243:1.0 290:1.0 350:1.0 398:1.0 464:1.0 536:1.0 632:1.0 695:1.0 755:1.0 803:1.0 868:1.0 934:1.0 1007:1.0 1042:1.0 1119:1.0 1172:1.0 1254:1.0 1328:1.0 1368:1.0 1462:1.0 1519:1.0 1553:1.0 1626:1.0 1662:1.0 1744:1.0 1816:1.0 1910:1.0 1965:1.0 1994:1.0 
-0.0022092070112404044 3:1.0 7:1.0 10:1.0 14:1.0 18:1.0 22:1.0 28:1.0 30:1.0 34:1.0 37:1.0 41:1.0 45:1.0 49:1.0 56:1.0 59:1.0 62:1.0 68:1.0 72:1.0 76:1.0 77:1.0 84:1.0 86:1.0 89:1.0 95:1.0 98:1.0 104:1.0 106:1.0 111:1.0 115:1.0 118:1.0 162:1.0 222:1.0 270:1.0 334:1.0 400:1.0 470:1.0 558:1.0 589:1.0 649:1.0 697:1.0 761:1.0 828:1.0 903:1.0 1011:1.0 1058:1.0 1118:1.0 1168:1.0 1240:1.0 1336:1.0 1397:1.0 1452:1.0 1478:1.0 1581:1.0 1611:1.0 1666:1.0 1760:1.0 1814:1.0 1903:1.0 1939:1.0 2018:1.0 
6.240599226520037E-4 2:1.0 6:1.0 9:1.0 13:1.0 19:1.0 23:1.0 28:1.0 31:1.0 33:1.0 40:1.0 41:1.0 45:1.0 52:1.0 53:1.0 59:1.0 62:1.0 66:1.0 70:1.0 76:1.0 80:1.0 84:1.0 85:1.0 90:1.0 95:1.0 98:1.0 101:1.0 107:1.0 109:1.0 115:1.0 120:1.0 141:1.0 201:1.0 251:1.0 323:1.0 420:1.0 487:1.0 561:1.0 604:1.0 645:1.0 745:1.0 764:1.0 837:1.0 939:1.0 963:1.0 1058:1.0 1118:1.0 1166:1.0 1230:1.0 1296:1.0 1368:1.0 1464:1.0 1525:1.0 1578:1.0 1599:1.0 1682:1.0 1757:1.0 1803:1.0 1857:1.0 1947:1.0 1988:1.0 
-0.0011071263886402861 1:1.0 6:1.0 10:1.0 14:1.0 18:1.0 21:1.0 27:1.0 31:1.0 35:1.0 39:1.0 42:1.0 47:1.0 51:1.0 53:1.0 59:1.0 63:1.0 67:1.0 69:1.0 74:1.0 79:1.0 84:1.0 86:1.0 90:1.0 96:1.0 99:1.0 102:1.0 106:1.0 111:1.0 115:1.0 119:1.0 126:1.0 206:1.0 270:1.0 333:1.0 395:1.0 451:1.0 547:1.0 611:1.0 674:1.0 735:1.0 787:1.0 865:1.0 923:1.0 963:1.0 1058:1.0 1119:1.0 1171:1.0 1249:1.0 1306:1.0 1343:1.0 1428:1.0 1510:1.0 1582:1.0 1616:1.0 1687:1.0 1778:1.0 1822:1.0 1871:1.0 1939:1.0 2019:1.0 
0.0017322897133927708 1:1.0 7:1.0 11:1.0 15:1.0 17:1.0 22:1.0 25:1.0 32:1.0 34:1.0 38:1.0 43:1.0 46:1.0 50:1.0 56:1.0 59:1.0 62:1.0 66:1.0 69:1.0 75:1.0 78:1.0 81:1.0 87:1.0 90:1.0 94:1.0 99:1.0 101:1.0 106:1.0 109:1.0 115:1.0 118:1.0 131:1.0 227:1.0 289:1.0 346:1.0 381:1.0 460:1.0 518:1.0 622:1.0 655:1.0 722:1.0 798:1.0 848:1.0 919:1.0 1011:1.0 1058:1.0 1118:1.0 1166:1.0 1229:1.0 1291:1.0 1346:1.0 1437:1.0 1483:1.0 1538:1.0 1630:1.0 1679:1.0 1745:1.0 1818:1.0 1853:1.0 1931:1.0 1986:1.0 
0.0011697983526308274 3:1.0 6:1.0 10:1.0 14:1.0 19:1.0 23:1.0 27:1.0 29:1.0 35:1.0 39:1.0 41:1.0 47:1.0 50:1.0 56:1.0 59:1.0 62:1.0 66:1.0 71:1.0 75:1.0 78:1.0 84:1.0 87:1.0 91:1.0 93:1.0 98:1.0 103:1.0 107:1.0 109:1.0 115:1.0 118:1.0 158:1.0 206:1.0 271:1.0 339:1.0 419:1.0 481:1.0 539:1.0 579:1.0 673:1.0 731:1.0 770:1.0 864:1.0 919:1.0 1011:1.0 1058:1.0 1118:1.0 1166:1.0 1231:1.0 1299:1.0 1378:1.0 1440:1.0 1495:1.0 1587:1.0 1633:1.0 1690:1.0 1727:1.0 1811:1.0 1889:1.0 1947:1.0 1986:1.0 
0.002790178571428572 3:1.0 7:1.0 12:1.0 14:1.0 18:1.0 22:1.0 27:1.0 31:1.0 35:1.0 39:1.0 41:1.0 46:1.0 51:1.0 56:1.0 59:1.0 64:1.0 68:1.0 72:1.0 74:1.0 78:1.0 81:1.0 87:1.0 90:1.0 94:1.0 97:1.0 101:1.0 108:1.0 110:1.0 114:1.0 118:1.0 164:1.0 230:1.0 302:1.0 334:1.0 399:1.0 467:1.0 547:1.0 611:1.0 673:1.0 730:1.0 767:1.0 852:1.0 935:1.0 1011:1.0 1058:1.0 1120:1.0 1176:1.0 1272:1.0 1334:1.0 1390:1.0 1421:1.0 1483:1.0 1538:1.0 1630:1.0 1677:1.0 1737:1.0 1788:1.0 1862:1.0 1966:1.0 1998:1.0 
0.001698092818743942 1:1.0 5:1.0 10:1.0 15:1.0 19:1.0 22:1.0 26:1.0 30:1.0 34:1.0 38:1.0 41:1.0 48:1.0 50:1.0 55:1.0 57:1.0 62:1.0 65:1.0 69:1.0 75:1.0 80:1.0 84:1.0 86:1.0 89:1.0 95:1.0 98:1.0 104:1.0 108:1.0 110:1.0 115:1.0 118:1.0 122:1.0 191:1.0 275:1.0 354:1.0 414:1.0 462:1.0 526:1.0 590:1.0 653:1.0 716:1.0 774:1.0 879:1.0 913:1.0 987:1.0 1026:1.0 1118:1.0 1165:1.0 1225:1.0 1275:1.0 1348:1.0 1448:1.0 1526:1.0 1581:1.0 1611:1.0 1666:1.0 1760:1.0 1816:1.0 1910:1.0 1967:1.0 2002:1.0 
0.002121015728487836 1:1.0 5:1.0 11:1.0 15:1.0 19:1.0 23:1.0 26:1.0 31:1.0 36:1.0 39:1.0 44:1.0 46:1.0 51:1.0 54:1.0 57:1.0 62:1.0 66:1.0 69:1.0 73:1.0 77:1.0 83:1.0 85:1.0 92:1.0 95:1.0 97:1.0 102:1.0 107:1.0 112:1.0 115:1.0 120:1.0 123:1.0 195:1.0 291:1.0 355:1.0 418:1.0 479:1.0 532:1.0 615:1.0 692:1.0 742:1.0 815:1.0 850:1.0 925:1.0 971:1.0 1026:1.0 1118:1.0 1166:1.0 1229:1.0 1289:1.0 1337:1.0 1403:1.0 1473:1.0 1564:1.0 1607:1.0 1713:1.0 1754:1.0 1791:1.0 1876:1.0 1959:1.0 2036:1.0 
0.002216924611138921 2:1.0 8:1.0 11:1.0 14:1.0 18:1.0 23:1.0 26:1.0 32:1.0 35:1.0 39:1.0 43:1.0 45:1.0 49:1.0 55:1.0 57:1.0 63:1.0 66:1.0 72:1.0 74:1.0 78:1.0 82:1.0 86:1.0 89:1.0 95:1.0 99:1.0 103:1.0 106:1.0 110:1.0 114:1.0 118:1.0 151:1.0 242:1.0 286:1.0 335:1.0 402:1.0 480:1.0 535:1.0 627:1.0 675:1.0 737:1.0 793:1.0 827:1.0 897:1.0 987:1.0 1026:1.0 1119:1.0 1170:1.0 1248:1.0 1302:1.0 1390:1.0 1422:1.0 1486:1.0 1549:1.0 1611:1.0 1667:1.0 1763:1.0 1826:1.0 1886:1.0 1934:1.0 1998:1.0 
0.0025050744129787735 2:1.0 5:1.0 11:1.0 15:1.0 19:1.0 23:1.0 26:1.0 31:1.0 33:1.0 37:1.0 42:1.0 47:1.0 52:1.0 55:1.0 59:1.0 62:1.0 68:1.0 70:1.0 75:1.0 80:1.0 83:1.0 86:1.0 90:1.0 94:1.0 100:1.0 103:1.0 105:1.0 112:1.0 116:1.0 119:1.0 139:1.0 195:1.0 291:1.0 355:1.0 418:1.0 479:1.0 529:1.0 601:1.0 634:1.0 703:1.0 788:1.0 871:1.0 947:1.0 995:1.0 1058:1.0 1118:1.0 1168:1.0 1238:1.0 1327:1.0 1364:1.0 1447:1.0 1522:1.0 1566:1.0 1614:1.0 1680:1.0 1751:1.0 1841:1.0 1884:1.0 1928:1.0 2039:1.0 
0.002790178571428572 2:1.0 6:1.0 10:1.0 16:1.0 18:1.0 22:1.0 26:1.0 30:1.0 34:1.0 39:1.0 41:1.0 46:1.0 52:1.0 54:1.0 59:1.0 62:1.0 67:1.0 70:1.0 74:1.0 78:1.0 82:1.0 88:1.0 89:1.0 94:1.0 98:1.0 102:1.0 106:1.0 109:1.0 113:1.0 117:1.0 142:1.0 208:1.0 278:1.0 366:1.0 398:1.0 462:1.0 526:1.0 591:1.0 657:1.0 730:1.0 768:1.0 854:1.0 943:1.0 979:1.0 1058:1.0 1118:1.0 1167:1.0 1234:1.0 1310:1.0 1358:1.0 1422:1.0 1488:1.0 1557:1.0 1642:1.0 1662:1.0 1742:1.0 1806:1.0 1869:1.0 1929:1.0 1977:1.0 
-0.002790178571428572 3:1.0 5:1.0 12:1.0 15:1.0 17:1.0 22:1.0 27:1.0 32:1.0 33:1.0 39:1.0 41:1.0 45:1.0 49:1.0 53:1.0 59:1.0 62:1.0 68:1.0 72:1.0 76:1.0 80:1.0 84:1.0 88:1.0 92:1.0 95:1.0 97:1.0 103:1.0 105:1.0 109:1.0 113:1.0 119:1.0 156:1.0 199:1.0 305:1.0 346:1.0 383:1.0 468:1.0 549:1.0 619:1.0 641:1.0 729:1.0 761:1.0 825:1.0 891:1.0 963:1.0 1058:1.0 1118:1.0 1168:1.0 1240:1.0 1336:1.0 1400:1.0 1464:1.0 1528:1.0 1592:1.0 1655:1.0 1713:1.0 1755:1.0 1793:1.0 1881:1.0 1913:1.0 1979:1.0 
0.002790178571428572 3:1.0 5:1.0 12:1.0 15:1.0 17:1.0 22:1.0 27:1.0 32:1.0 33:1.0 39:1.0 43:1.0 45:1.0 49:1.0 54:1.0 58:1.0 63:1.0 67:1.0 72:1.0 76:1.0 78:1.0 84:1.0 88:1.0 92:1.0 95:1.0 97:1.0 103:1.0 105:1.0 109:1.0 113:1.0 119:1.0 156:1.0 199:1.0 305:1.0 346:1.0 383:1.0 468:1.0 549:1.0 619:1.0 643:1.0 737:1.0 793:1.0 826:1.0 894:1.0 975:1.0 1042:1.0 1119:1.0 1171:1.0 1252:1.0 1320:1.0 1398:1.0 1456:1.0 1496:1.0 1592:1.0 1655:1.0 1713:1.0 1755:1.0 1793:1.0 1881:1.0 1913:1.0 1979:1.0 
0.002790178571428572 3:1.0 5:1.0 12:1.0 15:1.0 17:1.0 22:1.0 27:1.0 32:1.0 33:1.0 39:1.0 41:1.0 45:1.0 49:1.0 56:1.0 60:1.0 61:1.0 65:1.0 72:1.0 76:1.0 80:1.0 84:1.0 88:1.0 92:1.0 95:1.0 97:1.0 103:1.0 105:1.0 109:1.0 113:1.0 119:1.0 156:1.0 199:1.0 305:1.0 346:1.0 383:1.0 468:1.0 549:1.0 619:1.0 641:1.0 729:1.0 761:1.0 828:1.0 904:1.0 1015:1.0 1074:1.0 1117:1.0 1161:1.0 1212:1.0 1288:1.0 1400:1.0 1464:1.0 1528:1.0 1592:1.0 1655:1.0 1713:1.0 1755:1.0 1793:1.0 1881:1.0 1913:1.0 1979:1.0 
0.0017891225547315022 2:1.0 8:1.0 11:1.0 14:1.0 17:1.0 23:1.0 26:1.0 32:1.0 36:1.0 40:1.0 42:1.0 46:1.0 52:1.0 55:1.0 59:1.0 62:1.0 67:1.0 72:1.0 74:1.0 79:1.0 82:1.0 88:1.0 90:1.0 96:1.0 100:1.0 101:1.0 106:1.0 112:1.0 114:1.0 119:1.0 151:1.0 242:1.0 285:1.0 331:1.0 386:1.0 480:1.0 536:1.0 632:1.0 694:1.0 750:1.0 784:1.0 855:1.0 947:1.0 995:1.0 1058:1.0 1118:1.0 1167:1.0 1236:1.0 1318:1.0 1391:1.0 1426:1.0 1504:1.0 1558:1.0 1648:1.0 1688:1.0 1781:1.0 1834:1.0 1856:1.0 1942:1.0 2031:1.0 
-4.068545135211337E-4 4:1.0 6:1.0 12:1.0 13:1.0 18:1.0 23:1.0 27:1.0 32:1.0 35:1.0 39:1.0 43:1.0 45:1.0 49:1.0 53:1.0 60:1.0 62:1.0 66:1.0 69:1.0 73:1.0 79:1.0 84:1.0 88:1.0 92:1.0 94:1.0 97:1.0 101:1.0 106:1.0 110:1.0 116:1.0 118:1.0 176:1.0 213:1.0 298:1.0 319:1.0 403:1.0 484:1.0 551:1.0 627:1.0 675:1.0 737:1.0 793:1.0 825:1.0 892:1.0 967:1.0 1074:1.0 1118:1.0 1166:1.0 1229:1.0 1289:1.0 1339:1.0 1412:1.0 1512:1.0 1592:1.0 1654:1.0 1709:1.0 1737:1.0 1786:1.0 1854:1.0 1936:1.0 2006:1.0 
-0.002790178571428572 3:1.0 5:1.0 11:1.0 13:1.0 20:1.0 23:1.0 28:1.0 31:1.0 34:1.0 40:1.0 43:1.0 46:1.0 50:1.0 55:1.0 59:1.0 63:1.0 66:1.0 70:1.0 74:1.0 78:1.0 83:1.0 85:1.0 91:1.0 95:1.0 98:1.0 102:1.0 108:1.0 109:1.0 114:1.0 118:1.0 155:1.0 193:1.0 284:1.0 327:1.0 436:1.0 487:1.0 562:1.0 608:1.0 663:1.0 754:1.0 798:1.0 847:1.0 915:1.0 995:1.0 1058:1.0 1119:1.0 1170:1.0 1246:1.0 1294:1.0 1358:1.0 1423:1.0 1489:1.0 1563:1.0 1603:1.0 1698:1.0 1758:1.0 1808:1.0 1877:1.0 1962:1.0 1982:1.0 
8.412559795253044E-4 2:1.0 6:1.0 11:1.0 13:1.0 19:1.0 23:1.0 25:1.0 31:1.0 33:1.0 39:1.0 41:1.0 46:1.0 50:1.0 56:1.0 59:1.0 62:1.0 67:1.0 70:1.0 75:1.0 78:1.0 81:1.0 87:1.0 89:1.0 93:1.0 100:1.0 103:1.0 105:1.0 112:1.0 115:1.0 117:1.0 143:1.0 209:1.0 283:1.0 323:1.0 417:1.0 475:1.0 513:1.0 603:1.0 641:1.0 730:1.0 766:1.0 848:1.0 919:1.0 1011:1.0 1058:1.0 1118:1.0 1167:1.0 1234:1.0 1311:1.0 1362:1.0 1437:1.0 1483:1.0 1537:1.0 1625:1.0 1660:1.0 1735:1.0 1841:1.0 1884:1.0 1927:1.0 2033:1.0 
-0.002790178571428572 2:1.0 7:1.0 10:1.0 13:1.0 19:1.0 23:1.0 25:1.0 31:1.0 35:1.0 38:1.0 42:1.0 47:1.0 51:1.0 54:1.0 58:1.0 62:1.0 66:1.0 71:1.0 74:1.0 77:1.0 82:1.0 85:1.0 90:1.0 94:1.0 98:1.0 101:1.0 107:1.0 110:1.0 113:1.0 120:1.0 146:1.0 221:1.0 267:1.0 323:1.0 417:1.0 475:1.0 515:1.0 610:1.0 670:1.0 719:1.0 787:1.0 866:1.0 926:1.0 975:1.0 1042:1.0 1118:1.0 1166:1.0 1231:1.0 1298:1.0 1373:1.0 1418:1.0 1469:1.0 1546:1.0 1598:1.0 1678:1.0 1741:1.0 1803:1.0 1858:1.0 1949:1.0 1996:1.0 
-0.0014084102108823321 3:1.0 6:1.0 12:1.0 14:1.0 20:1.0 23:1.0 27:1.0 31:1.0 33:1.0 38:1.0 44:1.0 46:1.0 52:1.0 55:1.0 57:1.0 63:1.0 68:1.0 71:1.0 75:1.0 77:1.0 82:1.0 86:1.0 90:1.0 95:1.0 100:1.0 104:1.0 108:1.0 112:1.0 114:1.0 118:1.0 160:1.0 214:1.0 304:1.0 343:1.0 435:1.0 483:1.0 545:1.0 602:1.0 640:1.0 726:1.0 816:1.0 855:1.0 945:1.0 987:1.0 1026:1.0 1119:1.0 1172:1.0 1255:1.0 1331:1.0 1377:1.0 1434:1.0 1470:1.0 1550:1.0 1615:1.0 1684:1.0 1768:1.0 1848:1.0 1912:1.0 1974:1.0 2030:1.0 
-0.00108140594598788 4:1.0 5:1.0 12:1.0 14:1.0 19:1.0 23:1.0 28:1.0 32:1.0 33:1.0 39:1.0 44:1.0 47:1.0 50:1.0 56:1.0 59:1.0 63:1.0 67:1.0 71:1.0 73:1.0 79:1.0 82:1.0 85:1.0 89:1.0 96:1.0 97:1.0 103:1.0 106:1.0 111:1.0 113:1.0 119:1.0 172:1.0 198:1.0 303:1.0 339:1.0 420:1.0 488:1.0 565:1.0 619:1.0 644:1.0 743:1.0 818:1.0 864:1.0 919:1.0 1011:1.0 1058:1.0 1119:1.0 1171:1.0 1251:1.0 1313:1.0 1371:1.0 1410:1.0 1501:1.0 1545:1.0 1596:1.0 1669:1.0 1771:1.0 1794:1.0 1887:1.0 1937:1.0 2011:1.0 
4.3592770359130226E-4 3:1.0 5:1.0 11:1.0 14:1.0 18:1.0 24:1.0 26:1.0 31:1.0 35:1.0 38:1.0 42:1.0 48:1.0 50:1.0 53:1.0 60:1.0 62:1.0 68:1.0 70:1.0 75:1.0 79:1.0 82:1.0 86:1.0 90:1.0 94:1.0 99:1.0 102:1.0 105:1.0 112:1.0 114:1.0 120:1.0 155:1.0 194:1.0 286:1.0 336:1.0 406:1.0 495:1.0 531:1.0 610:1.0 670:1.0 720:1.0 790:1.0 877:1.0 908:1.0 967:1.0 1074:1.0 1118:1.0 1168:1.0 1238:1.0 1327:1.0 1363:1.0 1442:1.0 1502:1.0 1550:1.0 1614:1.0 1679:1.0 1746:1.0 1821:1.0 1868:1.0 1926:1.0 2032:1.0 
-3.638679570539724E-4 1:1.0 7:1.0 11:1.0 14:1.0 20:1.0 23:1.0 25:1.0 29:1.0 35:1.0 38:1.0 42:1.0 48:1.0 52:1.0 56:1.0 59:1.0 62:1.0 68:1.0 70:1.0 75:1.0 79:1.0 83:1.0 86:1.0 92:1.0 94:1.0 100:1.0 103:1.0 107:1.0 109:1.0 114:1.0 118:1.0 131:1.0 226:1.0 288:1.0 343:1.0 433:1.0 473:1.0 507:1.0 578:1.0 670:1.0 720:1.0 792:1.0 888:1.0 951:1.0 1011:1.0 1058:1.0 1118:1.0 1168:1.0 1238:1.0 1327:1.0 1363:1.0 1443:1.0 1506:1.0 1568:1.0 1622:1.0 1712:1.0 1751:1.0 1843:1.0 1889:1.0 1946:1.0 1982:1.0 
0.0015080980226326673 1:1.0 8:1.0 12:1.0 15:1.0 18:1.0 23:1.0 28:1.0 31:1.0 36:1.0 39:1.0 44:1.0 47:1.0 52:1.0 54:1.0 59:1.0 62:1.0 66:1.0 71:1.0 73:1.0 78:1.0 81:1.0 87:1.0 92:1.0 94:1.0 100:1.0 103:1.0 106:1.0 109:1.0 113:1.0 119:1.0 136:1.0 247:1.0 306:1.0 351:1.0 404:1.0 487:1.0 564:1.0 615:1.0 692:1.0 743:1.0 820:1.0 870:1.0 943:1.0 979:1.0 1058:1.0 1118:1.0 1166:1.0 1231:1.0 1297:1.0 1370:1.0 1405:1.0 1483:1.0 1540:1.0 1638:1.0 1712:1.0 1751:1.0 1842:1.0 1885:1.0 1929:1.0 1979:1.0 
0.002790178571428572 1:1.0 5:1.0 11:1.0 15:1.0 17:1.0 21:1.0 27:1.0 32:1.0 35:1.0 37:1.0 43:1.0 46:1.0 49:1.0 55:1.0 59:1.0 64:1.0 68:1.0 70:1.0 76:1.0 79:1.0 83:1.0 87:1.0 92:1.0 95:1.0 99:1.0 101:1.0 105:1.0 111:1.0 116:1.0 120:1.0 123:1.0 195:1.0 289:1.0 345:1.0 379:1.0 452:1.0 551:1.0 625:1.0 667:1.0 706:1.0 797:1.0 843:1.0 899:1.0 995:1.0 1058:1.0 1120:1.0 1176:1.0 1270:1.0 1328:1.0 1367:1.0 1459:1.0 1507:1.0 1572:1.0 1639:1.0 1715:1.0 1761:1.0 1817:1.0 1851:1.0 1924:1.0 2024:1.0 
0.0011731867401837779 2:1.0 7:1.0 12:1.0 15:1.0 19:1.0 21:1.0 27:1.0 31:1.0 33:1.0 39:1.0 43:1.0 48:1.0 51:1.0 56:1.0 59:1.0 62:1.0 68:1.0 70:1.0 76:1.0 78:1.0 81:1.0 85:1.0 90:1.0 93:1.0 100:1.0 102:1.0 108:1.0 109:1.0 116:1.0 120:1.0 148:1.0 231:1.0 307:1.0 353:1.0 411:1.0 451:1.0 545:1.0 603:1.0 643:1.0 740:1.0 807:1.0 884:1.0 935:1.0 1011:1.0 1058:1.0 1118:1.0 1168:1.0 1238:1.0 1328:1.0 1366:1.0 1453:1.0 1481:1.0 1530:1.0 1597:1.0 1676:1.0 1734:1.0 1840:1.0 1877:1.0 1964:1.0 1992:1.0 
-0.001855717156599627 3:1.0 6:1.0 11:1.0 13:1.0 19:1.0 21:1.0 25:1.0 31:1.0 35:1.0 37:1.0 41:1.0 47:1.0 50:1.0 54:1.0 59:1.0 62:1.0 68:1.0 70:1.0 73:1.0 78:1.0 83:1.0 86:1.0 92:1.0 94:1.0 97:1.0 103:1.0 106:1.0 112:1.0 115:1.0 120:1.0 159:1.0 209:1.0 283:1.0 321:1.0 409:1.0 443:1.0 515:1.0 609:1.0 665:1.0 699:1.0 770:1.0 862:1.0 911:1.0 979:1.0 1058:1.0 1118:1.0 1168:1.0 1238:1.0 1325:1.0 1354:1.0 1407:1.0 1490:1.0 1568:1.0 1622:1.0 1709:1.0 1739:1.0 1794:1.0 1888:1.0 1943:1.0 2036:1.0 
0.002790178571428572 2:1.0 7:1.0 10:1.0 13:1.0 19:1.0 23:1.0 27:1.0 30:1.0 35:1.0 37:1.0 43:1.0 47:1.0 49:1.0 55:1.0 59:1.0 61:1.0 67:1.0 71:1.0 75:1.0 78:1.0 83:1.0 85:1.0 91:1.0 95:1.0 98:1.0 101:1.0 107:1.0 111:1.0 115:1.0 118:1.0 146:1.0 221:1.0 267:1.0 323:1.0 419:1.0 482:1.0 543:1.0 593:1.0 667:1.0 707:1.0 801:1.0 859:1.0 899:1.0 995:1.0 1058:1.0 1117:1.0 1163:1.0 1219:1.0 1315:1.0 1378:1.0 1439:1.0 1489:1.0 1563:1.0 1603:1.0 1698:1.0 1757:1.0 1803:1.0 1859:1.0 1955:1.0 2018:1.0 
0.0010252046101257122 4:1.0 8:1.0 11:1.0 15:1.0 18:1.0 22:1.0 25:1.0 31:1.0 33:1.0 39:1.0 41:1.0 45:1.0 50:1.0 56:1.0 58:1.0 62:1.0 67:1.0 70:1.0 76:1.0 80:1.0 84:1.0 88:1.0 91:1.0 93:1.0 97:1.0 104:1.0 106:1.0 110:1.0 114:1.0 118:1.0 183:1.0 243:1.0 290:1.0 350:1.0 397:1.0 459:1.0 513:1.0 603:1.0 641:1.0 729:1.0 762:1.0 832:1.0 918:1.0 1007:1.0 1042:1.0 1118:1.0 1167:1.0 1234:1.0 1312:1.0 1368:1.0 1464:1.0 1528:1.0 1591:1.0 1649:1.0 1689:1.0 1724:1.0 1798:1.0 1902:1.0 1934:1.0 1998:1.0 
0.0019369985411129824 1:1.0 6:1.0 11:1.0 15:1.0 17:1.0 23:1.0 28:1.0 31:1.0 35:1.0 40:1.0 43:1.0 46:1.0 50:1.0 55:1.0 59:1.0 62:1.0 68:1.0 72:1.0 74:1.0 80:1.0 83:1.0 86:1.0 90:1.0 96:1.0 99:1.0 101:1.0 105:1.0 112:1.0 115:1.0 119:1.0 127:1.0 211:1.0 289:1.0 347:1.0 388:1.0 487:1.0 563:1.0 612:1.0 679:1.0 754:1.0 798:1.0 847:1.0 915:1.0 995:1.0 1058:1.0 1118:1.0 1168:1.0 1240:1.0 1334:1.0 1392:1.0 1431:1.0 1522:1.0 1566:1.0 1616:1.0 1687:1.0 1777:1.0 1817:1.0 1852:1.0 1927:1.0 2035:1.0 
-0.001426068835285102 1:1.0 6:1.0 9:1.0 13:1.0 18:1.0 22:1.0 26:1.0 29:1.0 35:1.0 39:1.0 42:1.0 46:1.0 52:1.0 53:1.0 59:1.0 62:1.0 66:1.0 70:1.0 75:1.0 78:1.0 83:1.0 85:1.0 90:1.0 94:1.0 100:1.0 103:1.0 105:1.0 111:1.0 115:1.0 118:1.0 125:1.0 201:1.0 250:1.0 318:1.0 398:1.0 461:1.0 523:1.0 579:1.0 674:1.0 734:1.0 784:1.0 853:1.0 939:1.0 963:1.0 1058:1.0 1118:1.0 1166:1.0 1230:1.0 1295:1.0 1362:1.0 1439:1.0 1489:1.0 1562:1.0 1598:1.0 1680:1.0 1751:1.0 1841:1.0 1883:1.0 1923:1.0 2018:1.0 
0.0020606778570014484 3:1.0 5:1.0 12:1.0 15:1.0 17:1.0 22:1.0 27:1.0 32:1.0 33:1.0 39:1.0 44:1.0 45:1.0 52:1.0 54:1.0 59:1.0 64:1.0 68:1.0 69:1.0 73:1.0 77:1.0 84:1.0 88:1.0 92:1.0 95:1.0 97:1.0 103:1.0 105:1.0 109:1.0 113:1.0 119:1.0 156:1.0 199:1.0 305:1.0 346:1.0 383:1.0 468:1.0 549:1.0 619:1.0 644:1.0 741:1.0 812:1.0 838:1.0 943:1.0 979:1.0 1058:1.0 1120:1.0 1176:1.0 1269:1.0 1321:1.0 1337:1.0 1404:1.0 1480:1.0 1592:1.0 1655:1.0 1713:1.0 1755:1.0 1793:1.0 1881:1.0 1913:1.0 1979:1.0 
-0.001963511525427269 4:1.0 7:1.0 11:1.0 15:1.0 18:1.0 23:1.0 28:1.0 30:1.0 36:1.0 39:1.0 44:1.0 48:1.0 50:1.0 54:1.0 59:1.0 62:1.0 67:1.0 71:1.0 73:1.0 78:1.0 82:1.0 86:1.0 90:1.0 96:1.0 97:1.0 104:1.0 108:1.0 112:1.0 115:1.0 118:1.0 179:1.0 227:1.0 290:1.0 351:1.0 404:1.0 486:1.0 560:1.0 599:1.0 692:1.0 744:1.0 822:1.0 878:1.0 911:1.0 979:1.0 1058:1.0 1118:1.0 1167:1.0 1235:1.0 1313:1.0 1370:1.0 1406:1.0 1486:1.0 1550:1.0 1616:1.0 1685:1.0 1772:1.0 1800:1.0 1912:1.0 1975:1.0 2034:1.0 
-0.001614029255262389 4:1.0 7:1.0 10:1.0 14:1.0 18:1.0 21:1.0 27:1.0 30:1.0 33:1.0 39:1.0 43:1.0 48:1.0 49:1.0 55:1.0 57:1.0 62:1.0 65:1.0 71:1.0 75:1.0 78:1.0 84:1.0 86:1.0 89:1.0 95:1.0 98:1.0 101:1.0 107:1.0 111:1.0 113:1.0 120:1.0 178:1.0 222:1.0 270:1.0 333:1.0 395:1.0 450:1.0 541:1.0 587:1.0 643:1.0 740:1.0 805:1.0 875:1.0 897:1.0 987:1.0 1026:1.0 1118:1.0 1165:1.0 1227:1.0 1283:1.0 1378:1.0 1440:1.0 1494:1.0 1581:1.0 1611:1.0 1666:1.0 1757:1.0 1803:1.0 1859:1.0 1953:1.0 2012:1.0 
0.002790178571428572 2:1.0 5:1.0 11:1.0 15:1.0 19:1.0 24:1.0 27:1.0 32:1.0 35:1.0 39:1.0 44:1.0 48:1.0 49:1.0 53:1.0 57:1.0 62:1.0 65:1.0 69:1.0 74:1.0 77:1.0 82:1.0 85:1.0 92:1.0 94:1.0 100:1.0 102:1.0 108:1.0 111:1.0 114:1.0 117:1.0 139:1.0 195:1.0 291:1.0 356:1.0 423:1.0 500:1.0 551:1.0 627:1.0 676:1.0 744:1.0 821:1.0 873:1.0 889:1.0 955:1.0 1026:1.0 1118:1.0 1165:1.0 1225:1.0 1274:1.0 1341:1.0 1418:1.0 1469:1.0 1548:1.0 1606:1.0 1712:1.0 1750:1.0 1840:1.0 1879:1.0 1970:1.0 2013:1.0 
8.245489644035279E-4 1:1.0 7:1.0 11:1.0 15:1.0 17:1.0 24:1.0 28:1.0 30:1.0 35:1.0 39:1.0 41:1.0 46:1.0 50:1.0 53:1.0 58:1.0 62:1.0 66:1.0 72:1.0 74:1.0 78:1.0 82:1.0 86:1.0 92:1.0 94:1.0 98:1.0 102:1.0 106:1.0 110:1.0 113:1.0 118:1.0 131:1.0 227:1.0 289:1.0 348:1.0 392:1.0 502:1.0 559:1.0 595:1.0 673:1.0 730:1.0 766:1.0 845:1.0 906:1.0 959:1.0 1042:1.0 1118:1.0 1166:1.0 1232:1.0 1302:1.0 1390:1.0 1422:1.0 1486:1.0 1552:1.0 1622:1.0 1710:1.0 1742:1.0 1806:1.0 1870:1.0 1933:1.0 1994:1.0 
-1.7052833060124742E-4 3:1.0 7:1.0 10:1.0 16:1.0 20:1.0 22:1.0 25:1.0 30:1.0 35:1.0 39:1.0 41:1.0 47:1.0 51:1.0 54:1.0 58:1.0 62:1.0 66:1.0 70:1.0 74:1.0 79:1.0 81:1.0 85:1.0 91:1.0 96:1.0 98:1.0 101:1.0 106:1.0 111:1.0 115:1.0 118:1.0 162:1.0 224:1.0 280:1.0 374:1.0 429:1.0 458:1.0 511:1.0 595:1.0 673:1.0 731:1.0 771:1.0 866:1.0 926:1.0 975:1.0 1042:1.0 1118:1.0 1166:1.0 1230:1.0 1294:1.0 1359:1.0 1425:1.0 1497:1.0 1531:1.0 1604:1.0 1702:1.0 1773:1.0 1802:1.0 1855:1.0 1939:1.0 2018:1.0 
-0.002790178571428572 2:1.0 8:1.0 11:1.0 16:1.0 19:1.0 23:1.0 26:1.0 29:1.0 35:1.0 39:1.0 43:1.0 46:1.0 51:1.0 56:1.0 59:1.0 63:1.0 67:1.0 70:1.0 74:1.0 80:1.0 83:1.0 87:1.0 91:1.0 94:1.0 97:1.0 102:1.0 105:1.0 111:1.0 115:1.0 117:1.0 151:1.0 244:1.0 295:1.0 371:1.0 418:1.0 477:1.0 523:1.0 579:1.0 675:1.0 738:1.0 799:1.0 852:1.0 935:1.0 1011:1.0 1058:1.0 1119:1.0 1171:1.0 1250:1.0 1310:1.0 1360:1.0 1431:1.0 1523:1.0 1571:1.0 1634:1.0 1693:1.0 1738:1.0 1789:1.0 1867:1.0 1923:1.0 2017:1.0 
-0.002790178571428572 3:1.0 5:1.0 12:1.0 15:1.0 17:1.0 22:1.0 27:1.0 32:1.0 33:1.0 39:1.0 43:1.0 48:1.0 52:1.0 56:1.0 58:1.0 64:1.0 68:1.0 69:1.0 73:1.0 77:1.0 84:1.0 88:1.0 92:1.0 95:1.0 97:1.0 103:1.0 105:1.0 109:1.0 113:1.0 119:1.0 156:1.0 199:1.0 305:1.0 346:1.0 383:1.0 468:1.0 549:1.0 619:1.0 643:1.0 740:1.0 808:1.0 888:1.0 950:1.0 1007:1.0 1042:1.0 1120:1.0 1176:1.0 1269:1.0 1321:1.0 1337:1.0 1404:1.0 1480:1.0 1592:1.0 1655:1.0 1713:1.0 1755:1.0 1793:1.0 1881:1.0 1913:1.0 1979:1.0 
0.0018164783781474418 3:1.0 6:1.0 12:1.0 14:1.0 19:1.0 22:1.0 27:1.0 32:1.0 34:1.0 37:1.0 42:1.0 47:1.0 50:1.0 56:1.0 58:1.0 64:1.0 68:1.0 70:1.0 74:1.0 77:1.0 82:1.0 86:1.0 90:1.0 96:1.0 98:1.0 102:1.0 106:1.0 109:1.0 115:1.0 120:1.0 160:1.0 214:1.0 303:1.0 338:1.0 415:1.0 468:1.0 550:1.0 621:1.0 650:1.0 703:1.0 786:1.0 864:1.0 918:1.0 1007:1.0 1042:1.0 1120:1.0 1176:1.0 1270:1.0 1326:1.0 1357:1.0 1418:1.0 1470:1.0 1550:1.0 1616:1.0 1686:1.0 1774:1.0 1806:1.0 1869:1.0 1931:1.0 1988:1.0 
-0.0013001426143541806 4:1.0 7:1.0 10:1.0 13:1.0 20:1.0 21:1.0 28:1.0 32:1.0 34:1.0 37:1.0 44:1.0 46:1.0 49:1.0 55:1.0 59:1.0 62:1.0 66:1.0 71:1.0 75:1.0 79:1.0 81:1.0 86:1.0 90:1.0 94:1.0 99:1.0 103:1.0 107:1.0 109:1.0 115:1.0 119:1.0 178:1.0 221:1.0 268:1.0 325:1.0 428:1.0 456:1.0 566:1.0 621:1.0 652:1.0 710:1.0 813:1.0 843:1.0 899:1.0 995:1.0 1058:1.0 1118:1.0 1166:1.0 1231:1.0 1299:1.0 1379:1.0 1441:1.0 1498:1.0 1534:1.0 1614:1.0 1679:1.0 1747:1.0 1827:1.0 1889:1.0 1947:1.0 1987:1.0 
0.0010077315531171612 3:1.0 6:1.0 10:1.0 14:1.0 18:1.0 23:1.0 27:1.0 30:1.0 35:1.0 40:1.0 44:1.0 47:1.0 52:1.0 54:1.0 58:1.0 63:1.0 68:1.0 70:1.0 73:1.0 78:1.0 82:1.0 88:1.0 90:1.0 94:1.0 98:1.0 102:1.0 105:1.0 111:1.0 114:1.0 118:1.0 158:1.0 206:1.0 270:1.0 335:1.0 403:1.0 482:1.0 543:1.0 596:1.0 680:1.0 759:1.0 820:1.0 870:1.0 942:1.0 975:1.0 1042:1.0 1119:1.0 1172:1.0 1254:1.0 1325:1.0 1354:1.0 1406:1.0 1488:1.0 1558:1.0 1646:1.0 1678:1.0 1742:1.0 1805:1.0 1867:1.0 1922:1.0 2014:1.0 
-0.002790178571428572 3:1.0 5:1.0 12:1.0 15:1.0 17:1.0 22:1.0 27:1.0 32:1.0 33:1.0 39:1.0 43:1.0 48:1.0 49:1.0 54:1.0 58:1.0 64:1.0 68:1.0 69:1.0 73:1.0 77:1.0 84:1.0 88:1.0 92:1.0 95:1.0 97:1.0 103:1.0 105:1.0 109:1.0 113:1.0 119:1.0 156:1.0 199:1.0 305:1.0 346:1.0 383:1.0 468:1.0 549:1.0 619:1.0 643:1.0 740:1.0 805:1.0 874:1.0 894:1.0 975:1.0 1042:1.0 1120:1.0 1176:1.0 1269:1.0 1321:1.0 1337:1.0 1404:1.0 1480:1.0 1592:1.0 1655:1.0 1713:1.0 1755:1.0 1793:1.0 1881:1.0 1913:1.0 1979:1.0 
8.72363013919272E-4 4:1.0 6:1.0 12:1.0 16:1.0 17:1.0 21:1.0 25:1.0 31:1.0 35:1.0 39:1.0 43:1.0 46:1.0 50:1.0 53:1.0 58:1.0 62:1.0 65:1.0 72:1.0 74:1.0 78:1.0 82:1.0 86:1.0 89:1.0 95:1.0 98:1.0 102:1.0 108:1.0 110:1.0 114:1.0 118:1.0 176:1.0 216:1.0 309:1.0 361:1.0 377:1.0 443:1.0 515:1.0 611:1.0 675:1.0 738:1.0 798:1.0 845:1.0 906:1.0 959:1.0 1042:1.0 1118:1.0 1165:1.0 1228:1.0 1286:1.0 1390:1.0 1422:1.0 1486:1.0 1549:1.0 1611:1.0 1666:1.0 1758:1.0 1808:1.0 1878:1.0 1966:1.0 1998:1.0 
0.002533826163874523 3:1.0 5:1.0 12:1.0 15:1.0 17:1.0 22:1.0 27:1.0 32:1.0 33:1.0 39:1.0 44:1.0 45:1.0 52:1.0 55:1.0 59:1.0 64:1.0 68:1.0 69:1.0 73:1.0 77:1.0 84:1.0 88:1.0 92:1.0 95:1.0 97:1.0 103:1.0 105:1.0 109:1.0 113:1.0 119:1.0 156:1.0 199:1.0 305:1.0 346:1.0 383:1.0 468:1.0 549:1.0 619:1.0 644:1.0 741:1.0 812:1.0 839:1.0 947:1.0 995:1.0 1058:1.0 1120:1.0 1176:1.0 1269:1.0 1321:1.0 1337:1.0 1404:1.0 1480:1.0 1592:1.0 1655:1.0 1713:1.0 1755:1.0 1793:1.0 1881:1.0 1913:1.0 1979:1.0 
0.0022327836301424047 3:1.0 6:1.0 10:1.0 15:1.0 18:1.0 21:1.0 25:1.0 31:1.0 36:1.0 39:1.0 41:1.0 46:1.0 52:1.0 54:1.0 57:1.0 63:1.0 67:1.0 71:1.0 75:1.0 78:1.0 83:1.0 88:1.0 91:1.0 96:1.0 99:1.0 102:1.0 105:1.0 111:1.0 115:1.0 118:1.0 158:1.0 207:1.0 274:1.0 349:1.0 393:1.0 443:1.0 516:1.0 615:1.0 689:1.0 730:1.0 768:1.0 854:1.0 941:1.0 971:1.0 1026:1.0 1119:1.0 1171:1.0 1251:1.0 1315:1.0 1378:1.0 1439:1.0 1492:1.0 1575:1.0 1652:1.0 1703:1.0 1778:1.0 1821:1.0 1867:1.0 1923:1.0 2018:1.0 
-0.002790178571428572 3:1.0 5:1.0 12:1.0 15:1.0 17:1.0 22:1.0 27:1.0 32:1.0 33:1.0 39:1.0 44:1.0 47:1.0 52:1.0 56:1.0 58:1.0 64:1.0 65:1.0 69:1.0 74:1.0 77:1.0 84:1.0 88:1.0 92:1.0 95:1.0 97:1.0 103:1.0 105:1.0 109:1.0 113:1.0 119:1.0 156:1.0 199:1.0 305:1.0 346:1.0 383:1.0 468:1.0 549:1.0 619:1.0 644:1.0 743:1.0 820:1.0 872:1.0 950:1.0 1007:1.0 1042:1.0 1120:1.0 1173:1.0 1257:1.0 1274:1.0 1341:1.0 1420:1.0 1480:1.0 1592:1.0 1655:1.0 1713:1.0 1755:1.0 1793:1.0 1881:1.0 1913:1.0 1979:1.0 
-5.792607621498159E-4 2:1.0 8:1.0 11:1.0 14:1.0 19:1.0 24:1.0 28:1.0 32:1.0 34:1.0 38:1.0 42:1.0 46:1.0 50:1.0 56:1.0 59:1.0 61:1.0 66:1.0 71:1.0 74:1.0 80:1.0 82:1.0 88:1.0 90:1.0 96:1.0 97:1.0 103:1.0 105:1.0 111:1.0 114:1.0 119:1.0 151:1.0 242:1.0 287:1.0 340:1.0 424:1.0 504:1.0 566:1.0 622:1.0 654:1.0 718:1.0 782:1.0 848:1.0 919:1.0 1011:1.0 1058:1.0 1117:1.0 1162:1.0 1215:1.0 1298:1.0 1376:1.0 1430:1.0 1520:1.0 1558:1.0 1648:1.0 1685:1.0 1771:1.0 1793:1.0 1883:1.0 1922:1.0 2015:1.0 
0.002790178571428572 4:1.0 6:1.0 10:1.0 14:1.0 18:1.0 21:1.0 26:1.0 32:1.0 36:1.0 40:1.0 42:1.0 46:1.0 49:1.0 56:1.0 59:1.0 64:1.0 65:1.0 69:1.0 73:1.0 77:1.0 81:1.0 87:1.0 89:1.0 95:1.0 98:1.0 103:1.0 105:1.0 112:1.0 113:1.0 118:1.0 174:1.0 206:1.0 270:1.0 333:1.0 394:1.0 448:1.0 536:1.0 632:1.0 694:1.0 750:1.0 781:1.0 844:1.0 903:1.0 1011:1.0 1058:1.0 1120:1.0 1173:1.0 1257:1.0 1273:1.0 1337:1.0 1401:1.0 1467:1.0 1537:1.0 1627:1.0 1666:1.0 1759:1.0 1809:1.0 1884:1.0 1925:1.0 2026:1.0 
0.002790178571428572 3:1.0 7:1.0 12:1.0 13:1.0 18:1.0 22:1.0 27:1.0 31:1.0 35:1.0 39:1.0 42:1.0 46:1.0 51:1.0 55:1.0 59:1.0 62:1.0 65:1.0 72:1.0 75:1.0 78:1.0 83:1.0 87:1.0 89:1.0 95:1.0 99:1.0 102:1.0 106:1.0 111:1.0 113:1.0 119:1.0 164:1.0 229:1.0 298:1.0 318:1.0 399:1.0 467:1.0 547:1.0 611:1.0 674:1.0 734:1.0 783:1.0 851:1.0 931:1.0 995:1.0 1058:1.0 1118:1.0 1165:1.0 1228:1.0 1287:1.0 1394:1.0 1439:1.0 1491:1.0 1569:1.0 1627:1.0 1667:1.0 1762:1.0 1822:1.0 1871:1.0 1937:1.0 2011:1.0 
-0.0013170401395724914 4:1.0 6:1.0 11:1.0 14:1.0 20:1.0 22:1.0 27:1.0 30:1.0 33:1.0 39:1.0 42:1.0 47:1.0 51:1.0 54:1.0 59:1.0 62:1.0 66:1.0 71:1.0 74:1.0 77:1.0 83:1.0 88:1.0 91:1.0 95:1.0 98:1.0 102:1.0 107:1.0 110:1.0 113:1.0 119:1.0 175:1.0 210:1.0 288:1.0 342:1.0 431:1.0 466:1.0 541:1.0 587:1.0 642:1.0 735:1.0 787:1.0 866:1.0 927:1.0 979:1.0 1058:1.0 1118:1.0 1166:1.0 1231:1.0 1298:1.0 1373:1.0 1419:1.0 1476:1.0 1575:1.0 1651:1.0 1698:1.0 1758:1.0 1807:1.0 1874:1.0 1949:1.0 1995:1.0 
-8.715588301777871E-4 3:1.0 7:1.0 10:1.0 13:1.0 18:1.0 24:1.0 26:1.0 30:1.0 34:1.0 39:1.0 41:1.0 46:1.0 49:1.0 54:1.0 57:1.0 62:1.0 68:1.0 70:1.0 75:1.0 79:1.0 83:1.0 87:1.0 89:1.0 95:1.0 98:1.0 104:1.0 106:1.0 110:1.0 113:1.0 119:1.0 162:1.0 221:1.0 266:1.0 320:1.0 406:1.0 494:1.0 526:1.0 591:1.0 657:1.0 730:1.0 765:1.0 842:1.0 893:1.0 971:1.0 1026:1.0 1118:1.0 1168:1.0 1238:1.0 1327:1.0 1363:1.0 1443:1.0 1507:1.0 1569:1.0 1627:1.0 1666:1.0 1760:1.0 1814:1.0 1902:1.0 1933:1.0 1995:1.0 
7.276903977805811E-4 2:1.0 8:1.0 10:1.0 15:1.0 17:1.0 23:1.0 26:1.0 30:1.0 33:1.0 39:1.0 41:1.0 46:1.0 52:1.0 54:1.0 59:1.0 62:1.0 65:1.0 71:1.0 75:1.0 77:1.0 83:1.0 85:1.0 89:1.0 95:1.0 99:1.0 103:1.0 105:1.0 111:1.0 116:1.0 118:1.0 150:1.0 239:1.0 273:1.0 347:1.0 386:1.0 478:1.0 525:1.0 587:1.0 641:1.0 730:1.0 768:1.0 854:1.0 943:1.0 979:1.0 1058:1.0 1118:1.0 1165:1.0 1227:1.0 1283:1.0 1377:1.0 1435:1.0 1473:1.0 1561:1.0 1595:1.0 1667:1.0 1763:1.0 1825:1.0 1883:1.0 1924:1.0 2022:1.0 
5.819289510033054E-4 2:1.0 5:1.0 11:1.0 15:1.0 17:1.0 22:1.0 26:1.0 32:1.0 36:1.0 38:1.0 41:1.0 45:1.0 51:1.0 53:1.0 59:1.0 62:1.0 65:1.0 70:1.0 73:1.0 77:1.0 81:1.0 85:1.0 90:1.0 95:1.0 99:1.0 101:1.0 107:1.0 111:1.0 114:1.0 117:1.0 139:1.0 195:1.0 289:1.0 346:1.0 382:1.0 464:1.0 536:1.0 630:1.0 685:1.0 713:1.0 763:1.0 833:1.0 923:1.0 963:1.0 1058:1.0 1118:1.0 1165:1.0 1226:1.0 1277:1.0 1353:1.0 1401:1.0 1465:1.0 1530:1.0 1599:1.0 1683:1.0 1761:1.0 1819:1.0 1859:1.0 1954:1.0 2013:1.0 
-0.0025788076878973053 1:1.0 5:1.0 12:1.0 15:1.0 18:1.0 24:1.0 28:1.0 30:1.0 34:1.0 39:1.0 43:1.0 47:1.0 52:1.0 56:1.0 59:1.0 64:1.0 67:1.0 70:1.0 73:1.0 79:1.0 84:1.0 87:1.0 91:1.0 94:1.0 99:1.0 104:1.0 108:1.0 112:1.0 114:1.0 118:1.0 124:1.0 199:1.0 306:1.0 352:1.0 408:1.0 502:1.0 558:1.0 591:1.0 659:1.0 739:1.0 804:1.0 872:1.0 951:1.0 1011:1.0 1058:1.0 1120:1.0 1175:1.0 1266:1.0 1309:1.0 1355:1.0 1412:1.0 1511:1.0 1587:1.0 1634:1.0 1695:1.0 1748:1.0 1832:1.0 1912:1.0 1974:1.0 2030:1.0 
-3.898713084862275E-4 3:1.0 7:1.0 12:1.0 15:1.0 17:1.0 22:1.0 25:1.0 30:1.0 35:1.0 40:1.0 43:1.0 47:1.0 49:1.0 55:1.0 57:1.0 63:1.0 67:1.0 70:1.0 75:1.0 79:1.0 81:1.0 86:1.0 91:1.0 96:1.0 98:1.0 102:1.0 108:1.0 112:1.0 113:1.0 118:1.0 164:1.0 231:1.0 305:1.0 346:1.0 381:1.0 458:1.0 511:1.0 596:1.0 679:1.0 755:1.0 801:1.0 859:1.0 897:1.0 987:1.0 1026:1.0 1119:1.0 1171:1.0 1250:1.0 1311:1.0 1363:1.0 1441:1.0 1498:1.0 1535:1.0 1620:1.0 1702:1.0 1774:1.0 1808:1.0 1880:1.0 1973:1.0 2026:1.0 
0.002790178571428572 3:1.0 7:1.0 12:1.0 15:1.0 17:1.0 22:1.0 26:1.0 31:1.0 35:1.0 38:1.0 42:1.0 48:1.0 51:1.0 53:1.0 59:1.0 61:1.0 67:1.0 70:1.0 74:1.0 80:1.0 83:1.0 87:1.0 92:1.0 94:1.0 97:1.0 103:1.0 107:1.0 111:1.0 113:1.0 119:1.0 164:1.0 231:1.0 305:1.0 346:1.0 382:1.0 463:1.0 531:1.0 610:1.0 670:1.0 720:1.0 791:1.0 881:1.0 923:1.0 963:1.0 1058:1.0 1117:1.0 1163:1.0 1218:1.0 1310:1.0 1360:1.0 1431:1.0 1523:1.0 1572:1.0 1638:1.0 1709:1.0 1739:1.0 1795:1.0 1891:1.0 1953:1.0 2011:1.0 
-9.777963607806657E-4 4:1.0 7:1.0 10:1.0 14:1.0 18:1.0 24:1.0 27:1.0 30:1.0 34:1.0 40:1.0 42:1.0 48:1.0 50:1.0 55:1.0 59:1.0 62:1.0 67:1.0 71:1.0 74:1.0 78:1.0 81:1.0 87:1.0 91:1.0 94:1.0 99:1.0 104:1.0 106:1.0 110:1.0 114:1.0 119:1.0 178:1.0 222:1.0 270:1.0 336:1.0 407:1.0 498:1.0 542:1.0 592:1.0 662:1.0 752:1.0 790:1.0 879:1.0 915:1.0 995:1.0 1058:1.0 1118:1.0 1167:1.0 1235:1.0 1314:1.0 1374:1.0 1421:1.0 1483:1.0 1539:1.0 1634:1.0 1695:1.0 1748:1.0 1830:1.0 1902:1.0 1934:1.0 1999:1.0 
-0.0022009542749963315 2:1.0 6:1.0 10:1.0 14:1.0 20:1.0 24:1.0 28:1.0 30:1.0 34:1.0 40:1.0 41:1.0 47:1.0 52:1.0 56:1.0 59:1.0 62:1.0 65:1.0 69:1.0 73:1.0 78:1.0 83:1.0 87:1.0 89:1.0 93:1.0 100:1.0 102:1.0 106:1.0 109:1.0 114:1.0 118:1.0 142:1.0 206:1.0 272:1.0 344:1.0 440:1.0 502:1.0 558:1.0 592:1.0 661:1.0 747:1.0 772:1.0 872:1.0 951:1.0 1011:1.0 1058:1.0 1118:1.0 1165:1.0 1225:1.0 1273:1.0 1338:1.0 1407:1.0 1491:1.0 1569:1.0 1625:1.0 1660:1.0 1734:1.0 1838:1.0 1869:1.0 1930:1.0 1982:1.0 
0.0024884360113044844 2:1.0 6:1.0 10:1.0 13:1.0 19:1.0 22:1.0 25:1.0 31:1.0 34:1.0 38:1.0 42:1.0 47:1.0 49:1.0 55:1.0 59:1.0 62:1.0 66:1.0 71:1.0 75:1.0 77:1.0 83:1.0 86:1.0 92:1.0 94:1.0 97:1.0 102:1.0 107:1.0 111:1.0 114:1.0 120:1.0 142:1.0 205:1.0 267:1.0 322:1.0 413:1.0 459:1.0 514:1.0 606:1.0 654:1.0 719:1.0 785:1.0 859:1.0 899:1.0 995:1.0 1058:1.0 1118:1.0 1166:1.0 1231:1.0 1299:1.0 1377:1.0 1435:1.0 1474:1.0 1568:1.0 1622:1.0 1709:1.0 1738:1.0 1791:1.0 1875:1.0 1954:1.0 2016:1.0 
0.001745070510418594 3:1.0 5:1.0 12:1.0 15:1.0 17:1.0 22:1.0 27:1.0 32:1.0 33:1.0 39:1.0 41:1.0 46:1.0 51:1.0 54:1.0 58:1.0 64:1.0 67:1.0 70:1.0 75:1.0 80:1.0 84:1.0 88:1.0 92:1.0 95:1.0 97:1.0 103:1.0 105:1.0 109:1.0 113:1.0 119:1.0 156:1.0 199:1.0 305:1.0 346:1.0 383:1.0 468:1.0 549:1.0 619:1.0 641:1.0 730:1.0 767:1.0 850:1.0 926:1.0 975:1.0 1042:1.0 1120:1.0 1175:1.0 1266:1.0 1311:1.0 1364:1.0 1448:1.0 1528:1.0 1592:1.0 1655:1.0 1713:1.0 1755:1.0 1793:1.0 1881:1.0 1913:1.0 1979:1.0 
6.104485630211944E-4 3:1.0 6:1.0 10:1.0 14:1.0 20:1.0 23:1.0 26:1.0 32:1.0 36:1.0 39:1.0 44:1.0 47:1.0 51:1.0 56:1.0 59:1.0 64:1.0 66:1.0 70:1.0 73:1.0 78:1.0 81:1.0 87:1.0 92:1.0 94:1.0 97:1.0 104:1.0 106:1.0 110:1.0 115:1.0 119:1.0 158:1.0 206:1.0 272:1.0 343:1.0 434:1.0 480:1.0 536:1.0 631:1.0 692:1.0 743:1.0 819:1.0 868:1.0 935:1.0 1011:1.0 1058:1.0 1120:1.0 1174:1.0 1262:1.0 1293:1.0 1354:1.0 1405:1.0 1483:1.0 1540:1.0 1638:1.0 1709:1.0 1740:1.0 1798:1.0 1902:1.0 1935:1.0 2003:1.0 
0.002790178571428572 4:1.0 7:1.0 10:1.0 16:1.0 20:1.0 23:1.0 28:1.0 32:1.0 36:1.0 37:1.0 44:1.0 46:1.0 52:1.0 54:1.0 58:1.0 63:1.0 67:1.0 71:1.0 74:1.0 77:1.0 83:1.0 85:1.0 89:1.0 95:1.0 98:1.0 104:1.0 108:1.0 110:1.0 114:1.0 119:1.0 178:1.0 224:1.0 280:1.0 375:1.0 436:1.0 488:1.0 568:1.0 629:1.0 684:1.0 710:1.0 816:1.0 854:1.0 942:1.0 975:1.0 1042:1.0 1119:1.0 1171:1.0 1251:1.0 1314:1.0 1373:1.0 1419:1.0 1473:1.0 1561:1.0 1595:1.0 1666:1.0 1760:1.0 1816:1.0 1910:1.0 1966:1.0 1999:1.0 
-0.0020385673798984554 1:1.0 6:1.0 12:1.0 13:1.0 17:1.0 23:1.0 26:1.0 29:1.0 35:1.0 37:1.0 43:1.0 46:1.0 50:1.0 55:1.0 59:1.0 62:1.0 66:1.0 71:1.0 74:1.0 78:1.0 83:1.0 88:1.0 91:1.0 96:1.0 98:1.0 101:1.0 106:1.0 109:1.0 113:1.0 120:1.0 128:1.0 213:1.0 297:1.0 315:1.0 386:1.0 477:1.0 523:1.0 577:1.0 667:1.0 706:1.0 798:1.0 847:1.0 915:1.0 995:1.0 1058:1.0 1118:1.0 1166:1.0 1231:1.0 1298:1.0 1374:1.0 1423:1.0 1492:1.0 1575:1.0 1652:1.0 1702:1.0 1773:1.0 1802:1.0 1853:1.0 1929:1.0 1980:1.0 
6.301070408721918E-4 4:1.0 6:1.0 9:1.0 16:1.0 19:1.0 22:1.0 26:1.0 29:1.0 34:1.0 38:1.0 41:1.0 47:1.0 49:1.0 55:1.0 57:1.0 62:1.0 65:1.0 69:1.0 73:1.0 79:1.0 81:1.0 86:1.0 90:1.0 96:1.0 98:1.0 103:1.0 107:1.0 110:1.0 114:1.0 120:1.0 173:1.0 204:1.0 263:1.0 370:1.0 414:1.0 461:1.0 522:1.0 574:1.0 653:1.0 715:1.0 769:1.0 859:1.0 897:1.0 987:1.0 1026:1.0 1118:1.0 1165:1.0 1225:1.0 1273:1.0 1339:1.0 1409:1.0 1498:1.0 1534:1.0 1616:1.0 1686:1.0 1775:1.0 1811:1.0 1890:1.0 1950:1.0 2000:1.0 
6.390356691289394E-4 3:1.0 7:1.0 9:1.0 14:1.0 19:1.0 23:1.0 26:1.0 32:1.0 35:1.0 39:1.0 42:1.0 47:1.0 51:1.0 54:1.0 59:1.0 63:1.0 67:1.0 70:1.0 74:1.0 80:1.0 82:1.0 86:1.0 89:1.0 93:1.0 100:1.0 104:1.0 106:1.0 112:1.0 114:1.0 119:1.0 161:1.0 218:1.0 255:1.0 339:1.0 418:1.0 480:1.0 535:1.0 627:1.0 674:1.0 735:1.0 787:1.0 866:1.0 927:1.0 979:1.0 1058:1.0 1119:1.0 1171:1.0 1250:1.0 1310:1.0 1360:1.0 1430:1.0 1518:1.0 1549:1.0 1609:1.0 1660:1.0 1736:1.0 1846:1.0 1904:1.0 1942:1.0 2031:1.0 
2.5023966992920288E-5 3:1.0 7:1.0 11:1.0 14:1.0 19:1.0 21:1.0 27:1.0 30:1.0 33:1.0 38:1.0 43:1.0 47:1.0 51:1.0 54:1.0 59:1.0 63:1.0 67:1.0 69:1.0 75:1.0 77:1.0 83:1.0 86:1.0 89:1.0 95:1.0 100:1.0 102:1.0 106:1.0 110:1.0 115:1.0 119:1.0 163:1.0 226:1.0 287:1.0 337:1.0 411:1.0 450:1.0 541:1.0 586:1.0 639:1.0 723:1.0 803:1.0 866:1.0 927:1.0 979:1.0 1058:1.0 1119:1.0 1171:1.0 1249:1.0 1307:1.0 1345:1.0 1435:1.0 1474:1.0 1565:1.0 1611:1.0 1668:1.0 1766:1.0 1838:1.0 1870:1.0 1935:1.0 2003:1.0 
0.002790178571428572 4:1.0 7:1.0 9:1.0 13:1.0 18:1.0 24:1.0 28:1.0 30:1.0 33:1.0 37:1.0 41:1.0 47:1.0 52:1.0 56:1.0 59:1.0 64:1.0 66:1.0 72:1.0 75:1.0 78:1.0 81:1.0 88:1.0 91:1.0 96:1.0 99:1.0 101:1.0 106:1.0 111:1.0 116:1.0 119:1.0 177:1.0 217:1.0 250:1.0 320:1.0 408:1.0 502:1.0 557:1.0 585:1.0 633:1.0 699:1.0 772:1.0 872:1.0 951:1.0 1011:1.0 1058:1.0 1120:1.0 1174:1.0 1264:1.0 1303:1.0 1394:1.0 1437:1.0 1484:1.0 1543:1.0 1652:1.0 1703:1.0 1777:1.0 1818:1.0 1855:1.0 1940:1.0 2023:1.0 
0.0015556568883537888 2:1.0 7:1.0 12:1.0 15:1.0 19:1.0 24:1.0 26:1.0 30:1.0 34:1.0 38:1.0 42:1.0 47:1.0 49:1.0 53:1.0 59:1.0 62:1.0 67:1.0 71:1.0 74:1.0 78:1.0 84:1.0 87:1.0 89:1.0 95:1.0 97:1.0 103:1.0 106:1.0 110:1.0 116:1.0 119:1.0 148:1.0 231:1.0 307:1.0 356:1.0 422:1.0 494:1.0 526:1.0 590:1.0 654:1.0 719:1.0 785:1.0 857:1.0 891:1.0 963:1.0 1058:1.0 1118:1.0 1167:1.0 1235:1.0 1314:1.0 1374:1.0 1424:1.0 1495:1.0 1585:1.0 1627:1.0 1665:1.0 1755:1.0 1794:1.0 1886:1.0 1936:1.0 2007:1.0 
-0.002790178571428572 1:1.0 5:1.0 11:1.0 15:1.0 18:1.0 22:1.0 28:1.0 30:1.0 33:1.0 39:1.0 42:1.0 45:1.0 51:1.0 53:1.0 59:1.0 62:1.0 68:1.0 69:1.0 73:1.0 77:1.0 83:1.0 85:1.0 89:1.0 94:1.0 97:1.0 102:1.0 106:1.0 112:1.0 114:1.0 120:1.0 123:1.0 195:1.0 290:1.0 350:1.0 400:1.0 470:1.0 557:1.0 587:1.0 642:1.0 733:1.0 779:1.0 833:1.0 923:1.0 963:1.0 1058:1.0 1118:1.0 1168:1.0 1237:1.0 1321:1.0 1337:1.0 1403:1.0 1473:1.0 1561:1.0 1594:1.0 1661:1.0 1738:1.0 1790:1.0 1872:1.0 1942:1.0 2032:1.0 
8.190135443000584E-4 2:1.0 7:1.0 11:1.0 15:1.0 19:1.0 22:1.0 26:1.0 32:1.0 34:1.0 40:1.0 41:1.0 46:1.0 52:1.0 53:1.0 58:1.0 62:1.0 66:1.0 72:1.0 75:1.0 79:1.0 82:1.0 86:1.0 90:1.0 95:1.0 100:1.0 104:1.0 108:1.0 110:1.0 114:1.0 117:1.0 147:1.0 227:1.0 291:1.0 354:1.0 414:1.0 464:1.0 534:1.0 624:1.0 661:1.0 746:1.0 768:1.0 853:1.0 938:1.0 959:1.0 1042:1.0 1118:1.0 1166:1.0 1232:1.0 1303:1.0 1395:1.0 1442:1.0 1502:1.0 1550:1.0 1615:1.0 1684:1.0 1768:1.0 1848:1.0 1910:1.0 1966:1.0 1997:1.0 
0.002790178571428572 1:1.0 8:1.0 11:1.0 15:1.0 18:1.0 24:1.0 27:1.0 30:1.0 34:1.0 38:1.0 42:1.0 47:1.0 51:1.0 54:1.0 58:1.0 62:1.0 67:1.0 70:1.0 74:1.0 79:1.0 82:1.0 86:1.0 91:1.0 94:1.0 100:1.0 104:1.0 106:1.0 110:1.0 115:1.0 118:1.0 135:1.0 243:1.0 290:1.0 352:1.0 407:1.0 498:1.0 542:1.0 590:1.0 654:1.0 719:1.0 787:1.0 866:1.0 926:1.0 975:1.0 1042:1.0 1118:1.0 1167:1.0 1234:1.0 1310:1.0 1359:1.0 1426:1.0 1502:1.0 1551:1.0 1618:1.0 1696:1.0 1752:1.0 1846:1.0 1902:1.0 1935:1.0 2002:1.0 
-0.002790178571428572 2:1.0 6:1.0 10:1.0 13:1.0 19:1.0 22:1.0 25:1.0 30:1.0 35:1.0 39:1.0 43:1.0 46:1.0 51:1.0 56:1.0 59:1.0 62:1.0 67:1.0 72:1.0 75:1.0 79:1.0 82:1.0 86:1.0 91:1.0 96:1.0 97:1.0 103:1.0 106:1.0 112:1.0 115:1.0 118:1.0 142:1.0 205:1.0 267:1.0 322:1.0 413:1.0 458:1.0 511:1.0 595:1.0 675:1.0 738:1.0 799:1.0 852:1.0 935:1.0 1011:1.0 1058:1.0 1118:1.0 1167:1.0 1236:1.0 1319:1.0 1395:1.0 1442:1.0 1502:1.0 1551:1.0 1620:1.0 1701:1.0 1771:1.0 1794:1.0 1888:1.0 1943:1.0 2034:1.0 
-0.002790178571428572 3:1.0 5:1.0 12:1.0 15:1.0 17:1.0 22:1.0 27:1.0 32:1.0 33:1.0 39:1.0 42:1.0 45:1.0 52:1.0 53:1.0 57:1.0 64:1.0 68:1.0 69:1.0 76:1.0 79:1.0 84:1.0 88:1.0 92:1.0 95:1.0 97:1.0 103:1.0 105:1.0 109:1.0 113:1.0 119:1.0 156:1.0 199:1.0 305:1.0 346:1.0 383:1.0 468:1.0 549:1.0 619:1.0 642:1.0 733:1.0 780:1.0 837:1.0 937:1.0 955:1.0 1026:1.0 1120:1.0 1176:1.0 1269:1.0 1324:1.0 1351:1.0 1460:1.0 1512:1.0 1592:1.0 1655:1.0 1713:1.0 1755:1.0 1793:1.0 1881:1.0 1913:1.0 1979:1.0 
0.002790178571428572 2:1.0 7:1.0 10:1.0 13:1.0 18:1.0 23:1.0 25:1.0 31:1.0 35:1.0 40:1.0 43:1.0 47:1.0 50:1.0 54:1.0 57:1.0 62:1.0 67:1.0 70:1.0 74:1.0 79:1.0 82:1.0 86:1.0 91:1.0 94:1.0 99:1.0 104:1.0 106:1.0 110:1.0 116:1.0 118:1.0 146:1.0 221:1.0 266:1.0 319:1.0 401:1.0 475:1.0 515:1.0 612:1.0 679:1.0 755:1.0 802:1.0 862:1.0 909:1.0 971:1.0 1026:1.0 1118:1.0 1167:1.0 1234:1.0 1310:1.0 1359:1.0 1426:1.0 1502:1.0 1551:1.0 1618:1.0 1695:1.0 1748:1.0 1830:1.0 1902:1.0 1936:1.0 2006:1.0 
-3.965916191037559E-5 2:1.0 8:1.0 11:1.0 16:1.0 17:1.0 22:1.0 25:1.0 30:1.0 34:1.0 40:1.0 42:1.0 46:1.0 50:1.0 56:1.0 59:1.0 64:1.0 67:1.0 70:1.0 74:1.0 80:1.0 83:1.0 88:1.0 90:1.0 96:1.0 99:1.0 104:1.0 107:1.0 111:1.0 114:1.0 120:1.0 151:1.0 244:1.0 293:1.0 362:1.0 381:1.0 458:1.0 510:1.0 592:1.0 662:1.0 750:1.0 782:1.0 848:1.0 919:1.0 1011:1.0 1058:1.0 1120:1.0 1175:1.0 1266:1.0 1310:1.0 1360:1.0 1431:1.0 1524:1.0 1574:1.0 1648:1.0 1687:1.0 1780:1.0 1831:1.0 1907:1.0 1954:1.0 2016:1.0 
-0.002130399594673858 2:1.0 6:1.0 11:1.0 15:1.0 18:1.0 21:1.0 27:1.0 30:1.0 34:1.0 39:1.0 43:1.0 47:1.0 51:1.0 54:1.0 58:1.0 62:1.0 66:1.0 69:1.0 75:1.0 79:1.0 84:1.0 86:1.0 91:1.0 95:1.0 98:1.0 102:1.0 107:1.0 111:1.0 115:1.0 118:1.0 143:1.0 211:1.0 290:1.0 349:1.0 395:1.0 450:1.0 542:1.0 591:1.0 659:1.0 739:1.0 803:1.0 866:1.0 926:1.0 975:1.0 1042:1.0 1118:1.0 1166:1.0 1229:1.0 1291:1.0 1347:1.0 1444:1.0 1510:1.0 1583:1.0 1619:1.0 1698:1.0 1758:1.0 1807:1.0 1875:1.0 1955:1.0 2018:1.0 
0.002790178571428572 2:1.0 6:1.0 10:1.0 14:1.0 18:1.0 23:1.0 27:1.0 30:1.0 33:1.0 38:1.0 44:1.0 48:1.0 51:1.0 54:1.0 58:1.0 64:1.0 67:1.0 69:1.0 75:1.0 79:1.0 81:1.0 86:1.0 90:1.0 94:1.0 99:1.0 101:1.0 107:1.0 111:1.0 114:1.0 117:1.0 142:1.0 206:1.0 270:1.0 335:1.0 403:1.0 482:1.0 541:1.0 586:1.0 640:1.0 728:1.0 823:1.0 882:1.0 926:1.0 975:1.0 1042:1.0 1120:1.0 1175:1.0 1265:1.0 1307:1.0 1347:1.0 1441:1.0 1498:1.0 1534:1.0 1614:1.0 1679:1.0 1745:1.0 1819:1.0 1859:1.0 1954:1.0 2013:1.0 
-0.002790178571428572 3:1.0 5:1.0 11:1.0 15:1.0 17:1.0 22:1.0 27:1.0 29:1.0 33:1.0 40:1.0 43:1.0 48:1.0 51:1.0 53:1.0 59:1.0 62:1.0 67:1.0 70:1.0 75:1.0 80:1.0 83:1.0 85:1.0 91:1.0 96:1.0 98:1.0 102:1.0 108:1.0 111:1.0 114:1.0 119:1.0 155:1.0 195:1.0 289:1.0 346:1.0 383:1.0 465:1.0 537:1.0 572:1.0 647:1.0 756:1.0 807:1.0 881:1.0 923:1.0 963:1.0 1058:1.0 1118:1.0 1167:1.0 1234:1.0 1311:1.0 1364:1.0 1447:1.0 1521:1.0 1563:1.0 1604:1.0 1702:1.0 1774:1.0 1808:1.0 1879:1.0 1970:1.0 2015:1.0 
-3.0876593050401825E-4 1:1.0 7:1.0 10:1.0 14:1.0 19:1.0 22:1.0 25:1.0 30:1.0 34:1.0 38:1.0 42:1.0 46:1.0 51:1.0 53:1.0 58:1.0 64:1.0 65:1.0 70:1.0 74:1.0 79:1.0 83:1.0 86:1.0 89:1.0 94:1.0 100:1.0 103:1.0 105:1.0 111:1.0 115:1.0 118:1.0 130:1.0 222:1.0 271:1.0 338:1.0 413:1.0 458:1.0 510:1.0 590:1.0 654:1.0 718:1.0 783:1.0 849:1.0 922:1.0 959:1.0 1042:1.0 1120:1.0 1173:1.0 1258:1.0 1278:1.0 1359:1.0 1427:1.0 1506:1.0 1565:1.0 1610:1.0 1664:1.0 1751:1.0 1841:1.0 1883:1.0 1923:1.0 2018:1.0 
0.0013081455579348896 3:1.0 7:1.0 10:1.0 14:1.0 20:1.0 22:1.0 26:1.0 31:1.0 35:1.0 37:1.0 41:1.0 47:1.0 51:1.0 53:1.0 58:1.0 63:1.0 68:1.0 69:1.0 73:1.0 77:1.0 84:1.0 86:1.0 90:1.0 96:1.0 98:1.0 101:1.0 106:1.0 110:1.0 114:1.0 117:1.0 162:1.0 222:1.0 272:1.0 342:1.0 430:1.0 463:1.0 531:1.0 609:1.0 665:1.0 699:1.0 771:1.0 865:1.0 922:1.0 959:1.0 1042:1.0 1119:1.0 1172:1.0 1253:1.0 1321:1.0 1337:1.0 1404:1.0 1478:1.0 1582:1.0 1616:1.0 1686:1.0 1773:1.0 1802:1.0 1854:1.0 1934:1.0 1997:1.0 
0.002790178571428572 3:1.0 7:1.0 9:1.0 15:1.0 18:1.0 22:1.0 28:1.0 31:1.0 34:1.0 39:1.0 44:1.0 46:1.0 50:1.0 56:1.0 59:1.0 62:1.0 68:1.0 72:1.0 74:1.0 78:1.0 83:1.0 88:1.0 90:1.0 96:1.0 97:1.0 101:1.0 105:1.0 110:1.0 113:1.0 119:1.0 161:1.0 219:1.0 258:1.0 350:1.0 400:1.0 471:1.0 562:1.0 607:1.0 660:1.0 742:1.0 814:1.0 848:1.0 919:1.0 1011:1.0 1058:1.0 1118:1.0 1168:1.0 1240:1.0 1334:1.0 1390:1.0 1423:1.0 1492:1.0 1574:1.0 1648:1.0 1685:1.0 1769:1.0 1785:1.0 1850:1.0 1917:1.0 1995:1.0 
-0.002111604554555409 4:1.0 7:1.0 10:1.0 16:1.0 18:1.0 23:1.0 27:1.0 29:1.0 35:1.0 38:1.0 42:1.0 46:1.0 52:1.0 54:1.0 59:1.0 63:1.0 67:1.0 70:1.0 75:1.0 79:1.0 84:1.0 86:1.0 90:1.0 94:1.0 99:1.0 104:1.0 106:1.0 110:1.0 114:1.0 119:1.0 178:1.0 224:1.0 278:1.0 367:1.0 403:1.0 481:1.0 539:1.0 578:1.0 670:1.0 718:1.0 784:1.0 854:1.0 943:1.0 979:1.0 1058:1.0 1119:1.0 1171:1.0 1250:1.0 1311:1.0 1363:1.0 1444:1.0 1510:1.0 1582:1.0 1614:1.0 1679:1.0 1748:1.0 1830:1.0 1902:1.0 1934:1.0 1999:1.0 
-0.0010484667318842714 3:1.0 8:1.0 11:1.0 14:1.0 17:1.0 24:1.0 27:1.0 30:1.0 36:1.0 37:1.0 41:1.0 47:1.0 50:1.0 53:1.0 58:1.0 64:1.0 66:1.0 72:1.0 73:1.0 78:1.0 82:1.0 85:1.0 90:1.0 96:1.0 99:1.0 101:1.0 107:1.0 110:1.0 116:1.0 117:1.0 167:1.0 242:1.0 285:1.0 332:1.0 391:1.0 498:1.0 544:1.0 597:1.0 681:1.0 699:1.0 770:1.0 861:1.0 906:1.0 959:1.0 1042:1.0 1120:1.0 1174:1.0 1264:1.0 1301:1.0 1386:1.0 1406:1.0 1485:1.0 1546:1.0 1600:1.0 1687:1.0 1777:1.0 1819:1.0 1858:1.0 1952:1.0 2005:1.0 
-0.002790178571428572 4:1.0 8:1.0 11:1.0 16:1.0 18:1.0 24:1.0 26:1.0 32:1.0 34:1.0 38:1.0 44:1.0 48:1.0 50:1.0 54:1.0 60:1.0 62:1.0 68:1.0 70:1.0 76:1.0 80:1.0 84:1.0 87:1.0 91:1.0 96:1.0 99:1.0 102:1.0 108:1.0 111:1.0 115:1.0 119:1.0 183:1.0 244:1.0 294:1.0 368:1.0 406:1.0 496:1.0 534:1.0 622:1.0 656:1.0 728:1.0 822:1.0 878:1.0 912:1.0 983:1.0 1074:1.0 1118:1.0 1168:1.0 1238:1.0 1328:1.0 1368:1.0 1464:1.0 1527:1.0 1587:1.0 1636:1.0 1703:1.0 1778:1.0 1824:1.0 1879:1.0 1971:1.0 2019:1.0 
-0.002790178571428572 3:1.0 5:1.0 12:1.0 15:1.0 17:1.0 22:1.0 27:1.0 32:1.0 33:1.0 39:1.0 41:1.0 45:1.0 52:1.0 55:1.0 59:1.0 62:1.0 66:1.0 69:1.0 76:1.0 80:1.0 84:1.0 88:1.0 92:1.0 95:1.0 97:1.0 103:1.0 105:1.0 109:1.0 113:1.0 119:1.0 156:1.0 199:1.0 305:1.0 346:1.0 383:1.0 468:1.0 549:1.0 619:1.0 641:1.0 729:1.0 764:1.0 839:1.0 947:1.0 995:1.0 1058:1.0 1118:1.0 1166:1.0 1229:1.0 1292:1.0 1352:1.0 1464:1.0 1528:1.0 1592:1.0 1655:1.0 1713:1.0 1755:1.0 1793:1.0 1881:1.0 1913:1.0 1979:1.0 
0.002790178571428572 3:1.0 7:1.0 10:1.0 16:1.0 20:1.0 23:1.0 28:1.0 31:1.0 33:1.0 39:1.0 44:1.0 48:1.0 52:1.0 54:1.0 59:1.0 63:1.0 66:1.0 69:1.0 74:1.0 79:1.0 81:1.0 87:1.0 90:1.0 95:1.0 100:1.0 103:1.0 106:1.0 112:1.0 114:1.0 118:1.0 162:1.0 224:1.0 280:1.0 375:1.0 436:1.0 487:1.0 561:1.0 603:1.0 644:1.0 744:1.0 824:1.0 886:1.0 943:1.0 979:1.0 1058:1.0 1119:1.0 1170:1.0 1245:1.0 1290:1.0 1343:1.0 1425:1.0 1499:1.0 1538:1.0 1631:1.0 1684:1.0 1767:1.0 1842:1.0 1888:1.0 1942:1.0 2030:1.0 
7.927267625135306E-4 4:1.0 5:1.0 9:1.0 13:1.0 17:1.0 24:1.0 25:1.0 32:1.0 35:1.0 39:1.0 43:1.0 46:1.0 52:1.0 56:1.0 59:1.0 63:1.0 68:1.0 71:1.0 74:1.0 77:1.0 84:1.0 87:1.0 89:1.0 96:1.0 99:1.0 101:1.0 106:1.0 109:1.0 116:1.0 117:1.0 169:1.0 185:1.0 249:1.0 316:1.0 389:1.0 492:1.0 519:1.0 627:1.0 675:1.0 738:1.0 800:1.0 856:1.0 951:1.0 1011:1.0 1058:1.0 1119:1.0 1172:1.0 1255:1.0 1330:1.0 1373:1.0 1420:1.0 1479:1.0 1585:1.0 1628:1.0 1671:1.0 1777:1.0 1818:1.0 1853:1.0 1932:1.0 1989:1.0 
-0.0020951444388685393 1:1.0 5:1.0 9:1.0 14:1.0 18:1.0 22:1.0 28:1.0 30:1.0 34:1.0 38:1.0 41:1.0 47:1.0 51:1.0 53:1.0 58:1.0 64:1.0 68:1.0 70:1.0 74:1.0 80:1.0 82:1.0 86:1.0 91:1.0 95:1.0 97:1.0 103:1.0 106:1.0 110:1.0 115:1.0 119:1.0 121:1.0 186:1.0 254:1.0 334:1.0 400:1.0 470:1.0 558:1.0 590:1.0 653:1.0 715:1.0 771:1.0 865:1.0 922:1.0 959:1.0 1042:1.0 1120:1.0 1176:1.0 1270:1.0 1326:1.0 1360:1.0 1430:1.0 1518:1.0 1551:1.0 1619:1.0 1697:1.0 1755:1.0 1794:1.0 1886:1.0 1935:1.0 2003:1.0 
-0.0022128039092971555 3:1.0 5:1.0 12:1.0 15:1.0 17:1.0 22:1.0 27:1.0 32:1.0 33:1.0 39:1.0 41:1.0 48:1.0 51:1.0 56:1.0 57:1.0 64:1.0 65:1.0 70:1.0 73:1.0 80:1.0 84:1.0 88:1.0 92:1.0 95:1.0 97:1.0 103:1.0 105:1.0 109:1.0 113:1.0 119:1.0 156:1.0 199:1.0 305:1.0 346:1.0 383:1.0 468:1.0 549:1.0 619:1.0 641:1.0 732:1.0 775:1.0 884:1.0 933:1.0 1003:1.0 1026:1.0 1120:1.0 1173:1.0 1258:1.0 1277:1.0 1356:1.0 1416:1.0 1528:1.0 1592:1.0 1655:1.0 1713:1.0 1755:1.0 1793:1.0 1881:1.0 1913:1.0 1979:1.0 
-1.422563932361328E-4 3:1.0 6:1.0 10:1.0 16:1.0 19:1.0 23:1.0 26:1.0 32:1.0 34:1.0 40:1.0 42:1.0 45:1.0 50:1.0 54:1.0 58:1.0 62:1.0 67:1.0 71:1.0 74:1.0 80:1.0 84:1.0 86:1.0 90:1.0 93:1.0 98:1.0 101:1.0 106:1.0 110:1.0 114:1.0 118:1.0 158:1.0 208:1.0 279:1.0 371:1.0 418:1.0 480:1.0 534:1.0 624:1.0 662:1.0 749:1.0 778:1.0 830:1.0 910:1.0 975:1.0 1042:1.0 1118:1.0 1167:1.0 1235:1.0 1314:1.0 1376:1.0 1432:1.0 1526:1.0 1582:1.0 1613:1.0 1674:1.0 1725:1.0 1802:1.0 1854:1.0 1934:1.0 1998:1.0 
5.631552521366941E-4 3:1.0 6:1.0 9:1.0 16:1.0 20:1.0 22:1.0 28:1.0 31:1.0 35:1.0 39:1.0 41:1.0 47:1.0 50:1.0 55:1.0 59:1.0 62:1.0 67:1.0 70:1.0 75:1.0 79:1.0 82:1.0 86:1.0 91:1.0 95:1.0 98:1.0 102:1.0 105:1.0 109:1.0 116:1.0 118:1.0 157:1.0 204:1.0 264:1.0 374:1.0 432:1.0 471:1.0 563:1.0 611:1.0 673:1.0 731:1.0 770:1.0 863:1.0 915:1.0 995:1.0 1058:1.0 1118:1.0 1167:1.0 1234:1.0 1311:1.0 1363:1.0 1442:1.0 1502:1.0 1551:1.0 1619:1.0 1698:1.0 1758:1.0 1805:1.0 1865:1.0 1916:1.0 1990:1.0 
0.002790178571428572 4:1.0 7:1.0 11:1.0 14:1.0 18:1.0 22:1.0 27:1.0 29:1.0 34:1.0 39:1.0 44:1.0 46:1.0 51:1.0 54:1.0 58:1.0 63:1.0 65:1.0 71:1.0 76:1.0 78:1.0 83:1.0 87:1.0 91:1.0 94:1.0 98:1.0 103:1.0 106:1.0 111:1.0 116:1.0 119:1.0 179:1.0 226:1.0 286:1.0 334:1.0 399:1.0 465:1.0 538:1.0 575:1.0 660:1.0 742:1.0 815:1.0 850:1.0 926:1.0 975:1.0 1042:1.0 1119:1.0 1169:1.0 1243:1.0 1284:1.0 1382:1.0 1455:1.0 1491:1.0 1571:1.0 1634:1.0 1694:1.0 1743:1.0 1810:1.0 1887:1.0 1940:1.0 2023:1.0 
-0.002790178571428572 3:1.0 5:1.0 12:1.0 15:1.0 17:1.0 22:1.0 27:1.0 32:1.0 33:1.0 39:1.0 42:1.0 46:1.0 50:1.0 54:1.0 58:1.0 64:1.0 68:1.0 69:1.0 73:1.0 77:1.0 84:1.0 88:1.0 92:1.0 95:1.0 97:1.0 103:1.0 105:1.0 109:1.0 113:1.0 119:1.0 156:1.0 199:1.0 305:1.0 346:1.0 383:1.0 468:1.0 549:1.0 619:1.0 642:1.0 734:1.0 782:1.0 846:1.0 910:1.0 975:1.0 1042:1.0 1120:1.0 1176:1.0 1269:1.0 1321:1.0 1337:1.0 1404:1.0 1480:1.0 1592:1.0 1655:1.0 1713:1.0 1755:1.0 1793:1.0 1881:1.0 1913:1.0 1979:1.0 
1.619396700248007E-4 3:1.0 6:1.0 10:1.0 14:1.0 19:1.0 23:1.0 25:1.0 31:1.0 35:1.0 37:1.0 43:1.0 47:1.0 51:1.0 56:1.0 59:1.0 63:1.0 67:1.0 71:1.0 75:1.0 77:1.0 83:1.0 86:1.0 89:1.0 94:1.0 99:1.0 103:1.0 105:1.0 111:1.0 114:1.0 120:1.0 158:1.0 206:1.0 271:1.0 339:1.0 417:1.0 475:1.0 515:1.0 609:1.0 667:1.0 707:1.0 803:1.0 868:1.0 935:1.0 1011:1.0 1058:1.0 1119:1.0 1171:1.0 1251:1.0 1315:1.0 1377:1.0 1435:1.0 1474:1.0 1565:1.0 1610:1.0 1663:1.0 1747:1.0 1825:1.0 1883:1.0 1922:1.0 2016:1.0 
-0.0010916273109985294 2:1.0 6:1.0 10:1.0 16:1.0 20:1.0 22:1.0 25:1.0 31:1.0 34:1.0 38:1.0 42:1.0 46:1.0 51:1.0 55:1.0 59:1.0 63:1.0 67:1.0 69:1.0 76:1.0 78:1.0 84:1.0 88:1.0 91:1.0 94:1.0 97:1.0 104:1.0 106:1.0 112:1.0 115:1.0 117:1.0 142:1.0 208:1.0 280:1.0 374:1.0 429:1.0 459:1.0 514:1.0 606:1.0 654:1.0 718:1.0 783:1.0 851:1.0 931:1.0 995:1.0 1058:1.0 1119:1.0 1171:1.0 1249:1.0 1308:1.0 1350:1.0 1456:1.0 1496:1.0 1591:1.0 1650:1.0 1693:1.0 1740:1.0 1798:1.0 1904:1.0 1943:1.0 2033:1.0 
0.002790178571428572 3:1.0 5:1.0 12:1.0 15:1.0 17:1.0 22:1.0 27:1.0 32:1.0 33:1.0 39:1.0 41:1.0 45:1.0 52:1.0 55:1.0 57:1.0 64:1.0 66:1.0 69:1.0 76:1.0 80:1.0 84:1.0 88:1.0 92:1.0 95:1.0 97:1.0 103:1.0 105:1.0 109:1.0 113:1.0 119:1.0 156:1.0 199:1.0 305:1.0 346:1.0 383:1.0 468:1.0 549:1.0 619:1.0 641:1.0 729:1.0 764:1.0 839:1.0 945:1.0 987:1.0 1026:1.0 1120:1.0 1174:1.0 1261:1.0 1292:1.0 1352:1.0 1464:1.0 1528:1.0 1592:1.0 1655:1.0 1713:1.0 1755:1.0 1793:1.0 1881:1.0 1913:1.0 1979:1.0 
9.574757893105575E-4 3:1.0 7:1.0 10:1.0 16:1.0 18:1.0 21:1.0 27:1.0 30:1.0 36:1.0 40:1.0 44:1.0 46:1.0 50:1.0 53:1.0 59:1.0 62:1.0 68:1.0 70:1.0 74:1.0 77:1.0 81:1.0 87:1.0 91:1.0 95:1.0 97:1.0 103:1.0 106:1.0 110:1.0 114:1.0 119:1.0 162:1.0 224:1.0 278:1.0 365:1.0 395:1.0 450:1.0 544:1.0 600:1.0 696:1.0 758:1.0 814:1.0 845:1.0 907:1.0 963:1.0 1058:1.0 1118:1.0 1168:1.0 1238:1.0 1326:1.0 1357:1.0 1417:1.0 1467:1.0 1539:1.0 1635:1.0 1697:1.0 1755:1.0 1794:1.0 1886:1.0 1934:1.0 1999:1.0 
0.002790178571428572 4:1.0 8:1.0 11:1.0 15:1.0 17:1.0 23:1.0 27:1.0 32:1.0 35:1.0 39:1.0 43:1.0 47:1.0 49:1.0 55:1.0 60:1.0 63:1.0 68:1.0 72:1.0 73:1.0 78:1.0 83:1.0 85:1.0 90:1.0 96:1.0 99:1.0 103:1.0 105:1.0 109:1.0 113:1.0 119:1.0 183:1.0 243:1.0 289:1.0 347:1.0 387:1.0 484:1.0 551:1.0 627:1.0 675:1.0 739:1.0 801:1.0 859:1.0 900:1.0 999:1.0 1074:1.0 1119:1.0 1172:1.0 1256:1.0 1333:1.0 1386:1.0 1407:1.0 1489:1.0 1562:1.0 1600:1.0 1687:1.0 1779:1.0 1825:1.0 1881:1.0 1913:1.0 1979:1.0 
-0.002790178571428572 3:1.0 5:1.0 12:1.0 15:1.0 17:1.0 22:1.0 27:1.0 32:1.0 33:1.0 39:1.0 43:1.0 45:1.0 50:1.0 55:1.0 59:1.0 62:1.0 66:1.0 71:1.0 76:1.0 78:1.0 84:1.0 88:1.0 92:1.0 95:1.0 97:1.0 103:1.0 105:1.0 109:1.0 113:1.0 119:1.0 156:1.0 199:1.0 305:1.0 346:1.0 383:1.0 468:1.0 549:1.0 619:1.0 643:1.0 737:1.0 794:1.0 831:1.0 915:1.0 995:1.0 1058:1.0 1118:1.0 1166:1.0 1231:1.0 1300:1.0 1382:1.0 1456:1.0 1496:1.0 1592:1.0 1655:1.0 1713:1.0 1755:1.0 1793:1.0 1881:1.0 1913:1.0 1979:1.0 
-0.0017952847896352856 3:1.0 8:1.0 12:1.0 15:1.0 20:1.0 22:1.0 26:1.0 30:1.0 36:1.0 38:1.0 41:1.0 47:1.0 49:1.0 54:1.0 59:1.0 64:1.0 67:1.0 70:1.0 76:1.0 79:1.0 82:1.0 85:1.0 91:1.0 96:1.0 99:1.0 102:1.0 107:1.0 112:1.0 114:1.0 120:1.0 168:1.0 247:1.0 308:1.0 358:1.0 430:1.0 462:1.0 528:1.0 598:1.0 685:1.0 715:1.0 769:1.0 858:1.0 895:1.0 979:1.0 1058:1.0 1120:1.0 1175:1.0 1266:1.0 1312:1.0 1367:1.0 1458:1.0 1501:1.0 1547:1.0 1604:1.0 1703:1.0 1778:1.0 1823:1.0 1876:1.0 1958:1.0 2032:1.0 
0.002790178571428572 4:1.0 7:1.0 10:1.0 13:1.0 19:1.0 23:1.0 27:1.0 29:1.0 34:1.0 39:1.0 42:1.0 46:1.0 52:1.0 55:1.0 59:1.0 62:1.0 66:1.0 69:1.0 74:1.0 78:1.0 82:1.0 88:1.0 90:1.0 94:1.0 98:1.0 101:1.0 107:1.0 111:1.0 114:1.0 119:1.0 178:1.0 221:1.0 267:1.0 323:1.0 419:1.0 481:1.0 538:1.0 575:1.0 658:1.0 734:1.0 784:1.0 855:1.0 947:1.0 995:1.0 1058:1.0 1118:1.0 1166:1.0 1229:1.0 1290:1.0 1342:1.0 1422:1.0 1488:1.0 1558:1.0 1646:1.0 1678:1.0 1741:1.0 1803:1.0 1859:1.0 1954:1.0 2015:1.0 
0.0017036385349875737 3:1.0 7:1.0 11:1.0 14:1.0 17:1.0 23:1.0 25:1.0 32:1.0 34:1.0 39:1.0 43:1.0 47:1.0 51:1.0 53:1.0 59:1.0 62:1.0 67:1.0 69:1.0 75:1.0 80:1.0 82:1.0 86:1.0 90:1.0 96:1.0 99:1.0 102:1.0 108:1.0 110:1.0 114:1.0 118:1.0 163:1.0 226:1.0 285:1.0 331:1.0 385:1.0 476:1.0 518:1.0 623:1.0 659:1.0 739:1.0 803:1.0 865:1.0 923:1.0 963:1.0 1058:1.0 1118:1.0 1167:1.0 1233:1.0 1307:1.0 1348:1.0 1446:1.0 1518:1.0 1550:1.0 1616:1.0 1687:1.0 1778:1.0 1824:1.0 1878:1.0 1966:1.0 1998:1.0 
0.002790178571428572 3:1.0 5:1.0 12:1.0 15:1.0 17:1.0 22:1.0 27:1.0 32:1.0 33:1.0 39:1.0 44:1.0 48:1.0 49:1.0 53:1.0 58:1.0 63:1.0 68:1.0 72:1.0 73:1.0 77:1.0 84:1.0 88:1.0 92:1.0 95:1.0 97:1.0 103:1.0 105:1.0 109:1.0 113:1.0 119:1.0 156:1.0 199:1.0 305:1.0 346:1.0 383:1.0 468:1.0 549:1.0 619:1.0 644:1.0 744:1.0 821:1.0 873:1.0 890:1.0 959:1.0 1042:1.0 1119:1.0 1172:1.0 1256:1.0 1333:1.0 1385:1.0 1404:1.0 1480:1.0 1592:1.0 1655:1.0 1713:1.0 1755:1.0 1793:1.0 1881:1.0 1913:1.0 1979:1.0 
0.0015832605575540602 1:1.0 6:1.0 10:1.0 14:1.0 19:1.0 23:1.0 28:1.0 31:1.0 35:1.0 37:1.0 41:1.0 47:1.0 51:1.0 56:1.0 59:1.0 62:1.0 65:1.0 70:1.0 75:1.0 78:1.0 82:1.0 85:1.0 91:1.0 95:1.0 99:1.0 102:1.0 106:1.0 109:1.0 115:1.0 119:1.0 126:1.0 206:1.0 271:1.0 339:1.0 420:1.0 487:1.0 563:1.0 609:1.0 665:1.0 699:1.0 771:1.0 868:1.0 935:1.0 1011:1.0 1058:1.0 1118:1.0 1165:1.0 1226:1.0 1279:1.0 1362:1.0 1438:1.0 1485:1.0 1547:1.0 1603:1.0 1699:1.0 1762:1.0 1822:1.0 1869:1.0 1931:1.0 1987:1.0 
0.002790178571428572 3:1.0 7:1.0 11:1.0 14:1.0 18:1.0 24:1.0 26:1.0 32:1.0 35:1.0 39:1.0 42:1.0 46:1.0 51:1.0 56:1.0 59:1.0 61:1.0 66:1.0 71:1.0 74:1.0 79:1.0 83:1.0 86:1.0 92:1.0 95:1.0 98:1.0 104:1.0 107:1.0 110:1.0 114:1.0 119:1.0 163:1.0 226:1.0 286:1.0 336:1.0 406:1.0 496:1.0 535:1.0 627:1.0 674:1.0 734:1.0 783:1.0 852:1.0 935:1.0 1011:1.0 1058:1.0 1117:1.0 1162:1.0 1215:1.0 1298:1.0 1375:1.0 1427:1.0 1506:1.0 1568:1.0 1623:1.0 1714:1.0 1760:1.0 1815:1.0 1906:1.0 1950:1.0 1999:1.0 
5.323906804957951E-4 4:1.0 6:1.0 11:1.0 16:1.0 19:1.0 23:1.0 26:1.0 32:1.0 36:1.0 40:1.0 42:1.0 47:1.0 50:1.0 56:1.0 59:1.0 62:1.0 65:1.0 72:1.0 75:1.0 79:1.0 82:1.0 85:1.0 90:1.0 95:1.0 99:1.0 101:1.0 107:1.0 109:1.0 115:1.0 117:1.0 175:1.0 212:1.0 295:1.0 371:1.0 418:1.0 480:1.0 536:1.0 632:1.0 694:1.0 751:1.0 786:1.0 864:1.0 919:1.0 1011:1.0 1058:1.0 1118:1.0 1165:1.0 1228:1.0 1287:1.0 1395:1.0 1442:1.0 1501:1.0 1546:1.0 1599:1.0 1683:1.0 1761:1.0 1819:1.0 1857:1.0 1947:1.0 1985:1.0 
-0.002790178571428572 1:1.0 6:1.0 11:1.0 16:1.0 19:1.0 23:1.0 27:1.0 30:1.0 35:1.0 40:1.0 43:1.0 46:1.0 52:1.0 55:1.0 59:1.0 63:1.0 67:1.0 71:1.0 75:1.0 80:1.0 83:1.0 87:1.0 92:1.0 95:1.0 99:1.0 102:1.0 106:1.0 111:1.0 115:1.0 118:1.0 127:1.0 212:1.0 295:1.0 371:1.0 419:1.0 482:1.0 543:1.0 596:1.0 679:1.0 754:1.0 800:1.0 855:1.0 947:1.0 995:1.0 1058:1.0 1119:1.0 1171:1.0 1251:1.0 1315:1.0 1380:1.0 1447:1.0 1523:1.0 1572:1.0 1639:1.0 1715:1.0 1762:1.0 1822:1.0 1871:1.0 1939:1.0 2018:1.0 
0.002790178571428572 4:1.0 8:1.0 12:1.0 13:1.0 20:1.0 21:1.0 25:1.0 32:1.0 36:1.0 37:1.0 43:1.0 47:1.0 49:1.0 56:1.0 59:1.0 62:1.0 65:1.0 71:1.0 73:1.0 79:1.0 84:1.0 86:1.0 91:1.0 94:1.0 100:1.0 104:1.0 107:1.0 110:1.0 113:1.0 120:1.0 184:1.0 245:1.0 300:1.0 325:1.0 425:1.0 444:1.0 520:1.0 629:1.0 683:1.0 707:1.0 801:1.0 860:1.0 903:1.0 1011:1.0 1058:1.0 1118:1.0 1165:1.0 1227:1.0 1281:1.0 1371:1.0 1412:1.0 1510:1.0 1583:1.0 1618:1.0 1696:1.0 1752:1.0 1847:1.0 1906:1.0 1949:1.0 1996:1.0 
0.002790178571428572 4:1.0 8:1.0 12:1.0 14:1.0 17:1.0 24:1.0 26:1.0 31:1.0 35:1.0 37:1.0 43:1.0 46:1.0 50:1.0 54:1.0 58:1.0 64:1.0 68:1.0 72:1.0 73:1.0 78:1.0 82:1.0 85:1.0 91:1.0 94:1.0 98:1.0 102:1.0 108:1.0 111:1.0 116:1.0 120:1.0 184:1.0 246:1.0 301:1.0 332:1.0 390:1.0 495:1.0 531:1.0 609:1.0 667:1.0 706:1.0 798:1.0 846:1.0 910:1.0 975:1.0 1042:1.0 1120:1.0 1176:1.0 1272:1.0 1333:1.0 1386:1.0 1406:1.0 1485:1.0 1547:1.0 1602:1.0 1694:1.0 1742:1.0 1808:1.0 1879:1.0 1972:1.0 2024:1.0 
-0.0017228585348520785 3:1.0 5:1.0 12:1.0 15:1.0 17:1.0 22:1.0 27:1.0 32:1.0 33:1.0 39:1.0 41:1.0 48:1.0 49:1.0 53:1.0 60:1.0 61:1.0 68:1.0 72:1.0 73:1.0 80:1.0 84:1.0 88:1.0 92:1.0 95:1.0 97:1.0 103:1.0 105:1.0 109:1.0 113:1.0 119:1.0 156:1.0 199:1.0 305:1.0 346:1.0 383:1.0 468:1.0 549:1.0 619:1.0 641:1.0 732:1.0 773:1.0 873:1.0 892:1.0 967:1.0 1074:1.0 1117:1.0 1164:1.0 1224:1.0 1333:1.0 1388:1.0 1416:1.0 1528:1.0 1592:1.0 1655:1.0 1713:1.0 1755:1.0 1793:1.0 1881:1.0 1913:1.0 1979:1.0 
-5.84850121259659E-4 3:1.0 7:1.0 10:1.0 15:1.0 17:1.0 22:1.0 26:1.0 32:1.0 35:1.0 37:1.0 41:1.0 47:1.0 50:1.0 53:1.0 59:1.0 64:1.0 68:1.0 70:1.0 74:1.0 78:1.0 84:1.0 87:1.0 92:1.0 95:1.0 100:1.0 103:1.0 107:1.0 110:1.0 114:1.0 119:1.0 162:1.0 223:1.0 273:1.0 346:1.0 382:1.0 464:1.0 535:1.0 625:1.0 665:1.0 699:1.0 770:1.0 861:1.0 907:1.0 963:1.0 1058:1.0 1120:1.0 1176:1.0 1270:1.0 1326:1.0 1358:1.0 1424:1.0 1495:1.0 1588:1.0 1639:1.0 1716:1.0 1767:1.0 1843:1.0 1890:1.0 1950:1.0 1999:1.0 
5.304781566280246E-4 2:1.0 5:1.0 11:1.0 13:1.0 20:1.0 22:1.0 25:1.0 30:1.0 35:1.0 40:1.0 43:1.0 46:1.0 50:1.0 54:1.0 59:1.0 62:1.0 66:1.0 70:1.0 74:1.0 80:1.0 82:1.0 86:1.0 90:1.0 95:1.0 98:1.0 101:1.0 107:1.0 111:1.0 115:1.0 118:1.0 139:1.0 193:1.0 284:1.0 326:1.0 429:1.0 458:1.0 511:1.0 596:1.0 679:1.0 754:1.0 798:1.0 846:1.0 911:1.0 979:1.0 1058:1.0 1118:1.0 1166:1.0 1230:1.0 1294:1.0 1360:1.0 1430:1.0 1518:1.0 1550:1.0 1615:1.0 1682:1.0 1757:1.0 1803:1.0 1859:1.0 1955:1.0 2018:1.0 
-0.002790178571428572 1:1.0 5:1.0 9:1.0 16:1.0 19:1.0 23:1.0 27:1.0 32:1.0 35:1.0 39:1.0 41:1.0 47:1.0 50:1.0 56:1.0 59:1.0 63:1.0 67:1.0 71:1.0 75:1.0 80:1.0 84:1.0 88:1.0 91:1.0 93:1.0 97:1.0 102:1.0 108:1.0 111:1.0 114:1.0 117:1.0 121:1.0 188:1.0 263:1.0 371:1.0 419:1.0 484:1.0 551:1.0 627:1.0 673:1.0 731:1.0 770:1.0 864:1.0 919:1.0 1011:1.0 1058:1.0 1119:1.0 1171:1.0 1251:1.0 1315:1.0 1380:1.0 1448:1.0 1528:1.0 1591:1.0 1649:1.0 1689:1.0 1722:1.0 1792:1.0 1879:1.0 1970:1.0 2013:1.0 
-0.002790178571428572 3:1.0 5:1.0 12:1.0 15:1.0 17:1.0 22:1.0 27:1.0 32:1.0 33:1.0 39:1.0 42:1.0 47:1.0 52:1.0 53:1.0 57:1.0 64:1.0 68:1.0 69:1.0 74:1.0 79:1.0 84:1.0 88:1.0 92:1.0 95:1.0 97:1.0 103:1.0 105:1.0 109:1.0 113:1.0 119:1.0 156:1.0 199:1.0 305:1.0 346:1.0 383:1.0 468:1.0 549:1.0 619:1.0 642:1.0 735:1.0 788:1.0 869:1.0 937:1.0 955:1.0 1026:1.0 1120:1.0 1176:1.0 1269:1.0 1322:1.0 1343:1.0 1428:1.0 1512:1.0 1592:1.0 1655:1.0 1713:1.0 1755:1.0 1793:1.0 1881:1.0 1913:1.0 1979:1.0 
-2.6724384483607525E-4 2:1.0 7:1.0 11:1.0 15:1.0 19:1.0 22:1.0 25:1.0 30:1.0 35:1.0 39:1.0 43:1.0 48:1.0 51:1.0 54:1.0 58:1.0 62:1.0 67:1.0 70:1.0 74:1.0 78:1.0 82:1.0 86:1.0 92:1.0 93:1.0 98:1.0 104:1.0 106:1.0 112:1.0 115:1.0 119:1.0 147:1.0 227:1.0 291:1.0 354:1.0 413:1.0 458:1.0 511:1.0 595:1.0 675:1.0 740:1.0 807:1.0 882:1.0 926:1.0 975:1.0 1042:1.0 1118:1.0 1167:1.0 1234:1.0 1310:1.0 1358:1.0 1422:1.0 1486:1.0 1552:1.0 1621:1.0 1706:1.0 1728:1.0 1814:1.0 1904:1.0 1943:1.0 2035:1.0 
-0.0020791695788233418 3:1.0 8:1.0 10:1.0 14:1.0 20:1.0 22:1.0 25:1.0 31:1.0 35:1.0 39:1.0 42:1.0 48:1.0 50:1.0 56:1.0 59:1.0 62:1.0 65:1.0 69:1.0 75:1.0 80:1.0 84:1.0 86:1.0 89:1.0 95:1.0 97:1.0 103:1.0 106:1.0 110:1.0 115:1.0 118:1.0 166:1.0 238:1.0 272:1.0 342:1.0 429:1.0 459:1.0 515:1.0 611:1.0 674:1.0 736:1.0 790:1.0 880:1.0 919:1.0 1011:1.0 1058:1.0 1118:1.0 1165:1.0 1225:1.0 1275:1.0 1348:1.0 1448:1.0 1526:1.0 1581:1.0 1611:1.0 1665:1.0 1755:1.0 1794:1.0 1886:1.0 1935:1.0 2002:1.0 
-0.001135246934510571 3:1.0 5:1.0 12:1.0 15:1.0 17:1.0 22:1.0 27:1.0 32:1.0 33:1.0 39:1.0 41:1.0 48:1.0 49:1.0 55:1.0 60:1.0 61:1.0 66:1.0 72:1.0 73:1.0 80:1.0 84:1.0 88:1.0 92:1.0 95:1.0 97:1.0 103:1.0 105:1.0 109:1.0 113:1.0 119:1.0 156:1.0 199:1.0 305:1.0 346:1.0 383:1.0 468:1.0 549:1.0 619:1.0 641:1.0 732:1.0 773:1.0 875:1.0 900:1.0 999:1.0 1074:1.0 1117:1.0 1162:1.0 1216:1.0 1301:1.0 1388:1.0 1416:1.0 1528:1.0 1592:1.0 1655:1.0 1713:1.0 1755:1.0 1793:1.0 1881:1.0 1913:1.0 1979:1.0 
6.457699243528531E-4 2:1.0 7:1.0 12:1.0 14:1.0 20:1.0 22:1.0 25:1.0 31:1.0 35:1.0 39:1.0 43:1.0 48:1.0 50:1.0 56:1.0 58:1.0 64:1.0 66:1.0 71:1.0 75:1.0 79:1.0 83:1.0 86:1.0 91:1.0 93:1.0 98:1.0 104:1.0 106:1.0 111:1.0 115:1.0 119:1.0 148:1.0 230:1.0 304:1.0 342:1.0 429:1.0 459:1.0 515:1.0 611:1.0 675:1.0 740:1.0 806:1.0 880:1.0 918:1.0 1007:1.0 1042:1.0 1120:1.0 1174:1.0 1263:1.0 1299:1.0 1379:1.0 1443:1.0 1506:1.0 1567:1.0 1617:1.0 1690:1.0 1728:1.0 1814:1.0 1903:1.0 1939:1.0 2019:1.0 
-0.002790178571428572 3:1.0 5:1.0 12:1.0 15:1.0 17:1.0 22:1.0 27:1.0 32:1.0 33:1.0 39:1.0 44:1.0 47:1.0 49:1.0 54:1.0 59:1.0 62:1.0 67:1.0 72:1.0 74:1.0 77:1.0 84:1.0 88:1.0 92:1.0 95:1.0 97:1.0 103:1.0 105:1.0 109:1.0 113:1.0 119:1.0 156:1.0 199:1.0 305:1.0 346:1.0 383:1.0 468:1.0 549:1.0 619:1.0 644:1.0 743:1.0 817:1.0 858:1.0 895:1.0 979:1.0 1058:1.0 1118:1.0 1167:1.0 1236:1.0 1318:1.0 1389:1.0 1420:1.0 1480:1.0 1592:1.0 1655:1.0 1713:1.0 1755:1.0 1793:1.0 1881:1.0 1913:1.0 1979:1.0 
-0.0027783498683934074 3:1.0 5:1.0 12:1.0 15:1.0 17:1.0 22:1.0 27:1.0 32:1.0 33:1.0 39:1.0 41:1.0 46:1.0 49:1.0 53:1.0 58:1.0 64:1.0 68:1.0 72:1.0 75:1.0 80:1.0 84:1.0 88:1.0 92:1.0 95:1.0 97:1.0 103:1.0 105:1.0 109:1.0 113:1.0 119:1.0 156:1.0 199:1.0 305:1.0 346:1.0 383:1.0 468:1.0 549:1.0 619:1.0 641:1.0 730:1.0 765:1.0 841:1.0 890:1.0 959:1.0 1042:1.0 1120:1.0 1176:1.0 1272:1.0 1335:1.0 1396:1.0 1448:1.0 1528:1.0 1592:1.0 1655:1.0 1713:1.0 1755:1.0 1793:1.0 1881:1.0 1913:1.0 1979:1.0 
-0.002790178571428572 4:1.0 7:1.0 10:1.0 13:1.0 17:1.0 22:1.0 25:1.0 31:1.0 36:1.0 39:1.0 41:1.0 47:1.0 52:1.0 55:1.0 57:1.0 64:1.0 68:1.0 71:1.0 76:1.0 77:1.0 81:1.0 86:1.0 90:1.0 94:1.0 97:1.0 102:1.0 106:1.0 112:1.0 115:1.0 120:1.0 178:1.0 221:1.0 265:1.0 314:1.0 381:1.0 459:1.0 516:1.0 615:1.0 689:1.0 731:1.0 772:1.0 871:1.0 945:1.0 987:1.0 1026:1.0 1120:1.0 1176:1.0 1271:1.0 1332:1.0 1381:1.0 1449:1.0 1466:1.0 1534:1.0 1614:1.0 1677:1.0 1738:1.0 1790:1.0 1872:1.0 1943:1.0 2036:1.0 
-0.002790178571428572 3:1.0 5:1.0 12:1.0 15:1.0 17:1.0 22:1.0 27:1.0 32:1.0 33:1.0 39:1.0 41:1.0 47:1.0 50:1.0 54:1.0 58:1.0 64:1.0 68:1.0 69:1.0 73:1.0 77:1.0 84:1.0 88:1.0 92:1.0 95:1.0 97:1.0 103:1.0 105:1.0 109:1.0 113:1.0 119:1.0 156:1.0 199:1.0 305:1.0 346:1.0 383:1.0 468:1.0 549:1.0 619:1.0 641:1.0 731:1.0 770:1.0 862:1.0 910:1.0 975:1.0 1042:1.0 1120:1.0 1176:1.0 1269:1.0 1321:1.0 1337:1.0 1404:1.0 1480:1.0 1592:1.0 1655:1.0 1713:1.0 1755:1.0 1793:1.0 1881:1.0 1913:1.0 1979:1.0 
0.002790178571428572 2:1.0 6:1.0 12:1.0 14:1.0 18:1.0 24:1.0 26:1.0 30:1.0 33:1.0 38:1.0 42:1.0 46:1.0 50:1.0 54:1.0 59:1.0 62:1.0 66:1.0 69:1.0 75:1.0 79:1.0 83:1.0 86:1.0 90:1.0 94:1.0 100:1.0 104:1.0 108:1.0 112:1.0 115:1.0 120:1.0 144:1.0 214:1.0 302:1.0 336:1.0 406:1.0 494:1.0 525:1.0 586:1.0 638:1.0 718:1.0 782:1.0 846:1.0 911:1.0 979:1.0 1058:1.0 1118:1.0 1166:1.0 1229:1.0 1291:1.0 1347:1.0 1443:1.0 1506:1.0 1566:1.0 1614:1.0 1680:1.0 1752:1.0 1848:1.0 1912:1.0 1975:1.0 2036:1.0 
-0.002243267601828069 1:1.0 7:1.0 10:1.0 14:1.0 18:1.0 24:1.0 26:1.0 30:1.0 34:1.0 39:1.0 42:1.0 47:1.0 49:1.0 55:1.0 59:1.0 62:1.0 66:1.0 70:1.0 75:1.0 79:1.0 83:1.0 85:1.0 90:1.0 95:1.0 99:1.0 101:1.0 105:1.0 111:1.0 115:1.0 117:1.0 130:1.0 222:1.0 270:1.0 336:1.0 406:1.0 494:1.0 526:1.0 591:1.0 658:1.0 735:1.0 785:1.0 859:1.0 899:1.0 995:1.0 1058:1.0 1118:1.0 1166:1.0 1230:1.0 1295:1.0 1363:1.0 1443:1.0 1505:1.0 1562:1.0 1599:1.0 1683:1.0 1761:1.0 1817:1.0 1851:1.0 1923:1.0 2017:1.0 
-0.002790178571428572 2:1.0 6:1.0 11:1.0 15:1.0 19:1.0 24:1.0 26:1.0 30:1.0 33:1.0 39:1.0 42:1.0 48:1.0 52:1.0 54:1.0 59:1.0 63:1.0 65:1.0 71:1.0 75:1.0 78:1.0 82:1.0 86:1.0 92:1.0 94:1.0 97:1.0 101:1.0 108:1.0 110:1.0 114:1.0 119:1.0 143:1.0 211:1.0 291:1.0 356:1.0 422:1.0 494:1.0 525:1.0 587:1.0 642:1.0 736:1.0 792:1.0 886:1.0 943:1.0 979:1.0 1058:1.0 1119:1.0 1169:1.0 1243:1.0 1283:1.0 1378:1.0 1438:1.0 1486:1.0 1552:1.0 1622:1.0 1709:1.0 1737:1.0 1788:1.0 1862:1.0 1966:1.0 1999:1.0 
0.0015973706468418209 2:1.0 6:1.0 10:1.0 14:1.0 20:1.0 22:1.0 26:1.0 31:1.0 35:1.0 39:1.0 42:1.0 48:1.0 50:1.0 54:1.0 59:1.0 62:1.0 68:1.0 71:1.0 73:1.0 77:1.0 81:1.0 86:1.0 90:1.0 96:1.0 100:1.0 102:1.0 106:1.0 112:1.0 115:1.0 117:1.0 142:1.0 206:1.0 272:1.0 342:1.0 430:1.0 463:1.0 531:1.0 611:1.0 674:1.0 736:1.0 790:1.0 878:1.0 911:1.0 979:1.0 1058:1.0 1118:1.0 1168:1.0 1239:1.0 1329:1.0 1369:1.0 1401:1.0 1466:1.0 1534:1.0 1616:1.0 1688:1.0 1782:1.0 1838:1.0 1872:1.0 1943:1.0 2033:1.0 
-0.002790178571428572 4:1.0 6:1.0 10:1.0 15:1.0 18:1.0 21:1.0 27:1.0 32:1.0 35:1.0 39:1.0 42:1.0 47:1.0 52:1.0 56:1.0 58:1.0 62:1.0 65:1.0 71:1.0 74:1.0 78:1.0 82:1.0 86:1.0 92:1.0 96:1.0 99:1.0 101:1.0 107:1.0 109:1.0 115:1.0 117:1.0 174:1.0 207:1.0 274:1.0 349:1.0 395:1.0 452:1.0 551:1.0 627:1.0 674:1.0 735:1.0 788:1.0 872:1.0 950:1.0 1007:1.0 1042:1.0 1118:1.0 1165:1.0 1227:1.0 1282:1.0 1374:1.0 1422:1.0 1486:1.0 1552:1.0 1624:1.0 1719:1.0 1777:1.0 1819:1.0 1857:1.0 1947:1.0 1985:1.0 
0.002790178571428572 4:1.0 6:1.0 9:1.0 15:1.0 18:1.0 21:1.0 27:1.0 30:1.0 34:1.0 38:1.0 42:1.0 48:1.0 51:1.0 55:1.0 57:1.0 63:1.0 67:1.0 69:1.0 75:1.0 78:1.0 82:1.0 87:1.0 91:1.0 94:1.0 99:1.0 104:1.0 107:1.0 111:1.0 113:1.0 119:1.0 173:1.0 203:1.0 258:1.0 349:1.0 395:1.0 450:1.0 542:1.0 590:1.0 654:1.0 720:1.0 791:1.0 883:1.0 929:1.0 987:1.0 1026:1.0 1119:1.0 1171:1.0 1249:1.0 1307:1.0 1346:1.0 1438:1.0 1487:1.0 1555:1.0 1634:1.0 1695:1.0 1748:1.0 1831:1.0 1907:1.0 1953:1.0 2011:1.0 
-9.624299862978572E-4 2:1.0 5:1.0 10:1.0 15:1.0 18:1.0 21:1.0 27:1.0 30:1.0 33:1.0 37:1.0 42:1.0 46:1.0 49:1.0 53:1.0 58:1.0 63:1.0 67:1.0 69:1.0 76:1.0 78:1.0 84:1.0 86:1.0 89:1.0 95:1.0 98:1.0 101:1.0 107:1.0 111:1.0 115:1.0 118:1.0 138:1.0 191:1.0 274:1.0 349:1.0 395:1.0 450:1.0 541:1.0 585:1.0 634:1.0 702:1.0 781:1.0 841:1.0 890:1.0 959:1.0 1042:1.0 1119:1.0 1171:1.0 1249:1.0 1308:1.0 1350:1.0 1456:1.0 1494:1.0 1581:1.0 1611:1.0 1666:1.0 1757:1.0 1803:1.0 1859:1.0 1955:1.0 2018:1.0 
-5.3034399971410166E-5 2:1.0 6:1.0 9:1.0 15:1.0 19:1.0 22:1.0 25:1.0 31:1.0 34:1.0 37:1.0 42:1.0 47:1.0 52:1.0 55:1.0 57:1.0 63:1.0 67:1.0 69:1.0 74:1.0 78:1.0 82:1.0 86:1.0 90:1.0 96:1.0 100:1.0 104:1.0 108:1.0 112:1.0 114:1.0 118:1.0 141:1.0 203:1.0 259:1.0 354:1.0 413:1.0 459:1.0 514:1.0 605:1.0 650:1.0 703:1.0 788:1.0 871:1.0 945:1.0 987:1.0 1026:1.0 1119:1.0 1171:1.0 1249:1.0 1306:1.0 1342:1.0 1422:1.0 1486:1.0 1550:1.0 1616:1.0 1688:1.0 1784:1.0 1848:1.0 1912:1.0 1974:1.0 2030:1.0 
-0.0025567142970340873 2:1.0 6:1.0 11:1.0 15:1.0 20:1.0 24:1.0 26:1.0 31:1.0 33:1.0 37:1.0 42:1.0 47:1.0 50:1.0 56:1.0 58:1.0 64:1.0 65:1.0 69:1.0 75:1.0 79:1.0 81:1.0 85:1.0 90:1.0 95:1.0 100:1.0 102:1.0 105:1.0 111:1.0 114:1.0 118:1.0 143:1.0 211:1.0 292:1.0 360:1.0 438:1.0 495:1.0 529:1.0 601:1.0 634:1.0 703:1.0 786:1.0 864:1.0 918:1.0 1007:1.0 1042:1.0 1120:1.0 1173:1.0 1257:1.0 1275:1.0 1347:1.0 1441:1.0 1497:1.0 1530:1.0 1599:1.0 1684:1.0 1766:1.0 1837:1.0 1867:1.0 1922:1.0 2014:1.0 
0.0019045142453184328 1:1.0 8:1.0 12:1.0 15:1.0 19:1.0 21:1.0 26:1.0 30:1.0 36:1.0 37:1.0 43:1.0 46:1.0 52:1.0 56:1.0 59:1.0 63:1.0 67:1.0 69:1.0 73:1.0 80:1.0 82:1.0 86:1.0 91:1.0 96:1.0 99:1.0 101:1.0 105:1.0 112:1.0 116:1.0 119:1.0 136:1.0 247:1.0 307:1.0 353:1.0 410:1.0 446:1.0 528:1.0 597:1.0 683:1.0 706:1.0 800:1.0 856:1.0 951:1.0 1011:1.0 1058:1.0 1119:1.0 1171:1.0 1249:1.0 1305:1.0 1340:1.0 1414:1.0 1518:1.0 1551:1.0 1620:1.0 1703:1.0 1777:1.0 1817:1.0 1852:1.0 1928:1.0 2039:1.0 
-0.0020803911231063233 4:1.0 8:1.0 11:1.0 15:1.0 18:1.0 22:1.0 26:1.0 31:1.0 36:1.0 38:1.0 42:1.0 46:1.0 51:1.0 54:1.0 58:1.0 62:1.0 65:1.0 69:1.0 75:1.0 77:1.0 82:1.0 86:1.0 90:1.0 93:1.0 99:1.0 102:1.0 108:1.0 112:1.0 114:1.0 120:1.0 183:1.0 243:1.0 290:1.0 350:1.0 398:1.0 463:1.0 532:1.0 614:1.0 686:1.0 718:1.0 783:1.0 850:1.0 926:1.0 975:1.0 1042:1.0 1118:1.0 1165:1.0 1225:1.0 1275:1.0 1345:1.0 1434:1.0 1470:1.0 1550:1.0 1613:1.0 1675:1.0 1730:1.0 1824:1.0 1880:1.0 1974:1.0 2032:1.0 
0.002790178571428572 3:1.0 5:1.0 12:1.0 15:1.0 17:1.0 22:1.0 27:1.0 32:1.0 33:1.0 39:1.0 41:1.0 48:1.0 52:1.0 55:1.0 57:1.0 64:1.0 66:1.0 69:1.0 73:1.0 80:1.0 84:1.0 88:1.0 92:1.0 95:1.0 97:1.0 103:1.0 105:1.0 109:1.0 113:1.0 119:1.0 156:1.0 199:1.0 305:1.0 346:1.0 383:1.0 468:1.0 549:1.0 619:1.0 641:1.0 732:1.0 776:1.0 887:1.0 945:1.0 987:1.0 1026:1.0 1120:1.0 1174:1.0 1261:1.0 1289:1.0 1340:1.0 1416:1.0 1528:1.0 1592:1.0 1655:1.0 1713:1.0 1755:1.0 1793:1.0 1881:1.0 1913:1.0 1979:1.0 
-0.002790178571428572 3:1.0 5:1.0 12:1.0 15:1.0 17:1.0 22:1.0 27:1.0 32:1.0 33:1.0 39:1.0 44:1.0 46:1.0 50:1.0 54:1.0 58:1.0 64:1.0 68:1.0 69:1.0 73:1.0 77:1.0 84:1.0 88:1.0 92:1.0 95:1.0 97:1.0 103:1.0 105:1.0 109:1.0 113:1.0 119:1.0 156:1.0 199:1.0 305:1.0 346:1.0 383:1.0 468:1.0 549:1.0 619:1.0 644:1.0 742:1.0 814:1.0 846:1.0 910:1.0 975:1.0 1042:1.0 1120:1.0 1176:1.0 1269:1.0 1321:1.0 1337:1.0 1404:1.0 1480:1.0 1592:1.0 1655:1.0 1713:1.0 1755:1.0 1793:1.0 1881:1.0 1913:1.0 1979:1.0 
-8.820329398989867E-4 2:1.0 6:1.0 10:1.0 16:1.0 19:1.0 22:1.0 26:1.0 32:1.0 34:1.0 38:1.0 44:1.0 47:1.0 51:1.0 53:1.0 58:1.0 64:1.0 66:1.0 72:1.0 74:1.0 79:1.0 83:1.0 87:1.0 89:1.0 95:1.0 98:1.0 102:1.0 107:1.0 109:1.0 116:1.0 120:1.0 142:1.0 208:1.0 279:1.0 370:1.0 414:1.0 464:1.0 534:1.0 622:1.0 656:1.0 727:1.0 819:1.0 865:1.0 922:1.0 959:1.0 1042:1.0 1120:1.0 1174:1.0 1264:1.0 1302:1.0 1391:1.0 1427:1.0 1507:1.0 1569:1.0 1627:1.0 1666:1.0 1758:1.0 1807:1.0 1873:1.0 1948:1.0 1992:1.0 
-8.767890551128644E-4 4:1.0 7:1.0 10:1.0 15:1.0 17:1.0 24:1.0 27:1.0 29:1.0 34:1.0 40:1.0 42:1.0 47:1.0 49:1.0 54:1.0 58:1.0 62:1.0 65:1.0 70:1.0 74:1.0 78:1.0 81:1.0 87:1.0 89:1.0 94:1.0 97:1.0 101:1.0 106:1.0 111:1.0 115:1.0 118:1.0 178:1.0 223:1.0 273:1.0 348:1.0 391:1.0 497:1.0 538:1.0 576:1.0 662:1.0 751:1.0 785:1.0 858:1.0 894:1.0 975:1.0 1042:1.0 1118:1.0 1165:1.0 1226:1.0 1278:1.0 1358:1.0 1421:1.0 1483:1.0 1537:1.0 1626:1.0 1661:1.0 1737:1.0 1786:1.0 1855:1.0 1939:1.0 2018:1.0 
-0.0010603488621460035 2:1.0 7:1.0 11:1.0 15:1.0 18:1.0 22:1.0 26:1.0 30:1.0 35:1.0 37:1.0 42:1.0 48:1.0 52:1.0 54:1.0 57:1.0 62:1.0 68:1.0 70:1.0 74:1.0 78:1.0 82:1.0 86:1.0 89:1.0 95:1.0 99:1.0 101:1.0 108:1.0 110:1.0 114:1.0 117:1.0 147:1.0 227:1.0 290:1.0 350:1.0 398:1.0 462:1.0 527:1.0 593:1.0 666:1.0 704:1.0 792:1.0 886:1.0 941:1.0 971:1.0 1026:1.0 1118:1.0 1168:1.0 1238:1.0 1326:1.0 1358:1.0 1422:1.0 1486:1.0 1549:1.0 1611:1.0 1667:1.0 1761:1.0 1820:1.0 1862:1.0 1966:1.0 1997:1.0 
