svm_type epsilon_svr
kernel_type linear
nr_class 2
total_sv 4201
rho -6.8769332689412925
SV
-0.02 1:1.0 7:1.0 9:1.0 16:1.0 19:1.0 21:1.0 26:1.0 31:1.0 36:1.0 37:1.0 43:1.0 47:1.0 49:1.0 55:1.0 57:1.0 63:1.0 67:1.0 78:1.0 82:1.0 88:1.0 90:1.0 96:1.0 98:1.0 104:1.0 108:1.0 112:1.0 115:1.0 117:1.0 123:1.0 125:1.0 129:1.0 133:1.0 139:1.0 143:1.0 153:1.0 244:1.0 287:1.0 393:1.0 434:1.0 471:1.0 556:1.0 637:1.0 707:1.0 731:1.0 825:1.0 883:1.0 921:1.0 1011:1.0 1051:1.0 1146:1.0 1207:1.0 1258:1.0 1334:1.0 1384:1.0 1454:1.0 1544:1.0 1582:1.0 1672:1.0 1712:1.0 1808:1.0 1871:1.0 1929:1.0 1971:1.0 2009:1.0 2097:1.0 2129:1.0 2195:1.0 2267:1.0 
0.02 4:1.0 7:1.0 9:1.0 15:1.0 19:1.0 21:1.0 26:1.0 31:1.0 35:1.0 37:1.0 43:1.0 46:1.0 51:1.0 53:1.0 58:1.0 62:1.0 67:1.0 78:1.0 83:1.0 85:1.0 91:1.0 94:1.0 98:1.0 104:1.0 107:1.0 111:1.0 114:1.0 119:1.0 124:1.0 127:1.0 129:1.0 133:1.0 137:1.0 141:1.0 201:1.0 243:1.0 283:1.0 377:1.0 434:1.0 471:1.0 555:1.0 633:1.0 691:1.0 730:1.0 823:1.0 873:1.0 946:1.0 982:1.0 1063:1.0 1130:1.0 1207:1.0 1258:1.0 1335:1.0 1385:1.0 1459:1.0 1498:1.0 1590:1.0 1640:1.0 1711:1.0 1803:1.0 1850:1.0 1911:1.0 1964:1.0 2047:1.0 2121:1.0 2161:1.0 2193:1.0 2257:1.0 
0.02 2:1.0 6:1.0 12:1.0 16:1.0 20:1.0 22:1.0 28:1.0 30:1.0 33:1.0 37:1.0 41:1.0 48:1.0 52:1.0 56:1.0 57:1.0 61:1.0 67:1.0 78:1.0 83:1.0 86:1.0 91:1.0 95:1.0 99:1.0 102:1.0 108:1.0 109:1.0 114:1.0 119:1.0 124:1.0 126:1.0 129:1.0 136:1.0 138:1.0 144:1.0 168:1.0 240:1.0 336:1.0 398:1.0 456:1.0 494:1.0 581:1.0 609:1.0 657:1.0 724:1.0 800:1.0 912:1.0 973:1.0 1025:1.0 1043:1.0 1114:1.0 1207:1.0 1258:1.0 1335:1.0 1386:1.0 1463:1.0 1515:1.0 1595:1.0 1658:1.0 1720:1.0 1773:1.0 1858:1.0 1879:1.0 1964:1.0 2046:1.0 2117:1.0 2148:1.0 2206:1.0 2312:1.0 
0.011145186779720177 4:1.0 6:1.0 10:1.0 14:1.0 17:1.0 24:1.0 26:1.0 30:1.0 36:1.0 38:1.0 43:1.0 46:1.0 50:1.0 55:1.0 57:1.0 63:1.0 67:1.0 78:1.0 82:1.0 87:1.0 89:1.0 94:1.0 99:1.0 104:1.0 107:1.0 110:1.0 114:1.0 118:1.0 124:1.0 126:1.0 130:1.0 136:1.0 138:1.0 141:1.0 198:1.0 230:1.0 293:1.0 356:1.0 414:1.0 518:1.0 552:1.0 622:1.0 711:1.0 746:1.0 822:1.0 871:1.0 937:1.0 1011:1.0 1051:1.0 1146:1.0 1207:1.0 1258:1.0 1334:1.0 1383:1.0 1449:1.0 1522:1.0 1559:1.0 1644:1.0 1727:1.0 1802:1.0 1846:1.0 1894:1.0 1960:1.0 2030:1.0 2118:1.0 2152:1.0 2222:1.0 2309:1.0 
0.02 4:1.0 7:1.0 12:1.0 15:1.0 18:1.0 22:1.0 26:1.0 31:1.0 33:1.0 38:1.0 42:1.0 47:1.0 51:1.0 55:1.0 59:1.0 63:1.0 66:1.0 78:1.0 83:1.0 86:1.0 91:1.0 96:1.0 98:1.0 102:1.0 106:1.0 110:1.0 115:1.0 119:1.0 122:1.0 125:1.0 129:1.0 134:1.0 138:1.0 141:1.0 204:1.0 255:1.0 330:1.0 374:1.0 422:1.0 487:1.0 553:1.0 626:1.0 662:1.0 743:1.0 811:1.0 891:1.0 955:1.0 1019:1.0 1082:1.0 1142:1.0 1191:1.0 1258:1.0 1335:1.0 1386:1.0 1463:1.0 1516:1.0 1598:1.0 1670:1.0 1702:1.0 1766:1.0 1831:1.0 1899:1.0 1978:1.0 2037:1.0 2081:1.0 2130:1.0 2198:1.0 2277:1.0 
0.02 4:1.0 8:1.0 10:1.0 15:1.0 18:1.0 22:1.0 28:1.0 30:1.0 34:1.0 37:1.0 43:1.0 47:1.0 50:1.0 54:1.0 59:1.0 63:1.0 67:1.0 79:1.0 83:1.0 85:1.0 91:1.0 94:1.0 97:1.0 103:1.0 108:1.0 111:1.0 114:1.0 118:1.0 124:1.0 125:1.0 131:1.0 134:1.0 138:1.0 141:1.0 206:1.0 263:1.0 298:1.0 374:1.0 424:1.0 494:1.0 582:1.0 613:1.0 675:1.0 731:1.0 826:1.0 886:1.0 935:1.0 1003:1.0 1083:1.0 1146:1.0 1207:1.0 1259:1.0 1339:1.0 1401:1.0 1459:1.0 1498:1.0 1589:1.0 1635:1.0 1692:1.0 1791:1.0 1866:1.0 1910:1.0 1960:1.0 2029:1.0 2115:1.0 2138:1.0 2230:1.0 2277:1.0 
0.02 4:1.0 8:1.0 9:1.0 15:1.0 20:1.0 22:1.0 27:1.0 30:1.0 34:1.0 39:1.0 44:1.0 45:1.0 50:1.0 53:1.0 57:1.0 62:1.0 66:1.0 78:1.0 83:1.0 85:1.0 91:1.0 95:1.0 98:1.0 102:1.0 106:1.0 110:1.0 113:1.0 118:1.0 121:1.0 126:1.0 132:1.0 136:1.0 140:1.0 141:1.0 205:1.0 259:1.0 284:1.0 382:1.0 455:1.0 490:1.0 566:1.0 615:1.0 684:1.0 765:1.0 834:1.0 853:1.0 929:1.0 978:1.0 1046:1.0 1126:1.0 1191:1.0 1258:1.0 1335:1.0 1385:1.0 1459:1.0 1499:1.0 1594:1.0 1654:1.0 1702:1.0 1766:1.0 1829:1.0 1890:1.0 1941:1.0 2018:1.0 2072:1.0 2160:1.0 2256:1.0 2317:1.0 
0.02 1:1.0 7:1.0 9:1.0 16:1.0 19:1.0 21:1.0 26:1.0 31:1.0 36:1.0 37:1.0 43:1.0 47:1.0 51:1.0 55:1.0 59:1.0 64:1.0 67:1.0 78:1.0 81:1.0 86:1.0 90:1.0 94:1.0 98:1.0 104:1.0 108:1.0 112:1.0 115:1.0 117:1.0 123:1.0 125:1.0 129:1.0 133:1.0 139:1.0 143:1.0 153:1.0 244:1.0 287:1.0 393:1.0 434:1.0 471:1.0 556:1.0 637:1.0 707:1.0 731:1.0 827:1.0 891:1.0 955:1.0 1020:1.0 1087:1.0 1162:1.0 1207:1.0 1258:1.0 1333:1.0 1378:1.0 1430:1.0 1510:1.0 1574:1.0 1640:1.0 1712:1.0 1808:1.0 1871:1.0 1929:1.0 1971:1.0 2009:1.0 2097:1.0 2129:1.0 2195:1.0 2267:1.0 
0.02 4:1.0 7:1.0 11:1.0 15:1.0 19:1.0 21:1.0 25:1.0 31:1.0 35:1.0 39:1.0 43:1.0 46:1.0 51:1.0 53:1.0 60:1.0 62:1.0 67:1.0 78:1.0 83:1.0 85:1.0 90:1.0 94:1.0 98:1.0 102:1.0 107:1.0 111:1.0 115:1.0 119:1.0 122:1.0 126:1.0 131:1.0 136:1.0 139:1.0 141:1.0 203:1.0 251:1.0 315:1.0 377:1.0 433:1.0 467:1.0 539:1.0 635:1.0 699:1.0 762:1.0 823:1.0 873:1.0 948:1.0 990:1.0 1095:1.0 1130:1.0 1207:1.0 1258:1.0 1335:1.0 1385:1.0 1458:1.0 1494:1.0 1574:1.0 1638:1.0 1703:1.0 1771:1.0 1851:1.0 1915:1.0 1978:1.0 2038:1.0 2087:1.0 2156:1.0 2239:1.0 2313:1.0 
7.673128575088424E-4 4:1.0 5:1.0 11:1.0 14:1.0 18:1.0 22:1.0 28:1.0 31:1.0 35:1.0 38:1.0 41:1.0 48:1.0 50:1.0 54:1.0 60:1.0 62:1.0 66:1.0 78:1.0 82:1.0 86:1.0 89:1.0 94:1.0 98:1.0 101:1.0 107:1.0 111:1.0 114:1.0 120:1.0 121:1.0 125:1.0 131:1.0 135:1.0 137:1.0 141:1.0 195:1.0 218:1.0 310:1.0 358:1.0 424:1.0 495:1.0 587:1.0 634:1.0 693:1.0 740:1.0 798:1.0 902:1.0 936:1.0 1006:1.0 1094:1.0 1126:1.0 1191:1.0 1258:1.0 1334:1.0 1382:1.0 1445:1.0 1506:1.0 1558:1.0 1637:1.0 1699:1.0 1755:1.0 1850:1.0 1912:1.0 1965:1.0 2049:1.0 2067:1.0 2139:1.0 2233:1.0 2289:1.0 
-0.02 4:1.0 5:1.0 12:1.0 15:1.0 17:1.0 22:1.0 28:1.0 30:1.0 33:1.0 39:1.0 43:1.0 47:1.0 49:1.0 54:1.0 60:1.0 62:1.0 67:1.0 78:1.0 82:1.0 86:1.0 92:1.0 94:1.0 98:1.0 104:1.0 108:1.0 110:1.0 113:1.0 118:1.0 122:1.0 125:1.0 130:1.0 134:1.0 138:1.0 141:1.0 196:1.0 223:1.0 329:1.0 370:1.0 408:1.0 494:1.0 581:1.0 611:1.0 667:1.0 763:1.0 825:1.0 882:1.0 920:1.0 1006:1.0 1095:1.0 1130:1.0 1207:1.0 1258:1.0 1334:1.0 1382:1.0 1448:1.0 1518:1.0 1606:1.0 1640:1.0 1712:1.0 1806:1.0 1861:1.0 1890:1.0 1942:1.0 2021:1.0 2082:1.0 2134:1.0 2214:1.0 2277:1.0 
0.02 4:1.0 7:1.0 10:1.0 14:1.0 17:1.0 21:1.0 28:1.0 31:1.0 33:1.0 37:1.0 42:1.0 46:1.0 52:1.0 55:1.0 59:1.0 61:1.0 67:1.0 78:1.0 83:1.0 86:1.0 92:1.0 95:1.0 98:1.0 102:1.0 106:1.0 110:1.0 114:1.0 120:1.0 122:1.0 128:1.0 130:1.0 133:1.0 139:1.0 141:1.0 202:1.0 246:1.0 293:1.0 353:1.0 404:1.0 479:1.0 585:1.0 625:1.0 658:1.0 726:1.0 808:1.0 879:1.0 971:1.0 1017:1.0 1075:1.0 1114:1.0 1207:1.0 1258:1.0 1335:1.0 1386:1.0 1464:1.0 1519:1.0 1610:1.0 1654:1.0 1702:1.0 1766:1.0 1830:1.0 1896:1.0 1966:1.0 2056:1.0 2094:1.0 2181:1.0 2211:1.0 2265:1.0 
-0.011561709259052835 4:1.0 7:1.0 10:1.0 13:1.0 17:1.0 23:1.0 25:1.0 32:1.0 36:1.0 37:1.0 43:1.0 47:1.0 52:1.0 55:1.0 59:1.0 63:1.0 67:1.0 78:1.0 82:1.0 85:1.0 91:1.0 93:1.0 99:1.0 102:1.0 106:1.0 111:1.0 115:1.0 119:1.0 123:1.0 126:1.0 129:1.0 134:1.0 138:1.0 141:1.0 202:1.0 245:1.0 289:1.0 339:1.0 409:1.0 500:1.0 544:1.0 653:1.0 707:1.0 731:1.0 828:1.0 895:1.0 971:1.0 1019:1.0 1083:1.0 1146:1.0 1207:1.0 1258:1.0 1334:1.0 1381:1.0 1443:1.0 1497:1.0 1587:1.0 1626:1.0 1718:1.0 1767:1.0 1835:1.0 1915:1.0 1979:1.0 2042:1.0 2101:1.0 2146:1.0 2198:1.0 2277:1.0 
0.009292542594734913 4:1.0 5:1.0 10:1.0 13:1.0 17:1.0 21:1.0 25:1.0 29:1.0 33:1.0 39:1.0 42:1.0 45:1.0 51:1.0 53:1.0 57:1.0 63:1.0 67:1.0 78:1.0 84:1.0 86:1.0 92:1.0 95:1.0 100:1.0 103:1.0 105:1.0 109:1.0 114:1.0 117:1.0 124:1.0 128:1.0 132:1.0 134:1.0 138:1.0 141:1.0 194:1.0 213:1.0 289:1.0 337:1.0 401:1.0 465:1.0 529:1.0 595:1.0 666:1.0 757:1.0 803:1.0 857:1.0 945:1.0 979:1.0 1051:1.0 1146:1.0 1207:1.0 1258:1.0 1336:1.0 1390:1.0 1480:1.0 1519:1.0 1612:1.0 1663:1.0 1737:1.0 1777:1.0 1810:1.0 1877:1.0 1956:1.0 2016:1.0 2128:1.0 2190:1.0 2246:1.0 2277:1.0 
-0.02 4:1.0 8:1.0 11:1.0 14:1.0 19:1.0 24:1.0 27:1.0 29:1.0 33:1.0 37:1.0 43:1.0 47:1.0 50:1.0 56:1.0 59:1.0 63:1.0 67:1.0 78:1.0 81:1.0 86:1.0 90:1.0 96:1.0 99:1.0 102:1.0 106:1.0 109:1.0 114:1.0 118:1.0 123:1.0 128:1.0 130:1.0 133:1.0 138:1.0 141:1.0 207:1.0 266:1.0 311:1.0 364:1.0 447:1.0 521:1.0 561:1.0 593:1.0 659:1.0 731:1.0 826:1.0 888:1.0 943:1.0 1035:1.0 1083:1.0 1146:1.0 1207:1.0 1258:1.0 1333:1.0 1378:1.0 1430:1.0 1512:1.0 1583:1.0 1674:1.0 1718:1.0 1765:1.0 1826:1.0 1878:1.0 1959:1.0 2028:1.0 2110:1.0 2181:1.0 2210:1.0 2261:1.0 
-0.02 4:1.0 5:1.0 12:1.0 14:1.0 19:1.0 22:1.0 28:1.0 31:1.0 35:1.0 39:1.0 42:1.0 48:1.0 50:1.0 54:1.0 58:1.0 63:1.0 67:1.0 78:1.0 82:1.0 87:1.0 90:1.0 93:1.0 99:1.0 103:1.0 108:1.0 110:1.0 114:1.0 118:1.0 124:1.0 128:1.0 130:1.0 135:1.0 139:1.0 141:1.0 196:1.0 222:1.0 327:1.0 362:1.0 440:1.0 495:1.0 587:1.0 635:1.0 698:1.0 760:1.0 814:1.0 902:1.0 934:1.0 999:1.0 1067:1.0 1146:1.0 1207:1.0 1258:1.0 1334:1.0 1383:1.0 1450:1.0 1525:1.0 1571:1.0 1627:1.0 1724:1.0 1790:1.0 1862:1.0 1894:1.0 1960:1.0 2032:1.0 2126:1.0 2183:1.0 2219:1.0 2297:1.0 
0.017540369625763007 4:1.0 7:1.0 12:1.0 16:1.0 20:1.0 21:1.0 27:1.0 32:1.0 33:1.0 37:1.0 42:1.0 48:1.0 51:1.0 56:1.0 59:1.0 63:1.0 67:1.0 78:1.0 83:1.0 86:1.0 92:1.0 95:1.0 99:1.0 103:1.0 108:1.0 109:1.0 115:1.0 119:1.0 124:1.0 127:1.0 131:1.0 133:1.0 139:1.0 141:1.0 204:1.0 256:1.0 336:1.0 397:1.0 451:1.0 476:1.0 573:1.0 641:1.0 658:1.0 728:1.0 815:1.0 908:1.0 959:1.0 1035:1.0 1083:1.0 1146:1.0 1207:1.0 1258:1.0 1335:1.0 1386:1.0 1464:1.0 1519:1.0 1611:1.0 1659:1.0 1724:1.0 1789:1.0 1859:1.0 1883:1.0 1980:1.0 2047:1.0 2123:1.0 2169:1.0 2227:1.0 2265:1.0 
0.02 4:1.0 5:1.0 9:1.0 16:1.0 18:1.0 22:1.0 25:1.0 30:1.0 33:1.0 39:1.0 41:1.0 47:1.0 51:1.0 53:1.0 59:1.0 63:1.0 67:1.0 78:1.0 82:1.0 85:1.0 89:1.0 93:1.0 100:1.0 102:1.0 106:1.0 112:1.0 114:1.0 120:1.0 122:1.0 128:1.0 130:1.0 135:1.0 140:1.0 141:1.0 193:1.0 212:1.0 286:1.0 390:1.0 421:1.0 482:1.0 533:1.0 611:1.0 665:1.0 755:1.0 795:1.0 889:1.0 947:1.0 987:1.0 1083:1.0 1146:1.0 1207:1.0 1258:1.0 1334:1.0 1381:1.0 1441:1.0 1489:1.0 1556:1.0 1630:1.0 1734:1.0 1768:1.0 1838:1.0 1928:1.0 1966:1.0 2056:1.0 2094:1.0 2183:1.0 2220:1.0 2301:1.0 
-0.02 4:1.0 6:1.0 9:1.0 13:1.0 20:1.0 22:1.0 25:1.0 32:1.0 34:1.0 37:1.0 43:1.0 46:1.0 49:1.0 53:1.0 57:1.0 62:1.0 66:1.0 78:1.0 82:1.0 87:1.0 90:1.0 96:1.0 99:1.0 104:1.0 106:1.0 111:1.0 114:1.0 117:1.0 124:1.0 125:1.0 131:1.0 134:1.0 139:1.0 141:1.0 197:1.0 225:1.0 276:1.0 350:1.0 453:1.0 484:1.0 542:1.0 645:1.0 675:1.0 730:1.0 821:1.0 865:1.0 913:1.0 978:1.0 1046:1.0 1126:1.0 1191:1.0 1258:1.0 1334:1.0 1383:1.0 1450:1.0 1528:1.0 1583:1.0 1676:1.0 1726:1.0 1799:1.0 1834:1.0 1909:1.0 1956:1.0 2013:1.0 2115:1.0 2138:1.0 2231:1.0 2281:1.0 
-0.02 2:1.0 6:1.0 12:1.0 16:1.0 20:1.0 22:1.0 28:1.0 30:1.0 33:1.0 37:1.0 41:1.0 45:1.0 49:1.0 53:1.0 58:1.0 61:1.0 67:1.0 78:1.0 83:1.0 87:1.0 92:1.0 96:1.0 100:1.0 102:1.0 108:1.0 109:1.0 114:1.0 119:1.0 124:1.0 126:1.0 129:1.0 136:1.0 138:1.0 144:1.0 168:1.0 240:1.0 336:1.0 398:1.0 456:1.0 494:1.0 581:1.0 609:1.0 657:1.0 721:1.0 785:1.0 849:1.0 914:1.0 981:1.0 1059:1.0 1114:1.0 1207:1.0 1258:1.0 1335:1.0 1387:1.0 1468:1.0 1536:1.0 1616:1.0 1678:1.0 1736:1.0 1773:1.0 1858:1.0 1879:1.0 1964:1.0 2046:1.0 2117:1.0 2148:1.0 2206:1.0 2312:1.0 
0.01677666039634951 4:1.0 6:1.0 9:1.0 13:1.0 20:1.0 23:1.0 25:1.0 29:1.0 34:1.0 40:1.0 44:1.0 47:1.0 51:1.0 53:1.0 57:1.0 62:1.0 67:1.0 78:1.0 82:1.0 86:1.0 92:1.0 94:1.0 98:1.0 102:1.0 107:1.0 111:1.0 115:1.0 119:1.0 122:1.0 125:1.0 130:1.0 134:1.0 137:1.0 141:1.0 197:1.0 225:1.0 276:1.0 351:1.0 457:1.0 497:1.0 530:1.0 600:1.0 688:1.0 783:1.0 843:1.0 889:1.0 945:1.0 978:1.0 1047:1.0 1130:1.0 1207:1.0 1258:1.0 1334:1.0 1382:1.0 1448:1.0 1518:1.0 1606:1.0 1638:1.0 1703:1.0 1771:1.0 1851:1.0 1915:1.0 1978:1.0 2037:1.0 2082:1.0 2134:1.0 2213:1.0 2273:1.0 
0.02 2:1.0 6:1.0 12:1.0 16:1.0 20:1.0 22:1.0 28:1.0 30:1.0 33:1.0 37:1.0 41:1.0 48:1.0 52:1.0 54:1.0 58:1.0 63:1.0 67:1.0 78:1.0 82:1.0 87:1.0 91:1.0 93:1.0 97:1.0 102:1.0 108:1.0 109:1.0 114:1.0 119:1.0 124:1.0 126:1.0 129:1.0 136:1.0 138:1.0 144:1.0 168:1.0 240:1.0 336:1.0 398:1.0 456:1.0 494:1.0 581:1.0 609:1.0 657:1.0 724:1.0 800:1.0 910:1.0 966:1.0 999:1.0 1067:1.0 1146:1.0 1207:1.0 1258:1.0 1334:1.0 1383:1.0 1451:1.0 1529:1.0 1585:1.0 1618:1.0 1688:1.0 1773:1.0 1858:1.0 1879:1.0 1964:1.0 2046:1.0 2117:1.0 2148:1.0 2206:1.0 2312:1.0 
-0.02 4:1.0 7:1.0 9:1.0 16:1.0 19:1.0 22:1.0 27:1.0 32:1.0 35:1.0 40:1.0 42:1.0 45:1.0 52:1.0 54:1.0 60:1.0 62:1.0 66:1.0 78:1.0 83:1.0 86:1.0 92:1.0 95:1.0 100:1.0 103:1.0 106:1.0 109:1.0 114:1.0 118:1.0 123:1.0 127:1.0 129:1.0 135:1.0 137:1.0 141:1.0 201:1.0 244:1.0 287:1.0 394:1.0 439:1.0 492:1.0 575:1.0 652:1.0 702:1.0 773:1.0 804:1.0 862:1.0 968:1.0 1006:1.0 1094:1.0 1126:1.0 1191:1.0 1258:1.0 1335:1.0 1386:1.0 1464:1.0 1519:1.0 1612:1.0 1663:1.0 1738:1.0 1781:1.0 1826:1.0 1878:1.0 1959:1.0 2027:1.0 2105:1.0 2163:1.0 2201:1.0 2289:1.0 
-0.003913740515056255 4:1.0 8:1.0 10:1.0 14:1.0 20:1.0 23:1.0 28:1.0 31:1.0 34:1.0 38:1.0 42:1.0 45:1.0 51:1.0 55:1.0 58:1.0 62:1.0 67:1.0 78:1.0 82:1.0 85:1.0 90:1.0 95:1.0 98:1.0 102:1.0 106:1.0 112:1.0 115:1.0 118:1.0 122:1.0 125:1.0 130:1.0 133:1.0 139:1.0 141:1.0 206:1.0 262:1.0 296:1.0 367:1.0 460:1.0 511:1.0 586:1.0 630:1.0 678:1.0 741:1.0 803:1.0 859:1.0 954:1.0 1014:1.0 1063:1.0 1130:1.0 1207:1.0 1258:1.0 1334:1.0 1381:1.0 1442:1.0 1495:1.0 1578:1.0 1654:1.0 1702:1.0 1768:1.0 1839:1.0 1930:1.0 1974:1.0 2021:1.0 2082:1.0 2133:1.0 2211:1.0 2265:1.0 
-0.0022560191491825705 4:1.0 6:1.0 11:1.0 15:1.0 17:1.0 21:1.0 27:1.0 31:1.0 35:1.0 39:1.0 42:1.0 48:1.0 50:1.0 56:1.0 57:1.0 62:1.0 67:1.0 78:1.0 83:1.0 86:1.0 89:1.0 95:1.0 98:1.0 104:1.0 108:1.0 112:1.0 113:1.0 119:1.0 124:1.0 126:1.0 130:1.0 134:1.0 138:1.0 141:1.0 199:1.0 235:1.0 313:1.0 369:1.0 403:1.0 475:1.0 571:1.0 635:1.0 698:1.0 760:1.0 814:1.0 904:1.0 941:1.0 1026:1.0 1047:1.0 1130:1.0 1207:1.0 1258:1.0 1335:1.0 1386:1.0 1461:1.0 1507:1.0 1562:1.0 1656:1.0 1712:1.0 1808:1.0 1869:1.0 1923:1.0 1948:1.0 2046:1.0 2118:1.0 2150:1.0 2214:1.0 2277:1.0 
-0.02 4:1.0 6:1.0 12:1.0 14:1.0 18:1.0 21:1.0 27:1.0 30:1.0 34:1.0 38:1.0 42:1.0 48:1.0 52:1.0 54:1.0 57:1.0 63:1.0 67:1.0 78:1.0 81:1.0 86:1.0 90:1.0 94:1.0 97:1.0 102:1.0 105:1.0 111:1.0 114:1.0 117:1.0 123:1.0 127:1.0 129:1.0 133:1.0 139:1.0 141:1.0 200:1.0 238:1.0 326:1.0 357:1.0 419:1.0 474:1.0 566:1.0 614:1.0 678:1.0 744:1.0 816:1.0 910:1.0 965:1.0 995:1.0 1051:1.0 1146:1.0 1207:1.0 1258:1.0 1333:1.0 1378:1.0 1430:1.0 1510:1.0 1573:1.0 1634:1.0 1685:1.0 1763:1.0 1818:1.0 1909:1.0 1955:1.0 2011:1.0 2105:1.0 2161:1.0 2195:1.0 2265:1.0 
-0.02 4:1.0 6:1.0 11:1.0 14:1.0 17:1.0 22:1.0 28:1.0 30:1.0 33:1.0 38:1.0 44:1.0 46:1.0 51:1.0 53:1.0 58:1.0 64:1.0 67:1.0 78:1.0 82:1.0 85:1.0 90:1.0 95:1.0 100:1.0 102:1.0 106:1.0 110:1.0 114:1.0 120:1.0 123:1.0 125:1.0 129:1.0 135:1.0 139:1.0 141:1.0 199:1.0 234:1.0 309:1.0 354:1.0 408:1.0 494:1.0 581:1.0 610:1.0 664:1.0 750:1.0 839:1.0 873:1.0 946:1.0 984:1.0 1071:1.0 1162:1.0 1207:1.0 1258:1.0 1334:1.0 1381:1.0 1442:1.0 1495:1.0 1580:1.0 1662:1.0 1734:1.0 1766:1.0 1830:1.0 1896:1.0 1967:1.0 2057:1.0 2097:1.0 2131:1.0 2203:1.0 2297:1.0 
-0.02 4:1.0 8:1.0 12:1.0 16:1.0 18:1.0 23:1.0 26:1.0 30:1.0 36:1.0 38:1.0 43:1.0 48:1.0 51:1.0 54:1.0 58:1.0 62:1.0 67:1.0 78:1.0 82:1.0 88:1.0 91:1.0 93:1.0 97:1.0 103:1.0 107:1.0 111:1.0 116:1.0 118:1.0 122:1.0 128:1.0 129:1.0 135:1.0 138:1.0 141:1.0 208:1.0 272:1.0 334:1.0 391:1.0 426:1.0 502:1.0 552:1.0 622:1.0 711:1.0 748:1.0 831:1.0 906:1.0 950:1.0 998:1.0 1063:1.0 1130:1.0 1207:1.0 1258:1.0 1334:1.0 1384:1.0 1455:1.0 1545:1.0 1585:1.0 1619:1.0 1691:1.0 1787:1.0 1852:1.0 1918:1.0 1990:1.0 2024:1.0 2093:1.0 2179:1.0 2202:1.0 2293:1.0 
0.02 4:1.0 6:1.0 11:1.0 14:1.0 18:1.0 24:1.0 25:1.0 30:1.0 34:1.0 40:1.0 44:1.0 45:1.0 51:1.0 53:1.0 57:1.0 62:1.0 66:1.0 78:1.0 82:1.0 85:1.0 89:1.0 93:1.0 100:1.0 102:1.0 106:1.0 110:1.0 113:1.0 120:1.0 124:1.0 125:1.0 129:1.0 133:1.0 140:1.0 141:1.0 199:1.0 234:1.0 310:1.0 360:1.0 429:1.0 514:1.0 534:1.0 616:1.0 688:1.0 781:1.0 835:1.0 857:1.0 945:1.0 978:1.0 1046:1.0 1126:1.0 1191:1.0 1258:1.0 1334:1.0 1381:1.0 1441:1.0 1489:1.0 1556:1.0 1630:1.0 1734:1.0 1766:1.0 1829:1.0 1892:1.0 1952:1.0 2061:1.0 2113:1.0 2129:1.0 2196:1.0 2269:1.0 
0.012765718352053756 4:1.0 6:1.0 10:1.0 16:1.0 20:1.0 24:1.0 27:1.0 29:1.0 35:1.0 40:1.0 42:1.0 46:1.0 50:1.0 56:1.0 59:1.0 63:1.0 67:1.0 78:1.0 82:1.0 87:1.0 91:1.0 95:1.0 98:1.0 102:1.0 106:1.0 112:1.0 116:1.0 119:1.0 121:1.0 127:1.0 131:1.0 134:1.0 138:1.0 141:1.0 198:1.0 232:1.0 304:1.0 400:1.0 463:1.0 521:1.0 563:1.0 604:1.0 702:1.0 774:1.0 806:1.0 872:1.0 943:1.0 1035:1.0 1083:1.0 1146:1.0 1207:1.0 1258:1.0 1334:1.0 1383:1.0 1451:1.0 1531:1.0 1594:1.0 1654:1.0 1702:1.0 1768:1.0 1840:1.0 1935:1.0 1993:1.0 2035:1.0 2075:1.0 2170:1.0 2230:1.0 2277:1.0 
0.02 4:1.0 6:1.0 11:1.0 15:1.0 18:1.0 23:1.0 28:1.0 30:1.0 34:1.0 38:1.0 43:1.0 47:1.0 51:1.0 55:1.0 59:1.0 63:1.0 67:1.0 78:1.0 84:1.0 86:1.0 91:1.0 95:1.0 98:1.0 104:1.0 107:1.0 109:1.0 116:1.0 119:1.0 121:1.0 125:1.0 129:1.0 134:1.0 139:1.0 141:1.0 199:1.0 235:1.0 314:1.0 375:1.0 428:1.0 510:1.0 582:1.0 614:1.0 679:1.0 747:1.0 827:1.0 891:1.0 955:1.0 1019:1.0 1083:1.0 1146:1.0 1207:1.0 1258:1.0 1336:1.0 1390:1.0 1479:1.0 1515:1.0 1594:1.0 1656:1.0 1711:1.0 1801:1.0 1844:1.0 1887:1.0 1993:1.0 2033:1.0 2065:1.0 2130:1.0 2199:1.0 2281:1.0 
0.02 1:1.0 7:1.0 9:1.0 16:1.0 19:1.0 21:1.0 26:1.0 31:1.0 36:1.0 37:1.0 43:1.0 45:1.0 52:1.0 54:1.0 59:1.0 62:1.0 67:1.0 78:1.0 84:1.0 88:1.0 89:1.0 93:1.0 97:1.0 104:1.0 108:1.0 112:1.0 115:1.0 117:1.0 123:1.0 125:1.0 129:1.0 133:1.0 139:1.0 143:1.0 153:1.0 244:1.0 287:1.0 393:1.0 434:1.0 471:1.0 556:1.0 637:1.0 707:1.0 729:1.0 820:1.0 862:1.0 967:1.0 1002:1.0 1079:1.0 1130:1.0 1207:1.0 1258:1.0 1336:1.0 1392:1.0 1485:1.0 1537:1.0 1553:1.0 1620:1.0 1696:1.0 1808:1.0 1871:1.0 1929:1.0 1971:1.0 2009:1.0 2097:1.0 2129:1.0 2195:1.0 2267:1.0 
0.006251289062985169 4:1.0 6:1.0 11:1.0 14:1.0 18:1.0 24:1.0 27:1.0 30:1.0 34:1.0 38:1.0 42:1.0 45:1.0 49:1.0 53:1.0 58:1.0 62:1.0 67:1.0 78:1.0 83:1.0 87:1.0 91:1.0 94:1.0 99:1.0 104:1.0 108:1.0 112:1.0 114:1.0 118:1.0 122:1.0 125:1.0 131:1.0 135:1.0 140:1.0 141:1.0 199:1.0 234:1.0 310:1.0 360:1.0 431:1.0 522:1.0 566:1.0 614:1.0 678:1.0 741:1.0 801:1.0 849:1.0 914:1.0 982:1.0 1063:1.0 1130:1.0 1207:1.0 1258:1.0 1335:1.0 1387:1.0 1467:1.0 1530:1.0 1591:1.0 1644:1.0 1728:1.0 1808:1.0 1870:1.0 1926:1.0 1958:1.0 2021:1.0 2083:1.0 2139:1.0 2236:1.0 2301:1.0 
-0.02 4:1.0 7:1.0 9:1.0 13:1.0 17:1.0 23:1.0 27:1.0 32:1.0 34:1.0 40:1.0 43:1.0 47:1.0 51:1.0 53:1.0 57:1.0 63:1.0 67:1.0 78:1.0 81:1.0 87:1.0 91:1.0 93:1.0 100:1.0 104:1.0 107:1.0 111:1.0 114:1.0 118:1.0 124:1.0 127:1.0 131:1.0 135:1.0 137:1.0 141:1.0 201:1.0 241:1.0 273:1.0 339:1.0 411:1.0 508:1.0 574:1.0 648:1.0 687:1.0 779:1.0 827:1.0 889:1.0 945:1.0 979:1.0 1051:1.0 1146:1.0 1207:1.0 1258:1.0 1333:1.0 1379:1.0 1435:1.0 1529:1.0 1588:1.0 1632:1.0 1743:1.0 1803:1.0 1850:1.0 1910:1.0 1960:1.0 2031:1.0 2123:1.0 2171:1.0 2233:1.0 2289:1.0 
0.0027401681091157623 4:1.0 7:1.0 10:1.0 15:1.0 20:1.0 22:1.0 25:1.0 30:1.0 34:1.0 37:1.0 41:1.0 48:1.0 51:1.0 55:1.0 58:1.0 62:1.0 67:1.0 78:1.0 82:1.0 86:1.0 92:1.0 95:1.0 98:1.0 104:1.0 106:1.0 110:1.0 113:1.0 117:1.0 123:1.0 127:1.0 130:1.0 136:1.0 138:1.0 141:1.0 202:1.0 247:1.0 300:1.0 382:1.0 453:1.0 482:1.0 534:1.0 613:1.0 673:1.0 724:1.0 799:1.0 907:1.0 954:1.0 1014:1.0 1063:1.0 1130:1.0 1207:1.0 1258:1.0 1334:1.0 1382:1.0 1448:1.0 1519:1.0 1610:1.0 1656:1.0 1710:1.0 1798:1.0 1829:1.0 1889:1.0 1939:1.0 2011:1.0 2106:1.0 2168:1.0 2222:1.0 2309:1.0 
-0.015025195160449976 4:1.0 7:1.0 11:1.0 15:1.0 18:1.0 22:1.0 26:1.0 32:1.0 35:1.0 38:1.0 42:1.0 46:1.0 51:1.0 55:1.0 59:1.0 62:1.0 67:1.0 78:1.0 82:1.0 87:1.0 92:1.0 96:1.0 98:1.0 103:1.0 107:1.0 111:1.0 116:1.0 118:1.0 124:1.0 125:1.0 131:1.0 135:1.0 138:1.0 141:1.0 203:1.0 251:1.0 314:1.0 374:1.0 422:1.0 488:1.0 559:1.0 650:1.0 694:1.0 742:1.0 807:1.0 875:1.0 955:1.0 1018:1.0 1079:1.0 1130:1.0 1207:1.0 1258:1.0 1334:1.0 1383:1.0 1452:1.0 1536:1.0 1614:1.0 1671:1.0 1707:1.0 1787:1.0 1852:1.0 1918:1.0 1992:1.0 2029:1.0 2115:1.0 2139:1.0 2234:1.0 2293:1.0 
0.02 4:1.0 7:1.0 10:1.0 16:1.0 19:1.0 22:1.0 28:1.0 31:1.0 34:1.0 38:1.0 41:1.0 46:1.0 51:1.0 54:1.0 60:1.0 61:1.0 67:1.0 78:1.0 83:1.0 87:1.0 92:1.0 94:1.0 99:1.0 102:1.0 106:1.0 111:1.0 113:1.0 118:1.0 123:1.0 127:1.0 130:1.0 134:1.0 139:1.0 141:1.0 202:1.0 248:1.0 303:1.0 394:1.0 440:1.0 495:1.0 586:1.0 630:1.0 677:1.0 738:1.0 791:1.0 874:1.0 952:1.0 1005:1.0 1091:1.0 1114:1.0 1207:1.0 1258:1.0 1335:1.0 1387:1.0 1468:1.0 1534:1.0 1607:1.0 1642:1.0 1718:1.0 1767:1.0 1833:1.0 1906:1.0 1943:1.0 2027:1.0 2106:1.0 2166:1.0 2215:1.0 2281:1.0 
-0.02 4:1.0 6:1.0 10:1.0 13:1.0 19:1.0 22:1.0 25:1.0 31:1.0 35:1.0 38:1.0 43:1.0 45:1.0 49:1.0 56:1.0 59:1.0 63:1.0 67:1.0 78:1.0 83:1.0 85:1.0 91:1.0 93:1.0 98:1.0 103:1.0 107:1.0 110:1.0 114:1.0 118:1.0 124:1.0 128:1.0 130:1.0 135:1.0 137:1.0 141:1.0 198:1.0 229:1.0 291:1.0 346:1.0 437:1.0 483:1.0 539:1.0 634:1.0 695:1.0 745:1.0 817:1.0 852:1.0 927:1.0 1035:1.0 1083:1.0 1146:1.0 1207:1.0 1258:1.0 1335:1.0 1385:1.0 1459:1.0 1497:1.0 1586:1.0 1623:1.0 1707:1.0 1786:1.0 1846:1.0 1894:1.0 1960:1.0 2032:1.0 2126:1.0 2183:1.0 2217:1.0 2289:1.0 
-0.02 4:1.0 8:1.0 10:1.0 14:1.0 19:1.0 23:1.0 27:1.0 31:1.0 33:1.0 39:1.0 44:1.0 47:1.0 51:1.0 53:1.0 57:1.0 62:1.0 66:1.0 78:1.0 82:1.0 87:1.0 89:1.0 94:1.0 100:1.0 102:1.0 106:1.0 111:1.0 115:1.0 119:1.0 121:1.0 125:1.0 130:1.0 135:1.0 137:1.0 141:1.0 206:1.0 262:1.0 295:1.0 363:1.0 443:1.0 507:1.0 569:1.0 627:1.0 668:1.0 767:1.0 843:1.0 889:1.0 945:1.0 978:1.0 1046:1.0 1126:1.0 1191:1.0 1258:1.0 1334:1.0 1383:1.0 1449:1.0 1522:1.0 1560:1.0 1646:1.0 1734:1.0 1767:1.0 1835:1.0 1915:1.0 1977:1.0 2033:1.0 2066:1.0 2135:1.0 2217:1.0 2289:1.0 
-0.019238393941331526 4:1.0 7:1.0 12:1.0 13:1.0 19:1.0 23:1.0 25:1.0 31:1.0 35:1.0 39:1.0 41:1.0 46:1.0 51:1.0 55:1.0 59:1.0 63:1.0 67:1.0 78:1.0 83:1.0 87:1.0 89:1.0 95:1.0 98:1.0 104:1.0 106:1.0 112:1.0 115:1.0 119:1.0 123:1.0 125:1.0 129:1.0 133:1.0 138:1.0 141:1.0 204:1.0 253:1.0 323:1.0 347:1.0 441:1.0 499:1.0 539:1.0 635:1.0 697:1.0 754:1.0 791:1.0 875:1.0 955:1.0 1019:1.0 1083:1.0 1146:1.0 1207:1.0 1258:1.0 1335:1.0 1387:1.0 1465:1.0 1523:1.0 1562:1.0 1656:1.0 1710:1.0 1800:1.0 1839:1.0 1931:1.0 1979:1.0 2041:1.0 2097:1.0 2129:1.0 2194:1.0 2261:1.0 
-0.009527082103552357 4:1.0 5:1.0 11:1.0 15:1.0 20:1.0 24:1.0 26:1.0 30:1.0 36:1.0 39:1.0 44:1.0 47:1.0 52:1.0 53:1.0 60:1.0 63:1.0 67:1.0 79:1.0 81:1.0 88:1.0 92:1.0 94:1.0 98:1.0 102:1.0 108:1.0 110:1.0 114:1.0 117:1.0 123:1.0 128:1.0 132:1.0 136:1.0 138:1.0 141:1.0 195:1.0 219:1.0 316:1.0 384:1.0 462:1.0 518:1.0 552:1.0 623:1.0 716:1.0 767:1.0 844:1.0 893:1.0 964:1.0 991:1.0 1099:1.0 1146:1.0 1207:1.0 1259:1.0 1337:1.0 1396:1.0 1440:1.0 1550:1.0 1606:1.0 1638:1.0 1704:1.0 1774:1.0 1862:1.0 1893:1.0 1955:1.0 2012:1.0 2112:1.0 2192:1.0 2254:1.0 2309:1.0 
-0.0016978996789051984 4:1.0 6:1.0 11:1.0 14:1.0 17:1.0 23:1.0 27:1.0 30:1.0 33:1.0 37:1.0 42:1.0 45:1.0 51:1.0 55:1.0 59:1.0 62:1.0 66:1.0 78:1.0 82:1.0 86:1.0 91:1.0 95:1.0 99:1.0 104:1.0 107:1.0 110:1.0 114:1.0 117:1.0 123:1.0 127:1.0 129:1.0 135:1.0 139:1.0 141:1.0 199:1.0 234:1.0 309:1.0 355:1.0 411:1.0 506:1.0 565:1.0 609:1.0 658:1.0 725:1.0 803:1.0 859:1.0 955:1.0 1018:1.0 1078:1.0 1126:1.0 1191:1.0 1258:1.0 1334:1.0 1382:1.0 1447:1.0 1515:1.0 1595:1.0 1660:1.0 1727:1.0 1802:1.0 1846:1.0 1893:1.0 1955:1.0 2011:1.0 2105:1.0 2163:1.0 2203:1.0 2297:1.0 
-0.02 2:1.0 6:1.0 12:1.0 16:1.0 20:1.0 22:1.0 28:1.0 30:1.0 33:1.0 37:1.0 41:1.0 46:1.0 49:1.0 53:1.0 57:1.0 61:1.0 67:1.0 78:1.0 83:1.0 88:1.0 92:1.0 96:1.0 99:1.0 102:1.0 108:1.0 109:1.0 114:1.0 119:1.0 124:1.0 126:1.0 129:1.0 136:1.0 138:1.0 144:1.0 168:1.0 240:1.0 336:1.0 398:1.0 456:1.0 494:1.0 581:1.0 609:1.0 657:1.0 722:1.0 789:1.0 865:1.0 913:1.0 977:1.0 1043:1.0 1114:1.0 1207:1.0 1258:1.0 1335:1.0 1388:1.0 1472:1.0 1552:1.0 1615:1.0 1674:1.0 1720:1.0 1773:1.0 1858:1.0 1879:1.0 1964:1.0 2046:1.0 2117:1.0 2148:1.0 2206:1.0 2312:1.0 
0.02 4:1.0 7:1.0 9:1.0 16:1.0 17:1.0 24:1.0 26:1.0 32:1.0 34:1.0 38:1.0 41:1.0 46:1.0 51:1.0 55:1.0 58:1.0 63:1.0 67:1.0 79:1.0 83:1.0 87:1.0 89:1.0 96:1.0 99:1.0 103:1.0 108:1.0 111:1.0 113:1.0 117:1.0 121:1.0 127:1.0 131:1.0 135:1.0 139:1.0 141:1.0 201:1.0 244:1.0 285:1.0 388:1.0 414:1.0 520:1.0 558:1.0 646:1.0 677:1.0 738:1.0 791:1.0 875:1.0 954:1.0 1015:1.0 1067:1.0 1146:1.0 1207:1.0 1259:1.0 1339:1.0 1403:1.0 1465:1.0 1524:1.0 1567:1.0 1675:1.0 1724:1.0 1791:1.0 1865:1.0 1905:1.0 1937:1.0 2003:1.0 2075:1.0 2171:1.0 2235:1.0 2297:1.0 
-0.02 4:1.0 7:1.0 10:1.0 14:1.0 19:1.0 24:1.0 27:1.0 31:1.0 36:1.0 39:1.0 42:1.0 46:1.0 52:1.0 54:1.0 59:1.0 62:1.0 67:1.0 78:1.0 82:1.0 88:1.0 90:1.0 94:1.0 100:1.0 103:1.0 106:1.0 112:1.0 115:1.0 118:1.0 124:1.0 127:1.0 131:1.0 134:1.0 140:1.0 141:1.0 202:1.0 246:1.0 295:1.0 364:1.0 447:1.0 523:1.0 572:1.0 639:1.0 714:1.0 758:1.0 808:1.0 878:1.0 967:1.0 1002:1.0 1079:1.0 1130:1.0 1207:1.0 1258:1.0 1334:1.0 1384:1.0 1454:1.0 1542:1.0 1576:1.0 1647:1.0 1738:1.0 1784:1.0 1839:1.0 1930:1.0 1976:1.0 2031:1.0 2123:1.0 2170:1.0 2232:1.0 2285:1.0 
-0.02 4:1.0 6:1.0 11:1.0 16:1.0 17:1.0 21:1.0 27:1.0 31:1.0 33:1.0 40:1.0 44:1.0 45:1.0 49:1.0 53:1.0 59:1.0 63:1.0 67:1.0 79:1.0 83:1.0 86:1.0 91:1.0 94:1.0 97:1.0 102:1.0 108:1.0 109:1.0 114:1.0 118:1.0 123:1.0 127:1.0 131:1.0 133:1.0 139:1.0 141:1.0 199:1.0 236:1.0 317:1.0 385:1.0 403:1.0 475:1.0 569:1.0 628:1.0 672:1.0 781:1.0 833:1.0 849:1.0 915:1.0 987:1.0 1083:1.0 1146:1.0 1207:1.0 1259:1.0 1339:1.0 1402:1.0 1463:1.0 1514:1.0 1589:1.0 1634:1.0 1688:1.0 1773:1.0 1858:1.0 1878:1.0 1959:1.0 2027:1.0 2107:1.0 2169:1.0 2227:1.0 2265:1.0 
-0.02 4:1.0 6:1.0 11:1.0 15:1.0 17:1.0 21:1.0 25:1.0 29:1.0 34:1.0 38:1.0 41:1.0 47:1.0 51:1.0 53:1.0 58:1.0 63:1.0 67:1.0 78:1.0 82:1.0 85:1.0 89:1.0 95:1.0 98:1.0 102:1.0 107:1.0 111:1.0 113:1.0 119:1.0 124:1.0 126:1.0 129:1.0 134:1.0 139:1.0 141:1.0 199:1.0 235:1.0 313:1.0 369:1.0 401:1.0 465:1.0 530:1.0 598:1.0 677:1.0 739:1.0 795:1.0 889:1.0 946:1.0 983:1.0 1067:1.0 1146:1.0 1207:1.0 1258:1.0 1334:1.0 1381:1.0 1441:1.0 1491:1.0 1562:1.0 1654:1.0 1703:1.0 1771:1.0 1849:1.0 1907:1.0 1948:1.0 2046:1.0 2117:1.0 2146:1.0 2199:1.0 2281:1.0 
0.001766853475984645 4:1.0 8:1.0 10:1.0 16:1.0 20:1.0 22:1.0 26:1.0 29:1.0 33:1.0 40:1.0 42:1.0 47:1.0 51:1.0 56:1.0 59:1.0 62:1.0 67:1.0 79:1.0 82:1.0 87:1.0 90:1.0 96:1.0 99:1.0 103:1.0 106:1.0 109:1.0 113:1.0 120:1.0 124:1.0 126:1.0 129:1.0 133:1.0 137:1.0 141:1.0 206:1.0 264:1.0 304:1.0 398:1.0 454:1.0 485:1.0 545:1.0 596:1.0 670:1.0 775:1.0 811:1.0 892:1.0 959:1.0 1034:1.0 1079:1.0 1130:1.0 1207:1.0 1259:1.0 1338:1.0 1399:1.0 1450:1.0 1528:1.0 1583:1.0 1675:1.0 1722:1.0 1781:1.0 1825:1.0 1876:1.0 1952:1.0 2062:1.0 2117:1.0 2145:1.0 2193:1.0 2257:1.0 
0.02 4:1.0 5:1.0 9:1.0 13:1.0 18:1.0 21:1.0 27:1.0 30:1.0 34:1.0 38:1.0 43:1.0 47:1.0 51:1.0 54:1.0 57:1.0 62:1.0 67:1.0 78:1.0 83:1.0 85:1.0 90:1.0 94:1.0 99:1.0 103:1.0 105:1.0 109:1.0 115:1.0 120:1.0 123:1.0 126:1.0 130:1.0 133:1.0 138:1.0 141:1.0 193:1.0 209:1.0 274:1.0 341:1.0 419:1.0 474:1.0 566:1.0 614:1.0 679:1.0 747:1.0 827:1.0 890:1.0 949:1.0 994:1.0 1047:1.0 1130:1.0 1207:1.0 1258:1.0 1335:1.0 1385:1.0 1458:1.0 1494:1.0 1575:1.0 1643:1.0 1721:1.0 1777:1.0 1811:1.0 1884:1.0 1983:1.0 2058:1.0 2102:1.0 2149:1.0 2210:1.0 2261:1.0 
0.02 2:1.0 6:1.0 12:1.0 16:1.0 20:1.0 22:1.0 28:1.0 30:1.0 33:1.0 37:1.0 41:1.0 48:1.0 51:1.0 55:1.0 58:1.0 61:1.0 67:1.0 78:1.0 84:1.0 87:1.0 90:1.0 94:1.0 97:1.0 102:1.0 108:1.0 109:1.0 114:1.0 119:1.0 124:1.0 126:1.0 129:1.0 136:1.0 138:1.0 144:1.0 168:1.0 240:1.0 336:1.0 398:1.0 456:1.0 494:1.0 581:1.0 609:1.0 657:1.0 724:1.0 799:1.0 907:1.0 954:1.0 1013:1.0 1059:1.0 1114:1.0 1207:1.0 1258:1.0 1336:1.0 1391:1.0 1482:1.0 1526:1.0 1573:1.0 1634:1.0 1688:1.0 1773:1.0 1858:1.0 1879:1.0 1964:1.0 2046:1.0 2117:1.0 2148:1.0 2206:1.0 2312:1.0 
-0.02 4:1.0 6:1.0 12:1.0 14:1.0 19:1.0 22:1.0 26:1.0 32:1.0 34:1.0 38:1.0 42:1.0 46:1.0 52:1.0 54:1.0 59:1.0 62:1.0 67:1.0 78:1.0 82:1.0 87:1.0 90:1.0 95:1.0 100:1.0 101:1.0 106:1.0 111:1.0 116:1.0 119:1.0 122:1.0 125:1.0 131:1.0 134:1.0 137:1.0 141:1.0 200:1.0 238:1.0 327:1.0 362:1.0 438:1.0 488:1.0 558:1.0 646:1.0 678:1.0 742:1.0 808:1.0 878:1.0 967:1.0 1002:1.0 1079:1.0 1130:1.0 1207:1.0 1258:1.0 1334:1.0 1383:1.0 1450:1.0 1527:1.0 1580:1.0 1661:1.0 1730:1.0 1751:1.0 1836:1.0 1919:1.0 1994:1.0 2037:1.0 2083:1.0 2138:1.0 2229:1.0 2273:1.0 
0.02 4:1.0 6:1.0 12:1.0 14:1.0 17:1.0 22:1.0 25:1.0 29:1.0 34:1.0 39:1.0 44:1.0 47:1.0 50:1.0 56:1.0 58:1.0 63:1.0 67:1.0 78:1.0 83:1.0 86:1.0 89:1.0 95:1.0 98:1.0 104:1.0 107:1.0 111:1.0 114:1.0 118:1.0 123:1.0 127:1.0 130:1.0 134:1.0 139:1.0 141:1.0 200:1.0 238:1.0 325:1.0 354:1.0 405:1.0 481:1.0 530:1.0 599:1.0 684:1.0 767:1.0 842:1.0 888:1.0 942:1.0 1031:1.0 1067:1.0 1146:1.0 1207:1.0 1258:1.0 1335:1.0 1386:1.0 1461:1.0 1507:1.0 1562:1.0 1656:1.0 1711:1.0 1803:1.0 1850:1.0 1910:1.0 1959:1.0 2027:1.0 2106:1.0 2166:1.0 2215:1.0 2281:1.0 
0.02 4:1.0 5:1.0 11:1.0 14:1.0 20:1.0 23:1.0 26:1.0 32:1.0 35:1.0 39:1.0 41:1.0 46:1.0 50:1.0 56:1.0 59:1.0 61:1.0 67:1.0 78:1.0 82:1.0 85:1.0 89:1.0 94:1.0 98:1.0 101:1.0 107:1.0 110:1.0 116:1.0 119:1.0 123:1.0 125:1.0 129:1.0 135:1.0 138:1.0 141:1.0 195:1.0 218:1.0 312:1.0 367:1.0 458:1.0 504:1.0 559:1.0 651:1.0 697:1.0 754:1.0 790:1.0 872:1.0 943:1.0 1033:1.0 1075:1.0 1114:1.0 1207:1.0 1258:1.0 1334:1.0 1381:1.0 1441:1.0 1490:1.0 1558:1.0 1637:1.0 1699:1.0 1754:1.0 1848:1.0 1903:1.0 1995:1.0 2041:1.0 2097:1.0 2131:1.0 2202:1.0 2293:1.0 
0.02 4:1.0 6:1.0 10:1.0 15:1.0 17:1.0 23:1.0 26:1.0 29:1.0 36:1.0 38:1.0 42:1.0 48:1.0 51:1.0 55:1.0 58:1.0 63:1.0 67:1.0 78:1.0 82:1.0 87:1.0 91:1.0 95:1.0 98:1.0 102:1.0 105:1.0 110:1.0 116:1.0 119:1.0 123:1.0 127:1.0 129:1.0 135:1.0 139:1.0 141:1.0 198:1.0 231:1.0 297:1.0 371:1.0 410:1.0 501:1.0 548:1.0 606:1.0 710:1.0 744:1.0 815:1.0 907:1.0 954:1.0 1015:1.0 1067:1.0 1146:1.0 1207:1.0 1258:1.0 1334:1.0 1383:1.0 1451:1.0 1531:1.0 1594:1.0 1654:1.0 1701:1.0 1762:1.0 1816:1.0 1903:1.0 1995:1.0 2043:1.0 2105:1.0 2163:1.0 2203:1.0 2297:1.0 
0.02 4:1.0 7:1.0 10:1.0 16:1.0 18:1.0 21:1.0 26:1.0 30:1.0 33:1.0 37:1.0 41:1.0 45:1.0 51:1.0 56:1.0 59:1.0 62:1.0 67:1.0 78:1.0 83:1.0 87:1.0 90:1.0 93:1.0 99:1.0 103:1.0 107:1.0 109:1.0 114:1.0 119:1.0 123:1.0 125:1.0 130:1.0 134:1.0 138:1.0 141:1.0 202:1.0 248:1.0 302:1.0 389:1.0 418:1.0 470:1.0 549:1.0 609:1.0 657:1.0 721:1.0 787:1.0 860:1.0 959:1.0 1034:1.0 1079:1.0 1130:1.0 1207:1.0 1258:1.0 1335:1.0 1387:1.0 1466:1.0 1525:1.0 1571:1.0 1627:1.0 1723:1.0 1785:1.0 1842:1.0 1879:1.0 1963:1.0 2041:1.0 2098:1.0 2134:1.0 2214:1.0 2277:1.0 
0.006930855956833442 4:1.0 5:1.0 10:1.0 16:1.0 17:1.0 21:1.0 27:1.0 30:1.0 33:1.0 39:1.0 41:1.0 47:1.0 50:1.0 54:1.0 59:1.0 63:1.0 67:1.0 78:1.0 82:1.0 86:1.0 91:1.0 94:1.0 98:1.0 103:1.0 108:1.0 111:1.0 116:1.0 118:1.0 121:1.0 126:1.0 129:1.0 133:1.0 140:1.0 141:1.0 194:1.0 216:1.0 301:1.0 385:1.0 403:1.0 474:1.0 565:1.0 611:1.0 665:1.0 755:1.0 794:1.0 886:1.0 935:1.0 1003:1.0 1083:1.0 1146:1.0 1207:1.0 1258:1.0 1334:1.0 1382:1.0 1447:1.0 1514:1.0 1590:1.0 1639:1.0 1708:1.0 1791:1.0 1868:1.0 1918:1.0 1989:1.0 2018:1.0 2069:1.0 2145:1.0 2196:1.0 2269:1.0 
-0.02 4:1.0 8:1.0 10:1.0 13:1.0 19:1.0 22:1.0 27:1.0 32:1.0 34:1.0 39:1.0 41:1.0 46:1.0 52:1.0 55:1.0 59:1.0 63:1.0 67:1.0 78:1.0 83:1.0 88:1.0 91:1.0 93:1.0 100:1.0 102:1.0 106:1.0 112:1.0 116:1.0 120:1.0 121:1.0 128:1.0 129:1.0 135:1.0 138:1.0 141:1.0 206:1.0 261:1.0 291:1.0 346:1.0 439:1.0 492:1.0 574:1.0 647:1.0 681:1.0 754:1.0 792:1.0 879:1.0 971:1.0 1019:1.0 1083:1.0 1146:1.0 1207:1.0 1258:1.0 1335:1.0 1388:1.0 1471:1.0 1545:1.0 1588:1.0 1630:1.0 1734:1.0 1768:1.0 1840:1.0 1936:1.0 1997:1.0 2052:1.0 2077:1.0 2179:1.0 2202:1.0 2293:1.0 
-0.02 4:1.0 7:1.0 9:1.0 13:1.0 18:1.0 23:1.0 28:1.0 32:1.0 34:1.0 37:1.0 41:1.0 45:1.0 50:1.0 56:1.0 60:1.0 62:1.0 66:1.0 78:1.0 82:1.0 86:1.0 92:1.0 94:1.0 100:1.0 103:1.0 106:1.0 110:1.0 115:1.0 120:1.0 124:1.0 127:1.0 130:1.0 136:1.0 140:1.0 141:1.0 201:1.0 241:1.0 274:1.0 343:1.0 428:1.0 512:1.0 590:1.0 645:1.0 673:1.0 721:1.0 786:1.0 856:1.0 944:1.0 1038:1.0 1094:1.0 1126:1.0 1191:1.0 1258:1.0 1334:1.0 1382:1.0 1448:1.0 1518:1.0 1608:1.0 1647:1.0 1738:1.0 1782:1.0 1831:1.0 1900:1.0 1984:1.0 2063:1.0 2122:1.0 2168:1.0 2224:1.0 2317:1.0 
-0.02 4:1.0 7:1.0 10:1.0 15:1.0 20:1.0 23:1.0 26:1.0 31:1.0 36:1.0 37:1.0 41:1.0 46:1.0 51:1.0 56:1.0 60:1.0 63:1.0 67:1.0 78:1.0 81:1.0 86:1.0 91:1.0 96:1.0 99:1.0 101:1.0 106:1.0 112:1.0 114:1.0 118:1.0 123:1.0 127:1.0 130:1.0 134:1.0 138:1.0 141:1.0 202:1.0 247:1.0 300:1.0 383:1.0 458:1.0 503:1.0 556:1.0 637:1.0 705:1.0 722:1.0 791:1.0 876:1.0 960:1.0 1039:1.0 1099:1.0 1146:1.0 1207:1.0 1258:1.0 1333:1.0 1378:1.0 1431:1.0 1516:1.0 1599:1.0 1673:1.0 1714:1.0 1752:1.0 1838:1.0 1926:1.0 1959:1.0 2027:1.0 2106:1.0 2166:1.0 2214:1.0 2277:1.0 
-0.02 1:1.0 7:1.0 9:1.0 16:1.0 19:1.0 21:1.0 26:1.0 31:1.0 36:1.0 37:1.0 43:1.0 48:1.0 51:1.0 55:1.0 57:1.0 62:1.0 67:1.0 78:1.0 83:1.0 88:1.0 90:1.0 94:1.0 97:1.0 104:1.0 108:1.0 112:1.0 115:1.0 117:1.0 123:1.0 125:1.0 129:1.0 133:1.0 139:1.0 143:1.0 153:1.0 244:1.0 287:1.0 393:1.0 434:1.0 471:1.0 556:1.0 637:1.0 707:1.0 732:1.0 831:1.0 907:1.0 953:1.0 1010:1.0 1047:1.0 1130:1.0 1207:1.0 1258:1.0 1335:1.0 1388:1.0 1470:1.0 1542:1.0 1573:1.0 1636:1.0 1696:1.0 1808:1.0 1871:1.0 1929:1.0 1971:1.0 2009:1.0 2097:1.0 2129:1.0 2195:1.0 2267:1.0 
-0.02 4:1.0 8:1.0 10:1.0 14:1.0 20:1.0 22:1.0 25:1.0 29:1.0 34:1.0 38:1.0 41:1.0 45:1.0 51:1.0 53:1.0 60:1.0 63:1.0 67:1.0 78:1.0 83:1.0 87:1.0 89:1.0 96:1.0 99:1.0 103:1.0 106:1.0 112:1.0 116:1.0 118:1.0 121:1.0 127:1.0 131:1.0 134:1.0 139:1.0 141:1.0 206:1.0 262:1.0 296:1.0 366:1.0 453:1.0 481:1.0 530:1.0 598:1.0 677:1.0 737:1.0 787:1.0 857:1.0 948:1.0 991:1.0 1099:1.0 1146:1.0 1207:1.0 1258:1.0 1335:1.0 1387:1.0 1465:1.0 1524:1.0 1567:1.0 1675:1.0 1722:1.0 1784:1.0 1840:1.0 1934:1.0 1989:1.0 2019:1.0 2075:1.0 2170:1.0 2231:1.0 2281:1.0 
-0.02 4:1.0 7:1.0 11:1.0 13:1.0 18:1.0 23:1.0 28:1.0 30:1.0 36:1.0 39:1.0 43:1.0 47:1.0 52:1.0 54:1.0 58:1.0 62:1.0 67:1.0 78:1.0 82:1.0 86:1.0 89:1.0 93:1.0 100:1.0 103:1.0 107:1.0 110:1.0 116:1.0 119:1.0 123:1.0 125:1.0 131:1.0 135:1.0 139:1.0 141:1.0 203:1.0 249:1.0 306:1.0 343:1.0 428:1.0 510:1.0 584:1.0 623:1.0 715:1.0 763:1.0 828:1.0 894:1.0 966:1.0 998:1.0 1063:1.0 1130:1.0 1207:1.0 1258:1.0 1334:1.0 1382:1.0 1445:1.0 1505:1.0 1556:1.0 1631:1.0 1739:1.0 1786:1.0 1848:1.0 1903:1.0 1995:1.0 2041:1.0 2099:1.0 2139:1.0 2235:1.0 2297:1.0 
0.02 4:1.0 7:1.0 12:1.0 15:1.0 17:1.0 21:1.0 26:1.0 32:1.0 35:1.0 39:1.0 41:1.0 46:1.0 51:1.0 54:1.0 57:1.0 63:1.0 67:1.0 78:1.0 83:1.0 86:1.0 92:1.0 95:1.0 98:1.0 103:1.0 105:1.0 110:1.0 116:1.0 118:1.0 122:1.0 128:1.0 131:1.0 135:1.0 138:1.0 141:1.0 204:1.0 255:1.0 329:1.0 369:1.0 402:1.0 472:1.0 559:1.0 651:1.0 697:1.0 754:1.0 791:1.0 874:1.0 949:1.0 995:1.0 1051:1.0 1146:1.0 1207:1.0 1258:1.0 1335:1.0 1386:1.0 1464:1.0 1519:1.0 1610:1.0 1655:1.0 1705:1.0 1778:1.0 1816:1.0 1902:1.0 1990:1.0 2024:1.0 2095:1.0 2187:1.0 2234:1.0 2293:1.0 
-0.011527310226180525 4:1.0 8:1.0 9:1.0 13:1.0 17:1.0 23:1.0 26:1.0 29:1.0 33:1.0 38:1.0 42:1.0 48:1.0 51:1.0 55:1.0 57:1.0 63:1.0 67:1.0 78:1.0 83:1.0 87:1.0 92:1.0 95:1.0 98:1.0 104:1.0 107:1.0 111:1.0 114:1.0 120:1.0 124:1.0 128:1.0 132:1.0 133:1.0 138:1.0 141:1.0 205:1.0 257:1.0 273:1.0 339:1.0 410:1.0 501:1.0 545:1.0 594:1.0 662:1.0 744:1.0 815:1.0 907:1.0 953:1.0 1011:1.0 1051:1.0 1146:1.0 1207:1.0 1258:1.0 1335:1.0 1387:1.0 1468:1.0 1535:1.0 1610:1.0 1656:1.0 1711:1.0 1803:1.0 1850:1.0 1912:1.0 1968:1.0 2064:1.0 2128:1.0 2189:1.0 2242:1.0 2261:1.0 
0.02 2:1.0 6:1.0 12:1.0 16:1.0 20:1.0 22:1.0 28:1.0 30:1.0 33:1.0 37:1.0 41:1.0 48:1.0 49:1.0 53:1.0 59:1.0 64:1.0 67:1.0 78:1.0 81:1.0 86:1.0 92:1.0 96:1.0 97:1.0 102:1.0 108:1.0 109:1.0 114:1.0 119:1.0 124:1.0 126:1.0 129:1.0 136:1.0 138:1.0 144:1.0 168:1.0 240:1.0 336:1.0 398:1.0 456:1.0 494:1.0 581:1.0 609:1.0 657:1.0 724:1.0 797:1.0 897:1.0 915:1.0 988:1.0 1087:1.0 1162:1.0 1207:1.0 1258:1.0 1333:1.0 1378:1.0 1432:1.0 1520:1.0 1613:1.0 1666:1.0 1688:1.0 1773:1.0 1858:1.0 1879:1.0 1964:1.0 2046:1.0 2117:1.0 2148:1.0 2206:1.0 2312:1.0 
-0.02 4:1.0 6:1.0 12:1.0 14:1.0 18:1.0 23:1.0 27:1.0 29:1.0 34:1.0 38:1.0 42:1.0 48:1.0 49:1.0 54:1.0 59:1.0 63:1.0 66:1.0 78:1.0 82:1.0 85:1.0 92:1.0 94:1.0 99:1.0 104:1.0 106:1.0 109:1.0 114:1.0 119:1.0 122:1.0 126:1.0 131:1.0 135:1.0 137:1.0 141:1.0 200:1.0 238:1.0 326:1.0 359:1.0 427:1.0 505:1.0 562:1.0 598:1.0 678:1.0 744:1.0 813:1.0 898:1.0 919:1.0 1003:1.0 1082:1.0 1142:1.0 1191:1.0 1258:1.0 1334:1.0 1381:1.0 1444:1.0 1502:1.0 1607:1.0 1644:1.0 1726:1.0 1797:1.0 1826:1.0 1879:1.0 1962:1.0 2038:1.0 2087:1.0 2155:1.0 2233:1.0 2289:1.0 
-0.0037585053708090034 4:1.0 5:1.0 11:1.0 14:1.0 20:1.0 24:1.0 27:1.0 31:1.0 35:1.0 37:1.0 42:1.0 45:1.0 50:1.0 54:1.0 59:1.0 63:1.0 67:1.0 78:1.0 84:1.0 86:1.0 89:1.0 96:1.0 100:1.0 102:1.0 108:1.0 109:1.0 115:1.0 119:1.0 121:1.0 126:1.0 132:1.0 136:1.0 138:1.0 141:1.0 195:1.0 218:1.0 312:1.0 368:1.0 463:1.0 523:1.0 571:1.0 633:1.0 690:1.0 725:1.0 802:1.0 854:1.0 935:1.0 1003:1.0 1083:1.0 1146:1.0 1207:1.0 1258:1.0 1336:1.0 1390:1.0 1477:1.0 1508:1.0 1568:1.0 1678:1.0 1736:1.0 1773:1.0 1859:1.0 1883:1.0 1977:1.0 2034:1.0 2072:1.0 2160:1.0 2254:1.0 2309:1.0 
0.01930714611492808 4:1.0 7:1.0 11:1.0 14:1.0 17:1.0 23:1.0 26:1.0 32:1.0 34:1.0 39:1.0 42:1.0 46:1.0 50:1.0 53:1.0 59:1.0 62:1.0 66:1.0 78:1.0 82:1.0 85:1.0 91:1.0 94:1.0 98:1.0 102:1.0 105:1.0 109:1.0 115:1.0 117:1.0 124:1.0 127:1.0 131:1.0 134:1.0 140:1.0 141:1.0 203:1.0 250:1.0 309:1.0 355:1.0 410:1.0 504:1.0 558:1.0 647:1.0 682:1.0 758:1.0 806:1.0 869:1.0 931:1.0 986:1.0 1078:1.0 1126:1.0 1191:1.0 1258:1.0 1334:1.0 1381:1.0 1443:1.0 1498:1.0 1590:1.0 1638:1.0 1701:1.0 1761:1.0 1811:1.0 1881:1.0 1972:1.0 2015:1.0 2123:1.0 2170:1.0 2232:1.0 2285:1.0 
0.02 4:1.0 7:1.0 11:1.0 13:1.0 19:1.0 23:1.0 25:1.0 31:1.0 34:1.0 38:1.0 42:1.0 47:1.0 51:1.0 55:1.0 60:1.0 63:1.0 67:1.0 79:1.0 83:1.0 85:1.0 89:1.0 95:1.0 98:1.0 103:1.0 105:1.0 111:1.0 114:1.0 118:1.0 122:1.0 125:1.0 131:1.0 135:1.0 140:1.0 141:1.0 203:1.0 249:1.0 307:1.0 347:1.0 441:1.0 499:1.0 538:1.0 630:1.0 678:1.0 743:1.0 811:1.0 891:1.0 956:1.0 1023:1.0 1099:1.0 1146:1.0 1207:1.0 1259:1.0 1339:1.0 1401:1.0 1457:1.0 1491:1.0 1562:1.0 1655:1.0 1705:1.0 1779:1.0 1818:1.0 1910:1.0 1958:1.0 2021:1.0 2083:1.0 2139:1.0 2236:1.0 2301:1.0 
0.02 4:1.0 5:1.0 11:1.0 14:1.0 20:1.0 23:1.0 27:1.0 31:1.0 35:1.0 39:1.0 41:1.0 47:1.0 51:1.0 53:1.0 59:1.0 61:1.0 67:1.0 78:1.0 83:1.0 86:1.0 89:1.0 95:1.0 98:1.0 102:1.0 105:1.0 111:1.0 115:1.0 119:1.0 122:1.0 127:1.0 129:1.0 135:1.0 137:1.0 141:1.0 195:1.0 218:1.0 312:1.0 367:1.0 459:1.0 507:1.0 571:1.0 635:1.0 697:1.0 755:1.0 795:1.0 889:1.0 947:1.0 985:1.0 1075:1.0 1114:1.0 1207:1.0 1258:1.0 1335:1.0 1386:1.0 1461:1.0 1507:1.0 1562:1.0 1654:1.0 1701:1.0 1763:1.0 1819:1.0 1915:1.0 1978:1.0 2039:1.0 2089:1.0 2163:1.0 2201:1.0 2289:1.0 
-0.02 4:1.0 7:1.0 9:1.0 14:1.0 20:1.0 23:1.0 26:1.0 30:1.0 36:1.0 38:1.0 42:1.0 46:1.0 49:1.0 55:1.0 58:1.0 63:1.0 66:1.0 78:1.0 82:1.0 88:1.0 92:1.0 96:1.0 100:1.0 104:1.0 107:1.0 110:1.0 114:1.0 120:1.0 124:1.0 126:1.0 131:1.0 134:1.0 139:1.0 141:1.0 201:1.0 242:1.0 280:1.0 367:1.0 458:1.0 502:1.0 552:1.0 622:1.0 710:1.0 742:1.0 805:1.0 867:1.0 922:1.0 1015:1.0 1066:1.0 1142:1.0 1191:1.0 1258:1.0 1334:1.0 1384:1.0 1456:1.0 1552:1.0 1616:1.0 1680:1.0 1743:1.0 1802:1.0 1846:1.0 1896:1.0 1968:1.0 2062:1.0 2119:1.0 2154:1.0 2231:1.0 2281:1.0 
0.007849496961034957 4:1.0 6:1.0 9:1.0 13:1.0 19:1.0 24:1.0 27:1.0 29:1.0 34:1.0 38:1.0 44:1.0 47:1.0 52:1.0 53:1.0 60:1.0 63:1.0 67:1.0 79:1.0 83:1.0 85:1.0 89:1.0 95:1.0 100:1.0 102:1.0 106:1.0 109:1.0 113:1.0 119:1.0 123:1.0 128:1.0 132:1.0 135:1.0 140:1.0 141:1.0 197:1.0 225:1.0 275:1.0 348:1.0 447:1.0 521:1.0 562:1.0 598:1.0 680:1.0 751:1.0 844:1.0 893:1.0 964:1.0 991:1.0 1099:1.0 1146:1.0 1207:1.0 1259:1.0 1339:1.0 1401:1.0 1457:1.0 1491:1.0 1564:1.0 1662:1.0 1734:1.0 1765:1.0 1825:1.0 1875:1.0 1947:1.0 2044:1.0 2112:1.0 2191:1.0 2252:1.0 2301:1.0 
0.02 4:1.0 7:1.0 10:1.0 14:1.0 20:1.0 23:1.0 27:1.0 30:1.0 34:1.0 37:1.0 43:1.0 48:1.0 49:1.0 53:1.0 59:1.0 62:1.0 67:1.0 78:1.0 82:1.0 88:1.0 90:1.0 96:1.0 100:1.0 104:1.0 107:1.0 111:1.0 114:1.0 118:1.0 122:1.0 127:1.0 129:1.0 133:1.0 140:1.0 141:1.0 202:1.0 246:1.0 296:1.0 367:1.0 459:1.0 506:1.0 566:1.0 613:1.0 675:1.0 732:1.0 829:1.0 897:1.0 915:1.0 986:1.0 1079:1.0 1130:1.0 1207:1.0 1258:1.0 1334:1.0 1384:1.0 1454:1.0 1544:1.0 1584:1.0 1680:1.0 1743:1.0 1803:1.0 1850:1.0 1910:1.0 1958:1.0 2023:1.0 2089:1.0 2161:1.0 2196:1.0 2269:1.0 
0.02 4:1.0 8:1.0 11:1.0 15:1.0 18:1.0 21:1.0 25:1.0 30:1.0 35:1.0 39:1.0 41:1.0 45:1.0 49:1.0 53:1.0 59:1.0 62:1.0 67:1.0 79:1.0 83:1.0 85:1.0 89:1.0 96:1.0 100:1.0 101:1.0 106:1.0 109:1.0 115:1.0 117:1.0 124:1.0 125:1.0 129:1.0 133:1.0 140:1.0 141:1.0 207:1.0 267:1.0 314:1.0 373:1.0 417:1.0 466:1.0 535:1.0 619:1.0 697:1.0 753:1.0 785:1.0 849:1.0 915:1.0 986:1.0 1079:1.0 1130:1.0 1207:1.0 1259:1.0 1339:1.0 1401:1.0 1457:1.0 1492:1.0 1568:1.0 1677:1.0 1730:1.0 1749:1.0 1827:1.0 1881:1.0 1972:1.0 2013:1.0 2113:1.0 2129:1.0 2196:1.0 2269:1.0 
0.0030419394043634082 4:1.0 8:1.0 11:1.0 13:1.0 18:1.0 23:1.0 28:1.0 30:1.0 33:1.0 40:1.0 42:1.0 45:1.0 51:1.0 55:1.0 58:1.0 63:1.0 67:1.0 78:1.0 83:1.0 87:1.0 91:1.0 94:1.0 98:1.0 101:1.0 107:1.0 110:1.0 114:1.0 117:1.0 123:1.0 127:1.0 132:1.0 135:1.0 138:1.0 141:1.0 207:1.0 265:1.0 306:1.0 343:1.0 428:1.0 510:1.0 581:1.0 612:1.0 670:1.0 773:1.0 803:1.0 859:1.0 954:1.0 1015:1.0 1067:1.0 1146:1.0 1207:1.0 1258:1.0 1335:1.0 1387:1.0 1467:1.0 1530:1.0 1590:1.0 1637:1.0 1699:1.0 1754:1.0 1846:1.0 1893:1.0 1955:1.0 2011:1.0 2108:1.0 2175:1.0 2250:1.0 2293:1.0 
0.02 4:1.0 5:1.0 11:1.0 15:1.0 19:1.0 21:1.0 27:1.0 32:1.0 35:1.0 37:1.0 42:1.0 47:1.0 51:1.0 56:1.0 59:1.0 63:1.0 67:1.0 79:1.0 83:1.0 88:1.0 90:1.0 96:1.0 98:1.0 104:1.0 107:1.0 112:1.0 115:1.0 119:1.0 124:1.0 126:1.0 130:1.0 135:1.0 137:1.0 141:1.0 195:1.0 219:1.0 315:1.0 377:1.0 435:1.0 476:1.0 575:1.0 649:1.0 690:1.0 727:1.0 811:1.0 892:1.0 959:1.0 1035:1.0 1083:1.0 1146:1.0 1207:1.0 1259:1.0 1339:1.0 1404:1.0 1470:1.0 1544:1.0 1582:1.0 1672:1.0 1711:1.0 1804:1.0 1855:1.0 1931:1.0 1980:1.0 2046:1.0 2118:1.0 2151:1.0 2217:1.0 2289:1.0 
0.007215158047702441 4:1.0 7:1.0 9:1.0 16:1.0 19:1.0 24:1.0 28:1.0 31:1.0 34:1.0 39:1.0 41:1.0 45:1.0 51:1.0 55:1.0 60:1.0 63:1.0 67:1.0 78:1.0 82:1.0 85:1.0 91:1.0 94:1.0 99:1.0 101:1.0 107:1.0 111:1.0 114:1.0 118:1.0 121:1.0 125:1.0 129:1.0 133:1.0 139:1.0 141:1.0 201:1.0 244:1.0 287:1.0 396:1.0 448:1.0 527:1.0 586:1.0 631:1.0 681:1.0 753:1.0 787:1.0 859:1.0 956:1.0 1023:1.0 1099:1.0 1146:1.0 1207:1.0 1258:1.0 1334:1.0 1381:1.0 1443:1.0 1498:1.0 1591:1.0 1641:1.0 1715:1.0 1755:1.0 1850:1.0 1910:1.0 1957:1.0 2017:1.0 2065:1.0 2129:1.0 2195:1.0 2265:1.0 
0.02 4:1.0 6:1.0 9:1.0 14:1.0 20:1.0 21:1.0 25:1.0 29:1.0 34:1.0 38:1.0 41:1.0 47:1.0 49:1.0 55:1.0 60:1.0 61:1.0 66:1.0 78:1.0 82:1.0 85:1.0 90:1.0 94:1.0 100:1.0 102:1.0 106:1.0 109:1.0 116:1.0 118:1.0 123:1.0 125:1.0 130:1.0 134:1.0 139:1.0 141:1.0 197:1.0 226:1.0 280:1.0 365:1.0 449:1.0 465:1.0 530:1.0 598:1.0 677:1.0 739:1.0 793:1.0 883:1.0 924:1.0 1021:1.0 1090:1.0 1110:1.0 1191:1.0 1258:1.0 1334:1.0 1381:1.0 1442:1.0 1494:1.0 1576:1.0 1646:1.0 1734:1.0 1765:1.0 1828:1.0 1886:1.0 1991:1.0 2025:1.0 2098:1.0 2134:1.0 2215:1.0 2281:1.0 
-0.02 4:1.0 7:1.0 11:1.0 14:1.0 17:1.0 21:1.0 27:1.0 29:1.0 33:1.0 39:1.0 43:1.0 45:1.0 49:1.0 55:1.0 58:1.0 62:1.0 66:1.0 78:1.0 82:1.0 85:1.0 89:1.0 95:1.0 99:1.0 104:1.0 106:1.0 110:1.0 113:1.0 119:1.0 124:1.0 126:1.0 129:1.0 133:1.0 137:1.0 141:1.0 203:1.0 250:1.0 309:1.0 353:1.0 403:1.0 473:1.0 561:1.0 595:1.0 667:1.0 761:1.0 817:1.0 851:1.0 922:1.0 1014:1.0 1062:1.0 1126:1.0 1191:1.0 1258:1.0 1334:1.0 1381:1.0 1441:1.0 1491:1.0 1563:1.0 1660:1.0 1726:1.0 1798:1.0 1829:1.0 1891:1.0 1948:1.0 2046:1.0 2117:1.0 2145:1.0 2193:1.0 2257:1.0 
0.02 4:1.0 8:1.0 10:1.0 15:1.0 18:1.0 21:1.0 27:1.0 30:1.0 34:1.0 40:1.0 43:1.0 45:1.0 50:1.0 56:1.0 57:1.0 63:1.0 67:1.0 78:1.0 82:1.0 85:1.0 89:1.0 93:1.0 99:1.0 103:1.0 105:1.0 110:1.0 114:1.0 119:1.0 124:1.0 126:1.0 131:1.0 134:1.0 139:1.0 141:1.0 206:1.0 263:1.0 298:1.0 373:1.0 419:1.0 474:1.0 566:1.0 616:1.0 687:1.0 777:1.0 818:1.0 856:1.0 941:1.0 1027:1.0 1051:1.0 1146:1.0 1207:1.0 1258:1.0 1334:1.0 1381:1.0 1441:1.0 1489:1.0 1555:1.0 1627:1.0 1721:1.0 1778:1.0 1814:1.0 1895:1.0 1964:1.0 2046:1.0 2119:1.0 2154:1.0 2231:1.0 2281:1.0 
-0.02 4:1.0 6:1.0 10:1.0 14:1.0 19:1.0 23:1.0 26:1.0 30:1.0 35:1.0 37:1.0 42:1.0 47:1.0 51:1.0 56:1.0 59:1.0 62:1.0 67:1.0 78:1.0 82:1.0 86:1.0 91:1.0 95:1.0 98:1.0 102:1.0 107:1.0 109:1.0 114:1.0 119:1.0 123:1.0 128:1.0 131:1.0 134:1.0 139:1.0 141:1.0 198:1.0 230:1.0 295:1.0 363:1.0 442:1.0 502:1.0 551:1.0 617:1.0 690:1.0 727:1.0 811:1.0 892:1.0 959:1.0 1034:1.0 1079:1.0 1130:1.0 1207:1.0 1258:1.0 1334:1.0 1382:1.0 1447:1.0 1515:1.0 1594:1.0 1654:1.0 1703:1.0 1769:1.0 1842:1.0 1879:1.0 1963:1.0 2044:1.0 2111:1.0 2186:1.0 2231:1.0 2281:1.0 
-0.02 4:1.0 8:1.0 11:1.0 13:1.0 18:1.0 24:1.0 25:1.0 29:1.0 35:1.0 39:1.0 42:1.0 46:1.0 52:1.0 56:1.0 59:1.0 63:1.0 67:1.0 78:1.0 83:1.0 87:1.0 90:1.0 93:1.0 99:1.0 103:1.0 108:1.0 111:1.0 115:1.0 120:1.0 121:1.0 127:1.0 130:1.0 134:1.0 140:1.0 141:1.0 207:1.0 265:1.0 306:1.0 344:1.0 429:1.0 513:1.0 531:1.0 603:1.0 698:1.0 758:1.0 808:1.0 880:1.0 975:1.0 1035:1.0 1083:1.0 1146:1.0 1207:1.0 1258:1.0 1335:1.0 1387:1.0 1466:1.0 1525:1.0 1571:1.0 1627:1.0 1724:1.0 1791:1.0 1867:1.0 1916:1.0 1981:1.0 2051:1.0 2074:1.0 2166:1.0 2216:1.0 2285:1.0 
-0.02 4:1.0 8:1.0 11:1.0 16:1.0 18:1.0 23:1.0 25:1.0 31:1.0 34:1.0 38:1.0 44:1.0 46:1.0 50:1.0 53:1.0 59:1.0 62:1.0 66:1.0 78:1.0 82:1.0 86:1.0 91:1.0 95:1.0 99:1.0 104:1.0 108:1.0 112:1.0 114:1.0 118:1.0 124:1.0 128:1.0 130:1.0 135:1.0 138:1.0 141:1.0 207:1.0 268:1.0 318:1.0 391:1.0 425:1.0 499:1.0 538:1.0 630:1.0 680:1.0 750:1.0 838:1.0 869:1.0 931:1.0 986:1.0 1078:1.0 1126:1.0 1191:1.0 1258:1.0 1334:1.0 1382:1.0 1447:1.0 1515:1.0 1595:1.0 1660:1.0 1728:1.0 1808:1.0 1870:1.0 1926:1.0 1960:1.0 2032:1.0 2126:1.0 2183:1.0 2218:1.0 2293:1.0 
-0.02 4:1.0 7:1.0 9:1.0 15:1.0 17:1.0 21:1.0 27:1.0 30:1.0 36:1.0 40:1.0 44:1.0 48:1.0 51:1.0 56:1.0 57:1.0 62:1.0 66:1.0 78:1.0 82:1.0 86:1.0 89:1.0 95:1.0 98:1.0 104:1.0 107:1.0 110:1.0 116:1.0 119:1.0 123:1.0 125:1.0 131:1.0 135:1.0 138:1.0 141:1.0 201:1.0 243:1.0 281:1.0 369:1.0 403:1.0 474:1.0 568:1.0 624:1.0 720:1.0 784:1.0 847:1.0 908:1.0 957:1.0 1026:1.0 1046:1.0 1126:1.0 1191:1.0 1258:1.0 1334:1.0 1382:1.0 1445:1.0 1507:1.0 1562:1.0 1656:1.0 1711:1.0 1802:1.0 1848:1.0 1903:1.0 1995:1.0 2041:1.0 2099:1.0 2139:1.0 2234:1.0 2293:1.0 
0.02 4:1.0 7:1.0 11:1.0 14:1.0 18:1.0 23:1.0 27:1.0 30:1.0 36:1.0 40:1.0 42:1.0 46:1.0 51:1.0 53:1.0 59:1.0 63:1.0 67:1.0 78:1.0 82:1.0 86:1.0 89:1.0 95:1.0 99:1.0 102:1.0 106:1.0 111:1.0 115:1.0 118:1.0 124:1.0 128:1.0 130:1.0 134:1.0 139:1.0 141:1.0 203:1.0 250:1.0 310:1.0 359:1.0 427:1.0 506:1.0 568:1.0 624:1.0 718:1.0 774:1.0 807:1.0 873:1.0 947:1.0 987:1.0 1083:1.0 1146:1.0 1207:1.0 1258:1.0 1334:1.0 1382:1.0 1445:1.0 1507:1.0 1563:1.0 1658:1.0 1718:1.0 1767:1.0 1835:1.0 1914:1.0 1976:1.0 2032:1.0 2126:1.0 2182:1.0 2215:1.0 2281:1.0 
-0.015558318690584483 4:1.0 6:1.0 10:1.0 16:1.0 20:1.0 23:1.0 25:1.0 31:1.0 35:1.0 38:1.0 44:1.0 47:1.0 50:1.0 53:1.0 59:1.0 62:1.0 67:1.0 79:1.0 83:1.0 87:1.0 89:1.0 94:1.0 100:1.0 103:1.0 106:1.0 109:1.0 114:1.0 119:1.0 121:1.0 126:1.0 129:1.0 135:1.0 138:1.0 141:1.0 198:1.0 232:1.0 304:1.0 399:1.0 457:1.0 499:1.0 539:1.0 634:1.0 696:1.0 751:1.0 842:1.0 885:1.0 931:1.0 986:1.0 1079:1.0 1130:1.0 1207:1.0 1259:1.0 1339:1.0 1403:1.0 1465:1.0 1522:1.0 1560:1.0 1647:1.0 1738:1.0 1781:1.0 1826:1.0 1879:1.0 1961:1.0 2034:1.0 2069:1.0 2147:1.0 2202:1.0 2293:1.0 
0.0059526813595984105 4:1.0 5:1.0 9:1.0 15:1.0 18:1.0 24:1.0 27:1.0 31:1.0 34:1.0 39:1.0 44:1.0 46:1.0 51:1.0 55:1.0 57:1.0 62:1.0 67:1.0 79:1.0 83:1.0 86:1.0 89:1.0 96:1.0 98:1.0 104:1.0 108:1.0 110:1.0 116:1.0 120:1.0 122:1.0 125:1.0 130:1.0 134:1.0 138:1.0 141:1.0 193:1.0 211:1.0 282:1.0 376:1.0 431:1.0 523:1.0 570:1.0 631:1.0 684:1.0 766:1.0 839:1.0 875:1.0 953:1.0 1010:1.0 1047:1.0 1130:1.0 1207:1.0 1259:1.0 1339:1.0 1402:1.0 1461:1.0 1508:1.0 1566:1.0 1672:1.0 1712:1.0 1806:1.0 1864:1.0 1904:1.0 1998:1.0 2053:1.0 2082:1.0 2134:1.0 2214:1.0 2277:1.0 
-0.02 4:1.0 7:1.0 12:1.0 14:1.0 19:1.0 22:1.0 27:1.0 32:1.0 34:1.0 39:1.0 43:1.0 47:1.0 52:1.0 55:1.0 58:1.0 62:1.0 67:1.0 78:1.0 82:1.0 88:1.0 92:1.0 96:1.0 99:1.0 102:1.0 108:1.0 112:1.0 114:1.0 118:1.0 121:1.0 126:1.0 130:1.0 134:1.0 139:1.0 141:1.0 204:1.0 254:1.0 327:1.0 362:1.0 439:1.0 492:1.0 574:1.0 647:1.0 683:1.0 763:1.0 828:1.0 895:1.0 970:1.0 1014:1.0 1063:1.0 1130:1.0 1207:1.0 1258:1.0 1334:1.0 1384:1.0 1456:1.0 1552:1.0 1615:1.0 1674:1.0 1720:1.0 1776:1.0 1870:1.0 1926:1.0 1957:1.0 2018:1.0 2070:1.0 2150:1.0 2215:1.0 2281:1.0 
0.02 4:1.0 6:1.0 10:1.0 15:1.0 19:1.0 22:1.0 28:1.0 30:1.0 35:1.0 38:1.0 41:1.0 46:1.0 50:1.0 56:1.0 59:1.0 63:1.0 67:1.0 79:1.0 83:1.0 87:1.0 89:1.0 95:1.0 99:1.0 101:1.0 107:1.0 109:1.0 116:1.0 119:1.0 123:1.0 127:1.0 131:1.0 133:1.0 139:1.0 141:1.0 198:1.0 231:1.0 299:1.0 378:1.0 440:1.0 494:1.0 583:1.0 618:1.0 693:1.0 738:1.0 790:1.0 872:1.0 943:1.0 1035:1.0 1083:1.0 1146:1.0 1207:1.0 1259:1.0 1339:1.0 1403:1.0 1465:1.0 1523:1.0 1563:1.0 1657:1.0 1715:1.0 1753:1.0 1844:1.0 1887:1.0 1995:1.0 2043:1.0 2107:1.0 2169:1.0 2227:1.0 2265:1.0 
-0.007611845290223925 4:1.0 8:1.0 11:1.0 15:1.0 17:1.0 23:1.0 27:1.0 32:1.0 33:1.0 39:1.0 43:1.0 47:1.0 50:1.0 55:1.0 60:1.0 61:1.0 67:1.0 78:1.0 82:1.0 86:1.0 92:1.0 93:1.0 98:1.0 104:1.0 106:1.0 112:1.0 116:1.0 120:1.0 124:1.0 126:1.0 130:1.0 134:1.0 138:1.0 141:1.0 207:1.0 267:1.0 313:1.0 371:1.0 411:1.0 508:1.0 573:1.0 643:1.0 667:1.0 763:1.0 826:1.0 887:1.0 940:1.0 1021:1.0 1091:1.0 1114:1.0 1207:1.0 1258:1.0 1334:1.0 1382:1.0 1448:1.0 1517:1.0 1602:1.0 1624:1.0 1710:1.0 1800:1.0 1840:1.0 1936:1.0 2000:1.0 2062:1.0 2118:1.0 2150:1.0 2214:1.0 2277:1.0 
0.02 4:1.0 7:1.0 12:1.0 14:1.0 18:1.0 22:1.0 28:1.0 30:1.0 34:1.0 38:1.0 41:1.0 46:1.0 50:1.0 56:1.0 59:1.0 64:1.0 67:1.0 78:1.0 84:1.0 86:1.0 89:1.0 94:1.0 99:1.0 104:1.0 106:1.0 110:1.0 116:1.0 118:1.0 122:1.0 126:1.0 132:1.0 134:1.0 139:1.0 141:1.0 204:1.0 254:1.0 326:1.0 358:1.0 424:1.0 494:1.0 582:1.0 614:1.0 677:1.0 738:1.0 790:1.0 872:1.0 943:1.0 1036:1.0 1087:1.0 1162:1.0 1207:1.0 1258:1.0 1336:1.0 1390:1.0 1477:1.0 1506:1.0 1559:1.0 1644:1.0 1726:1.0 1798:1.0 1832:1.0 1902:1.0 1990:1.0 2022:1.0 2088:1.0 2158:1.0 2247:1.0 2281:1.0 
-0.02 4:1.0 6:1.0 10:1.0 15:1.0 19:1.0 24:1.0 26:1.0 32:1.0 35:1.0 39:1.0 43:1.0 46:1.0 52:1.0 56:1.0 60:1.0 63:1.0 67:1.0 79:1.0 83:1.0 88:1.0 90:1.0 96:1.0 99:1.0 103:1.0 108:1.0 112:1.0 116:1.0 119:1.0 121:1.0 125:1.0 131:1.0 134:1.0 140:1.0 141:1.0 198:1.0 231:1.0 299:1.0 380:1.0 446:1.0 520:1.0 559:1.0 651:1.0 699:1.0 762:1.0 824:1.0 880:1.0 976:1.0 1039:1.0 1099:1.0 1146:1.0 1207:1.0 1259:1.0 1339:1.0 1404:1.0 1470:1.0 1544:1.0 1583:1.0 1675:1.0 1724:1.0 1792:1.0 1872:1.0 1935:1.0 1993:1.0 2033:1.0 2067:1.0 2138:1.0 2232:1.0 2285:1.0 
0.02 4:1.0 8:1.0 11:1.0 15:1.0 19:1.0 21:1.0 26:1.0 29:1.0 35:1.0 39:1.0 42:1.0 46:1.0 49:1.0 55:1.0 60:1.0 63:1.0 67:1.0 78:1.0 82:1.0 86:1.0 92:1.0 95:1.0 100:1.0 104:1.0 107:1.0 111:1.0 115:1.0 118:1.0 121:1.0 127:1.0 131:1.0 135:1.0 137:1.0 141:1.0 207:1.0 267:1.0 315:1.0 377:1.0 434:1.0 469:1.0 547:1.0 603:1.0 698:1.0 758:1.0 805:1.0 867:1.0 924:1.0 1023:1.0 1099:1.0 1146:1.0 1207:1.0 1258:1.0 1334:1.0 1382:1.0 1448:1.0 1519:1.0 1612:1.0 1664:1.0 1743:1.0 1803:1.0 1851:1.0 1914:1.0 1973:1.0 2019:1.0 2075:1.0 2171:1.0 2233:1.0 2289:1.0 
0.02 4:1.0 6:1.0 9:1.0 14:1.0 20:1.0 23:1.0 26:1.0 31:1.0 36:1.0 40:1.0 42:1.0 48:1.0 50:1.0 56:1.0 58:1.0 62:1.0 66:1.0 78:1.0 82:1.0 86:1.0 90:1.0 94:1.0 98:1.0 101:1.0 107:1.0 111:1.0 115:1.0 119:1.0 121:1.0 127:1.0 130:1.0 134:1.0 139:1.0 141:1.0 197:1.0 226:1.0 280:1.0 367:1.0 458:1.0 503:1.0 556:1.0 640:1.0 718:1.0 776:1.0 814:1.0 904:1.0 942:1.0 1030:1.0 1062:1.0 1126:1.0 1191:1.0 1258:1.0 1334:1.0 1382:1.0 1446:1.0 1510:1.0 1574:1.0 1637:1.0 1699:1.0 1755:1.0 1851:1.0 1915:1.0 1977:1.0 2035:1.0 2074:1.0 2166:1.0 2215:1.0 2281:1.0 
0.02 1:1.0 7:1.0 9:1.0 16:1.0 19:1.0 21:1.0 26:1.0 31:1.0 36:1.0 37:1.0 43:1.0 48:1.0 49:1.0 56:1.0 60:1.0 64:1.0 67:1.0 78:1.0 81:1.0 85:1.0 89:1.0 96:1.0 97:1.0 104:1.0 108:1.0 112:1.0 115:1.0 117:1.0 123:1.0 125:1.0 129:1.0 133:1.0 139:1.0 143:1.0 153:1.0 244:1.0 287:1.0 393:1.0 434:1.0 471:1.0 556:1.0 637:1.0 707:1.0 732:1.0 829:1.0 900:1.0 928:1.0 1040:1.0 1103:1.0 1162:1.0 1207:1.0 1258:1.0 1333:1.0 1377:1.0 1425:1.0 1492:1.0 1565:1.0 1668:1.0 1696:1.0 1808:1.0 1871:1.0 1929:1.0 1971:1.0 2009:1.0 2097:1.0 2129:1.0 2195:1.0 2267:1.0 
0.02 4:1.0 5:1.0 11:1.0 13:1.0 17:1.0 22:1.0 25:1.0 30:1.0 35:1.0 40:1.0 43:1.0 45:1.0 49:1.0 53:1.0 60:1.0 63:1.0 67:1.0 79:1.0 83:1.0 86:1.0 89:1.0 95:1.0 99:1.0 101:1.0 107:1.0 112:1.0 113:1.0 119:1.0 123:1.0 126:1.0 129:1.0 135:1.0 140:1.0 141:1.0 195:1.0 217:1.0 305:1.0 338:1.0 405:1.0 482:1.0 535:1.0 620:1.0 703:1.0 777:1.0 817:1.0 849:1.0 916:1.0 991:1.0 1099:1.0 1146:1.0 1207:1.0 1259:1.0 1339:1.0 1402:1.0 1461:1.0 1507:1.0 1563:1.0 1657:1.0 1715:1.0 1756:1.0 1853:1.0 1923:1.0 1947:1.0 2042:1.0 2101:1.0 2147:1.0 2204:1.0 2301:1.0 
-0.02 4:1.0 7:1.0 11:1.0 14:1.0 18:1.0 22:1.0 28:1.0 31:1.0 35:1.0 38:1.0 44:1.0 48:1.0 50:1.0 56:1.0 60:1.0 63:1.0 67:1.0 78:1.0 83:1.0 85:1.0 92:1.0 95:1.0 99:1.0 104:1.0 107:1.0 109:1.0 115:1.0 119:1.0 122:1.0 125:1.0 130:1.0 136:1.0 137:1.0 141:1.0 203:1.0 250:1.0 310:1.0 358:1.0 424:1.0 495:1.0 587:1.0 634:1.0 696:1.0 752:1.0 846:1.0 904:1.0 944:1.0 1039:1.0 1099:1.0 1146:1.0 1207:1.0 1258:1.0 1335:1.0 1385:1.0 1460:1.0 1503:1.0 1611:1.0 1660:1.0 1727:1.0 1801:1.0 1843:1.0 1883:1.0 1978:1.0 2037:1.0 2082:1.0 2136:1.0 2221:1.0 2305:1.0 
-0.02 2:1.0 6:1.0 12:1.0 16:1.0 20:1.0 22:1.0 28:1.0 30:1.0 33:1.0 37:1.0 41:1.0 48:1.0 51:1.0 55:1.0 57:1.0 62:1.0 67:1.0 78:1.0 83:1.0 88:1.0 90:1.0 94:1.0 97:1.0 102:1.0 108:1.0 109:1.0 114:1.0 119:1.0 124:1.0 126:1.0 129:1.0 136:1.0 138:1.0 144:1.0 168:1.0 240:1.0 336:1.0 398:1.0 456:1.0 494:1.0 581:1.0 609:1.0 657:1.0 724:1.0 799:1.0 907:1.0 953:1.0 1010:1.0 1047:1.0 1130:1.0 1207:1.0 1258:1.0 1335:1.0 1388:1.0 1470:1.0 1542:1.0 1573:1.0 1634:1.0 1688:1.0 1773:1.0 1858:1.0 1879:1.0 1964:1.0 2046:1.0 2117:1.0 2148:1.0 2206:1.0 2312:1.0 
-0.02 2:1.0 6:1.0 12:1.0 16:1.0 20:1.0 22:1.0 28:1.0 30:1.0 33:1.0 37:1.0 41:1.0 45:1.0 49:1.0 53:1.0 59:1.0 63:1.0 67:1.0 78:1.0 82:1.0 86:1.0 92:1.0 96:1.0 100:1.0 102:1.0 108:1.0 109:1.0 114:1.0 119:1.0 124:1.0 126:1.0 129:1.0 136:1.0 138:1.0 144:1.0 168:1.0 240:1.0 336:1.0 398:1.0 456:1.0 494:1.0 581:1.0 609:1.0 657:1.0 721:1.0 785:1.0 849:1.0 915:1.0 987:1.0 1083:1.0 1146:1.0 1207:1.0 1258:1.0 1334:1.0 1382:1.0 1448:1.0 1520:1.0 1616:1.0 1678:1.0 1736:1.0 1773:1.0 1858:1.0 1879:1.0 1964:1.0 2046:1.0 2117:1.0 2148:1.0 2206:1.0 2312:1.0 
-0.0025914298087598973 4:1.0 8:1.0 11:1.0 13:1.0 19:1.0 24:1.0 27:1.0 30:1.0 36:1.0 38:1.0 42:1.0 48:1.0 51:1.0 53:1.0 58:1.0 62:1.0 67:1.0 78:1.0 82:1.0 85:1.0 92:1.0 96:1.0 99:1.0 103:1.0 106:1.0 112:1.0 114:1.0 119:1.0 124:1.0 127:1.0 130:1.0 134:1.0 138:1.0 141:1.0 207:1.0 265:1.0 307:1.0 348:1.0 447:1.0 522:1.0 568:1.0 622:1.0 710:1.0 744:1.0 815:1.0 905:1.0 946:1.0 982:1.0 1063:1.0 1130:1.0 1207:1.0 1258:1.0 1334:1.0 1381:1.0 1444:1.0 1504:1.0 1615:1.0 1675:1.0 1722:1.0 1784:1.0 1838:1.0 1927:1.0 1964:1.0 2047:1.0 2122:1.0 2166:1.0 2214:1.0 2277:1.0 
-0.02 4:1.0 6:1.0 11:1.0 15:1.0 20:1.0 23:1.0 26:1.0 30:1.0 35:1.0 40:1.0 42:1.0 46:1.0 50:1.0 55:1.0 59:1.0 63:1.0 67:1.0 79:1.0 83:1.0 88:1.0 90:1.0 94:1.0 100:1.0 102:1.0 107:1.0 110:1.0 116:1.0 118:1.0 122:1.0 127:1.0 129:1.0 134:1.0 137:1.0 141:1.0 199:1.0 235:1.0 316:1.0 383:1.0 458:1.0 502:1.0 551:1.0 620:1.0 702:1.0 774:1.0 806:1.0 871:1.0 939:1.0 1019:1.0 1083:1.0 1146:1.0 1207:1.0 1259:1.0 1339:1.0 1404:1.0 1470:1.0 1542:1.0 1576:1.0 1646:1.0 1735:1.0 1770:1.0 1848:1.0 1902:1.0 1990:1.0 2023:1.0 2089:1.0 2162:1.0 2197:1.0 2273:1.0 
-0.02 4:1.0 7:1.0 12:1.0 15:1.0 20:1.0 21:1.0 26:1.0 32:1.0 36:1.0 38:1.0 41:1.0 47:1.0 50:1.0 56:1.0 58:1.0 62:1.0 66:1.0 78:1.0 82:1.0 86:1.0 89:1.0 93:1.0 98:1.0 101:1.0 106:1.0 111:1.0 116:1.0 119:1.0 123:1.0 127:1.0 131:1.0 133:1.0 138:1.0 141:1.0 204:1.0 255:1.0 332:1.0 381:1.0 450:1.0 472:1.0 560:1.0 654:1.0 709:1.0 739:1.0 794:1.0 888:1.0 942:1.0 1030:1.0 1062:1.0 1126:1.0 1191:1.0 1258:1.0 1334:1.0 1382:1.0 1445:1.0 1505:1.0 1554:1.0 1621:1.0 1698:1.0 1751:1.0 1836:1.0 1919:1.0 1995:1.0 2043:1.0 2107:1.0 2169:1.0 2226:1.0 2261:1.0 
0.02 4:1.0 5:1.0 12:1.0 15:1.0 19:1.0 22:1.0 26:1.0 32:1.0 35:1.0 39:1.0 43:1.0 46:1.0 50:1.0 56:1.0 59:1.0 63:1.0 67:1.0 78:1.0 82:1.0 86:1.0 89:1.0 95:1.0 99:1.0 101:1.0 105:1.0 111:1.0 116:1.0 119:1.0 121:1.0 125:1.0 129:1.0 133:1.0 139:1.0 141:1.0 196:1.0 223:1.0 331:1.0 378:1.0 438:1.0 488:1.0 559:1.0 651:1.0 699:1.0 762:1.0 822:1.0 872:1.0 943:1.0 1035:1.0 1083:1.0 1146:1.0 1207:1.0 1258:1.0 1334:1.0 1382:1.0 1445:1.0 1507:1.0 1563:1.0 1657:1.0 1713:1.0 1747:1.0 1820:1.0 1919:1.0 1993:1.0 2033:1.0 2065:1.0 2129:1.0 2195:1.0 2265:1.0 
0.02 1:1.0 7:1.0 9:1.0 16:1.0 19:1.0 21:1.0 26:1.0 31:1.0 36:1.0 37:1.0 43:1.0 48:1.0 50:1.0 55:1.0 60:1.0 63:1.0 67:1.0 78:1.0 82:1.0 85:1.0 90:1.0 95:1.0 97:1.0 104:1.0 108:1.0 112:1.0 115:1.0 117:1.0 123:1.0 125:1.0 129:1.0 133:1.0 139:1.0 143:1.0 153:1.0 244:1.0 287:1.0 393:1.0 434:1.0 471:1.0 556:1.0 637:1.0 707:1.0 732:1.0 830:1.0 903:1.0 940:1.0 1023:1.0 1099:1.0 1146:1.0 1207:1.0 1258:1.0 1334:1.0 1381:1.0 1442:1.0 1495:1.0 1577:1.0 1652:1.0 1696:1.0 1808:1.0 1871:1.0 1929:1.0 1971:1.0 2009:1.0 2097:1.0 2129:1.0 2195:1.0 2267:1.0 
-0.02 4:1.0 7:1.0 10:1.0 16:1.0 19:1.0 23:1.0 27:1.0 32:1.0 34:1.0 38:1.0 42:1.0 46:1.0 49:1.0 53:1.0 59:1.0 62:1.0 66:1.0 78:1.0 82:1.0 86:1.0 92:1.0 95:1.0 98:1.0 101:1.0 106:1.0 109:1.0 115:1.0 118:1.0 122:1.0 127:1.0 131:1.0 135:1.0 138:1.0 141:1.0 202:1.0 248:1.0 303:1.0 395:1.0 443:1.0 508:1.0 574:1.0 646:1.0 678:1.0 742:1.0 805:1.0 865:1.0 915:1.0 986:1.0 1078:1.0 1126:1.0 1191:1.0 1258:1.0 1334:1.0 1382:1.0 1448:1.0 1519:1.0 1610:1.0 1653:1.0 1698:1.0 1749:1.0 1827:1.0 1882:1.0 1974:1.0 2023:1.0 2091:1.0 2171:1.0 2234:1.0 2293:1.0 
0.02 4:1.0 5:1.0 11:1.0 14:1.0 18:1.0 21:1.0 27:1.0 31:1.0 33:1.0 39:1.0 43:1.0 46:1.0 50:1.0 55:1.0 59:1.0 63:1.0 67:1.0 79:1.0 83:1.0 88:1.0 89:1.0 95:1.0 99:1.0 101:1.0 105:1.0 111:1.0 113:1.0 119:1.0 121:1.0 126:1.0 131:1.0 136:1.0 139:1.0 141:1.0 195:1.0 218:1.0 310:1.0 357:1.0 419:1.0 475:1.0 569:1.0 627:1.0 667:1.0 762:1.0 822:1.0 871:1.0 939:1.0 1019:1.0 1083:1.0 1146:1.0 1207:1.0 1259:1.0 1339:1.0 1404:1.0 1469:1.0 1539:1.0 1563:1.0 1657:1.0 1713:1.0 1747:1.0 1817:1.0 1907:1.0 1945:1.0 2034:1.0 2071:1.0 2156:1.0 2239:1.0 2313:1.0 
0.02 4:1.0 7:1.0 11:1.0 16:1.0 18:1.0 22:1.0 26:1.0 30:1.0 35:1.0 37:1.0 43:1.0 47:1.0 50:1.0 54:1.0 59:1.0 61:1.0 67:1.0 78:1.0 84:1.0 86:1.0 91:1.0 95:1.0 99:1.0 102:1.0 105:1.0 111:1.0 114:1.0 120:1.0 123:1.0 126:1.0 130:1.0 135:1.0 139:1.0 141:1.0 203:1.0 252:1.0 318:1.0 390:1.0 422:1.0 486:1.0 551:1.0 617:1.0 691:1.0 731:1.0 826:1.0 886:1.0 935:1.0 1001:1.0 1075:1.0 1114:1.0 1207:1.0 1258:1.0 1336:1.0 1390:1.0 1479:1.0 1515:1.0 1595:1.0 1658:1.0 1717:1.0 1763:1.0 1818:1.0 1912:1.0 1967:1.0 2058:1.0 2102:1.0 2151:1.0 2219:1.0 2297:1.0 
0.02 4:1.0 5:1.0 11:1.0 14:1.0 20:1.0 23:1.0 26:1.0 32:1.0 35:1.0 39:1.0 41:1.0 46:1.0 50:1.0 56:1.0 59:1.0 61:1.0 67:1.0 78:1.0 82:1.0 85:1.0 89:1.0 94:1.0 98:1.0 101:1.0 107:1.0 110:1.0 116:1.0 119:1.0 123:1.0 125:1.0 129:1.0 135:1.0 138:1.0 141:1.0 195:1.0 218:1.0 312:1.0 367:1.0 458:1.0 504:1.0 559:1.0 651:1.0 697:1.0 754:1.0 790:1.0 872:1.0 943:1.0 1033:1.0 1075:1.0 1114:1.0 1207:1.0 1258:1.0 1334:1.0 1381:1.0 1441:1.0 1490:1.0 1558:1.0 1637:1.0 1699:1.0 1754:1.0 1848:1.0 1903:1.0 1995:1.0 2041:1.0 2097:1.0 2131:1.0 2202:1.0 2293:1.0 
0.0020864194919780307 4:1.0 6:1.0 9:1.0 13:1.0 18:1.0 23:1.0 28:1.0 30:1.0 34:1.0 39:1.0 41:1.0 48:1.0 50:1.0 54:1.0 57:1.0 61:1.0 67:1.0 78:1.0 82:1.0 85:1.0 89:1.0 93:1.0 100:1.0 104:1.0 106:1.0 109:1.0 113:1.0 117:1.0 124:1.0 128:1.0 132:1.0 135:1.0 138:1.0 141:1.0 197:1.0 225:1.0 274:1.0 343:1.0 428:1.0 510:1.0 582:1.0 615:1.0 681:1.0 756:1.0 798:1.0 902:1.0 933:1.0 993:1.0 1043:1.0 1114:1.0 1207:1.0 1258:1.0 1334:1.0 1381:1.0 1441:1.0 1489:1.0 1556:1.0 1632:1.0 1742:1.0 1797:1.0 1825:1.0 1873:1.0 1940:1.0 2016:1.0 2128:1.0 2191:1.0 2250:1.0 2293:1.0 
0.02 4:1.0 6:1.0 11:1.0 15:1.0 17:1.0 24:1.0 26:1.0 29:1.0 34:1.0 39:1.0 44:1.0 47:1.0 49:1.0 55:1.0 58:1.0 62:1.0 67:1.0 79:1.0 83:1.0 88:1.0 91:1.0 95:1.0 99:1.0 104:1.0 106:1.0 109:1.0 115:1.0 119:1.0 124:1.0 127:1.0 129:1.0 134:1.0 138:1.0 141:1.0 199:1.0 235:1.0 313:1.0 372:1.0 414:1.0 517:1.0 546:1.0 599:1.0 684:1.0 767:1.0 841:1.0 883:1.0 922:1.0 1014:1.0 1063:1.0 1130:1.0 1207:1.0 1259:1.0 1339:1.0 1404:1.0 1471:1.0 1547:1.0 1595:1.0 1660:1.0 1726:1.0 1797:1.0 1827:1.0 1883:1.0 1980:1.0 2047:1.0 2121:1.0 2162:1.0 2198:1.0 2277:1.0 
0.02 4:1.0 7:1.0 12:1.0 14:1.0 19:1.0 23:1.0 27:1.0 31:1.0 33:1.0 38:1.0 43:1.0 47:1.0 50:1.0 56:1.0 59:1.0 62:1.0 67:1.0 79:1.0 83:1.0 85:1.0 90:1.0 95:1.0 99:1.0 102:1.0 108:1.0 110:1.0 116:1.0 119:1.0 124:1.0 125:1.0 131:1.0 135:1.0 137:1.0 141:1.0 204:1.0 254:1.0 327:1.0 363:1.0 443:1.0 507:1.0 569:1.0 626:1.0 663:1.0 747:1.0 826:1.0 888:1.0 943:1.0 1034:1.0 1079:1.0 1130:1.0 1207:1.0 1259:1.0 1339:1.0 1401:1.0 1458:1.0 1495:1.0 1579:1.0 1658:1.0 1720:1.0 1774:1.0 1864:1.0 1903:1.0 1996:1.0 2045:1.0 2115:1.0 2139:1.0 2233:1.0 2289:1.0 
-0.02 4:1.0 8:1.0 10:1.0 16:1.0 19:1.0 23:1.0 26:1.0 30:1.0 33:1.0 40:1.0 42:1.0 46:1.0 51:1.0 53:1.0 57:1.0 63:1.0 67:1.0 78:1.0 83:1.0 88:1.0 91:1.0 94:1.0 98:1.0 104:1.0 107:1.0 111:1.0 115:1.0 120:1.0 124:1.0 127:1.0 130:1.0 133:1.0 138:1.0 141:1.0 206:1.0 264:1.0 303:1.0 395:1.0 442:1.0 502:1.0 549:1.0 612:1.0 670:1.0 774:1.0 807:1.0 873:1.0 945:1.0 979:1.0 1051:1.0 1146:1.0 1207:1.0 1258:1.0 1335:1.0 1388:1.0 1471:1.0 1546:1.0 1590:1.0 1640:1.0 1711:1.0 1803:1.0 1851:1.0 1916:1.0 1984:1.0 2063:1.0 2122:1.0 2165:1.0 2210:1.0 2261:1.0 
-0.008048762965183778 4:1.0 6:1.0 10:1.0 14:1.0 17:1.0 21:1.0 26:1.0 29:1.0 35:1.0 40:1.0 44:1.0 45:1.0 51:1.0 56:1.0 59:1.0 63:1.0 67:1.0 78:1.0 84:1.0 86:1.0 89:1.0 94:1.0 99:1.0 103:1.0 108:1.0 111:1.0 116:1.0 119:1.0 122:1.0 128:1.0 131:1.0 133:1.0 139:1.0 141:1.0 198:1.0 230:1.0 293:1.0 353:1.0 402:1.0 469:1.0 547:1.0 604:1.0 704:1.0 781:1.0 835:1.0 860:1.0 959:1.0 1035:1.0 1083:1.0 1146:1.0 1207:1.0 1258:1.0 1336:1.0 1390:1.0 1477:1.0 1506:1.0 1559:1.0 1643:1.0 1724:1.0 1791:1.0 1868:1.0 1919:1.0 1994:1.0 2040:1.0 2095:1.0 2185:1.0 2227:1.0 2265:1.0 
-0.02 4:1.0 5:1.0 11:1.0 15:1.0 17:1.0 23:1.0 27:1.0 29:1.0 35:1.0 37:1.0 42:1.0 48:1.0 51:1.0 53:1.0 59:1.0 63:1.0 67:1.0 78:1.0 82:1.0 87:1.0 91:1.0 94:1.0 100:1.0 102:1.0 107:1.0 111:1.0 114:1.0 119:1.0 124:1.0 126:1.0 131:1.0 134:1.0 138:1.0 141:1.0 195:1.0 219:1.0 313:1.0 371:1.0 411:1.0 505:1.0 563:1.0 601:1.0 690:1.0 728:1.0 815:1.0 905:1.0 947:1.0 987:1.0 1083:1.0 1146:1.0 1207:1.0 1258:1.0 1334:1.0 1383:1.0 1451:1.0 1530:1.0 1592:1.0 1646:1.0 1735:1.0 1771:1.0 1850:1.0 1911:1.0 1964:1.0 2046:1.0 2119:1.0 2154:1.0 2230:1.0 2277:1.0 
-0.02 4:1.0 5:1.0 10:1.0 14:1.0 18:1.0 21:1.0 26:1.0 31:1.0 35:1.0 39:1.0 42:1.0 46:1.0 50:1.0 56:1.0 59:1.0 62:1.0 67:1.0 78:1.0 82:1.0 88:1.0 91:1.0 95:1.0 97:1.0 102:1.0 105:1.0 112:1.0 116:1.0 118:1.0 124:1.0 127:1.0 132:1.0 134:1.0 137:1.0 141:1.0 194:1.0 214:1.0 294:1.0 357:1.0 418:1.0 471:1.0 555:1.0 635:1.0 698:1.0 758:1.0 806:1.0 872:1.0 943:1.0 1034:1.0 1079:1.0 1130:1.0 1207:1.0 1258:1.0 1334:1.0 1384:1.0 1455:1.0 1547:1.0 1593:1.0 1650:1.0 1685:1.0 1764:1.0 1824:1.0 1934:1.0 1992:1.0 2031:1.0 2124:1.0 2174:1.0 2245:1.0 2273:1.0 
0.02 2:1.0 6:1.0 12:1.0 16:1.0 20:1.0 22:1.0 28:1.0 30:1.0 33:1.0 37:1.0 41:1.0 48:1.0 52:1.0 56:1.0 57:1.0 62:1.0 67:1.0 78:1.0 83:1.0 88:1.0 89:1.0 93:1.0 97:1.0 102:1.0 108:1.0 109:1.0 114:1.0 119:1.0 124:1.0 126:1.0 129:1.0 136:1.0 138:1.0 144:1.0 168:1.0 240:1.0 336:1.0 398:1.0 456:1.0 494:1.0 581:1.0 609:1.0 657:1.0 724:1.0 800:1.0 912:1.0 973:1.0 1026:1.0 1047:1.0 1130:1.0 1207:1.0 1258:1.0 1335:1.0 1388:1.0 1469:1.0 1537:1.0 1553:1.0 1618:1.0 1688:1.0 1773:1.0 1858:1.0 1879:1.0 1964:1.0 2046:1.0 2117:1.0 2148:1.0 2206:1.0 2312:1.0 
-0.014112931166436742 4:1.0 6:1.0 9:1.0 13:1.0 20:1.0 22:1.0 27:1.0 30:1.0 34:1.0 40:1.0 43:1.0 46:1.0 50:1.0 54:1.0 58:1.0 63:1.0 67:1.0 78:1.0 83:1.0 85:1.0 89:1.0 95:1.0 100:1.0 102:1.0 107:1.0 109:1.0 114:1.0 120:1.0 123:1.0 128:1.0 131:1.0 133:1.0 138:1.0 141:1.0 197:1.0 225:1.0 276:1.0 350:1.0 455:1.0 490:1.0 566:1.0 616:1.0 687:1.0 778:1.0 822:1.0 870:1.0 934:1.0 999:1.0 1067:1.0 1146:1.0 1207:1.0 1258:1.0 1335:1.0 1385:1.0 1457:1.0 1491:1.0 1564:1.0 1662:1.0 1735:1.0 1769:1.0 1842:1.0 1880:1.0 1967:1.0 2060:1.0 2111:1.0 2185:1.0 2226:1.0 2261:1.0 
0.013065272324831175 4:1.0 7:1.0 9:1.0 14:1.0 19:1.0 22:1.0 26:1.0 29:1.0 35:1.0 38:1.0 43:1.0 48:1.0 51:1.0 54:1.0 57:1.0 62:1.0 67:1.0 79:1.0 83:1.0 88:1.0 92:1.0 94:1.0 99:1.0 103:1.0 107:1.0 111:1.0 116:1.0 119:1.0 121:1.0 127:1.0 131:1.0 135:1.0 137:1.0 141:1.0 201:1.0 242:1.0 279:1.0 362:1.0 438:1.0 485:1.0 547:1.0 602:1.0 695:1.0 748:1.0 831:1.0 906:1.0 949:1.0 994:1.0 1047:1.0 1130:1.0 1207:1.0 1259:1.0 1339:1.0 1404:1.0 1472:1.0 1550:1.0 1607:1.0 1643:1.0 1723:1.0 1787:1.0 1852:1.0 1919:1.0 1993:1.0 2035:1.0 2075:1.0 2171:1.0 2233:1.0 2289:1.0 
0.006965467166377296 4:1.0 8:1.0 11:1.0 14:1.0 20:1.0 23:1.0 25:1.0 30:1.0 35:1.0 38:1.0 41:1.0 47:1.0 51:1.0 56:1.0 58:1.0 63:1.0 67:1.0 78:1.0 82:1.0 86:1.0 89:1.0 95:1.0 99:1.0 104:1.0 107:1.0 110:1.0 116:1.0 119:1.0 123:1.0 127:1.0 132:1.0 134:1.0 139:1.0 141:1.0 207:1.0 266:1.0 312:1.0 367:1.0 457:1.0 498:1.0 535:1.0 618:1.0 693:1.0 739:1.0 795:1.0 892:1.0 958:1.0 1031:1.0 1067:1.0 1146:1.0 1207:1.0 1258:1.0 1334:1.0 1382:1.0 1445:1.0 1507:1.0 1563:1.0 1660:1.0 1727:1.0 1802:1.0 1848:1.0 1903:1.0 1995:1.0 2043:1.0 2108:1.0 2174:1.0 2247:1.0 2281:1.0 
-0.008398263299926833 4:1.0 6:1.0 11:1.0 15:1.0 17:1.0 21:1.0 26:1.0 31:1.0 35:1.0 40:1.0 42:1.0 48:1.0 51:1.0 55:1.0 59:1.0 62:1.0 66:1.0 78:1.0 82:1.0 85:1.0 89:1.0 96:1.0 99:1.0 101:1.0 106:1.0 109:1.0 115:1.0 118:1.0 121:1.0 128:1.0 131:1.0 135:1.0 140:1.0 141:1.0 199:1.0 235:1.0 313:1.0 369:1.0 402:1.0 471:1.0 555:1.0 636:1.0 702:1.0 776:1.0 815:1.0 907:1.0 955:1.0 1018:1.0 1078:1.0 1126:1.0 1191:1.0 1258:1.0 1334:1.0 1381:1.0 1441:1.0 1492:1.0 1567:1.0 1673:1.0 1714:1.0 1749:1.0 1827:1.0 1882:1.0 1973:1.0 2020:1.0 2079:1.0 2187:1.0 2236:1.0 2301:1.0 
-0.02 4:1.0 5:1.0 11:1.0 16:1.0 19:1.0 22:1.0 26:1.0 29:1.0 35:1.0 38:1.0 41:1.0 47:1.0 49:1.0 55:1.0 57:1.0 63:1.0 67:1.0 78:1.0 84:1.0 86:1.0 91:1.0 95:1.0 100:1.0 102:1.0 106:1.0 112:1.0 114:1.0 118:1.0 122:1.0 128:1.0 130:1.0 134:1.0 139:1.0 141:1.0 195:1.0 220:1.0 319:1.0 394:1.0 438:1.0 485:1.0 547:1.0 602:1.0 693:1.0 739:1.0 793:1.0 883:1.0 921:1.0 1011:1.0 1051:1.0 1146:1.0 1207:1.0 1258:1.0 1336:1.0 1390:1.0 1479:1.0 1515:1.0 1596:1.0 1662:1.0 1734:1.0 1768:1.0 1838:1.0 1926:1.0 1958:1.0 2024:1.0 2094:1.0 2182:1.0 2215:1.0 2281:1.0 
-0.02 4:1.0 7:1.0 9:1.0 13:1.0 17:1.0 22:1.0 26:1.0 30:1.0 34:1.0 37:1.0 43:1.0 46:1.0 50:1.0 56:1.0 60:1.0 63:1.0 67:1.0 79:1.0 83:1.0 85:1.0 89:1.0 95:1.0 97:1.0 104:1.0 106:1.0 110:1.0 116:1.0 119:1.0 123:1.0 125:1.0 131:1.0 135:1.0 137:1.0 141:1.0 201:1.0 241:1.0 273:1.0 338:1.0 406:1.0 486:1.0 550:1.0 613:1.0 675:1.0 730:1.0 822:1.0 872:1.0 944:1.0 1039:1.0 1099:1.0 1146:1.0 1207:1.0 1259:1.0 1339:1.0 1401:1.0 1457:1.0 1491:1.0 1561:1.0 1652:1.0 1694:1.0 1798:1.0 1832:1.0 1903:1.0 1995:1.0 2041:1.0 2099:1.0 2139:1.0 2233:1.0 2289:1.0 
-0.02 4:1.0 7:1.0 10:1.0 14:1.0 19:1.0 23:1.0 28:1.0 32:1.0 34:1.0 38:1.0 44:1.0 46:1.0 49:1.0 53:1.0 57:1.0 63:1.0 67:1.0 78:1.0 83:1.0 87:1.0 90:1.0 94:1.0 100:1.0 102:1.0 108:1.0 111:1.0 116:1.0 117:1.0 122:1.0 127:1.0 131:1.0 133:1.0 139:1.0 141:1.0 202:1.0 246:1.0 295:1.0 363:1.0 444:1.0 512:1.0 590:1.0 646:1.0 680:1.0 750:1.0 837:1.0 865:1.0 913:1.0 979:1.0 1051:1.0 1146:1.0 1207:1.0 1258:1.0 1335:1.0 1387:1.0 1466:1.0 1526:1.0 1576:1.0 1646:1.0 1736:1.0 1775:1.0 1868:1.0 1917:1.0 1986:1.0 2007:1.0 2091:1.0 2169:1.0 2227:1.0 2265:1.0 
0.02 4:1.0 6:1.0 12:1.0 15:1.0 18:1.0 24:1.0 26:1.0 30:1.0 33:1.0 38:1.0 41:1.0 46:1.0 50:1.0 56:1.0 59:1.0 63:1.0 67:1.0 78:1.0 82:1.0 86:1.0 92:1.0 94:1.0 100:1.0 102:1.0 106:1.0 111:1.0 116:1.0 118:1.0 123:1.0 126:1.0 130:1.0 134:1.0 138:1.0 141:1.0 200:1.0 239:1.0 330:1.0 376:1.0 430:1.0 518:1.0 549:1.0 610:1.0 661:1.0 738:1.0 790:1.0 872:1.0 943:1.0 1035:1.0 1083:1.0 1146:1.0 1207:1.0 1258:1.0 1334:1.0 1382:1.0 1448:1.0 1518:1.0 1608:1.0 1646:1.0 1734:1.0 1767:1.0 1836:1.0 1918:1.0 1991:1.0 2026:1.0 2102:1.0 2150:1.0 2214:1.0 2277:1.0 
0.01977816029966983 4:1.0 7:1.0 11:1.0 14:1.0 18:1.0 24:1.0 28:1.0 31:1.0 35:1.0 39:1.0 43:1.0 45:1.0 52:1.0 54:1.0 60:1.0 63:1.0 67:1.0 79:1.0 83:1.0 87:1.0 90:1.0 94:1.0 100:1.0 104:1.0 108:1.0 111:1.0 116:1.0 118:1.0 124:1.0 126:1.0 130:1.0 136:1.0 140:1.0 141:1.0 203:1.0 250:1.0 310:1.0 360:1.0 432:1.0 527:1.0 587:1.0 635:1.0 699:1.0 761:1.0 820:1.0 862:1.0 968:1.0 1007:1.0 1099:1.0 1146:1.0 1207:1.0 1259:1.0 1339:1.0 1403:1.0 1466:1.0 1526:1.0 1576:1.0 1648:1.0 1744:1.0 1807:1.0 1868:1.0 1918:1.0 1992:1.0 2030:1.0 2118:1.0 2152:1.0 2224:1.0 2317:1.0 
-0.02 4:1.0 6:1.0 10:1.0 14:1.0 17:1.0 21:1.0 27:1.0 30:1.0 35:1.0 37:1.0 43:1.0 47:1.0 50:1.0 54:1.0 60:1.0 63:1.0 67:1.0 78:1.0 83:1.0 87:1.0 91:1.0 93:1.0 98:1.0 103:1.0 106:1.0 110:1.0 115:1.0 119:1.0 121:1.0 126:1.0 131:1.0 134:1.0 139:1.0 141:1.0 198:1.0 230:1.0 293:1.0 353:1.0 403:1.0 474:1.0 567:1.0 617:1.0 691:1.0 731:1.0 826:1.0 886:1.0 936:1.0 1007:1.0 1099:1.0 1146:1.0 1207:1.0 1258:1.0 1335:1.0 1387:1.0 1467:1.0 1529:1.0 1586:1.0 1623:1.0 1706:1.0 1782:1.0 1831:1.0 1899:1.0 1977:1.0 2034:1.0 2071:1.0 2154:1.0 2231:1.0 2281:1.0 
0.02 4:1.0 5:1.0 10:1.0 14:1.0 17:1.0 21:1.0 27:1.0 31:1.0 34:1.0 39:1.0 44:1.0 48:1.0 52:1.0 56:1.0 60:1.0 63:1.0 67:1.0 79:1.0 83:1.0 85:1.0 89:1.0 95:1.0 98:1.0 101:1.0 106:1.0 111:1.0 113:1.0 120:1.0 123:1.0 125:1.0 131:1.0 135:1.0 138:1.0 141:1.0 194:1.0 214:1.0 293:1.0 353:1.0 403:1.0 475:1.0 570:1.0 631:1.0 684:1.0 768:1.0 848:1.0 912:1.0 976:1.0 1039:1.0 1099:1.0 1146:1.0 1207:1.0 1259:1.0 1339:1.0 1401:1.0 1457:1.0 1491:1.0 1562:1.0 1653:1.0 1698:1.0 1751:1.0 1833:1.0 1908:1.0 1951:1.0 2057:1.0 2099:1.0 2139:1.0 2234:1.0 2293:1.0 
0.00886055345744499 4:1.0 6:1.0 11:1.0 14:1.0 19:1.0 24:1.0 26:1.0 29:1.0 34:1.0 39:1.0 42:1.0 48:1.0 49:1.0 54:1.0 58:1.0 63:1.0 67:1.0 78:1.0 83:1.0 88:1.0 90:1.0 93:1.0 98:1.0 103:1.0 106:1.0 111:1.0 113:1.0 118:1.0 122:1.0 128:1.0 132:1.0 135:1.0 138:1.0 141:1.0 199:1.0 234:1.0 311:1.0 364:1.0 446:1.0 517:1.0 546:1.0 599:1.0 682:1.0 760:1.0 813:1.0 898:1.0 918:1.0 999:1.0 1067:1.0 1146:1.0 1207:1.0 1258:1.0 1335:1.0 1388:1.0 1470:1.0 1541:1.0 1570:1.0 1623:1.0 1706:1.0 1783:1.0 1833:1.0 1906:1.0 1942:1.0 2024:1.0 2096:1.0 2191:1.0 2250:1.0 2293:1.0 
0.02 4:1.0 6:1.0 11:1.0 15:1.0 19:1.0 23:1.0 25:1.0 31:1.0 35:1.0 37:1.0 44:1.0 45:1.0 51:1.0 55:1.0 60:1.0 63:1.0 67:1.0 79:1.0 83:1.0 85:1.0 89:1.0 94:1.0 98:1.0 103:1.0 107:1.0 110:1.0 114:1.0 119:1.0 121:1.0 125:1.0 131:1.0 135:1.0 139:1.0 141:1.0 199:1.0 235:1.0 315:1.0 379:1.0 441:1.0 499:1.0 539:1.0 633:1.0 692:1.0 733:1.0 835:1.0 859:1.0 956:1.0 1023:1.0 1099:1.0 1146:1.0 1207:1.0 1259:1.0 1339:1.0 1401:1.0 1457:1.0 1490:1.0 1558:1.0 1639:1.0 1707:1.0 1786:1.0 1846:1.0 1895:1.0 1961:1.0 2033:1.0 2067:1.0 2139:1.0 2235:1.0 2297:1.0 
-0.02 1:1.0 7:1.0 9:1.0 16:1.0 19:1.0 21:1.0 26:1.0 31:1.0 36:1.0 37:1.0 43:1.0 45:1.0 49:1.0 56:1.0 58:1.0 61:1.0 67:1.0 78:1.0 84:1.0 87:1.0 89:1.0 96:1.0 100:1.0 104:1.0 108:1.0 112:1.0 115:1.0 117:1.0 123:1.0 125:1.0 129:1.0 133:1.0 139:1.0 143:1.0 153:1.0 244:1.0 287:1.0 393:1.0 434:1.0 471:1.0 556:1.0 637:1.0 707:1.0 729:1.0 817:1.0 852:1.0 926:1.0 1029:1.0 1059:1.0 1114:1.0 1207:1.0 1258:1.0 1336:1.0 1391:1.0 1481:1.0 1524:1.0 1568:1.0 1680:1.0 1744:1.0 1808:1.0 1871:1.0 1929:1.0 1971:1.0 2009:1.0 2097:1.0 2129:1.0 2195:1.0 2267:1.0 
0.02 2:1.0 6:1.0 12:1.0 16:1.0 20:1.0 22:1.0 28:1.0 30:1.0 33:1.0 37:1.0 41:1.0 48:1.0 51:1.0 53:1.0 58:1.0 61:1.0 67:1.0 78:1.0 83:1.0 87:1.0 92:1.0 94:1.0 97:1.0 102:1.0 108:1.0 109:1.0 114:1.0 119:1.0 124:1.0 126:1.0 129:1.0 136:1.0 138:1.0 144:1.0 168:1.0 240:1.0 336:1.0 398:1.0 456:1.0 494:1.0 581:1.0 609:1.0 657:1.0 724:1.0 799:1.0 905:1.0 946:1.0 981:1.0 1059:1.0 1114:1.0 1207:1.0 1258:1.0 1335:1.0 1387:1.0 1468:1.0 1534:1.0 1605:1.0 1634:1.0 1688:1.0 1773:1.0 1858:1.0 1879:1.0 1964:1.0 2046:1.0 2117:1.0 2148:1.0 2206:1.0 2312:1.0 
-0.02 4:1.0 6:1.0 11:1.0 16:1.0 19:1.0 23:1.0 28:1.0 30:1.0 36:1.0 37:1.0 41:1.0 48:1.0 51:1.0 53:1.0 59:1.0 63:1.0 66:1.0 78:1.0 83:1.0 86:1.0 92:1.0 96:1.0 99:1.0 103:1.0 106:1.0 112:1.0 114:1.0 119:1.0 122:1.0 128:1.0 132:1.0 135:1.0 138:1.0 141:1.0 199:1.0 236:1.0 319:1.0 395:1.0 444:1.0 510:1.0 584:1.0 621:1.0 705:1.0 724:1.0 799:1.0 905:1.0 947:1.0 987:1.0 1082:1.0 1142:1.0 1191:1.0 1258:1.0 1335:1.0 1386:1.0 1464:1.0 1520:1.0 1615:1.0 1675:1.0 1722:1.0 1784:1.0 1838:1.0 1927:1.0 1962:1.0 2040:1.0 2096:1.0 2191:1.0 2250:1.0 2293:1.0 
0.02 4:1.0 7:1.0 11:1.0 13:1.0 17:1.0 22:1.0 27:1.0 30:1.0 33:1.0 39:1.0 42:1.0 48:1.0 52:1.0 56:1.0 59:1.0 63:1.0 67:1.0 78:1.0 82:1.0 85:1.0 90:1.0 93:1.0 99:1.0 104:1.0 106:1.0 112:1.0 116:1.0 118:1.0 122:1.0 125:1.0 131:1.0 135:1.0 137:1.0 141:1.0 203:1.0 249:1.0 305:1.0 338:1.0 407:1.0 490:1.0 565:1.0 611:1.0 666:1.0 760:1.0 816:1.0 912:1.0 975:1.0 1035:1.0 1083:1.0 1146:1.0 1207:1.0 1258:1.0 1334:1.0 1381:1.0 1442:1.0 1493:1.0 1571:1.0 1628:1.0 1726:1.0 1800:1.0 1840:1.0 1934:1.0 1990:1.0 2021:1.0 2083:1.0 2139:1.0 2233:1.0 2289:1.0 
-3.774776129880154E-4 1:1.0 7:1.0 9:1.0 16:1.0 19:1.0 21:1.0 26:1.0 31:1.0 36:1.0 37:1.0 43:1.0 48:1.0 51:1.0 53:1.0 59:1.0 62:1.0 67:1.0 78:1.0 83:1.0 86:1.0 92:1.0 94:1.0 97:1.0 104:1.0 108:1.0 112:1.0 115:1.0 117:1.0 123:1.0 125:1.0 129:1.0 133:1.0 139:1.0 143:1.0 153:1.0 244:1.0 287:1.0 393:1.0 434:1.0 471:1.0 556:1.0 637:1.0 707:1.0 732:1.0 831:1.0 905:1.0 947:1.0 986:1.0 1079:1.0 1130:1.0 1207:1.0 1258:1.0 1335:1.0 1386:1.0 1464:1.0 1518:1.0 1605:1.0 1636:1.0 1696:1.0 1808:1.0 1871:1.0 1929:1.0 1971:1.0 2009:1.0 2097:1.0 2129:1.0 2195:1.0 2267:1.0 
0.0072281260879450224 4:1.0 7:1.0 9:1.0 14:1.0 18:1.0 22:1.0 26:1.0 31:1.0 35:1.0 39:1.0 43:1.0 46:1.0 52:1.0 55:1.0 60:1.0 63:1.0 67:1.0 79:1.0 83:1.0 85:1.0 89:1.0 95:1.0 99:1.0 103:1.0 105:1.0 110:1.0 114:1.0 118:1.0 123:1.0 125:1.0 131:1.0 135:1.0 140:1.0 141:1.0 201:1.0 242:1.0 278:1.0 358:1.0 422:1.0 487:1.0 555:1.0 635:1.0 699:1.0 762:1.0 824:1.0 879:1.0 972:1.0 1023:1.0 1099:1.0 1146:1.0 1207:1.0 1259:1.0 1339:1.0 1401:1.0 1457:1.0 1491:1.0 1563:1.0 1659:1.0 1721:1.0 1778:1.0 1814:1.0 1894:1.0 1959:1.0 2025:1.0 2099:1.0 2139:1.0 2236:1.0 2301:1.0 
0.02 4:1.0 6:1.0 10:1.0 15:1.0 19:1.0 23:1.0 26:1.0 30:1.0 34:1.0 39:1.0 43:1.0 47:1.0 50:1.0 56:1.0 59:1.0 62:1.0 67:1.0 79:1.0 83:1.0 86:1.0 89:1.0 95:1.0 99:1.0 103:1.0 106:1.0 110:1.0 115:1.0 120:1.0 124:1.0 127:1.0 131:1.0 134:1.0 139:1.0 141:1.0 198:1.0 231:1.0 299:1.0 379:1.0 442:1.0 502:1.0 550:1.0 615:1.0 683:1.0 763:1.0 826:1.0 888:1.0 943:1.0 1034:1.0 1079:1.0 1130:1.0 1207:1.0 1259:1.0 1339:1.0 1402:1.0 1461:1.0 1507:1.0 1563:1.0 1659:1.0 1722:1.0 1782:1.0 1831:1.0 1900:1.0 1984:1.0 2063:1.0 2123:1.0 2170:1.0 2231:1.0 2281:1.0 
-0.02 4:1.0 5:1.0 10:1.0 13:1.0 19:1.0 22:1.0 28:1.0 31:1.0 33:1.0 39:1.0 42:1.0 47:1.0 52:1.0 55:1.0 57:1.0 63:1.0 67:1.0 78:1.0 82:1.0 87:1.0 91:1.0 94:1.0 100:1.0 104:1.0 106:1.0 110:1.0 116:1.0 120:1.0 122:1.0 128:1.0 130:1.0 135:1.0 138:1.0 141:1.0 194:1.0 213:1.0 291:1.0 346:1.0 440:1.0 495:1.0 585:1.0 627:1.0 666:1.0 759:1.0 812:1.0 895:1.0 969:1.0 1011:1.0 1051:1.0 1146:1.0 1207:1.0 1258:1.0 1334:1.0 1383:1.0 1451:1.0 1530:1.0 1592:1.0 1648:1.0 1742:1.0 1798:1.0 1832:1.0 1904:1.0 1998:1.0 2056:1.0 2094:1.0 2183:1.0 2218:1.0 2293:1.0 
-0.016034352860982648 4:1.0 7:1.0 10:1.0 14:1.0 20:1.0 21:1.0 26:1.0 32:1.0 36:1.0 38:1.0 42:1.0 46:1.0 50:1.0 54:1.0 60:1.0 62:1.0 66:1.0 78:1.0 82:1.0 85:1.0 89:1.0 93:1.0 99:1.0 103:1.0 105:1.0 111:1.0 116:1.0 118:1.0 123:1.0 126:1.0 131:1.0 136:1.0 138:1.0 141:1.0 202:1.0 246:1.0 296:1.0 365:1.0 450:1.0 472:1.0 560:1.0 654:1.0 710:1.0 742:1.0 806:1.0 870:1.0 936:1.0 1006:1.0 1094:1.0 1126:1.0 1191:1.0 1258:1.0 1334:1.0 1381:1.0 1441:1.0 1489:1.0 1555:1.0 1627:1.0 1721:1.0 1779:1.0 1820:1.0 1918:1.0 1991:1.0 2026:1.0 2103:1.0 2156:1.0 2238:1.0 2309:1.0 
-0.02 4:1.0 6:1.0 12:1.0 15:1.0 18:1.0 22:1.0 28:1.0 29:1.0 34:1.0 37:1.0 41:1.0 45:1.0 49:1.0 55:1.0 57:1.0 64:1.0 67:1.0 78:1.0 82:1.0 85:1.0 92:1.0 94:1.0 97:1.0 104:1.0 107:1.0 111:1.0 114:1.0 117:1.0 122:1.0 128:1.0 132:1.0 133:1.0 140:1.0 141:1.0 200:1.0 239:1.0 330:1.0 374:1.0 424:1.0 493:1.0 578:1.0 597:1.0 673:1.0 721:1.0 785:1.0 851:1.0 921:1.0 1012:1.0 1055:1.0 1162:1.0 1207:1.0 1258:1.0 1334:1.0 1381:1.0 1444:1.0 1502:1.0 1605:1.0 1636:1.0 1695:1.0 1803:1.0 1850:1.0 1909:1.0 1954:1.0 2008:1.0 2096:1.0 2189:1.0 2244:1.0 2269:1.0 
-0.02 4:1.0 7:1.0 10:1.0 15:1.0 20:1.0 22:1.0 26:1.0 31:1.0 35:1.0 39:1.0 41:1.0 48:1.0 50:1.0 55:1.0 58:1.0 61:1.0 67:1.0 78:1.0 82:1.0 88:1.0 92:1.0 93:1.0 99:1.0 102:1.0 107:1.0 112:1.0 114:1.0 120:1.0 122:1.0 126:1.0 132:1.0 136:1.0 138:1.0 141:1.0 202:1.0 247:1.0 300:1.0 382:1.0 454:1.0 487:1.0 555:1.0 635:1.0 697:1.0 756:1.0 798:1.0 903:1.0 938:1.0 1013:1.0 1059:1.0 1114:1.0 1207:1.0 1258:1.0 1334:1.0 1384:1.0 1456:1.0 1549:1.0 1603:1.0 1626:1.0 1719:1.0 1772:1.0 1854:1.0 1928:1.0 1966:1.0 2054:1.0 2088:1.0 2160:1.0 2254:1.0 2309:1.0 
-0.010574598968663544 4:1.0 7:1.0 11:1.0 14:1.0 18:1.0 22:1.0 26:1.0 30:1.0 33:1.0 39:1.0 42:1.0 48:1.0 51:1.0 54:1.0 59:1.0 63:1.0 67:1.0 79:1.0 83:1.0 85:1.0 92:1.0 94:1.0 99:1.0 103:1.0 106:1.0 110:1.0 114:1.0 118:1.0 121:1.0 127:1.0 129:1.0 135:1.0 138:1.0 141:1.0 203:1.0 250:1.0 310:1.0 358:1.0 422:1.0 486:1.0 549:1.0 611:1.0 666:1.0 760:1.0 815:1.0 906:1.0 951:1.0 1003:1.0 1083:1.0 1146:1.0 1207:1.0 1259:1.0 1339:1.0 1401:1.0 1460:1.0 1502:1.0 1607:1.0 1643:1.0 1722:1.0 1782:1.0 1830:1.0 1894:1.0 1957:1.0 2019:1.0 2073:1.0 2163:1.0 2202:1.0 2293:1.0 
-0.008536744406093633 4:1.0 6:1.0 10:1.0 14:1.0 17:1.0 23:1.0 26:1.0 29:1.0 33:1.0 39:1.0 42:1.0 46:1.0 52:1.0 56:1.0 59:1.0 64:1.0 67:1.0 78:1.0 83:1.0 86:1.0 89:1.0 95:1.0 99:1.0 104:1.0 107:1.0 109:1.0 116:1.0 119:1.0 124:1.0 128:1.0 132:1.0 135:1.0 138:1.0 141:1.0 198:1.0 230:1.0 293:1.0 355:1.0 410:1.0 501:1.0 545:1.0 595:1.0 666:1.0 758:1.0 808:1.0 880:1.0 975:1.0 1036:1.0 1087:1.0 1162:1.0 1207:1.0 1258:1.0 1335:1.0 1386:1.0 1461:1.0 1507:1.0 1563:1.0 1660:1.0 1727:1.0 1801:1.0 1844:1.0 1887:1.0 1996:1.0 2048:1.0 2128:1.0 2191:1.0 2250:1.0 2293:1.0 
0.02 1:1.0 7:1.0 9:1.0 16:1.0 19:1.0 21:1.0 26:1.0 31:1.0 36:1.0 37:1.0 43:1.0 48:1.0 51:1.0 54:1.0 59:1.0 62:1.0 67:1.0 78:1.0 84:1.0 88:1.0 89:1.0 93:1.0 97:1.0 104:1.0 108:1.0 112:1.0 115:1.0 117:1.0 123:1.0 125:1.0 129:1.0 133:1.0 139:1.0 143:1.0 153:1.0 244:1.0 287:1.0 393:1.0 434:1.0 471:1.0 556:1.0 637:1.0 707:1.0 732:1.0 831:1.0 906:1.0 951:1.0 1002:1.0 1079:1.0 1130:1.0 1207:1.0 1258:1.0 1336:1.0 1392:1.0 1485:1.0 1537:1.0 1553:1.0 1620:1.0 1696:1.0 1808:1.0 1871:1.0 1929:1.0 1971:1.0 2009:1.0 2097:1.0 2129:1.0 2195:1.0 2267:1.0 
1.2183016038669326E-4 4:1.0 6:1.0 9:1.0 15:1.0 17:1.0 23:1.0 27:1.0 31:1.0 35:1.0 37:1.0 41:1.0 45:1.0 51:1.0 53:1.0 57:1.0 62:1.0 67:1.0 79:1.0 82:1.0 87:1.0 90:1.0 93:1.0 98:1.0 103:1.0 106:1.0 111:1.0 116:1.0 119:1.0 122:1.0 125:1.0 130:1.0 133:1.0 138:1.0 141:1.0 197:1.0 227:1.0 281:1.0 371:1.0 411:1.0 507:1.0 571:1.0 633:1.0 689:1.0 721:1.0 787:1.0 857:1.0 945:1.0 978:1.0 1047:1.0 1130:1.0 1207:1.0 1259:1.0 1338:1.0 1399:1.0 1450:1.0 1525:1.0 1570:1.0 1623:1.0 1706:1.0 1783:1.0 1836:1.0 1919:1.0 1994:1.0 2037:1.0 2082:1.0 2133:1.0 2210:1.0 2261:1.0 
0.010867272181824249 4:1.0 6:1.0 11:1.0 15:1.0 20:1.0 24:1.0 26:1.0 29:1.0 33:1.0 37:1.0 44:1.0 46:1.0 50:1.0 54:1.0 60:1.0 63:1.0 67:1.0 78:1.0 82:1.0 85:1.0 90:1.0 96:1.0 98:1.0 104:1.0 108:1.0 109:1.0 113:1.0 118:1.0 124:1.0 128:1.0 132:1.0 135:1.0 137:1.0 141:1.0 199:1.0 235:1.0 316:1.0 384:1.0 462:1.0 517:1.0 545:1.0 593:1.0 660:1.0 734:1.0 838:1.0 870:1.0 936:1.0 1007:1.0 1099:1.0 1146:1.0 1207:1.0 1258:1.0 1334:1.0 1381:1.0 1442:1.0 1496:1.0 1582:1.0 1672:1.0 1712:1.0 1805:1.0 1857:1.0 1874:1.0 1944:1.0 2032:1.0 2128:1.0 2191:1.0 2249:1.0 2289:1.0 
-0.02 2:1.0 6:1.0 12:1.0 16:1.0 20:1.0 22:1.0 28:1.0 30:1.0 33:1.0 37:1.0 41:1.0 48:1.0 52:1.0 56:1.0 57:1.0 61:1.0 67:1.0 78:1.0 84:1.0 88:1.0 92:1.0 96:1.0 97:1.0 102:1.0 108:1.0 109:1.0 114:1.0 119:1.0 124:1.0 126:1.0 129:1.0 136:1.0 138:1.0 144:1.0 168:1.0 240:1.0 336:1.0 398:1.0 456:1.0 494:1.0 581:1.0 609:1.0 657:1.0 724:1.0 800:1.0 912:1.0 973:1.0 1025:1.0 1043:1.0 1114:1.0 1207:1.0 1258:1.0 1336:1.0 1392:1.0 1488:1.0 1552:1.0 1613:1.0 1666:1.0 1688:1.0 1773:1.0 1858:1.0 1879:1.0 1964:1.0 2046:1.0 2117:1.0 2148:1.0 2206:1.0 2312:1.0 
0.02 4:1.0 6:1.0 9:1.0 14:1.0 18:1.0 24:1.0 25:1.0 29:1.0 35:1.0 38:1.0 41:1.0 45:1.0 50:1.0 56:1.0 60:1.0 63:1.0 67:1.0 79:1.0 83:1.0 86:1.0 92:1.0 93:1.0 100:1.0 104:1.0 106:1.0 111:1.0 114:1.0 118:1.0 122:1.0 128:1.0 131:1.0 134:1.0 137:1.0 141:1.0 197:1.0 226:1.0 278:1.0 360:1.0 429:1.0 513:1.0 531:1.0 602:1.0 693:1.0 737:1.0 786:1.0 856:1.0 944:1.0 1039:1.0 1099:1.0 1146:1.0 1207:1.0 1259:1.0 1339:1.0 1402:1.0 1464:1.0 1517:1.0 1604:1.0 1632:1.0 1742:1.0 1799:1.0 1834:1.0 1910:1.0 1958:1.0 2024:1.0 2095:1.0 2186:1.0 2229:1.0 2273:1.0 
0.018812573031100604 4:1.0 7:1.0 9:1.0 14:1.0 20:1.0 23:1.0 28:1.0 32:1.0 36:1.0 39:1.0 43:1.0 46:1.0 52:1.0 55:1.0 58:1.0 63:1.0 66:1.0 78:1.0 82:1.0 88:1.0 90:1.0 93:1.0 98:1.0 103:1.0 106:1.0 110:1.0 116:1.0 119:1.0 121:1.0 126:1.0 131:1.0 134:1.0 140:1.0 141:1.0 201:1.0 242:1.0 280:1.0 367:1.0 460:1.0 512:1.0 592:1.0 655:1.0 715:1.0 762:1.0 824:1.0 879:1.0 970:1.0 1015:1.0 1066:1.0 1142:1.0 1191:1.0 1258:1.0 1334:1.0 1384:1.0 1454:1.0 1541:1.0 1570:1.0 1623:1.0 1706:1.0 1782:1.0 1832:1.0 1903:1.0 1993:1.0 2034:1.0 2071:1.0 2154:1.0 2232:1.0 2285:1.0 
0.008059119893094 4:1.0 5:1.0 10:1.0 14:1.0 19:1.0 23:1.0 25:1.0 32:1.0 35:1.0 40:1.0 43:1.0 45:1.0 50:1.0 55:1.0 58:1.0 63:1.0 67:1.0 78:1.0 84:1.0 86:1.0 90:1.0 96:1.0 100:1.0 101:1.0 107:1.0 110:1.0 114:1.0 117:1.0 123:1.0 127:1.0 130:1.0 136:1.0 138:1.0 141:1.0 194:1.0 214:1.0 295:1.0 363:1.0 441:1.0 500:1.0 543:1.0 652:1.0 703:1.0 777:1.0 818:1.0 855:1.0 938:1.0 1015:1.0 1067:1.0 1146:1.0 1207:1.0 1258:1.0 1336:1.0 1390:1.0 1478:1.0 1512:1.0 1584:1.0 1677:1.0 1731:1.0 1754:1.0 1846:1.0 1893:1.0 1955:1.0 2011:1.0 2106:1.0 2168:1.0 2222:1.0 2309:1.0 
-0.02 4:1.0 7:1.0 11:1.0 16:1.0 20:1.0 22:1.0 26:1.0 30:1.0 34:1.0 39:1.0 43:1.0 46:1.0 52:1.0 56:1.0 60:1.0 63:1.0 66:1.0 78:1.0 83:1.0 86:1.0 91:1.0 95:1.0 97:1.0 103:1.0 107:1.0 109:1.0 113:1.0 119:1.0 124:1.0 126:1.0 130:1.0 134:1.0 139:1.0 141:1.0 203:1.0 252:1.0 320:1.0 398:1.0 454:1.0 486:1.0 550:1.0 615:1.0 683:1.0 762:1.0 824:1.0 880:1.0 976:1.0 1039:1.0 1098:1.0 1142:1.0 1191:1.0 1258:1.0 1335:1.0 1386:1.0 1463:1.0 1515:1.0 1593:1.0 1651:1.0 1691:1.0 1785:1.0 1841:1.0 1875:1.0 1948:1.0 2046:1.0 2118:1.0 2150:1.0 2215:1.0 2281:1.0 
-0.02 4:1.0 6:1.0 12:1.0 16:1.0 18:1.0 22:1.0 27:1.0 31:1.0 33:1.0 37:1.0 43:1.0 48:1.0 51:1.0 56:1.0 59:1.0 63:1.0 67:1.0 79:1.0 83:1.0 86:1.0 92:1.0 94:1.0 97:1.0 101:1.0 106:1.0 109:1.0 114:1.0 118:1.0 122:1.0 128:1.0 129:1.0 134:1.0 140:1.0 141:1.0 200:1.0 240:1.0 334:1.0 390:1.0 423:1.0 491:1.0 569:1.0 625:1.0 659:1.0 732:1.0 831:1.0 908:1.0 959:1.0 1035:1.0 1083:1.0 1146:1.0 1207:1.0 1259:1.0 1339:1.0 1402:1.0 1464:1.0 1518:1.0 1605:1.0 1633:1.0 1682:1.0 1749:1.0 1826:1.0 1878:1.0 1958:1.0 2024:1.0 2093:1.0 2178:1.0 2200:1.0 2285:1.0 
0.006595555375622021 4:1.0 6:1.0 10:1.0 14:1.0 17:1.0 23:1.0 28:1.0 30:1.0 34:1.0 37:1.0 42:1.0 47:1.0 49:1.0 53:1.0 59:1.0 63:1.0 67:1.0 78:1.0 82:1.0 85:1.0 90:1.0 95:1.0 99:1.0 103:1.0 106:1.0 110:1.0 115:1.0 120:1.0 123:1.0 125:1.0 130:1.0 135:1.0 140:1.0 141:1.0 198:1.0 230:1.0 293:1.0 355:1.0 412:1.0 510:1.0 582:1.0 613:1.0 674:1.0 727:1.0 809:1.0 881:1.0 915:1.0 987:1.0 1083:1.0 1146:1.0 1207:1.0 1258:1.0 1334:1.0 1381:1.0 1442:1.0 1495:1.0 1579:1.0 1659:1.0 1722:1.0 1782:1.0 1831:1.0 1900:1.0 1983:1.0 2057:1.0 2098:1.0 2135:1.0 2220:1.0 2301:1.0 
-0.02 4:1.0 5:1.0 11:1.0 14:1.0 17:1.0 22:1.0 27:1.0 30:1.0 35:1.0 37:1.0 42:1.0 45:1.0 50:1.0 53:1.0 57:1.0 63:1.0 67:1.0 78:1.0 83:1.0 87:1.0 89:1.0 95:1.0 99:1.0 102:1.0 106:1.0 110:1.0 114:1.0 120:1.0 122:1.0 125:1.0 131:1.0 134:1.0 139:1.0 141:1.0 195:1.0 218:1.0 309:1.0 354:1.0 407:1.0 490:1.0 567:1.0 617:1.0 690:1.0 725:1.0 802:1.0 853:1.0 929:1.0 979:1.0 1051:1.0 1146:1.0 1207:1.0 1258:1.0 1335:1.0 1387:1.0 1465:1.0 1523:1.0 1563:1.0 1658:1.0 1718:1.0 1766:1.0 1830:1.0 1896:1.0 1966:1.0 2053:1.0 2083:1.0 2138:1.0 2231:1.0 2281:1.0 
-0.02 4:1.0 6:1.0 11:1.0 13:1.0 19:1.0 23:1.0 26:1.0 30:1.0 36:1.0 38:1.0 43:1.0 47:1.0 50:1.0 54:1.0 58:1.0 63:1.0 67:1.0 78:1.0 83:1.0 86:1.0 92:1.0 95:1.0 98:1.0 101:1.0 107:1.0 110:1.0 116:1.0 118:1.0 122:1.0 128:1.0 130:1.0 135:1.0 140:1.0 141:1.0 199:1.0 233:1.0 307:1.0 347:1.0 442:1.0 502:1.0 552:1.0 622:1.0 711:1.0 747:1.0 826:1.0 886:1.0 934:1.0 999:1.0 1067:1.0 1146:1.0 1207:1.0 1258:1.0 1335:1.0 1386:1.0 1464:1.0 1519:1.0 1610:1.0 1653:1.0 1699:1.0 1754:1.0 1848:1.0 1902:1.0 1990:1.0 2024:1.0 2094:1.0 2183:1.0 2220:1.0 2301:1.0 
1.4471399779945963E-4 4:1.0 7:1.0 10:1.0 13:1.0 17:1.0 21:1.0 27:1.0 29:1.0 34:1.0 39:1.0 42:1.0 48:1.0 50:1.0 54:1.0 60:1.0 63:1.0 67:1.0 78:1.0 84:1.0 86:1.0 90:1.0 94:1.0 99:1.0 104:1.0 106:1.0 112:1.0 116:1.0 120:1.0 122:1.0 127:1.0 131:1.0 134:1.0 140:1.0 141:1.0 202:1.0 245:1.0 289:1.0 337:1.0 403:1.0 473:1.0 562:1.0 599:1.0 682:1.0 760:1.0 814:1.0 902:1.0 936:1.0 1007:1.0 1099:1.0 1146:1.0 1207:1.0 1258:1.0 1336:1.0 1390:1.0 1478:1.0 1510:1.0 1575:1.0 1644:1.0 1726:1.0 1800:1.0 1840:1.0 1936:1.0 1998:1.0 2055:1.0 2091:1.0 2170:1.0 2232:1.0 2285:1.0 
-0.02 4:1.0 7:1.0 11:1.0 14:1.0 18:1.0 24:1.0 27:1.0 29:1.0 34:1.0 39:1.0 42:1.0 46:1.0 51:1.0 53:1.0 59:1.0 64:1.0 66:1.0 78:1.0 82:1.0 85:1.0 89:1.0 93:1.0 99:1.0 104:1.0 107:1.0 110:1.0 115:1.0 120:1.0 122:1.0 126:1.0 130:1.0 136:1.0 139:1.0 141:1.0 203:1.0 250:1.0 310:1.0 360:1.0 431:1.0 521:1.0 562:1.0 599:1.0 682:1.0 758:1.0 807:1.0 873:1.0 947:1.0 988:1.0 1086:1.0 1158:1.0 1191:1.0 1258:1.0 1334:1.0 1381:1.0 1441:1.0 1489:1.0 1555:1.0 1628:1.0 1727:1.0 1802:1.0 1847:1.0 1900:1.0 1982:1.0 2054:1.0 2086:1.0 2152:1.0 2223:1.0 2313:1.0 
-0.02 4:1.0 8:1.0 12:1.0 14:1.0 17:1.0 23:1.0 27:1.0 30:1.0 33:1.0 39:1.0 42:1.0 45:1.0 51:1.0 55:1.0 57:1.0 63:1.0 67:1.0 78:1.0 84:1.0 87:1.0 92:1.0 94:1.0 100:1.0 102:1.0 108:1.0 111:1.0 115:1.0 117:1.0 123:1.0 127:1.0 130:1.0 136:1.0 140:1.0 141:1.0 208:1.0 270:1.0 325:1.0 355:1.0 411:1.0 506:1.0 565:1.0 611:1.0 666:1.0 757:1.0 803:1.0 859:1.0 953:1.0 1011:1.0 1051:1.0 1146:1.0 1207:1.0 1258:1.0 1336:1.0 1391:1.0 1484:1.0 1534:1.0 1608:1.0 1646:1.0 1736:1.0 1775:1.0 1867:1.0 1913:1.0 1971:1.0 2011:1.0 2106:1.0 2168:1.0 2224:1.0 2317:1.0 
0.02 1:1.0 7:1.0 9:1.0 16:1.0 19:1.0 21:1.0 26:1.0 31:1.0 36:1.0 37:1.0 43:1.0 46:1.0 49:1.0 55:1.0 59:1.0 62:1.0 67:1.0 78:1.0 84:1.0 86:1.0 90:1.0 96:1.0 99:1.0 104:1.0 108:1.0 112:1.0 115:1.0 117:1.0 123:1.0 125:1.0 129:1.0 133:1.0 139:1.0 143:1.0 153:1.0 244:1.0 287:1.0 393:1.0 434:1.0 471:1.0 556:1.0 637:1.0 707:1.0 730:1.0 821:1.0 867:1.0 923:1.0 1018:1.0 1079:1.0 1130:1.0 1207:1.0 1258:1.0 1336:1.0 1390:1.0 1478:1.0 1512:1.0 1583:1.0 1676:1.0 1728:1.0 1808:1.0 1871:1.0 1929:1.0 1971:1.0 2009:1.0 2097:1.0 2129:1.0 2195:1.0 2267:1.0 
-0.02 4:1.0 7:1.0 11:1.0 16:1.0 19:1.0 22:1.0 26:1.0 31:1.0 35:1.0 39:1.0 41:1.0 45:1.0 51:1.0 55:1.0 57:1.0 63:1.0 67:1.0 78:1.0 82:1.0 88:1.0 91:1.0 94:1.0 97:1.0 103:1.0 106:1.0 109:1.0 116:1.0 119:1.0 122:1.0 126:1.0 129:1.0 136:1.0 139:1.0 141:1.0 203:1.0 252:1.0 319:1.0 394:1.0 438:1.0 487:1.0 555:1.0 635:1.0 697:1.0 753:1.0 787:1.0 859:1.0 953:1.0 1011:1.0 1051:1.0 1146:1.0 1207:1.0 1258:1.0 1334:1.0 1384:1.0 1455:1.0 1546:1.0 1589:1.0 1635:1.0 1690:1.0 1781:1.0 1828:1.0 1887:1.0 1994:1.0 2038:1.0 2085:1.0 2148:1.0 2207:1.0 2313:1.0 
0.02 4:1.0 5:1.0 11:1.0 13:1.0 18:1.0 21:1.0 28:1.0 29:1.0 33:1.0 37:1.0 41:1.0 46:1.0 50:1.0 53:1.0 59:1.0 62:1.0 67:1.0 78:1.0 81:1.0 86:1.0 89:1.0 93:1.0 100:1.0 103:1.0 105:1.0 109:1.0 115:1.0 120:1.0 121:1.0 127:1.0 132:1.0 136:1.0 139:1.0 141:1.0 195:1.0 217:1.0 306:1.0 341:1.0 420:1.0 477:1.0 577:1.0 593:1.0 657:1.0 722:1.0 790:1.0 869:1.0 931:1.0 986:1.0 1079:1.0 1130:1.0 1207:1.0 1258:1.0 1333:1.0 1378:1.0 1429:1.0 1505:1.0 1556:1.0 1631:1.0 1737:1.0 1777:1.0 1811:1.0 1884:1.0 1981:1.0 2051:1.0 2076:1.0 2176:1.0 2255:1.0 2313:1.0 
0.02 4:1.0 6:1.0 9:1.0 13:1.0 18:1.0 23:1.0 28:1.0 30:1.0 36:1.0 38:1.0 41:1.0 46:1.0 50:1.0 54:1.0 57:1.0 62:1.0 66:1.0 78:1.0 83:1.0 85:1.0 91:1.0 96:1.0 98:1.0 101:1.0 107:1.0 111:1.0 114:1.0 118:1.0 122:1.0 126:1.0 129:1.0 135:1.0 138:1.0 141:1.0 197:1.0 225:1.0 274:1.0 343:1.0 428:1.0 510:1.0 584:1.0 622:1.0 709:1.0 738:1.0 790:1.0 870:1.0 933:1.0 994:1.0 1046:1.0 1126:1.0 1191:1.0 1258:1.0 1335:1.0 1385:1.0 1459:1.0 1500:1.0 1598:1.0 1669:1.0 1699:1.0 1755:1.0 1850:1.0 1910:1.0 1958:1.0 2022:1.0 2085:1.0 2147:1.0 2202:1.0 2293:1.0 
-0.02 4:1.0 6:1.0 11:1.0 13:1.0 18:1.0 22:1.0 26:1.0 31:1.0 35:1.0 38:1.0 43:1.0 48:1.0 50:1.0 54:1.0 59:1.0 63:1.0 67:1.0 78:1.0 83:1.0 86:1.0 92:1.0 95:1.0 99:1.0 101:1.0 107:1.0 109:1.0 115:1.0 119:1.0 121:1.0 126:1.0 131:1.0 134:1.0 139:1.0 141:1.0 199:1.0 233:1.0 306:1.0 342:1.0 422:1.0 487:1.0 555:1.0 634:1.0 695:1.0 748:1.0 830:1.0 902:1.0 935:1.0 1003:1.0 1083:1.0 1146:1.0 1207:1.0 1258:1.0 1335:1.0 1386:1.0 1464:1.0 1519:1.0 1611:1.0 1657:1.0 1715:1.0 1753:1.0 1843:1.0 1883:1.0 1977:1.0 2034:1.0 2071:1.0 2154:1.0 2231:1.0 2281:1.0 
-0.02 2:1.0 6:1.0 12:1.0 16:1.0 20:1.0 22:1.0 28:1.0 30:1.0 33:1.0 37:1.0 41:1.0 45:1.0 51:1.0 54:1.0 59:1.0 61:1.0 67:1.0 78:1.0 84:1.0 86:1.0 91:1.0 94:1.0 100:1.0 102:1.0 108:1.0 109:1.0 114:1.0 119:1.0 124:1.0 126:1.0 129:1.0 136:1.0 138:1.0 144:1.0 168:1.0 240:1.0 336:1.0 398:1.0 456:1.0 494:1.0 581:1.0 609:1.0 657:1.0 721:1.0 787:1.0 858:1.0 951:1.0 1001:1.0 1075:1.0 1114:1.0 1207:1.0 1258:1.0 1336:1.0 1390:1.0 1479:1.0 1514:1.0 1592:1.0 1646:1.0 1736:1.0 1773:1.0 1858:1.0 1879:1.0 1964:1.0 2046:1.0 2117:1.0 2148:1.0 2206:1.0 2312:1.0 
0.02 4:1.0 7:1.0 12:1.0 13:1.0 17:1.0 22:1.0 26:1.0 31:1.0 33:1.0 40:1.0 43:1.0 47:1.0 50:1.0 54:1.0 60:1.0 62:1.0 67:1.0 78:1.0 84:1.0 85:1.0 90:1.0 94:1.0 97:1.0 102:1.0 107:1.0 112:1.0 114:1.0 119:1.0 123:1.0 126:1.0 132:1.0 136:1.0 140:1.0 141:1.0 204:1.0 253:1.0 321:1.0 338:1.0 406:1.0 487:1.0 553:1.0 628:1.0 671:1.0 779:1.0 826:1.0 886:1.0 936:1.0 1006:1.0 1095:1.0 1130:1.0 1207:1.0 1258:1.0 1336:1.0 1389:1.0 1474:1.0 1494:1.0 1573:1.0 1634:1.0 1687:1.0 1772:1.0 1854:1.0 1927:1.0 1963:1.0 2042:1.0 2104:1.0 2160:1.0 2256:1.0 2317:1.0 
0.0054887795791505635 4:1.0 7:1.0 11:1.0 15:1.0 19:1.0 22:1.0 26:1.0 29:1.0 33:1.0 38:1.0 43:1.0 47:1.0 51:1.0 55:1.0 57:1.0 62:1.0 67:1.0 78:1.0 83:1.0 85:1.0 90:1.0 95:1.0 99:1.0 103:1.0 106:1.0 112:1.0 113:1.0 118:1.0 123:1.0 126:1.0 129:1.0 135:1.0 139:1.0 141:1.0 203:1.0 251:1.0 315:1.0 378:1.0 438:1.0 485:1.0 545:1.0 594:1.0 663:1.0 747:1.0 827:1.0 891:1.0 953:1.0 1010:1.0 1047:1.0 1130:1.0 1207:1.0 1258:1.0 1335:1.0 1385:1.0 1458:1.0 1495:1.0 1579:1.0 1659:1.0 1722:1.0 1784:1.0 1837:1.0 1922:1.0 1943:1.0 2026:1.0 2101:1.0 2147:1.0 2203:1.0 2297:1.0 
-0.02 2:1.0 6:1.0 12:1.0 16:1.0 20:1.0 22:1.0 28:1.0 30:1.0 33:1.0 37:1.0 41:1.0 48:1.0 52:1.0 56:1.0 57:1.0 61:1.0 67:1.0 79:1.0 82:1.0 86:1.0 89:1.0 93:1.0 97:1.0 102:1.0 108:1.0 109:1.0 114:1.0 119:1.0 124:1.0 126:1.0 129:1.0 136:1.0 138:1.0 144:1.0 168:1.0 240:1.0 336:1.0 398:1.0 456:1.0 494:1.0 581:1.0 609:1.0 657:1.0 724:1.0 800:1.0 912:1.0 973:1.0 1025:1.0 1043:1.0 1114:1.0 1207:1.0 1259:1.0 1338:1.0 1398:1.0 1445:1.0 1505:1.0 1553:1.0 1618:1.0 1688:1.0 1773:1.0 1858:1.0 1879:1.0 1964:1.0 2046:1.0 2117:1.0 2148:1.0 2206:1.0 2312:1.0 
0.02 4:1.0 8:1.0 10:1.0 14:1.0 18:1.0 23:1.0 27:1.0 31:1.0 34:1.0 40:1.0 43:1.0 47:1.0 50:1.0 54:1.0 58:1.0 63:1.0 67:1.0 78:1.0 83:1.0 87:1.0 91:1.0 94:1.0 98:1.0 102:1.0 108:1.0 111:1.0 115:1.0 118:1.0 124:1.0 127:1.0 131:1.0 135:1.0 139:1.0 141:1.0 206:1.0 262:1.0 294:1.0 359:1.0 427:1.0 507:1.0 570:1.0 632:1.0 687:1.0 779:1.0 826:1.0 886:1.0 934:1.0 999:1.0 1067:1.0 1146:1.0 1207:1.0 1258:1.0 1335:1.0 1387:1.0 1467:1.0 1530:1.0 1590:1.0 1638:1.0 1704:1.0 1775:1.0 1867:1.0 1914:1.0 1976:1.0 2031:1.0 2123:1.0 2171:1.0 2235:1.0 2297:1.0 
-0.02 4:1.0 8:1.0 10:1.0 14:1.0 20:1.0 23:1.0 28:1.0 31:1.0 34:1.0 38:1.0 42:1.0 45:1.0 51:1.0 55:1.0 58:1.0 62:1.0 67:1.0 78:1.0 82:1.0 85:1.0 90:1.0 95:1.0 98:1.0 102:1.0 106:1.0 112:1.0 115:1.0 118:1.0 122:1.0 125:1.0 130:1.0 133:1.0 139:1.0 141:1.0 206:1.0 262:1.0 296:1.0 367:1.0 460:1.0 511:1.0 586:1.0 630:1.0 678:1.0 741:1.0 803:1.0 859:1.0 954:1.0 1014:1.0 1063:1.0 1130:1.0 1207:1.0 1258:1.0 1334:1.0 1381:1.0 1442:1.0 1495:1.0 1578:1.0 1654:1.0 1702:1.0 1768:1.0 1839:1.0 1930:1.0 1974:1.0 2021:1.0 2082:1.0 2133:1.0 2211:1.0 2265:1.0 
-0.017456830381467173 4:1.0 6:1.0 12:1.0 15:1.0 17:1.0 22:1.0 28:1.0 32:1.0 36:1.0 40:1.0 41:1.0 47:1.0 49:1.0 53:1.0 59:1.0 63:1.0 67:1.0 79:1.0 83:1.0 85:1.0 91:1.0 93:1.0 97:1.0 101:1.0 106:1.0 112:1.0 116:1.0 117:1.0 121:1.0 127:1.0 131:1.0 134:1.0 140:1.0 141:1.0 200:1.0 239:1.0 329:1.0 370:1.0 408:1.0 496:1.0 592:1.0 656:1.0 717:1.0 771:1.0 793:1.0 881:1.0 915:1.0 987:1.0 1083:1.0 1146:1.0 1207:1.0 1259:1.0 1339:1.0 1401:1.0 1459:1.0 1497:1.0 1585:1.0 1617:1.0 1682:1.0 1752:1.0 1840:1.0 1933:1.0 1985:1.0 2003:1.0 2075:1.0 2170:1.0 2232:1.0 2285:1.0 
0.02 4:1.0 6:1.0 11:1.0 14:1.0 18:1.0 21:1.0 26:1.0 32:1.0 36:1.0 37:1.0 42:1.0 46:1.0 50:1.0 55:1.0 59:1.0 62:1.0 66:1.0 78:1.0 82:1.0 86:1.0 91:1.0 95:1.0 98:1.0 102:1.0 107:1.0 109:1.0 114:1.0 120:1.0 122:1.0 128:1.0 131:1.0 134:1.0 138:1.0 141:1.0 199:1.0 234:1.0 310:1.0 357:1.0 418:1.0 472:1.0 560:1.0 653:1.0 706:1.0 726:1.0 806:1.0 871:1.0 939:1.0 1018:1.0 1078:1.0 1126:1.0 1191:1.0 1258:1.0 1334:1.0 1382:1.0 1447:1.0 1515:1.0 1594:1.0 1654:1.0 1703:1.0 1769:1.0 1842:1.0 1880:1.0 1966:1.0 2056:1.0 2095:1.0 2186:1.0 2230:1.0 2277:1.0 
0.02 4:1.0 7:1.0 9:1.0 15:1.0 19:1.0 22:1.0 25:1.0 30:1.0 34:1.0 40:1.0 43:1.0 47:1.0 52:1.0 54:1.0 59:1.0 63:1.0 67:1.0 79:1.0 83:1.0 87:1.0 89:1.0 95:1.0 99:1.0 102:1.0 107:1.0 112:1.0 114:1.0 119:1.0 123:1.0 127:1.0 132:1.0 134:1.0 139:1.0 141:1.0 201:1.0 243:1.0 283:1.0 378:1.0 437:1.0 482:1.0 534:1.0 616:1.0 687:1.0 779:1.0 828:1.0 894:1.0 967:1.0 1003:1.0 1083:1.0 1146:1.0 1207:1.0 1259:1.0 1339:1.0 1403:1.0 1465:1.0 1523:1.0 1563:1.0 1658:1.0 1719:1.0 1772:1.0 1854:1.0 1927:1.0 1963:1.0 2043:1.0 2108:1.0 2174:1.0 2247:1.0 2281:1.0 
0.02 4:1.0 8:1.0 11:1.0 13:1.0 19:1.0 23:1.0 27:1.0 31:1.0 33:1.0 39:1.0 43:1.0 47:1.0 51:1.0 56:1.0 60:1.0 63:1.0 67:1.0 78:1.0 81:1.0 87:1.0 91:1.0 95:1.0 98:1.0 101:1.0 107:1.0 110:1.0 113:1.0 120:1.0 123:1.0 127:1.0 131:1.0 133:1.0 139:1.0 141:1.0 207:1.0 265:1.0 307:1.0 347:1.0 443:1.0 507:1.0 569:1.0 627:1.0 667:1.0 763:1.0 827:1.0 892:1.0 960:1.0 1039:1.0 1099:1.0 1146:1.0 1207:1.0 1258:1.0 1333:1.0 1379:1.0 1435:1.0 1531:1.0 1594:1.0 1653:1.0 1699:1.0 1754:1.0 1845:1.0 1892:1.0 1951:1.0 2059:1.0 2107:1.0 2169:1.0 2227:1.0 2265:1.0 
0.02 4:1.0 8:1.0 9:1.0 14:1.0 19:1.0 23:1.0 25:1.0 29:1.0 36:1.0 38:1.0 43:1.0 47:1.0 50:1.0 55:1.0 57:1.0 63:1.0 67:1.0 78:1.0 82:1.0 85:1.0 89:1.0 95:1.0 99:1.0 101:1.0 107:1.0 111:1.0 114:1.0 120:1.0 124:1.0 126:1.0 130:1.0 136:1.0 139:1.0 141:1.0 205:1.0 258:1.0 279:1.0 363:1.0 441:1.0 497:1.0 532:1.0 606:1.0 711:1.0 747:1.0 826:1.0 887:1.0 937:1.0 1011:1.0 1051:1.0 1146:1.0 1207:1.0 1258:1.0 1334:1.0 1381:1.0 1441:1.0 1491:1.0 1563:1.0 1657:1.0 1715:1.0 1755:1.0 1850:1.0 1912:1.0 1968:1.0 2062:1.0 2118:1.0 2152:1.0 2223:1.0 2313:1.0 
-0.02 2:1.0 6:1.0 12:1.0 16:1.0 20:1.0 22:1.0 28:1.0 30:1.0 33:1.0 37:1.0 41:1.0 46:1.0 49:1.0 56:1.0 57:1.0 61:1.0 67:1.0 78:1.0 83:1.0 88:1.0 89:1.0 96:1.0 99:1.0 102:1.0 108:1.0 109:1.0 114:1.0 119:1.0 124:1.0 126:1.0 129:1.0 136:1.0 138:1.0 144:1.0 168:1.0 240:1.0 336:1.0 398:1.0 456:1.0 494:1.0 581:1.0 609:1.0 657:1.0 722:1.0 789:1.0 868:1.0 925:1.0 1025:1.0 1043:1.0 1114:1.0 1207:1.0 1258:1.0 1335:1.0 1388:1.0 1469:1.0 1540:1.0 1567:1.0 1674:1.0 1720:1.0 1773:1.0 1858:1.0 1879:1.0 1964:1.0 2046:1.0 2117:1.0 2148:1.0 2206:1.0 2312:1.0 
0.003972375821054173 4:1.0 8:1.0 11:1.0 13:1.0 20:1.0 23:1.0 27:1.0 30:1.0 36:1.0 38:1.0 44:1.0 47:1.0 49:1.0 56:1.0 57:1.0 62:1.0 66:1.0 78:1.0 82:1.0 87:1.0 91:1.0 93:1.0 100:1.0 104:1.0 106:1.0 111:1.0 114:1.0 118:1.0 124:1.0 126:1.0 130:1.0 136:1.0 138:1.0 141:1.0 207:1.0 265:1.0 308:1.0 351:1.0 459:1.0 506:1.0 568:1.0 622:1.0 712:1.0 751:1.0 841:1.0 884:1.0 925:1.0 1026:1.0 1046:1.0 1126:1.0 1191:1.0 1258:1.0 1334:1.0 1383:1.0 1451:1.0 1529:1.0 1588:1.0 1632:1.0 1742:1.0 1799:1.0 1834:1.0 1910:1.0 1960:1.0 2030:1.0 2118:1.0 2152:1.0 2222:1.0 2309:1.0 
0.02 4:1.0 5:1.0 11:1.0 13:1.0 19:1.0 22:1.0 26:1.0 29:1.0 34:1.0 39:1.0 44:1.0 47:1.0 52:1.0 55:1.0 58:1.0 62:1.0 67:1.0 78:1.0 84:1.0 86:1.0 92:1.0 95:1.0 99:1.0 103:1.0 106:1.0 109:1.0 114:1.0 117:1.0 123:1.0 126:1.0 130:1.0 136:1.0 140:1.0 141:1.0 195:1.0 217:1.0 307:1.0 346:1.0 438:1.0 485:1.0 546:1.0 599:1.0 684:1.0 767:1.0 844:1.0 895:1.0 970:1.0 1014:1.0 1063:1.0 1130:1.0 1207:1.0 1258:1.0 1336:1.0 1390:1.0 1480:1.0 1519:1.0 1611:1.0 1659:1.0 1722:1.0 1781:1.0 1826:1.0 1877:1.0 1955:1.0 2010:1.0 2102:1.0 2152:1.0 2224:1.0 2317:1.0 
0.02 1:1.0 7:1.0 9:1.0 16:1.0 19:1.0 21:1.0 26:1.0 31:1.0 36:1.0 37:1.0 43:1.0 45:1.0 51:1.0 55:1.0 58:1.0 64:1.0 67:1.0 78:1.0 81:1.0 87:1.0 90:1.0 94:1.0 100:1.0 104:1.0 108:1.0 112:1.0 115:1.0 117:1.0 123:1.0 125:1.0 129:1.0 133:1.0 139:1.0 143:1.0 153:1.0 244:1.0 287:1.0 393:1.0 434:1.0 471:1.0 556:1.0 637:1.0 707:1.0 729:1.0 819:1.0 859:1.0 954:1.0 1016:1.0 1071:1.0 1162:1.0 1207:1.0 1258:1.0 1333:1.0 1379:1.0 1434:1.0 1526:1.0 1576:1.0 1648:1.0 1744:1.0 1808:1.0 1871:1.0 1929:1.0 1971:1.0 2009:1.0 2097:1.0 2129:1.0 2195:1.0 2267:1.0 
-0.00846276268567226 4:1.0 8:1.0 11:1.0 16:1.0 18:1.0 23:1.0 26:1.0 32:1.0 34:1.0 37:1.0 43:1.0 46:1.0 51:1.0 56:1.0 59:1.0 61:1.0 66:1.0 78:1.0 83:1.0 86:1.0 89:1.0 95:1.0 100:1.0 103:1.0 106:1.0 110:1.0 113:1.0 119:1.0 122:1.0 126:1.0 130:1.0 134:1.0 139:1.0 141:1.0 207:1.0 268:1.0 318:1.0 391:1.0 426:1.0 504:1.0 558:1.0 645:1.0 675:1.0 730:1.0 823:1.0 876:1.0 959:1.0 1033:1.0 1074:1.0 1110:1.0 1191:1.0 1258:1.0 1335:1.0 1386:1.0 1461:1.0 1507:1.0 1564:1.0 1663:1.0 1738:1.0 1782:1.0 1829:1.0 1891:1.0 1946:1.0 2038:1.0 2086:1.0 2150:1.0 2215:1.0 2281:1.0 
0.02 4:1.0 7:1.0 9:1.0 15:1.0 17:1.0 21:1.0 25:1.0 31:1.0 34:1.0 39:1.0 41:1.0 45:1.0 52:1.0 54:1.0 60:1.0 63:1.0 67:1.0 78:1.0 82:1.0 88:1.0 92:1.0 96:1.0 98:1.0 102:1.0 108:1.0 111:1.0 115:1.0 119:1.0 121:1.0 128:1.0 132:1.0 136:1.0 138:1.0 141:1.0 201:1.0 243:1.0 281:1.0 369:1.0 401:1.0 467:1.0 538:1.0 631:1.0 681:1.0 753:1.0 788:1.0 862:1.0 968:1.0 1007:1.0 1099:1.0 1146:1.0 1207:1.0 1258:1.0 1334:1.0 1384:1.0 1456:1.0 1552:1.0 1614:1.0 1670:1.0 1704:1.0 1775:1.0 1867:1.0 1915:1.0 1977:1.0 2036:1.0 2080:1.0 2192:1.0 2254:1.0 2309:1.0 
0.02 4:1.0 8:1.0 9:1.0 13:1.0 17:1.0 24:1.0 28:1.0 29:1.0 36:1.0 39:1.0 42:1.0 46:1.0 49:1.0 55:1.0 59:1.0 62:1.0 67:1.0 78:1.0 82:1.0 88:1.0 91:1.0 93:1.0 98:1.0 103:1.0 108:1.0 110:1.0 113:1.0 119:1.0 123:1.0 128:1.0 131:1.0 135:1.0 138:1.0 141:1.0 205:1.0 257:1.0 273:1.0 340:1.0 416:1.0 525:1.0 580:1.0 607:1.0 714:1.0 758:1.0 805:1.0 867:1.0 923:1.0 1018:1.0 1079:1.0 1130:1.0 1207:1.0 1258:1.0 1334:1.0 1384:1.0 1455:1.0 1545:1.0 1586:1.0 1623:1.0 1708:1.0 1790:1.0 1861:1.0 1891:1.0 1947:1.0 2044:1.0 2111:1.0 2187:1.0 2234:1.0 2293:1.0 
-0.010889543040637792 4:1.0 5:1.0 12:1.0 13:1.0 18:1.0 22:1.0 27:1.0 31:1.0 35:1.0 37:1.0 41:1.0 47:1.0 51:1.0 55:1.0 57:1.0 63:1.0 67:1.0 79:1.0 83:1.0 88:1.0 92:1.0 94:1.0 99:1.0 102:1.0 106:1.0 112:1.0 114:1.0 119:1.0 122:1.0 125:1.0 131:1.0 134:1.0 140:1.0 141:1.0 196:1.0 221:1.0 322:1.0 342:1.0 423:1.0 491:1.0 571:1.0 633:1.0 689:1.0 723:1.0 795:1.0 891:1.0 953:1.0 1011:1.0 1051:1.0 1146:1.0 1207:1.0 1259:1.0 1339:1.0 1404:1.0 1472:1.0 1550:1.0 1607:1.0 1642:1.0 1718:1.0 1768:1.0 1838:1.0 1927:1.0 1962:1.0 2037:1.0 2083:1.0 2138:1.0 2232:1.0 2285:1.0 
