svm_type epsilon_svr
kernel_type linear
nr_class 2
total_sv 498
rho -0.2139019706859424
SV
0.001902198333065312 24:1.0 96:1.0 192:1.0 254:1.0 312:1.0 350:1.0 437:1.0 465:1.0 513:1.0 580:1.0 656:1.0 766:1.0 822:1.0 855:1.0 923:1.0 1002:1.0 1063:1.0 1114:1.0 1190:1.0 1239:1.0 1307:1.0 1385:1.0 1441:1.0 1474:1.0 1544:1.0 1629:1.0 1714:1.0 1735:1.0 1820:1.0 1902:1.0 1973:1.0 2004:1.0 2062:1.0 2168:1.0 
-7.942599330343206E-4 55:1.0 90:1.0 165:1.0 210:1.0 264:1.0 350:1.0 437:1.0 466:1.0 520:1.0 606:1.0 695:1.0 729:1.0 802:1.0 840:1.0 927:1.0 1018:1.0 1063:1.0 1114:1.0 1190:1.0 1237:1.0 1298:1.0 1351:1.0 1436:1.0 1518:1.0 1590:1.0 1622:1.0 1686:1.0 1752:1.0 1823:1.0 1913:1.0 1953:1.0 1987:1.0 2059:1.0 2153:1.0 
0.00215632018088181 55:1.0 90:1.0 166:1.0 216:1.0 285:1.0 370:1.0 390:1.0 472:1.0 544:1.0 637:1.0 691:1.0 713:1.0 801:1.0 834:1.0 902:1.0 982:1.0 1047:1.0 1114:1.0 1190:1.0 1237:1.0 1297:1.0 1345:1.0 1412:1.0 1486:1.0 1590:1.0 1622:1.0 1685:1.0 1748:1.0 1808:1.0 1917:1.0 1969:1.0 1985:1.0 2052:1.0 2125:1.0 
-8.207248275709863E-4 59:1.0 108:1.0 175:1.0 251:1.0 299:1.0 361:1.0 419:1.0 457:1.0 547:1.0 586:1.0 680:1.0 736:1.0 830:1.0 885:1.0 914:1.0 966:1.0 1047:1.0 1114:1.0 1190:1.0 1237:1.0 1297:1.0 1348:1.0 1423:1.0 1530:1.0 1574:1.0 1623:1.0 1691:1.0 1770:1.0 1832:1.0 1886:1.0 1976:1.0 2014:1.0 2102:1.0 2133:1.0 
-0.00762877823988001 51:1.0 75:1.0 172:1.0 239:1.0 316:1.0 366:1.0 437:1.0 465:1.0 513:1.0 577:1.0 642:1.0 711:1.0 794:1.0 872:1.0 927:1.0 1018:1.0 1063:1.0 1114:1.0 1190:1.0 1237:1.0 1297:1.0 1347:1.0 1420:1.0 1520:1.0 1598:1.0 1656:1.0 1694:1.0 1781:1.0 1811:1.0 1865:1.0 1953:1.0 1985:1.0 2049:1.0 2113:1.0 
-8.696787214799391E-4 58:1.0 103:1.0 156:1.0 239:1.0 314:1.0 359:1.0 412:1.0 493:1.0 561:1.0 578:1.0 647:1.0 732:1.0 816:1.0 895:1.0 955:1.0 1002:1.0 1063:1.0 1114:1.0 1189:1.0 1234:1.0 1287:1.0 1372:1.0 1455:1.0 1529:1.0 1570:1.0 1608:1.0 1694:1.0 1782:1.0 1815:1.0 1883:1.0 1962:1.0 2022:1.0 2070:1.0 2133:1.0 
0.006418714303205548 24:1.0 96:1.0 192:1.0 254:1.0 312:1.0 350:1.0 437:1.0 465:1.0 513:1.0 580:1.0 655:1.0 762:1.0 807:1.0 858:1.0 935:1.0 986:1.0 1063:1.0 1114:1.0 1191:1.0 1242:1.0 1319:1.0 1370:1.0 1445:1.0 1490:1.0 1544:1.0 1629:1.0 1714:1.0 1735:1.0 1820:1.0 1902:1.0 1973:1.0 2004:1.0 2062:1.0 2168:1.0 
3.9918481550288177E-4 63:1.0 123:1.0 170:1.0 229:1.0 273:1.0 322:1.0 391:1.0 475:1.0 553:1.0 609:1.0 641:1.0 705:1.0 771:1.0 842:1.0 935:1.0 986:1.0 1063:1.0 1115:1.0 1195:1.0 1257:1.0 1313:1.0 1348:1.0 1424:1.0 1533:1.0 1586:1.0 1605:1.0 1683:1.0 1737:1.0 1828:1.0 1869:1.0 1969:1.0 1985:1.0 2052:1.0 2125:1.0 
0.00836988359944542 59:1.0 106:1.0 165:1.0 209:1.0 257:1.0 321:1.0 385:1.0 451:1.0 523:1.0 617:1.0 676:1.0 720:1.0 832:1.0 895:1.0 955:1.0 1002:1.0 1063:1.0 1114:1.0 1191:1.0 1244:1.0 1325:1.0 1393:1.0 1409:1.0 1473:1.0 1539:1.0 1612:1.0 1711:1.0 1787:1.0 1834:1.0 1894:1.0 1943:1.0 2011:1.0 2091:1.0 2153:1.0 
-8.345635231712147E-4 55:1.0 91:1.0 171:1.0 235:1.0 297:1.0 354:1.0 390:1.0 470:1.0 535:1.0 604:1.0 687:1.0 762:1.0 805:1.0 851:1.0 907:1.0 1002:1.0 1063:1.0 1114:1.0 1190:1.0 1239:1.0 1307:1.0 1387:1.0 1450:1.0 1509:1.0 1554:1.0 1608:1.0 1694:1.0 1783:1.0 1819:1.0 1898:1.0 1957:1.0 2002:1.0 2054:1.0 2133:1.0 
-2.2954215285301592E-4 59:1.0 106:1.0 166:1.0 214:1.0 280:1.0 351:1.0 443:1.0 490:1.0 552:1.0 608:1.0 702:1.0 760:1.0 800:1.0 895:1.0 955:1.0 1002:1.0 1063:1.0 1114:1.0 1191:1.0 1241:1.0 1316:1.0 1359:1.0 1467:1.0 1516:1.0 1583:1.0 1657:1.0 1699:1.0 1739:1.0 1834:1.0 1893:1.0 1938:1.0 1992:1.0 2077:1.0 2161:1.0 
-2.8459904834455803E-4 58:1.0 104:1.0 158:1.0 246:1.0 279:1.0 348:1.0 430:1.0 502:1.0 533:1.0 595:1.0 650:1.0 742:1.0 791:1.0 859:1.0 939:1.0 1002:1.0 1063:1.0 1114:1.0 1190:1.0 1237:1.0 1299:1.0 1354:1.0 1448:1.0 1502:1.0 1590:1.0 1624:1.0 1694:1.0 1782:1.0 1814:1.0 1879:1.0 1947:1.0 2027:1.0 2090:1.0 2149:1.0 
-0.0010614044354346327 51:1.0 74:1.0 166:1.0 216:1.0 288:1.0 383:1.0 443:1.0 490:1.0 550:1.0 600:1.0 670:1.0 760:1.0 799:1.0 890:1.0 935:1.0 986:1.0 1063:1.0 1115:1.0 1194:1.0 1256:1.0 1312:1.0 1406:1.0 1462:1.0 1493:1.0 1554:1.0 1607:1.0 1690:1.0 1766:1.0 1814:1.0 1878:1.0 1941:1.0 2002:1.0 2055:1.0 2137:1.0 
0.001474857913960561 59:1.0 105:1.0 163:1.0 203:1.0 297:1.0 354:1.0 389:1.0 467:1.0 523:1.0 617:1.0 676:1.0 720:1.0 832:1.0 895:1.0 955:1.0 1002:1.0 1063:1.0 1114:1.0 1190:1.0 1237:1.0 1298:1.0 1351:1.0 1435:1.0 1515:1.0 1580:1.0 1646:1.0 1718:1.0 1749:1.0 1809:1.0 1860:1.0 1935:1.0 2042:1.0 2088:1.0 2141:1.0 
4.130574651053679E-4 58:1.0 102:1.0 152:1.0 222:1.0 309:1.0 340:1.0 398:1.0 503:1.0 540:1.0 623:1.0 698:1.0 744:1.0 800:1.0 894:1.0 950:1.0 982:1.0 1047:1.0 1114:1.0 1190:1.0 1237:1.0 1297:1.0 1345:1.0 1409:1.0 1473:1.0 1538:1.0 1607:1.0 1690:1.0 1766:1.0 1816:1.0 1888:1.0 1983:1.0 2043:1.0 2092:1.0 2157:1.0 
0.0015449556123983412 24:1.0 96:1.0 192:1.0 254:1.0 312:1.0 350:1.0 437:1.0 465:1.0 513:1.0 580:1.0 656:1.0 768:1.0 829:1.0 882:1.0 903:1.0 986:1.0 1063:1.0 1114:1.0 1191:1.0 1244:1.0 1325:1.0 1393:1.0 1409:1.0 1474:1.0 1544:1.0 1629:1.0 1714:1.0 1735:1.0 1820:1.0 1902:1.0 1973:1.0 2004:1.0 2062:1.0 2168:1.0 
-8.863334941867593E-4 62:1.0 119:1.0 156:1.0 239:1.0 315:1.0 362:1.0 421:1.0 467:1.0 522:1.0 616:1.0 671:1.0 762:1.0 808:1.0 863:1.0 955:1.0 1002:1.0 1063:1.0 1115:1.0 1195:1.0 1258:1.0 1318:1.0 1365:1.0 1426:1.0 1478:1.0 1557:1.0 1618:1.0 1669:1.0 1746:1.0 1800:1.0 1888:1.0 1982:1.0 2038:1.0 2070:1.0 2133:1.0 
0.0037367757928161503 58:1.0 102:1.0 150:1.0 213:1.0 274:1.0 326:1.0 406:1.0 470:1.0 535:1.0 601:1.0 676:1.0 720:1.0 830:1.0 886:1.0 918:1.0 982:1.0 1047:1.0 1114:1.0 1190:1.0 1237:1.0 1297:1.0 1345:1.0 1409:1.0 1474:1.0 1542:1.0 1622:1.0 1685:1.0 1747:1.0 1801:1.0 1891:1.0 1931:1.0 2028:1.0 2093:1.0 2161:1.0 
-3.187101071857123E-5 59:1.0 106:1.0 165:1.0 210:1.0 263:1.0 348:1.0 431:1.0 507:1.0 554:1.0 613:1.0 658:1.0 710:1.0 789:1.0 851:1.0 907:1.0 1002:1.0 1063:1.0 1114:1.0 1190:1.0 1240:1.0 1311:1.0 1403:1.0 1450:1.0 1509:1.0 1554:1.0 1606:1.0 1685:1.0 1747:1.0 1803:1.0 1897:1.0 1955:1.0 1994:1.0 2088:1.0 2141:1.0 
-0.0038273236387710765 9:1.0 100:1.0 143:1.0 249:1.0 290:1.0 327:1.0 412:1.0 493:1.0 563:1.0 585:1.0 673:1.0 708:1.0 782:1.0 885:1.0 915:1.0 970:1.0 1063:1.0 1114:1.0 1192:1.0 1247:1.0 1337:1.0 1380:1.0 1424:1.0 1536:1.0 1600:1.0 1664:1.0 1727:1.0 1785:1.0 1827:1.0 1865:1.0 1953:1.0 1985:1.0 2051:1.0 2123:1.0 
-0.0019191056878711317 55:1.0 91:1.0 169:1.0 225:1.0 259:1.0 332:1.0 431:1.0 507:1.0 554:1.0 615:1.0 668:1.0 752:1.0 831:1.0 891:1.0 938:1.0 998:1.0 1047:1.0 1114:1.0 1190:1.0 1237:1.0 1300:1.0 1360:1.0 1471:1.0 1531:1.0 1578:1.0 1638:1.0 1688:1.0 1759:1.0 1850:1.0 1894:1.0 1943:1.0 2011:1.0 2090:1.0 2149:1.0 
-0.0051940822192457145 24:1.0 96:1.0 192:1.0 254:1.0 312:1.0 350:1.0 437:1.0 465:1.0 513:1.0 577:1.0 643:1.0 714:1.0 805:1.0 849:1.0 899:1.0 970:1.0 1063:1.0 1114:1.0 1191:1.0 1244:1.0 1327:1.0 1402:1.0 1448:1.0 1502:1.0 1592:1.0 1629:1.0 1714:1.0 1735:1.0 1820:1.0 1902:1.0 1973:1.0 2004:1.0 2062:1.0 2168:1.0 
-0.004255083674792674 55:1.0 91:1.0 171:1.0 236:1.0 304:1.0 382:1.0 438:1.0 472:1.0 543:1.0 634:1.0 677:1.0 723:1.0 778:1.0 871:1.0 923:1.0 1002:1.0 1063:1.0 1114:1.0 1191:1.0 1241:1.0 1314:1.0 1350:1.0 1430:1.0 1496:1.0 1566:1.0 1656:1.0 1695:1.0 1785:1.0 1826:1.0 1863:1.0 1948:1.0 2030:1.0 2104:1.0 2141:1.0 
0.0056118770571098086 58:1.0 104:1.0 158:1.0 248:1.0 286:1.0 374:1.0 405:1.0 466:1.0 517:1.0 595:1.0 649:1.0 738:1.0 774:1.0 854:1.0 919:1.0 986:1.0 1063:1.0 1114:1.0 1189:1.0 1234:1.0 1288:1.0 1375:1.0 1467:1.0 1513:1.0 1569:1.0 1602:1.0 1669:1.0 1747:1.0 1803:1.0 1897:1.0 1954:1.0 1989:1.0 2066:1.0 2117:1.0 
-7.90118561812899E-4 59:1.0 108:1.0 176:1.0 253:1.0 305:1.0 323:1.0 394:1.0 485:1.0 530:1.0 582:1.0 664:1.0 734:1.0 823:1.0 860:1.0 943:1.0 1018:1.0 1063:1.0 1114:1.0 1190:1.0 1240:1.0 1310:1.0 1399:1.0 1433:1.0 1505:1.0 1538:1.0 1608:1.0 1696:1.0 1791:1.0 1851:1.0 1898:1.0 1959:1.0 2009:1.0 2083:1.0 2121:1.0 
-0.0019944520270242243 51:1.0 75:1.0 170:1.0 231:1.0 281:1.0 353:1.0 387:1.0 459:1.0 555:1.0 619:1.0 682:1.0 743:1.0 796:1.0 878:1.0 951:1.0 986:1.0 1063:1.0 1114:1.0 1191:1.0 1242:1.0 1317:1.0 1361:1.0 1411:1.0 1482:1.0 1573:1.0 1618:1.0 1671:1.0 1754:1.0 1829:1.0 1874:1.0 1927:1.0 2009:1.0 2082:1.0 2117:1.0 
-0.0016634118166334285 57:1.0 98:1.0 134:1.0 214:1.0 278:1.0 341:1.0 402:1.0 455:1.0 539:1.0 618:1.0 679:1.0 729:1.0 802:1.0 837:1.0 914:1.0 966:1.0 1047:1.0 1114:1.0 1190:1.0 1237:1.0 1297:1.0 1347:1.0 1417:1.0 1505:1.0 1539:1.0 1610:1.0 1702:1.0 1750:1.0 1813:1.0 1876:1.0 1934:1.0 2037:1.0 2068:1.0 2125:1.0 
-5.285419863584241E-5 55:1.0 90:1.0 166:1.0 214:1.0 278:1.0 342:1.0 408:1.0 479:1.0 569:1.0 609:1.0 642:1.0 709:1.0 787:1.0 843:1.0 939:1.0 1002:1.0 1063:1.0 1115:1.0 1195:1.0 1257:1.0 1315:1.0 1353:1.0 1444:1.0 1488:1.0 1598:1.0 1655:1.0 1691:1.0 1772:1.0 1839:1.0 1916:1.0 1967:1.0 2042:1.0 2086:1.0 2133:1.0 
-2.1448656792615202E-4 59:1.0 105:1.0 163:1.0 201:1.0 291:1.0 331:1.0 426:1.0 488:1.0 543:1.0 633:1.0 673:1.0 705:1.0 771:1.0 842:1.0 935:1.0 986:1.0 1063:1.0 1115:1.0 1194:1.0 1254:1.0 1304:1.0 1375:1.0 1467:1.0 1513:1.0 1569:1.0 1603:1.0 1675:1.0 1770:1.0 1829:1.0 1873:1.0 1921:1.0 1986:1.0 2056:1.0 2141:1.0 
-0.001484541886523423 54:1.0 87:1.0 155:1.0 235:1.0 300:1.0 367:1.0 443:1.0 490:1.0 550:1.0 598:1.0 663:1.0 731:1.0 810:1.0 870:1.0 919:1.0 986:1.0 1063:1.0 1114:1.0 1190:1.0 1237:1.0 1299:1.0 1355:1.0 1451:1.0 1513:1.0 1572:1.0 1615:1.0 1723:1.0 1771:1.0 1833:1.0 1889:1.0 1922:1.0 1990:1.0 2070:1.0 2133:1.0 
-0.001910859136192211 54:1.0 86:1.0 150:1.0 213:1.0 274:1.0 326:1.0 405:1.0 466:1.0 519:1.0 603:1.0 683:1.0 745:1.0 802:1.0 837:1.0 915:1.0 970:1.0 1063:1.0 1114:1.0 1190:1.0 1237:1.0 1299:1.0 1355:1.0 1450:1.0 1509:1.0 1555:1.0 1612:1.0 1709:1.0 1778:1.0 1798:1.0 1878:1.0 1944:1.0 2014:1.0 2102:1.0 2133:1.0 
-4.543816799226101E-4 58:1.0 102:1.0 152:1.0 222:1.0 310:1.0 342:1.0 406:1.0 470:1.0 533:1.0 594:1.0 645:1.0 723:1.0 779:1.0 874:1.0 934:1.0 982:1.0 1047:1.0 1114:1.0 1190:1.0 1237:1.0 1299:1.0 1354:1.0 1447:1.0 1497:1.0 1572:1.0 1616:1.0 1726:1.0 1783:1.0 1820:1.0 1902:1.0 1974:1.0 2008:1.0 2080:1.0 2173:1.0 
0.003054876924609194 63:1.0 123:1.0 169:1.0 225:1.0 259:1.0 330:1.0 421:1.0 467:1.0 522:1.0 616:1.0 672:1.0 768:1.0 832:1.0 895:1.0 955:1.0 1002:1.0 1063:1.0 1115:1.0 1195:1.0 1257:1.0 1313:1.0 1345:1.0 1412:1.0 1488:1.0 1600:1.0 1664:1.0 1727:1.0 1786:1.0 1832:1.0 1888:1.0 1982:1.0 2038:1.0 2072:1.0 2141:1.0 
0.020508299613143877 24:1.0 96:1.0 192:1.0 254:1.0 312:1.0 350:1.0 437:1.0 465:1.0 513:1.0 580:1.0 656:1.0 768:1.0 831:1.0 891:1.0 939:1.0 1002:1.0 1063:1.0 1114:1.0 1190:1.0 1238:1.0 1301:1.0 1361:1.0 1409:1.0 1474:1.0 1544:1.0 1629:1.0 1714:1.0 1735:1.0 1820:1.0 1902:1.0 1973:1.0 2004:1.0 2062:1.0 2168:1.0 
0.02285764966347457 24:1.0 96:1.0 192:1.0 254:1.0 312:1.0 350:1.0 437:1.0 465:1.0 513:1.0 580:1.0 656:1.0 768:1.0 830:1.0 887:1.0 923:1.0 1002:1.0 1063:1.0 1114:1.0 1190:1.0 1239:1.0 1305:1.0 1377:1.0 1409:1.0 1474:1.0 1544:1.0 1629:1.0 1714:1.0 1735:1.0 1820:1.0 1902:1.0 1973:1.0 2004:1.0 2062:1.0 2168:1.0 
0.008712923393804832 9:1.0 100:1.0 143:1.0 249:1.0 290:1.0 327:1.0 412:1.0 493:1.0 563:1.0 588:1.0 688:1.0 768:1.0 831:1.0 891:1.0 939:1.0 1002:1.0 1063:1.0 1114:1.0 1190:1.0 1238:1.0 1301:1.0 1361:1.0 1409:1.0 1476:1.0 1552:1.0 1664:1.0 1727:1.0 1785:1.0 1827:1.0 1865:1.0 1953:1.0 1985:1.0 2051:1.0 2123:1.0 
0.0017977789254279477 59:1.0 105:1.0 162:1.0 199:1.0 281:1.0 354:1.0 392:1.0 478:1.0 567:1.0 603:1.0 682:1.0 741:1.0 787:1.0 841:1.0 931:1.0 970:1.0 1063:1.0 1114:1.0 1191:1.0 1243:1.0 1323:1.0 1386:1.0 1445:1.0 1490:1.0 1542:1.0 1623:1.0 1692:1.0 1775:1.0 1851:1.0 1898:1.0 1960:1.0 2014:1.0 2101:1.0 2129:1.0 
-0.00109904444536294 52:1.0 79:1.0 185:1.0 225:1.0 258:1.0 325:1.0 403:1.0 457:1.0 547:1.0 586:1.0 678:1.0 728:1.0 800:1.0 895:1.0 955:1.0 1002:1.0 1063:1.0 1114:1.0 1191:1.0 1241:1.0 1316:1.0 1359:1.0 1466:1.0 1512:1.0 1566:1.0 1654:1.0 1688:1.0 1760:1.0 1855:1.0 1915:1.0 1963:1.0 2025:1.0 2083:1.0 2121:1.0 
-0.012765983301628219 24:1.0 96:1.0 192:1.0 254:1.0 312:1.0 350:1.0 437:1.0 465:1.0 513:1.0 580:1.0 656:1.0 768:1.0 829:1.0 881:1.0 899:1.0 970:1.0 1063:1.0 1115:1.0 1193:1.0 1249:1.0 1284:1.0 1357:1.0 1457:1.0 1474:1.0 1544:1.0 1629:1.0 1714:1.0 1735:1.0 1820:1.0 1902:1.0 1973:1.0 2004:1.0 2062:1.0 2168:1.0 
0.0029469127630338265 61:1.0 113:1.0 131:1.0 204:1.0 304:1.0 382:1.0 437:1.0 467:1.0 521:1.0 609:1.0 641:1.0 705:1.0 769:1.0 833:1.0 899:1.0 970:1.0 1063:1.0 1114:1.0 1190:1.0 1238:1.0 1301:1.0 1363:1.0 1420:1.0 1519:1.0 1595:1.0 1644:1.0 1711:1.0 1788:1.0 1840:1.0 1919:1.0 1977:1.0 2017:1.0 2052:1.0 2125:1.0 
-0.0010259868737386118 54:1.0 86:1.0 151:1.0 219:1.0 299:1.0 361:1.0 419:1.0 457:1.0 547:1.0 586:1.0 680:1.0 735:1.0 826:1.0 869:1.0 915:1.0 970:1.0 1063:1.0 1114:1.0 1190:1.0 1237:1.0 1300:1.0 1359:1.0 1467:1.0 1514:1.0 1574:1.0 1621:1.0 1683:1.0 1739:1.0 1835:1.0 1897:1.0 1954:1.0 1989:1.0 2066:1.0 2117:1.0 
-3.260036359004305E-4 59:1.0 107:1.0 171:1.0 236:1.0 303:1.0 377:1.0 419:1.0 457:1.0 545:1.0 577:1.0 643:1.0 715:1.0 810:1.0 870:1.0 918:1.0 982:1.0 1047:1.0 1114:1.0 1190:1.0 1237:1.0 1299:1.0 1354:1.0 1445:1.0 1489:1.0 1540:1.0 1614:1.0 1718:1.0 1749:1.0 1812:1.0 1870:1.0 1974:1.0 2006:1.0 2069:1.0 2129:1.0 
-0.0033584317807120348 60:1.0 111:1.0 187:1.0 235:1.0 299:1.0 363:1.0 428:1.0 495:1.0 569:1.0 612:1.0 655:1.0 764:1.0 815:1.0 891:1.0 938:1.0 998:1.0 1047:1.0 1114:1.0 1190:1.0 1237:1.0 1300:1.0 1359:1.0 1465:1.0 1505:1.0 1538:1.0 1606:1.0 1686:1.0 1749:1.0 1810:1.0 1862:1.0 1941:1.0 2001:1.0 2051:1.0 2121:1.0 
3.671947313435589E-4 53:1.0 82:1.0 134:1.0 215:1.0 281:1.0 355:1.0 396:1.0 496:1.0 576:1.0 638:1.0 694:1.0 726:1.0 791:1.0 858:1.0 935:1.0 986:1.0 1063:1.0 1115:1.0 1194:1.0 1256:1.0 1312:1.0 1407:1.0 1465:1.0 1507:1.0 1547:1.0 1644:1.0 1709:1.0 1778:1.0 1800:1.0 1887:1.0 1979:1.0 2027:1.0 2091:1.0 2153:1.0 
0.0029889657845969257 60:1.0 110:1.0 181:1.0 210:1.0 262:1.0 343:1.0 409:1.0 484:1.0 528:1.0 640:1.0 702:1.0 760:1.0 799:1.0 890:1.0 935:1.0 986:1.0 1063:1.0 1114:1.0 1190:1.0 1237:1.0 1299:1.0 1353:1.0 1441:1.0 1476:1.0 1550:1.0 1656:1.0 1694:1.0 1784:1.0 1823:1.0 1914:1.0 1957:1.0 2003:1.0 2059:1.0 2153:1.0 
7.599631030397664E-4 59:1.0 106:1.0 165:1.0 210:1.0 262:1.0 341:1.0 402:1.0 454:1.0 534:1.0 597:1.0 659:1.0 714:1.0 806:1.0 854:1.0 919:1.0 986:1.0 1063:1.0 1114:1.0 1192:1.0 1246:1.0 1334:1.0 1367:1.0 1435:1.0 1515:1.0 1578:1.0 1639:1.0 1689:1.0 1764:1.0 1805:1.0 1906:1.0 1926:1.0 2005:1.0 2066:1.0 2117:1.0 
0.0035902914728569036 49:1.0 65:1.0 131:1.0 201:1.0 290:1.0 328:1.0 413:1.0 499:1.0 521:1.0 609:1.0 643:1.0 716:1.0 813:1.0 881:1.0 898:1.0 966:1.0 1047:1.0 1114:1.0 1190:1.0 1237:1.0 1299:1.0 1353:1.0 1444:1.0 1488:1.0 1598:1.0 1656:1.0 1694:1.0 1781:1.0 1811:1.0 1866:1.0 1958:1.0 2006:1.0 2070:1.0 2133:1.0 
-0.00283079251890295 64:1.0 127:1.0 187:1.0 234:1.0 295:1.0 348:1.0 432:1.0 512:1.0 574:1.0 630:1.0 664:1.0 736:1.0 832:1.0 895:1.0 955:1.0 1002:1.0 1063:1.0 1115:1.0 1193:1.0 1252:1.0 1296:1.0 1408:1.0 1472:1.0 1534:1.0 1592:1.0 1631:1.0 1724:1.0 1776:1.0 1856:1.0 1920:1.0 1982:1.0 2039:1.0 2075:1.0 2153:1.0 
-0.05347311130658023 24:1.0 96:1.0 192:1.0 254:1.0 312:1.0 350:1.0 437:1.0 465:1.0 513:1.0 580:1.0 656:1.0 768:1.0 829:1.0 881:1.0 899:1.0 970:1.0 1063:1.0 1114:1.0 1189:1.0 1235:1.0 1290:1.0 1381:1.0 1425:1.0 1474:1.0 1544:1.0 1629:1.0 1714:1.0 1735:1.0 1820:1.0 1902:1.0 1973:1.0 2004:1.0 2062:1.0 2168:1.0 
-0.0012897811669282183 56:1.0 95:1.0 186:1.0 232:1.0 287:1.0 379:1.0 425:1.0 482:1.0 519:1.0 602:1.0 677:1.0 722:1.0 774:1.0 855:1.0 923:1.0 1002:1.0 1063:1.0 1114:1.0 1191:1.0 1244:1.0 1327:1.0 1404:1.0 1454:1.0 1526:1.0 1559:1.0 1625:1.0 1699:1.0 1739:1.0 1834:1.0 1894:1.0 1942:1.0 2006:1.0 2071:1.0 2137:1.0 
0.0013072733638514699 56:1.0 96:1.0 192:1.0 254:1.0 309:1.0 338:1.0 390:1.0 470:1.0 534:1.0 600:1.0 670:1.0 758:1.0 790:1.0 854:1.0 919:1.0 986:1.0 1063:1.0 1114:1.0 1192:1.0 1246:1.0 1334:1.0 1366:1.0 1431:1.0 1499:1.0 1579:1.0 1642:1.0 1702:1.0 1750:1.0 1814:1.0 1879:1.0 1947:1.0 2027:1.0 2090:1.0 2149:1.0 
-0.0013510626008590393 58:1.0 104:1.0 160:1.0 254:1.0 310:1.0 343:1.0 411:1.0 490:1.0 550:1.0 598:1.0 662:1.0 727:1.0 795:1.0 874:1.0 935:1.0 986:1.0 1063:1.0 1114:1.0 1190:1.0 1237:1.0 1299:1.0 1355:1.0 1450:1.0 1510:1.0 1559:1.0 1625:1.0 1697:1.0 1731:1.0 1804:1.0 1904:1.0 1982:1.0 2038:1.0 2070:1.0 2133:1.0 
-0.00161029151295648 57:1.0 97:1.0 129:1.0 194:1.0 264:1.0 351:1.0 443:1.0 489:1.0 547:1.0 587:1.0 683:1.0 745:1.0 801:1.0 836:1.0 910:1.0 1014:1.0 1047:1.0 1114:1.0 1190:1.0 1237:1.0 1300:1.0 1357:1.0 1458:1.0 1477:1.0 1554:1.0 1605:1.0 1683:1.0 1739:1.0 1833:1.0 1889:1.0 1922:1.0 1990:1.0 2072:1.0 2141:1.0 
1.2542135939732336E-4 63:1.0 122:1.0 165:1.0 211:1.0 267:1.0 363:1.0 426:1.0 487:1.0 537:1.0 609:1.0 644:1.0 717:1.0 819:1.0 842:1.0 934:1.0 982:1.0 1047:1.0 1114:1.0 1190:1.0 1237:1.0 1297:1.0 1347:1.0 1420:1.0 1520:1.0 1599:1.0 1658:1.0 1704:1.0 1760:1.0 1853:1.0 1907:1.0 1931:1.0 2028:1.0 2095:1.0 2169:1.0 
-9.805263743968638E-4 57:1.0 98:1.0 135:1.0 218:1.0 294:1.0 341:1.0 404:1.0 461:1.0 563:1.0 586:1.0 679:1.0 729:1.0 802:1.0 839:1.0 923:1.0 1002:1.0 1063:1.0 1114:1.0 1190:1.0 1239:1.0 1306:1.0 1383:1.0 1433:1.0 1506:1.0 1544:1.0 1631:1.0 1722:1.0 1766:1.0 1815:1.0 1881:1.0 1953:1.0 1986:1.0 2053:1.0 2129:1.0 
-0.0012932511129185873 53:1.0 81:1.0 131:1.0 204:1.0 302:1.0 376:1.0 413:1.0 498:1.0 520:1.0 605:1.0 691:1.0 714:1.0 808:1.0 863:1.0 955:1.0 1002:1.0 1063:1.0 1114:1.0 1190:1.0 1240:1.0 1311:1.0 1403:1.0 1451:1.0 1516:1.0 1583:1.0 1657:1.0 1699:1.0 1738:1.0 1832:1.0 1887:1.0 1977:1.0 2019:1.0 2058:1.0 2149:1.0 
0.0014142045420082335 51:1.0 73:1.0 163:1.0 203:1.0 298:1.0 358:1.0 405:1.0 467:1.0 522:1.0 616:1.0 671:1.0 761:1.0 801:1.0 833:1.0 898:1.0 966:1.0 1047:1.0 1114:1.0 1190:1.0 1237:1.0 1297:1.0 1345:1.0 1409:1.0 1474:1.0 1542:1.0 1621:1.0 1681:1.0 1731:1.0 1801:1.0 1892:1.0 1935:1.0 2041:1.0 2084:1.0 2125:1.0 
0.004109717350070281 58:1.0 103:1.0 153:1.0 228:1.0 272:1.0 382:1.0 437:1.0 468:1.0 525:1.0 628:1.0 656:1.0 766:1.0 824:1.0 863:1.0 955:1.0 1002:1.0 1063:1.0 1114:1.0 1192:1.0 1248:1.0 1341:1.0 1394:1.0 1414:1.0 1494:1.0 1558:1.0 1624:1.0 1694:1.0 1782:1.0 1814:1.0 1880:1.0 1952:1.0 2048:1.0 2109:1.0 2161:1.0 
-7.770173892077275E-4 62:1.0 119:1.0 153:1.0 226:1.0 264:1.0 351:1.0 443:1.0 491:1.0 556:1.0 623:1.0 699:1.0 746:1.0 806:1.0 853:1.0 915:1.0 970:1.0 1063:1.0 1114:1.0 1190:1.0 1237:1.0 1297:1.0 1346:1.0 1414:1.0 1496:1.0 1567:1.0 1658:1.0 1704:1.0 1759:1.0 1851:1.0 1897:1.0 1954:1.0 1991:1.0 2073:1.0 2145:1.0 
-8.862312351991346E-4 57:1.0 99:1.0 137:1.0 227:1.0 267:1.0 362:1.0 424:1.0 479:1.0 571:1.0 619:1.0 682:1.0 742:1.0 790:1.0 853:1.0 915:1.0 970:1.0 1063:1.0 1114:1.0 1190:1.0 1238:1.0 1304:1.0 1375:1.0 1465:1.0 1506:1.0 1544:1.0 1631:1.0 1721:1.0 1762:1.0 1798:1.0 1878:1.0 1941:1.0 2003:1.0 2058:1.0 2149:1.0 
0.0032544656223405803 64:1.0 126:1.0 183:1.0 218:1.0 294:1.0 341:1.0 403:1.0 459:1.0 556:1.0 624:1.0 702:1.0 760:1.0 800:1.0 895:1.0 955:1.0 1002:1.0 1063:1.0 1114:1.0 1190:1.0 1237:1.0 1297:1.0 1346:1.0 1413:1.0 1490:1.0 1542:1.0 1621:1.0 1683:1.0 1737:1.0 1826:1.0 1862:1.0 1944:1.0 2013:1.0 2099:1.0 2121:1.0 
-7.077690021261645E-4 59:1.0 106:1.0 166:1.0 214:1.0 280:1.0 351:1.0 442:1.0 487:1.0 537:1.0 611:1.0 651:1.0 748:1.0 814:1.0 886:1.0 918:1.0 982:1.0 1047:1.0 1114:1.0 1190:1.0 1238:1.0 1304:1.0 1374:1.0 1464:1.0 1502:1.0 1592:1.0 1632:1.0 1726:1.0 1782:1.0 1815:1.0 1884:1.0 1966:1.0 2040:1.0 2078:1.0 2165:1.0 
5.180332231616119E-4 52:1.0 80:1.0 192:1.0 253:1.0 305:1.0 324:1.0 399:1.0 507:1.0 555:1.0 617:1.0 676:1.0 720:1.0 832:1.0 895:1.0 955:1.0 1002:1.0 1063:1.0 1115:1.0 1195:1.0 1260:1.0 1328:1.0 1406:1.0 1464:1.0 1501:1.0 1585:1.0 1603:1.0 1675:1.0 1772:1.0 1837:1.0 1907:1.0 1931:1.0 2026:1.0 2087:1.0 2137:1.0 
0.0068040857395064765 56:1.0 93:1.0 180:1.0 208:1.0 317:1.0 369:1.0 388:1.0 461:1.0 561:1.0 579:1.0 652:1.0 752:1.0 829:1.0 883:1.0 907:1.0 1002:1.0 1063:1.0 1114:1.0 1190:1.0 1240:1.0 1309:1.0 1393:1.0 1412:1.0 1488:1.0 1600:1.0 1662:1.0 1718:1.0 1752:1.0 1821:1.0 1906:1.0 1927:1.0 2009:1.0 2083:1.0 2121:1.0 
-9.958173608567328E-5 57:1.0 99:1.0 139:1.0 233:1.0 291:1.0 331:1.0 428:1.0 494:1.0 567:1.0 602:1.0 678:1.0 725:1.0 787:1.0 843:1.0 939:1.0 1002:1.0 1063:1.0 1114:1.0 1192:1.0 1247:1.0 1340:1.0 1390:1.0 1462:1.0 1494:1.0 1558:1.0 1624:1.0 1695:1.0 1786:1.0 1832:1.0 1886:1.0 1976:1.0 2014:1.0 2103:1.0 2137:1.0 
-0.0011026000742531956 56:1.0 95:1.0 187:1.0 234:1.0 294:1.0 341:1.0 403:1.0 460:1.0 558:1.0 630:1.0 662:1.0 727:1.0 796:1.0 879:1.0 955:1.0 1002:1.0 1063:1.0 1114:1.0 1190:1.0 1239:1.0 1307:1.0 1386:1.0 1447:1.0 1500:1.0 1582:1.0 1654:1.0 1688:1.0 1758:1.0 1847:1.0 1883:1.0 1963:1.0 2028:1.0 2093:1.0 2161:1.0 
0.002042091409245451 51:1.0 75:1.0 171:1.0 233:1.0 289:1.0 323:1.0 395:1.0 490:1.0 551:1.0 604:1.0 686:1.0 760:1.0 800:1.0 895:1.0 955:1.0 1002:1.0 1063:1.0 1114:1.0 1190:1.0 1240:1.0 1312:1.0 1406:1.0 1464:1.0 1502:1.0 1592:1.0 1632:1.0 1726:1.0 1783:1.0 1818:1.0 1893:1.0 1938:1.0 1990:1.0 2071:1.0 2137:1.0 
-8.080269123793482E-4 63:1.0 123:1.0 171:1.0 234:1.0 294:1.0 344:1.0 415:1.0 506:1.0 552:1.0 606:1.0 696:1.0 734:1.0 823:1.0 859:1.0 939:1.0 1002:1.0 1063:1.0 1115:1.0 1195:1.0 1257:1.0 1314:1.0 1350:1.0 1432:1.0 1502:1.0 1589:1.0 1618:1.0 1672:1.0 1759:1.0 1851:1.0 1899:1.0 1963:1.0 2026:1.0 2085:1.0 2129:1.0 
-0.009124297941808543 24:1.0 96:1.0 192:1.0 254:1.0 312:1.0 350:1.0 437:1.0 465:1.0 513:1.0 579:1.0 651:1.0 746:1.0 806:1.0 855:1.0 923:1.0 1002:1.0 1063:1.0 1114:1.0 1190:1.0 1239:1.0 1307:1.0 1386:1.0 1446:1.0 1494:1.0 1560:1.0 1629:1.0 1714:1.0 1735:1.0 1820:1.0 1902:1.0 1973:1.0 2004:1.0 2062:1.0 2168:1.0 
0.004345279568041361 24:1.0 96:1.0 192:1.0 254:1.0 312:1.0 350:1.0 437:1.0 465:1.0 513:1.0 580:1.0 656:1.0 765:1.0 820:1.0 847:1.0 955:1.0 1002:1.0 1063:1.0 1114:1.0 1190:1.0 1237:1.0 1300:1.0 1357:1.0 1457:1.0 1474:1.0 1544:1.0 1629:1.0 1714:1.0 1735:1.0 1820:1.0 1902:1.0 1973:1.0 2004:1.0 2062:1.0 2168:1.0 
-0.0011980384546473118 58:1.0 102:1.0 151:1.0 219:1.0 299:1.0 364:1.0 430:1.0 503:1.0 537:1.0 612:1.0 655:1.0 764:1.0 813:1.0 883:1.0 907:1.0 1002:1.0 1063:1.0 1114:1.0 1192:1.0 1247:1.0 1337:1.0 1380:1.0 1423:1.0 1532:1.0 1582:1.0 1655:1.0 1689:1.0 1764:1.0 1807:1.0 1915:1.0 1961:1.0 2018:1.0 2055:1.0 2137:1.0 
-2.750504600265952E-4 53:1.0 82:1.0 136:1.0 221:1.0 305:1.0 323:1.0 393:1.0 484:1.0 526:1.0 631:1.0 665:1.0 740:1.0 784:1.0 895:1.0 955:1.0 1002:1.0 1063:1.0 1115:1.0 1195:1.0 1257:1.0 1314:1.0 1350:1.0 1431:1.0 1499:1.0 1579:1.0 1641:1.0 1698:1.0 1736:1.0 1824:1.0 1918:1.0 1975:1.0 2010:1.0 2087:1.0 2137:1.0 
-7.634210857564469E-4 64:1.0 128:1.0 190:1.0 245:1.0 275:1.0 331:1.0 427:1.0 489:1.0 545:1.0 578:1.0 647:1.0 730:1.0 805:1.0 852:1.0 911:1.0 1018:1.0 1063:1.0 1114:1.0 1190:1.0 1240:1.0 1312:1.0 1405:1.0 1459:1.0 1482:1.0 1576:1.0 1630:1.0 1719:1.0 1755:1.0 1833:1.0 1891:1.0 1930:1.0 2023:1.0 2076:1.0 2157:1.0 
6.516397243953505E-4 57:1.0 100:1.0 142:1.0 246:1.0 277:1.0 337:1.0 387:1.0 460:1.0 560:1.0 638:1.0 694:1.0 728:1.0 799:1.0 890:1.0 935:1.0 986:1.0 1063:1.0 1114:1.0 1191:1.0 1242:1.0 1317:1.0 1361:1.0 1409:1.0 1474:1.0 1542:1.0 1621:1.0 1682:1.0 1735:1.0 1818:1.0 1894:1.0 1942:1.0 2006:1.0 2072:1.0 2141:1.0 
-4.3816608625962215E-4 58:1.0 102:1.0 150:1.0 216:1.0 287:1.0 378:1.0 424:1.0 479:1.0 569:1.0 611:1.0 649:1.0 740:1.0 782:1.0 886:1.0 919:1.0 986:1.0 1063:1.0 1114:1.0 1191:1.0 1244:1.0 1328:1.0 1407:1.0 1467:1.0 1516:1.0 1584:1.0 1663:1.0 1722:1.0 1768:1.0 1823:1.0 1914:1.0 1959:1.0 2012:1.0 2095:1.0 2169:1.0 
0.004001344075469712 57:1.0 97:1.0 129:1.0 196:1.0 270:1.0 374:1.0 406:1.0 469:1.0 531:1.0 587:1.0 681:1.0 737:1.0 769:1.0 835:1.0 907:1.0 1002:1.0 1063:1.0 1114:1.0 1190:1.0 1237:1.0 1299:1.0 1353:1.0 1444:1.0 1488:1.0 1598:1.0 1655:1.0 1690:1.0 1768:1.0 1824:1.0 1920:1.0 1982:1.0 2040:1.0 2078:1.0 2165:1.0 
-6.766023301837137E-4 58:1.0 102:1.0 151:1.0 219:1.0 299:1.0 361:1.0 420:1.0 461:1.0 562:1.0 584:1.0 670:1.0 759:1.0 795:1.0 874:1.0 934:1.0 982:1.0 1047:1.0 1114:1.0 1190:1.0 1238:1.0 1301:1.0 1363:1.0 1418:1.0 1510:1.0 1557:1.0 1619:1.0 1676:1.0 1774:1.0 1846:1.0 1880:1.0 1950:1.0 2038:1.0 2070:1.0 2133:1.0 
0.001514261975942195 9:1.0 100:1.0 143:1.0 249:1.0 290:1.0 327:1.0 412:1.0 493:1.0 563:1.0 588:1.0 688:1.0 768:1.0 831:1.0 889:1.0 931:1.0 970:1.0 1063:1.0 1114:1.0 1192:1.0 1246:1.0 1333:1.0 1361:1.0 1409:1.0 1476:1.0 1552:1.0 1664:1.0 1727:1.0 1785:1.0 1827:1.0 1865:1.0 1953:1.0 1985:1.0 2051:1.0 2123:1.0 
0.003234365925886322 54:1.0 86:1.0 149:1.0 211:1.0 265:1.0 353:1.0 385:1.0 449:1.0 513:1.0 577:1.0 641:1.0 707:1.0 777:1.0 866:1.0 902:1.0 982:1.0 1047:1.0 1114:1.0 1190:1.0 1237:1.0 1297:1.0 1347:1.0 1419:1.0 1515:1.0 1577:1.0 1633:1.0 1665:1.0 1731:1.0 1802:1.0 1896:1.0 1950:1.0 2038:1.0 2071:1.0 2137:1.0 
-0.0036288120799872806 53:1.0 82:1.0 135:1.0 218:1.0 293:1.0 338:1.0 391:1.0 473:1.0 545:1.0 578:1.0 646:1.0 727:1.0 796:1.0 878:1.0 951:1.0 986:1.0 1063:1.0 1114:1.0 1191:1.0 1244:1.0 1326:1.0 1397:1.0 1426:1.0 1480:1.0 1568:1.0 1662:1.0 1718:1.0 1751:1.0 1819:1.0 1899:1.0 1961:1.0 2019:1.0 2058:1.0 2149:1.0 
-0.002003956155780204 57:1.0 98:1.0 136:1.0 224:1.0 319:1.0 377:1.0 417:1.0 452:1.0 528:1.0 640:1.0 703:1.0 762:1.0 806:1.0 853:1.0 914:1.0 966:1.0 1047:1.0 1114:1.0 1190:1.0 1237:1.0 1300:1.0 1359:1.0 1467:1.0 1514:1.0 1576:1.0 1630:1.0 1718:1.0 1751:1.0 1817:1.0 1890:1.0 1926:1.0 2006:1.0 2071:1.0 2137:1.0 
-0.0010385134247778247 58:1.0 104:1.0 158:1.0 246:1.0 278:1.0 344:1.0 415:1.0 507:1.0 553:1.0 609:1.0 641:1.0 706:1.0 774:1.0 855:1.0 923:1.0 1002:1.0 1063:1.0 1114:1.0 1191:1.0 1243:1.0 1323:1.0 1387:1.0 1450:1.0 1512:1.0 1567:1.0 1657:1.0 1699:1.0 1737:1.0 1825:1.0 1860:1.0 1935:1.0 2042:1.0 2086:1.0 2133:1.0 
2.3279295032500158E-4 64:1.0 128:1.0 191:1.0 252:1.0 304:1.0 382:1.0 437:1.0 465:1.0 513:1.0 577:1.0 644:1.0 718:1.0 821:1.0 850:1.0 903:1.0 986:1.0 1063:1.0 1114:1.0 1190:1.0 1238:1.0 1301:1.0 1363:1.0 1418:1.0 1510:1.0 1558:1.0 1622:1.0 1685:1.0 1748:1.0 1808:1.0 1918:1.0 1974:1.0 2005:1.0 2066:1.0 2117:1.0 
-6.045013144755928E-4 56:1.0 96:1.0 190:1.0 245:1.0 273:1.0 323:1.0 394:1.0 488:1.0 541:1.0 626:1.0 645:1.0 723:1.0 778:1.0 871:1.0 923:1.0 1002:1.0 1063:1.0 1114:1.0 1190:1.0 1239:1.0 1306:1.0 1382:1.0 1431:1.0 1497:1.0 1569:1.0 1603:1.0 1674:1.0 1766:1.0 1813:1.0 1873:1.0 1923:1.0 1993:1.0 2083:1.0 2121:1.0 
-3.9679043362932825E-4 58:1.0 101:1.0 146:1.0 200:1.0 287:1.0 379:1.0 425:1.0 483:1.0 522:1.0 616:1.0 670:1.0 759:1.0 794:1.0 871:1.0 923:1.0 1002:1.0 1063:1.0 1114:1.0 1190:1.0 1239:1.0 1306:1.0 1384:1.0 1437:1.0 1521:1.0 1539:1.0 1610:1.0 1702:1.0 1749:1.0 1811:1.0 1865:1.0 1956:1.0 1998:1.0 2102:1.0 2133:1.0 
-4.992337563231273E-4 58:1.0 102:1.0 150:1.0 214:1.0 280:1.0 351:1.0 444:1.0 496:1.0 575:1.0 634:1.0 679:1.0 729:1.0 804:1.0 847:1.0 955:1.0 1002:1.0 1063:1.0 1114:1.0 1189:1.0 1235:1.0 1289:1.0 1377:1.0 1409:1.0 1474:1.0 1542:1.0 1622:1.0 1686:1.0 1751:1.0 1820:1.0 1904:1.0 1983:1.0 2041:1.0 2082:1.0 2117:1.0 
0.0014263733537868907 55:1.0 90:1.0 167:1.0 220:1.0 303:1.0 378:1.0 421:1.0 467:1.0 522:1.0 615:1.0 665:1.0 737:1.0 771:1.0 842:1.0 935:1.0 986:1.0 1063:1.0 1115:1.0 1195:1.0 1260:1.0 1327:1.0 1401:1.0 1444:1.0 1488:1.0 1600:1.0 1661:1.0 1713:1.0 1729:1.0 1794:1.0 1862:1.0 1942:1.0 2005:1.0 2065:1.0 2113:1.0 
2.5665341705254633E-4 56:1.0 94:1.0 184:1.0 221:1.0 308:1.0 336:1.0 448:1.0 511:1.0 569:1.0 609:1.0 641:1.0 705:1.0 771:1.0 842:1.0 934:1.0 982:1.0 1047:1.0 1114:1.0 1190:1.0 1237:1.0 1297:1.0 1347:1.0 1419:1.0 1515:1.0 1578:1.0 1640:1.0 1695:1.0 1786:1.0 1829:1.0 1873:1.0 1924:1.0 2000:1.0 2112:1.0 2173:1.0 
-0.0014997846567597621 59:1.0 105:1.0 162:1.0 199:1.0 281:1.0 354:1.0 390:1.0 469:1.0 529:1.0 579:1.0 651:1.0 748:1.0 814:1.0 888:1.0 927:1.0 1018:1.0 1063:1.0 1114:1.0 1190:1.0 1238:1.0 1301:1.0 1361:1.0 1409:1.0 1474:1.0 1541:1.0 1617:1.0 1665:1.0 1730:1.0 1798:1.0 1878:1.0 1943:1.0 2011:1.0 2091:1.0 2153:1.0 
-0.0029393400584447047 53:1.0 83:1.0 138:1.0 232:1.0 285:1.0 371:1.0 395:1.0 489:1.0 546:1.0 582:1.0 661:1.0 722:1.0 773:1.0 851:1.0 907:1.0 1002:1.0 1063:1.0 1114:1.0 1191:1.0 1241:1.0 1315:1.0 1354:1.0 1446:1.0 1493:1.0 1554:1.0 1608:1.0 1695:1.0 1786:1.0 1831:1.0 1884:1.0 1966:1.0 2038:1.0 2071:1.0 2137:1.0 
-9.323208027601908E-4 56:1.0 95:1.0 186:1.0 229:1.0 274:1.0 325:1.0 403:1.0 459:1.0 555:1.0 617:1.0 676:1.0 718:1.0 821:1.0 852:1.0 911:1.0 1018:1.0 1063:1.0 1114:1.0 1190:1.0 1237:1.0 1298:1.0 1351:1.0 1436:1.0 1519:1.0 1595:1.0 1642:1.0 1704:1.0 1760:1.0 1853:1.0 1905:1.0 1922:1.0 1989:1.0 2067:1.0 2121:1.0 
0.001641762296214377 55:1.0 90:1.0 166:1.0 214:1.0 278:1.0 343:1.0 411:1.0 489:1.0 545:1.0 577:1.0 641:1.0 708:1.0 783:1.0 889:1.0 931:1.0 970:1.0 1063:1.0 1114:1.0 1190:1.0 1240:1.0 1310:1.0 1398:1.0 1430:1.0 1494:1.0 1557:1.0 1618:1.0 1669:1.0 1746:1.0 1798:1.0 1877:1.0 1937:1.0 1987:1.0 2059:1.0 2153:1.0 
-0.0018977797341291085 50:1.0 72:1.0 160:1.0 255:1.0 315:1.0 362:1.0 421:1.0 466:1.0 519:1.0 602:1.0 679:1.0 729:1.0 802:1.0 839:1.0 923:1.0 1002:1.0 1063:1.0 1114:1.0 1192:1.0 1247:1.0 1339:1.0 1387:1.0 1452:1.0 1518:1.0 1591:1.0 1627:1.0 1706:1.0 1766:1.0 1816:1.0 1887:1.0 1979:1.0 2026:1.0 2087:1.0 2137:1.0 
0.0011074278261248894 53:1.0 84:1.0 143:1.0 252:1.0 302:1.0 373:1.0 404:1.0 464:1.0 573:1.0 627:1.0 651:1.0 748:1.0 814:1.0 887:1.0 923:1.0 1002:1.0 1063:1.0 1114:1.0 1190:1.0 1238:1.0 1301:1.0 1361:1.0 1412:1.0 1488:1.0 1598:1.0 1656:1.0 1695:1.0 1785:1.0 1826:1.0 1863:1.0 1948:1.0 2032:1.0 2110:1.0 2165:1.0 
0.001209964512691373 62:1.0 120:1.0 160:1.0 255:1.0 315:1.0 364:1.0 432:1.0 511:1.0 570:1.0 616:1.0 672:1.0 766:1.0 823:1.0 859:1.0 939:1.0 1002:1.0 1063:1.0 1114:1.0 1191:1.0 1242:1.0 1317:1.0 1364:1.0 1424:1.0 1536:1.0 1598:1.0 1655:1.0 1691:1.0 1772:1.0 1838:1.0 1910:1.0 1941:1.0 2002:1.0 2055:1.0 2137:1.0 
-5.142778534961282E-4 49:1.0 68:1.0 143:1.0 249:1.0 292:1.0 336:1.0 447:1.0 506:1.0 549:1.0 596:1.0 654:1.0 758:1.0 791:1.0 859:1.0 938:1.0 998:1.0 1047:1.0 1114:1.0 1190:1.0 1237:1.0 1297:1.0 1348:1.0 1422:1.0 1527:1.0 1562:1.0 1640:1.0 1693:1.0 1780:1.0 1806:1.0 1912:1.0 1951:1.0 2042:1.0 2087:1.0 2137:1.0 
-0.0017013693097558558 63:1.0 121:1.0 164:1.0 207:1.0 313:1.0 354:1.0 391:1.0 476:1.0 558:1.0 629:1.0 659:1.0 715:1.0 809:1.0 867:1.0 907:1.0 1002:1.0 1063:1.0 1114:1.0 1191:1.0 1241:1.0 1315:1.0 1354:1.0 1448:1.0 1504:1.0 1600:1.0 1663:1.0 1722:1.0 1768:1.0 1824:1.0 1918:1.0 1974:1.0 2007:1.0 2076:1.0 2157:1.0 
-4.026452844610107E-4 60:1.0 109:1.0 178:1.0 198:1.0 277:1.0 340:1.0 399:1.0 508:1.0 559:1.0 634:1.0 677:1.0 722:1.0 774:1.0 853:1.0 915:1.0 970:1.0 1063:1.0 1114:1.0 1190:1.0 1240:1.0 1312:1.0 1407:1.0 1467:1.0 1515:1.0 1577:1.0 1634:1.0 1670:1.0 1749:1.0 1809:1.0 1859:1.0 1929:1.0 2018:1.0 2056:1.0 2141:1.0 
-0.001819977962795435 59:1.0 107:1.0 169:1.0 225:1.0 259:1.0 332:1.0 431:1.0 508:1.0 559:1.0 635:1.0 684:1.0 751:1.0 827:1.0 874:1.0 934:1.0 982:1.0 1047:1.0 1114:1.0 1190:1.0 1237:1.0 1299:1.0 1354:1.0 1445:1.0 1491:1.0 1546:1.0 1640:1.0 1695:1.0 1786:1.0 1830:1.0 1877:1.0 1938:1.0 1991:1.0 2073:1.0 2145:1.0 
-0.0010917113232985307 59:1.0 106:1.0 165:1.0 212:1.0 272:1.0 382:1.0 440:1.0 478:1.0 565:1.0 595:1.0 650:1.0 742:1.0 790:1.0 854:1.0 919:1.0 986:1.0 1063:1.0 1114:1.0 1190:1.0 1239:1.0 1307:1.0 1388:1.0 1456:1.0 1536:1.0 1598:1.0 1654:1.0 1685:1.0 1747:1.0 1803:1.0 1899:1.0 1961:1.0 2019:1.0 2058:1.0 2149:1.0 
0.002768635147848207 59:1.0 107:1.0 171:1.0 236:1.0 304:1.0 383:1.0 443:1.0 491:1.0 553:1.0 611:1.0 651:1.0 745:1.0 803:1.0 843:1.0 939:1.0 1002:1.0 1063:1.0 1114:1.0 1191:1.0 1242:1.0 1317:1.0 1363:1.0 1418:1.0 1510:1.0 1559:1.0 1627:1.0 1707:1.0 1769:1.0 1827:1.0 1867:1.0 1961:1.0 2019:1.0 2058:1.0 2149:1.0 
-4.310140941579027E-4 52:1.0 79:1.0 186:1.0 229:1.0 273:1.0 323:1.0 393:1.0 482:1.0 518:1.0 600:1.0 672:1.0 768:1.0 832:1.0 895:1.0 954:1.0 998:1.0 1047:1.0 1114:1.0 1190:1.0 1237:1.0 1299:1.0 1354:1.0 1448:1.0 1502:1.0 1589:1.0 1620:1.0 1680:1.0 1790:1.0 1845:1.0 1876:1.0 1935:1.0 2044:1.0 2094:1.0 2165:1.0 
-3.248187889190708E-4 59:1.0 105:1.0 161:1.0 195:1.0 265:1.0 355:1.0 395:1.0 490:1.0 550:1.0 598:1.0 662:1.0 725:1.0 787:1.0 843:1.0 939:1.0 1002:1.0 1063:1.0 1115:1.0 1195:1.0 1258:1.0 1318:1.0 1366:1.0 1432:1.0 1504:1.0 1598:1.0 1656:1.0 1695:1.0 1787:1.0 1833:1.0 1891:1.0 1932:1.0 2032:1.0 2112:1.0 2173:1.0 
0.0012380452662771532 60:1.0 111:1.0 187:1.0 233:1.0 289:1.0 324:1.0 399:1.0 507:1.0 555:1.0 619:1.0 682:1.0 744:1.0 799:1.0 891:1.0 939:1.0 1002:1.0 1063:1.0 1114:1.0 1191:1.0 1244:1.0 1327:1.0 1401:1.0 1444:1.0 1488:1.0 1600:1.0 1664:1.0 1727:1.0 1785:1.0 1825:1.0 1858:1.0 1925:1.0 2001:1.0 2049:1.0 2113:1.0 
-0.003242358266125184 57:1.0 97:1.0 130:1.0 198:1.0 277:1.0 337:1.0 388:1.0 463:1.0 571:1.0 619:1.0 681:1.0 739:1.0 777:1.0 868:1.0 911:1.0 1018:1.0 1063:1.0 1114:1.0 1190:1.0 1237:1.0 1298:1.0 1351:1.0 1433:1.0 1506:1.0 1542:1.0 1622:1.0 1685:1.0 1747:1.0 1803:1.0 1898:1.0 1958:1.0 2007:1.0 2073:1.0 2145:1.0 
-3.7901817893551745E-4 51:1.0 74:1.0 168:1.0 222:1.0 310:1.0 342:1.0 406:1.0 469:1.0 532:1.0 592:1.0 702:1.0 758:1.0 790:1.0 853:1.0 915:1.0 970:1.0 1063:1.0 1114:1.0 1190:1.0 1237:1.0 1297:1.0 1346:1.0 1415:1.0 1499:1.0 1578:1.0 1637:1.0 1683:1.0 1739:1.0 1836:1.0 1904:1.0 1984:1.0 2047:1.0 2106:1.0 2149:1.0 
-4.68120060412909E-4 54:1.0 86:1.0 150:1.0 214:1.0 277:1.0 339:1.0 395:1.0 491:1.0 554:1.0 614:1.0 661:1.0 723:1.0 779:1.0 876:1.0 942:1.0 1014:1.0 1047:1.0 1114:1.0 1190:1.0 1237:1.0 1297:1.0 1348:1.0 1421:1.0 1521:1.0 1539:1.0 1609:1.0 1697:1.0 1731:1.0 1802:1.0 1893:1.0 1937:1.0 1987:1.0 2058:1.0 2149:1.0 
-0.0015511532128875654 58:1.0 101:1.0 145:1.0 193:1.0 258:1.0 326:1.0 408:1.0 479:1.0 570:1.0 614:1.0 663:1.0 732:1.0 816:1.0 895:1.0 955:1.0 1002:1.0 1063:1.0 1114:1.0 1192:1.0 1247:1.0 1339:1.0 1387:1.0 1449:1.0 1505:1.0 1540:1.0 1615:1.0 1723:1.0 1771:1.0 1835:1.0 1897:1.0 1955:1.0 1994:1.0 2088:1.0 2141:1.0 
-3.4123972220954473E-4 58:1.0 101:1.0 146:1.0 198:1.0 277:1.0 338:1.0 390:1.0 470:1.0 533:1.0 595:1.0 650:1.0 742:1.0 792:1.0 863:1.0 955:1.0 1002:1.0 1063:1.0 1114:1.0 1190:1.0 1239:1.0 1305:1.0 1378:1.0 1416:1.0 1502:1.0 1590:1.0 1622:1.0 1688:1.0 1759:1.0 1850:1.0 1894:1.0 1944:1.0 2013:1.0 2099:1.0 2121:1.0 
0.009560507606836506 9:1.0 100:1.0 143:1.0 249:1.0 290:1.0 327:1.0 412:1.0 493:1.0 563:1.0 585:1.0 673:1.0 708:1.0 784:1.0 895:1.0 955:1.0 1002:1.0 1063:1.0 1114:1.0 1190:1.0 1237:1.0 1297:1.0 1348:1.0 1424:1.0 1536:1.0 1600:1.0 1664:1.0 1727:1.0 1785:1.0 1827:1.0 1865:1.0 1953:1.0 1985:1.0 2051:1.0 2123:1.0 
-7.643564122545513E-5 57:1.0 97:1.0 129:1.0 195:1.0 266:1.0 360:1.0 414:1.0 502:1.0 533:1.0 593:1.0 642:1.0 709:1.0 788:1.0 847:1.0 955:1.0 1002:1.0 1063:1.0 1115:1.0 1194:1.0 1254:1.0 1301:1.0 1363:1.0 1417:1.0 1506:1.0 1544:1.0 1631:1.0 1723:1.0 1770:1.0 1830:1.0 1877:1.0 1940:1.0 1997:1.0 2099:1.0 2121:1.0 
-0.003172452844630727 56:1.0 94:1.0 182:1.0 216:1.0 286:1.0 373:1.0 402:1.0 456:1.0 543:1.0 633:1.0 675:1.0 715:1.0 809:1.0 868:1.0 911:1.0 1018:1.0 1063:1.0 1114:1.0 1190:1.0 1237:1.0 1298:1.0 1349:1.0 1427:1.0 1483:1.0 1580:1.0 1646:1.0 1718:1.0 1749:1.0 1811:1.0 1867:1.0 1962:1.0 2022:1.0 2072:1.0 2141:1.0 
6.54528756746449E-4 62:1.0 120:1.0 159:1.0 251:1.0 297:1.0 355:1.0 395:1.0 491:1.0 555:1.0 617:1.0 675:1.0 715:1.0 811:1.0 873:1.0 931:1.0 970:1.0 1063:1.0 1114:1.0 1191:1.0 1243:1.0 1324:1.0 1392:1.0 1470:1.0 1527:1.0 1563:1.0 1641:1.0 1698:1.0 1736:1.0 1821:1.0 1907:1.0 1930:1.0 2022:1.0 2072:1.0 2141:1.0 
-0.0021729772294078274 56:1.0 93:1.0 179:1.0 202:1.0 296:1.0 350:1.0 440:1.0 478:1.0 567:1.0 601:1.0 675:1.0 716:1.0 813:1.0 881:1.0 899:1.0 970:1.0 1063:1.0 1114:1.0 1190:1.0 1240:1.0 1311:1.0 1403:1.0 1451:1.0 1513:1.0 1572:1.0 1613:1.0 1716:1.0 1744:1.0 1856:1.0 1919:1.0 1977:1.0 2017:1.0 2052:1.0 2125:1.0 
0.002070549638945431 58:1.0 102:1.0 150:1.0 215:1.0 283:1.0 363:1.0 427:1.0 490:1.0 550:1.0 598:1.0 663:1.0 731:1.0 811:1.0 873:1.0 931:1.0 970:1.0 1063:1.0 1114:1.0 1191:1.0 1243:1.0 1323:1.0 1387:1.0 1449:1.0 1507:1.0 1547:1.0 1643:1.0 1707:1.0 1772:1.0 1839:1.0 1913:1.0 1953:1.0 1985:1.0 2051:1.0 2121:1.0 
-0.001572341693554623 58:1.0 102:1.0 152:1.0 222:1.0 310:1.0 342:1.0 408:1.0 480:1.0 575:1.0 635:1.0 682:1.0 741:1.0 788:1.0 847:1.0 955:1.0 1002:1.0 1063:1.0 1114:1.0 1189:1.0 1234:1.0 1287:1.0 1370:1.0 1448:1.0 1503:1.0 1596:1.0 1646:1.0 1718:1.0 1749:1.0 1810:1.0 1863:1.0 1946:1.0 2022:1.0 2070:1.0 2133:1.0 
-5.288243412048146E-4 56:1.0 95:1.0 186:1.0 229:1.0 273:1.0 323:1.0 393:1.0 482:1.0 518:1.0 598:1.0 663:1.0 731:1.0 810:1.0 871:1.0 923:1.0 1002:1.0 1063:1.0 1114:1.0 1191:1.0 1241:1.0 1314:1.0 1350:1.0 1431:1.0 1497:1.0 1571:1.0 1611:1.0 1706:1.0 1766:1.0 1814:1.0 1879:1.0 1945:1.0 2017:1.0 2050:1.0 2117:1.0 
-3.6218273612059786E-4 49:1.0 67:1.0 138:1.0 230:1.0 279:1.0 345:1.0 418:1.0 454:1.0 535:1.0 603:1.0 682:1.0 744:1.0 799:1.0 890:1.0 935:1.0 986:1.0 1063:1.0 1115:1.0 1195:1.0 1258:1.0 1318:1.0 1368:1.0 1438:1.0 1526:1.0 1558:1.0 1622:1.0 1686:1.0 1752:1.0 1821:1.0 1907:1.0 1930:1.0 2022:1.0 2072:1.0 2141:1.0 
-0.001523909599002011 9:1.0 100:1.0 143:1.0 249:1.0 290:1.0 327:1.0 412:1.0 493:1.0 563:1.0 585:1.0 674:1.0 710:1.0 789:1.0 850:1.0 903:1.0 986:1.0 1063:1.0 1114:1.0 1192:1.0 1248:1.0 1343:1.0 1403:1.0 1452:1.0 1520:1.0 1600:1.0 1664:1.0 1727:1.0 1785:1.0 1827:1.0 1865:1.0 1953:1.0 1985:1.0 2051:1.0 2123:1.0 
-0.001043515374060418 63:1.0 122:1.0 166:1.0 216:1.0 287:1.0 378:1.0 422:1.0 469:1.0 532:1.0 590:1.0 694:1.0 728:1.0 799:1.0 890:1.0 935:1.0 986:1.0 1063:1.0 1114:1.0 1192:1.0 1247:1.0 1339:1.0 1387:1.0 1452:1.0 1519:1.0 1596:1.0 1647:1.0 1721:1.0 1763:1.0 1804:1.0 1903:1.0 1978:1.0 2022:1.0 2069:1.0 2129:1.0 
-2.3508309393794962E-4 56:1.0 94:1.0 184:1.0 222:1.0 310:1.0 344:1.0 415:1.0 505:1.0 545:1.0 577:1.0 644:1.0 719:1.0 827:1.0 876:1.0 943:1.0 1018:1.0 1063:1.0 1114:1.0 1190:1.0 1237:1.0 1298:1.0 1351:1.0 1434:1.0 1510:1.0 1560:1.0 1630:1.0 1718:1.0 1752:1.0 1822:1.0 1910:1.0 1944:1.0 2014:1.0 2104:1.0 2141:1.0 
-2.4743158512147937E-4 50:1.0 72:1.0 159:1.0 250:1.0 293:1.0 337:1.0 385:1.0 449:1.0 514:1.0 581:1.0 659:1.0 716:1.0 813:1.0 883:1.0 907:1.0 1002:1.0 1063:1.0 1114:1.0 1192:1.0 1247:1.0 1340:1.0 1389:1.0 1457:1.0 1475:1.0 1546:1.0 1638:1.0 1688:1.0 1760:1.0 1854:1.0 1910:1.0 1943:1.0 2009:1.0 2084:1.0 2125:1.0 
-1.9094836252664052E-4 58:1.0 102:1.0 150:1.0 214:1.0 277:1.0 339:1.0 393:1.0 482:1.0 520:1.0 607:1.0 699:1.0 745:1.0 804:1.0 847:1.0 955:1.0 1002:1.0 1063:1.0 1115:1.0 1195:1.0 1257:1.0 1313:1.0 1347:1.0 1418:1.0 1510:1.0 1558:1.0 1621:1.0 1683:1.0 1739:1.0 1836:1.0 1902:1.0 1974:1.0 2008:1.0 2079:1.0 2169:1.0 
0.004384176924447118 59:1.0 108:1.0 173:1.0 241:1.0 257:1.0 323:1.0 396:1.0 494:1.0 567:1.0 601:1.0 675:1.0 716:1.0 816:1.0 896:1.0 959:1.0 1018:1.0 1063:1.0 1114:1.0 1191:1.0 1243:1.0 1323:1.0 1385:1.0 1442:1.0 1477:1.0 1555:1.0 1610:1.0 1704:1.0 1759:1.0 1852:1.0 1903:1.0 1977:1.0 2018:1.0 2056:1.0 2141:1.0 
0.002650533949551242 24:1.0 96:1.0 192:1.0 254:1.0 312:1.0 350:1.0 437:1.0 465:1.0 513:1.0 577:1.0 641:1.0 708:1.0 783:1.0 889:1.0 931:1.0 970:1.0 1063:1.0 1114:1.0 1191:1.0 1242:1.0 1317:1.0 1364:1.0 1424:1.0 1534:1.0 1592:1.0 1629:1.0 1714:1.0 1735:1.0 1820:1.0 1902:1.0 1973:1.0 2004:1.0 2062:1.0 2168:1.0 
0.0033386193921687854 58:1.0 101:1.0 146:1.0 198:1.0 280:1.0 351:1.0 442:1.0 488:1.0 543:1.0 634:1.0 678:1.0 728:1.0 800:1.0 895:1.0 955:1.0 1002:1.0 1063:1.0 1114:1.0 1190:1.0 1240:1.0 1312:1.0 1408:1.0 1472:1.0 1534:1.0 1590:1.0 1622:1.0 1688:1.0 1760:1.0 1855:1.0 1915:1.0 1962:1.0 2022:1.0 2072:1.0 2141:1.0 
-0.0014821291530516278 59:1.0 106:1.0 168:1.0 222:1.0 311:1.0 346:1.0 424:1.0 480:1.0 574:1.0 630:1.0 663:1.0 732:1.0 814:1.0 885:1.0 914:1.0 966:1.0 1047:1.0 1114:1.0 1190:1.0 1237:1.0 1300:1.0 1359:1.0 1467:1.0 1514:1.0 1576:1.0 1630:1.0 1719:1.0 1753:1.0 1825:1.0 1859:1.0 1932:1.0 2030:1.0 2102:1.0 2133:1.0 
-7.231460149419857E-4 60:1.0 110:1.0 181:1.0 211:1.0 266:1.0 358:1.0 406:1.0 470:1.0 536:1.0 606:1.0 693:1.0 723:1.0 779:1.0 875:1.0 939:1.0 1002:1.0 1063:1.0 1114:1.0 1190:1.0 1239:1.0 1308:1.0 1391:1.0 1466:1.0 1512:1.0 1567:1.0 1657:1.0 1700:1.0 1743:1.0 1852:1.0 1902:1.0 1973:1.0 2002:1.0 2055:1.0 2137:1.0 
-0.002612241365410027 53:1.0 83:1.0 138:1.0 230:1.0 279:1.0 347:1.0 427:1.0 491:1.0 554:1.0 615:1.0 665:1.0 738:1.0 776:1.0 863:1.0 955:1.0 1002:1.0 1063:1.0 1114:1.0 1191:1.0 1243:1.0 1322:1.0 1383:1.0 1433:1.0 1507:1.0 1547:1.0 1642:1.0 1702:1.0 1750:1.0 1814:1.0 1878:1.0 1943:1.0 2009:1.0 2084:1.0 2125:1.0 
-0.0036688537402249995 57:1.0 98:1.0 133:1.0 211:1.0 266:1.0 358:1.0 408:1.0 479:1.0 569:1.0 611:1.0 651:1.0 746:1.0 806:1.0 853:1.0 915:1.0 970:1.0 1063:1.0 1114:1.0 1190:1.0 1240:1.0 1310:1.0 1399:1.0 1435:1.0 1515:1.0 1578:1.0 1639:1.0 1692:1.0 1775:1.0 1852:1.0 1904:1.0 1982:1.0 2040:1.0 2078:1.0 2165:1.0 
-2.2863533623370888E-5 64:1.0 126:1.0 181:1.0 211:1.0 268:1.0 365:1.0 433:1.0 450:1.0 518:1.0 597:1.0 660:1.0 718:1.0 822:1.0 853:1.0 915:1.0 970:1.0 1063:1.0 1114:1.0 1190:1.0 1240:1.0 1309:1.0 1394:1.0 1416:1.0 1503:1.0 1595:1.0 1643:1.0 1705:1.0 1763:1.0 1803:1.0 1899:1.0 1962:1.0 2024:1.0 2077:1.0 2161:1.0 
-2.0294946506050687E-5 59:1.0 105:1.0 161:1.0 195:1.0 267:1.0 361:1.0 419:1.0 459:1.0 555:1.0 619:1.0 682:1.0 741:1.0 786:1.0 838:1.0 919:1.0 986:1.0 1063:1.0 1114:1.0 1190:1.0 1240:1.0 1311:1.0 1401:1.0 1443:1.0 1483:1.0 1577:1.0 1633:1.0 1666:1.0 1733:1.0 1810:1.0 1864:1.0 1950:1.0 2038:1.0 2071:1.0 2137:1.0 
0.002048188906169249 55:1.0 90:1.0 168:1.0 222:1.0 310:1.0 344:1.0 416:1.0 510:1.0 566:1.0 599:1.0 665:1.0 740:1.0 784:1.0 894:1.0 950:1.0 982:1.0 1047:1.0 1114:1.0 1190:1.0 1238:1.0 1304:1.0 1376:1.0 1472:1.0 1534:1.0 1592:1.0 1631:1.0 1722:1.0 1767:1.0 1817:1.0 1890:1.0 1925:1.0 2002:1.0 2054:1.0 2133:1.0 
-0.03266440152138565 9:1.0 100:1.0 143:1.0 249:1.0 290:1.0 327:1.0 412:1.0 493:1.0 563:1.0 588:1.0 688:1.0 768:1.0 830:1.0 888:1.0 926:1.0 1014:1.0 1047:1.0 1114:1.0 1192:1.0 1248:1.0 1341:1.0 1393:1.0 1409:1.0 1476:1.0 1552:1.0 1664:1.0 1727:1.0 1785:1.0 1827:1.0 1865:1.0 1953:1.0 1985:1.0 2051:1.0 2123:1.0 
-0.001523178752667217 59:1.0 105:1.0 161:1.0 195:1.0 268:1.0 368:1.0 445:1.0 498:1.0 520:1.0 606:1.0 696:1.0 734:1.0 823:1.0 859:1.0 938:1.0 998:1.0 1047:1.0 1114:1.0 1190:1.0 1237:1.0 1297:1.0 1347:1.0 1420:1.0 1518:1.0 1590:1.0 1623:1.0 1689:1.0 1763:1.0 1804:1.0 1902:1.0 1974:1.0 2006:1.0 2072:1.0 2141:1.0 
-0.0013847838701402328 59:1.0 106:1.0 167:1.0 217:1.0 290:1.0 327:1.0 410:1.0 486:1.0 536:1.0 606:1.0 694:1.0 726:1.0 792:1.0 863:1.0 955:1.0 1002:1.0 1063:1.0 1114:1.0 1191:1.0 1244:1.0 1327:1.0 1404:1.0 1454:1.0 1526:1.0 1557:1.0 1619:1.0 1673:1.0 1763:1.0 1802:1.0 1894:1.0 1944:1.0 2015:1.0 2105:1.0 2145:1.0 
-0.002433993196640278 58:1.0 104:1.0 160:1.0 255:1.0 314:1.0 360:1.0 416:1.0 510:1.0 568:1.0 608:1.0 701:1.0 756:1.0 784:1.0 895:1.0 955:1.0 1002:1.0 1063:1.0 1115:1.0 1193:1.0 1250:1.0 1286:1.0 1368:1.0 1439:1.0 1531:1.0 1578:1.0 1638:1.0 1686:1.0 1752:1.0 1823:1.0 1915:1.0 1963:1.0 2027:1.0 2091:1.0 2153:1.0 
-9.779917405849936E-5 60:1.0 112:1.0 190:1.0 245:1.0 274:1.0 326:1.0 405:1.0 466:1.0 517:1.0 595:1.0 651:1.0 745:1.0 802:1.0 838:1.0 919:1.0 986:1.0 1063:1.0 1114:1.0 1190:1.0 1237:1.0 1299:1.0 1355:1.0 1451:1.0 1514:1.0 1576:1.0 1631:1.0 1721:1.0 1761:1.0 1793:1.0 1858:1.0 1927:1.0 2009:1.0 2081:1.0 2113:1.0 
3.045181895400693E-4 54:1.0 85:1.0 147:1.0 204:1.0 303:1.0 379:1.0 427:1.0 489:1.0 547:1.0 586:1.0 679:1.0 729:1.0 803:1.0 842:1.0 935:1.0 986:1.0 1063:1.0 1114:1.0 1192:1.0 1248:1.0 1344:1.0 1407:1.0 1466:1.0 1509:1.0 1553:1.0 1601:1.0 1667:1.0 1738:1.0 1830:1.0 1880:1.0 1952:1.0 2047:1.0 2107:1.0 2153:1.0 
8.831510585198094E-4 50:1.0 72:1.0 160:1.0 254:1.0 310:1.0 344:1.0 413:1.0 499:1.0 522:1.0 616:1.0 671:1.0 764:1.0 815:1.0 891:1.0 939:1.0 1002:1.0 1063:1.0 1114:1.0 1190:1.0 1238:1.0 1301:1.0 1361:1.0 1409:1.0 1474:1.0 1543:1.0 1628:1.0 1710:1.0 1783:1.0 1820:1.0 1902:1.0 1974:1.0 2005:1.0 2066:1.0 2117:1.0 
0.006256064079355749 59:1.0 105:1.0 164:1.0 205:1.0 305:1.0 323:1.0 394:1.0 485:1.0 532:1.0 592:1.0 702:1.0 760:1.0 800:1.0 895:1.0 955:1.0 1002:1.0 1063:1.0 1114:1.0 1190:1.0 1237:1.0 1297:1.0 1346:1.0 1416:1.0 1502:1.0 1591:1.0 1625:1.0 1697:1.0 1730:1.0 1798:1.0 1878:1.0 1942:1.0 2005:1.0 2067:1.0 2121:1.0 
0.002616370104003572 24:1.0 96:1.0 192:1.0 254:1.0 312:1.0 350:1.0 437:1.0 465:1.0 513:1.0 577:1.0 641:1.0 705:1.0 769:1.0 835:1.0 907:1.0 1002:1.0 1063:1.0 1114:1.0 1190:1.0 1240:1.0 1312:1.0 1408:1.0 1472:1.0 1534:1.0 1592:1.0 1629:1.0 1714:1.0 1735:1.0 1820:1.0 1902:1.0 1973:1.0 2004:1.0 2062:1.0 2168:1.0 
-1.277139859760347E-4 51:1.0 75:1.0 171:1.0 234:1.0 295:1.0 348:1.0 431:1.0 508:1.0 558:1.0 630:1.0 664:1.0 735:1.0 826:1.0 871:1.0 923:1.0 1002:1.0 1063:1.0 1114:1.0 1191:1.0 1241:1.0 1316:1.0 1359:1.0 1467:1.0 1514:1.0 1574:1.0 1623:1.0 1692:1.0 1773:1.0 1843:1.0 1868:1.0 1967:1.0 2044:1.0 2096:1.0 2173:1.0 
-0.0012456936508208512 60:1.0 112:1.0 190:1.0 245:1.0 273:1.0 321:1.0 388:1.0 464:1.0 573:1.0 627:1.0 650:1.0 742:1.0 791:1.0 859:1.0 939:1.0 1002:1.0 1063:1.0 1115:1.0 1195:1.0 1258:1.0 1318:1.0 1367:1.0 1435:1.0 1513:1.0 1570:1.0 1606:1.0 1687:1.0 1756:1.0 1839:1.0 1914:1.0 1960:1.0 2016:1.0 2110:1.0 2165:1.0 
-1.4539558621876766E-4 58:1.0 104:1.0 159:1.0 251:1.0 299:1.0 364:1.0 430:1.0 501:1.0 531:1.0 588:1.0 686:1.0 757:1.0 787:1.0 843:1.0 939:1.0 1002:1.0 1063:1.0 1114:1.0 1192:1.0 1247:1.0 1339:1.0 1387:1.0 1450:1.0 1510:1.0 1558:1.0 1621:1.0 1683:1.0 1738:1.0 1830:1.0 1880:1.0 1950:1.0 2040:1.0 2078:1.0 2165:1.0 
0.0034003159021845524 9:1.0 100:1.0 143:1.0 249:1.0 290:1.0 327:1.0 412:1.0 493:1.0 563:1.0 588:1.0 688:1.0 766:1.0 822:1.0 855:1.0 923:1.0 1002:1.0 1063:1.0 1114:1.0 1190:1.0 1239:1.0 1307:1.0 1385:1.0 1441:1.0 1476:1.0 1552:1.0 1664:1.0 1727:1.0 1785:1.0 1827:1.0 1865:1.0 1953:1.0 1985:1.0 2051:1.0 2123:1.0 
-3.325468283755662E-4 24:1.0 96:1.0 192:1.0 254:1.0 312:1.0 350:1.0 437:1.0 465:1.0 513:1.0 579:1.0 649:1.0 740:1.0 784:1.0 893:1.0 947:1.0 970:1.0 1063:1.0 1114:1.0 1191:1.0 1241:1.0 1313:1.0 1348:1.0 1422:1.0 1526:1.0 1560:1.0 1629:1.0 1714:1.0 1735:1.0 1820:1.0 1902:1.0 1973:1.0 2004:1.0 2062:1.0 2168:1.0 
7.71381696930158E-5 59:1.0 107:1.0 170:1.0 230:1.0 278:1.0 342:1.0 407:1.0 476:1.0 557:1.0 627:1.0 650:1.0 741:1.0 785:1.0 835:1.0 907:1.0 1002:1.0 1063:1.0 1114:1.0 1190:1.0 1237:1.0 1297:1.0 1345:1.0 1411:1.0 1482:1.0 1576:1.0 1631:1.0 1723:1.0 1771:1.0 1835:1.0 1899:1.0 1961:1.0 2017:1.0 2051:1.0 2121:1.0 
-0.0015924853467329044 54:1.0 86:1.0 152:1.0 222:1.0 309:1.0 339:1.0 395:1.0 491:1.0 554:1.0 613:1.0 659:1.0 716:1.0 814:1.0 886:1.0 919:1.0 986:1.0 1063:1.0 1114:1.0 1190:1.0 1239:1.0 1306:1.0 1384:1.0 1439:1.0 1529:1.0 1570:1.0 1608:1.0 1696:1.0 1792:1.0 1854:1.0 1909:1.0 1939:1.0 1996:1.0 2095:1.0 2169:1.0 
0.0038602034246118105 54:1.0 88:1.0 160:1.0 255:1.0 315:1.0 364:1.0 431:1.0 508:1.0 559:1.0 635:1.0 683:1.0 747:1.0 809:1.0 867:1.0 907:1.0 1002:1.0 1063:1.0 1114:1.0 1192:1.0 1246:1.0 1333:1.0 1364:1.0 1424:1.0 1536:1.0 1600:1.0 1662:1.0 1718:1.0 1751:1.0 1819:1.0 1899:1.0 1963:1.0 2026:1.0 2087:1.0 2137:1.0 
-0.0020101093572611473 64:1.0 125:1.0 180:1.0 206:1.0 310:1.0 344:1.0 413:1.0 499:1.0 522:1.0 614:1.0 662:1.0 728:1.0 798:1.0 887:1.0 923:1.0 1002:1.0 1063:1.0 1114:1.0 1191:1.0 1244:1.0 1327:1.0 1403:1.0 1451:1.0 1516:1.0 1582:1.0 1655:1.0 1691:1.0 1771:1.0 1834:1.0 1894:1.0 1943:1.0 2009:1.0 2083:1.0 2121:1.0 
0.001993814552067452 56:1.0 94:1.0 183:1.0 220:1.0 304:1.0 382:1.0 438:1.0 469:1.0 529:1.0 577:1.0 641:1.0 705:1.0 771:1.0 843:1.0 939:1.0 1002:1.0 1063:1.0 1115:1.0 1195:1.0 1257:1.0 1313:1.0 1346:1.0 1416:1.0 1504:1.0 1597:1.0 1649:1.0 1666:1.0 1733:1.0 1810:1.0 1863:1.0 1947:1.0 2027:1.0 2089:1.0 2145:1.0 
8.539467067741678E-4 50:1.0 69:1.0 147:1.0 203:1.0 298:1.0 360:1.0 413:1.0 499:1.0 524:1.0 621:1.0 689:1.0 708:1.0 784:1.0 895:1.0 955:1.0 1002:1.0 1063:1.0 1114:1.0 1192:1.0 1246:1.0 1333:1.0 1362:1.0 1416:1.0 1502:1.0 1592:1.0 1632:1.0 1725:1.0 1778:1.0 1798:1.0 1877:1.0 1938:1.0 1989:1.0 2068:1.0 2125:1.0 
0.003921235071211854 9:1.0 100:1.0 143:1.0 249:1.0 290:1.0 327:1.0 412:1.0 493:1.0 563:1.0 585:1.0 673:1.0 705:1.0 771:1.0 841:1.0 931:1.0 970:1.0 1063:1.0 1114:1.0 1192:1.0 1246:1.0 1336:1.0 1376:1.0 1472:1.0 1536:1.0 1600:1.0 1664:1.0 1727:1.0 1785:1.0 1827:1.0 1865:1.0 1953:1.0 1985:1.0 2051:1.0 2123:1.0 
6.108421421605588E-4 53:1.0 83:1.0 138:1.0 230:1.0 279:1.0 345:1.0 419:1.0 458:1.0 550:1.0 597:1.0 657:1.0 708:1.0 783:1.0 891:1.0 939:1.0 1002:1.0 1063:1.0 1114:1.0 1190:1.0 1240:1.0 1312:1.0 1406:1.0 1461:1.0 1489:1.0 1538:1.0 1607:1.0 1691:1.0 1771:1.0 1835:1.0 1897:1.0 1954:1.0 1991:1.0 2073:1.0 2145:1.0 
0.03551119482885291 9:1.0 100:1.0 143:1.0 249:1.0 290:1.0 327:1.0 412:1.0 493:1.0 563:1.0 588:1.0 688:1.0 768:1.0 829:1.0 881:1.0 899:1.0 970:1.0 1063:1.0 1114:1.0 1192:1.0 1248:1.0 1341:1.0 1393:1.0 1409:1.0 1476:1.0 1552:1.0 1664:1.0 1727:1.0 1785:1.0 1827:1.0 1865:1.0 1953:1.0 1985:1.0 2051:1.0 2123:1.0 
-4.701012688550539E-4 60:1.0 110:1.0 183:1.0 218:1.0 294:1.0 342:1.0 408:1.0 478:1.0 567:1.0 603:1.0 681:1.0 738:1.0 776:1.0 862:1.0 951:1.0 986:1.0 1063:1.0 1114:1.0 1190:1.0 1239:1.0 1308:1.0 1389:1.0 1458:1.0 1479:1.0 1564:1.0 1647:1.0 1722:1.0 1767:1.0 1820:1.0 1903:1.0 1978:1.0 2023:1.0 2076:1.0 2157:1.0 
0.0033413574376348417 50:1.0 69:1.0 146:1.0 200:1.0 287:1.0 379:1.0 427:1.0 489:1.0 545:1.0 577:1.0 641:1.0 708:1.0 783:1.0 890:1.0 934:1.0 982:1.0 1047:1.0 1114:1.0 1191:1.0 1242:1.0 1320:1.0 1376:1.0 1472:1.0 1534:1.0 1590:1.0 1622:1.0 1688:1.0 1758:1.0 1847:1.0 1882:1.0 1958:1.0 2006:1.0 2072:1.0 2141:1.0 
0.004049615857957167 24:1.0 96:1.0 192:1.0 254:1.0 312:1.0 350:1.0 437:1.0 465:1.0 513:1.0 579:1.0 651:1.0 746:1.0 807:1.0 858:1.0 935:1.0 986:1.0 1063:1.0 1114:1.0 1191:1.0 1242:1.0 1319:1.0 1370:1.0 1446:1.0 1494:1.0 1560:1.0 1629:1.0 1714:1.0 1735:1.0 1820:1.0 1902:1.0 1973:1.0 2004:1.0 2062:1.0 2168:1.0 
0.0013739599636431316 52:1.0 80:1.0 192:1.0 253:1.0 308:1.0 334:1.0 440:1.0 479:1.0 572:1.0 621:1.0 689:1.0 708:1.0 784:1.0 894:1.0 950:1.0 982:1.0 1047:1.0 1114:1.0 1191:1.0 1242:1.0 1320:1.0 1376:1.0 1472:1.0 1536:1.0 1598:1.0 1654:1.0 1687:1.0 1756:1.0 1840:1.0 1919:1.0 1978:1.0 2022:1.0 2069:1.0 2129:1.0 
-7.174965261158325E-4 57:1.0 99:1.0 139:1.0 234:1.0 294:1.0 342:1.0 405:1.0 467:1.0 523:1.0 617:1.0 675:1.0 714:1.0 806:1.0 855:1.0 923:1.0 1002:1.0 1063:1.0 1114:1.0 1190:1.0 1239:1.0 1307:1.0 1386:1.0 1446:1.0 1494:1.0 1560:1.0 1632:1.0 1725:1.0 1777:1.0 1795:1.0 1865:1.0 1955:1.0 1994:1.0 2086:1.0 2133:1.0 
7.237117584302421E-4 59:1.0 107:1.0 169:1.0 225:1.0 260:1.0 334:1.0 439:1.0 473:1.0 547:1.0 587:1.0 683:1.0 745:1.0 801:1.0 835:1.0 907:1.0 1002:1.0 1063:1.0 1114:1.0 1190:1.0 1240:1.0 1312:1.0 1406:1.0 1462:1.0 1496:1.0 1567:1.0 1660:1.0 1710:1.0 1781:1.0 1811:1.0 1865:1.0 1955:1.0 1995:1.0 2090:1.0 2149:1.0 
0.003916904493888189 51:1.0 75:1.0 169:1.0 225:1.0 259:1.0 330:1.0 421:1.0 465:1.0 513:1.0 577:1.0 644:1.0 720:1.0 832:1.0 894:1.0 950:1.0 982:1.0 1047:1.0 1114:1.0 1190:1.0 1237:1.0 1297:1.0 1345:1.0 1409:1.0 1475:1.0 1546:1.0 1640:1.0 1695:1.0 1786:1.0 1832:1.0 1888:1.0 1982:1.0 2038:1.0 2069:1.0 2129:1.0 
2.905506557830642E-4 58:1.0 104:1.0 160:1.0 254:1.0 310:1.0 342:1.0 406:1.0 470:1.0 536:1.0 608:1.0 701:1.0 753:1.0 771:1.0 841:1.0 931:1.0 970:1.0 1063:1.0 1114:1.0 1191:1.0 1242:1.0 1320:1.0 1374:1.0 1462:1.0 1494:1.0 1558:1.0 1621:1.0 1682:1.0 1734:1.0 1815:1.0 1881:1.0 1953:1.0 1987:1.0 2058:1.0 2149:1.0 
0.005653820580455784 56:1.0 93:1.0 179:1.0 203:1.0 300:1.0 366:1.0 440:1.0 479:1.0 571:1.0 620:1.0 687:1.0 764:1.0 816:1.0 895:1.0 955:1.0 1002:1.0 1063:1.0 1114:1.0 1190:1.0 1237:1.0 1297:1.0 1347:1.0 1417:1.0 1505:1.0 1538:1.0 1606:1.0 1688:1.0 1759:1.0 1851:1.0 1898:1.0 1959:1.0 2009:1.0 2081:1.0 2113:1.0 
-1.7609300102732015E-4 58:1.0 103:1.0 156:1.0 239:1.0 313:1.0 354:1.0 389:1.0 465:1.0 514:1.0 582:1.0 664:1.0 736:1.0 832:1.0 895:1.0 955:1.0 1002:1.0 1063:1.0 1115:1.0 1195:1.0 1257:1.0 1314:1.0 1350:1.0 1431:1.0 1497:1.0 1570:1.0 1607:1.0 1692:1.0 1775:1.0 1851:1.0 1900:1.0 1967:1.0 2043:1.0 2089:1.0 2145:1.0 
-0.0010843721650439734 24:1.0 96:1.0 192:1.0 254:1.0 312:1.0 350:1.0 437:1.0 465:1.0 513:1.0 579:1.0 649:1.0 738:1.0 775:1.0 859:1.0 939:1.0 1002:1.0 1063:1.0 1114:1.0 1190:1.0 1238:1.0 1303:1.0 1372:1.0 1454:1.0 1526:1.0 1560:1.0 1629:1.0 1714:1.0 1735:1.0 1820:1.0 1902:1.0 1973:1.0 2004:1.0 2062:1.0 2168:1.0 
2.3814356025739336E-4 53:1.0 82:1.0 133:1.0 211:1.0 268:1.0 368:1.0 446:1.0 501:1.0 530:1.0 581:1.0 658:1.0 712:1.0 799:1.0 891:1.0 939:1.0 1002:1.0 1063:1.0 1114:1.0 1190:1.0 1240:1.0 1310:1.0 1398:1.0 1429:1.0 1489:1.0 1538:1.0 1608:1.0 1694:1.0 1784:1.0 1822:1.0 1912:1.0 1951:1.0 2043:1.0 2089:1.0 2145:1.0 
0.0040965899429323376 49:1.0 66:1.0 134:1.0 216:1.0 286:1.0 373:1.0 403:1.0 457:1.0 548:1.0 591:1.0 699:1.0 745:1.0 801:1.0 835:1.0 907:1.0 1002:1.0 1063:1.0 1114:1.0 1190:1.0 1237:1.0 1299:1.0 1353:1.0 1441:1.0 1473:1.0 1540:1.0 1613:1.0 1716:1.0 1743:1.0 1852:1.0 1904:1.0 1983:1.0 2042:1.0 2088:1.0 2141:1.0 
0.0011497612424465995 58:1.0 102:1.0 152:1.0 222:1.0 312:1.0 351:1.0 441:1.0 482:1.0 517:1.0 595:1.0 651:1.0 745:1.0 801:1.0 835:1.0 907:1.0 1002:1.0 1063:1.0 1114:1.0 1190:1.0 1240:1.0 1312:1.0 1406:1.0 1462:1.0 1494:1.0 1560:1.0 1630:1.0 1719:1.0 1753:1.0 1828:1.0 1872:1.0 1982:1.0 2038:1.0 2070:1.0 2133:1.0 
-0.004521740378593633 59:1.0 105:1.0 161:1.0 195:1.0 266:1.0 360:1.0 414:1.0 502:1.0 534:1.0 598:1.0 662:1.0 728:1.0 799:1.0 892:1.0 943:1.0 1018:1.0 1063:1.0 1114:1.0 1190:1.0 1238:1.0 1301:1.0 1364:1.0 1424:1.0 1535:1.0 1595:1.0 1644:1.0 1711:1.0 1787:1.0 1833:1.0 1892:1.0 1936:1.0 2046:1.0 2103:1.0 2137:1.0 
0.03434873049854413 9:1.0 100:1.0 143:1.0 249:1.0 290:1.0 327:1.0 412:1.0 493:1.0 563:1.0 588:1.0 688:1.0 767:1.0 827:1.0 874:1.0 935:1.0 986:1.0 1063:1.0 1114:1.0 1192:1.0 1248:1.0 1341:1.0 1393:1.0 1409:1.0 1476:1.0 1552:1.0 1664:1.0 1727:1.0 1785:1.0 1827:1.0 1865:1.0 1953:1.0 1985:1.0 2051:1.0 2123:1.0 
9.919059031060537E-4 24:1.0 96:1.0 192:1.0 254:1.0 312:1.0 350:1.0 437:1.0 465:1.0 513:1.0 580:1.0 656:1.0 766:1.0 824:1.0 863:1.0 955:1.0 1002:1.0 1063:1.0 1114:1.0 1190:1.0 1237:1.0 1299:1.0 1353:1.0 1441:1.0 1474:1.0 1544:1.0 1629:1.0 1714:1.0 1735:1.0 1820:1.0 1902:1.0 1973:1.0 2004:1.0 2062:1.0 2168:1.0 
-0.0013679548933882956 58:1.0 101:1.0 145:1.0 193:1.0 258:1.0 328:1.0 416:1.0 511:1.0 571:1.0 618:1.0 678:1.0 725:1.0 787:1.0 841:1.0 931:1.0 970:1.0 1063:1.0 1114:1.0 1190:1.0 1240:1.0 1311:1.0 1403:1.0 1451:1.0 1514:1.0 1576:1.0 1631:1.0 1723:1.0 1771:1.0 1834:1.0 1896:1.0 1951:1.0 2042:1.0 2086:1.0 2133:1.0 
-3.1675045461297864E-4 59:1.0 107:1.0 170:1.0 230:1.0 277:1.0 338:1.0 391:1.0 474:1.0 550:1.0 597:1.0 659:1.0 714:1.0 806:1.0 853:1.0 915:1.0 970:1.0 1063:1.0 1114:1.0 1190:1.0 1237:1.0 1299:1.0 1355:1.0 1450:1.0 1511:1.0 1561:1.0 1635:1.0 1674:1.0 1766:1.0 1816:1.0 1887:1.0 1978:1.0 2022:1.0 2069:1.0 2129:1.0 
-9.146157398524044E-4 52:1.0 80:1.0 190:1.0 245:1.0 273:1.0 321:1.0 388:1.0 461:1.0 564:1.0 590:1.0 694:1.0 726:1.0 789:1.0 851:1.0 907:1.0 1002:1.0 1063:1.0 1114:1.0 1192:1.0 1248:1.0 1341:1.0 1394:1.0 1416:1.0 1502:1.0 1591:1.0 1625:1.0 1699:1.0 1737:1.0 1827:1.0 1866:1.0 1960:1.0 2013:1.0 2099:1.0 2121:1.0 
-0.0039890102110388325 62:1.0 119:1.0 155:1.0 234:1.0 294:1.0 344:1.0 415:1.0 507:1.0 555:1.0 620:1.0 686:1.0 759:1.0 796:1.0 879:1.0 955:1.0 1002:1.0 1063:1.0 1114:1.0 1189:1.0 1236:1.0 1294:1.0 1400:1.0 1438:1.0 1526:1.0 1558:1.0 1621:1.0 1684:1.0 1744:1.0 1855:1.0 1915:1.0 1964:1.0 2032:1.0 2110:1.0 2165:1.0 
-0.0010260958049875394 56:1.0 94:1.0 181:1.0 211:1.0 265:1.0 355:1.0 396:1.0 494:1.0 567:1.0 603:1.0 682:1.0 742:1.0 790:1.0 856:1.0 927:1.0 1018:1.0 1063:1.0 1114:1.0 1190:1.0 1240:1.0 1309:1.0 1393:1.0 1412:1.0 1485:1.0 1585:1.0 1601:1.0 1668:1.0 1744:1.0 1853:1.0 1905:1.0 1922:1.0 1989:1.0 2067:1.0 2121:1.0 
0.0011133489650152716 57:1.0 100:1.0 142:1.0 247:1.0 283:1.0 361:1.0 420:1.0 462:1.0 565:1.0 594:1.0 647:1.0 732:1.0 815:1.0 889:1.0 930:1.0 966:1.0 1047:1.0 1114:1.0 1190:1.0 1237:1.0 1300:1.0 1360:1.0 1472:1.0 1534:1.0 1592:1.0 1632:1.0 1728:1.0 1790:1.0 1846:1.0 1880:1.0 1952:1.0 2046:1.0 2102:1.0 2133:1.0 
0.003609922847634714 58:1.0 101:1.0 145:1.0 193:1.0 259:1.0 330:1.0 423:1.0 473:1.0 546:1.0 581:1.0 659:1.0 713:1.0 803:1.0 842:1.0 934:1.0 982:1.0 1047:1.0 1114:1.0 1190:1.0 1238:1.0 1304:1.0 1376:1.0 1472:1.0 1534:1.0 1592:1.0 1632:1.0 1726:1.0 1782:1.0 1815:1.0 1883:1.0 1962:1.0 2022:1.0 2071:1.0 2137:1.0 
0.0015229997085082852 62:1.0 117:1.0 148:1.0 205:1.0 308:1.0 336:1.0 448:1.0 509:1.0 564:1.0 592:1.0 704:1.0 768:1.0 829:1.0 883:1.0 907:1.0 1002:1.0 1063:1.0 1114:1.0 1192:1.0 1246:1.0 1336:1.0 1375:1.0 1468:1.0 1518:1.0 1591:1.0 1626:1.0 1702:1.0 1750:1.0 1813:1.0 1875:1.0 1931:1.0 2026:1.0 2088:1.0 2141:1.0 
4.3637773343323987E-4 62:1.0 118:1.0 152:1.0 224:1.0 319:1.0 378:1.0 422:1.0 472:1.0 544:1.0 640:1.0 704:1.0 767:1.0 826:1.0 870:1.0 919:1.0 986:1.0 1063:1.0 1114:1.0 1192:1.0 1246:1.0 1334:1.0 1367:1.0 1435:1.0 1515:1.0 1580:1.0 1647:1.0 1721:1.0 1763:1.0 1803:1.0 1899:1.0 1963:1.0 2027:1.0 2092:1.0 2157:1.0 
-6.881707933747933E-4 56:1.0 96:1.0 190:1.0 246:1.0 280:1.0 351:1.0 442:1.0 488:1.0 543:1.0 636:1.0 687:1.0 763:1.0 811:1.0 876:1.0 943:1.0 1018:1.0 1063:1.0 1114:1.0 1190:1.0 1240:1.0 1311:1.0 1401:1.0 1441:1.0 1475:1.0 1547:1.0 1643:1.0 1707:1.0 1770:1.0 1832:1.0 1887:1.0 1979:1.0 2025:1.0 2083:1.0 2121:1.0 
-6.294643357738654E-5 9:1.0 100:1.0 143:1.0 249:1.0 290:1.0 327:1.0 412:1.0 493:1.0 563:1.0 586:1.0 678:1.0 726:1.0 790:1.0 854:1.0 919:1.0 986:1.0 1063:1.0 1114:1.0 1192:1.0 1248:1.0 1341:1.0 1393:1.0 1409:1.0 1476:1.0 1552:1.0 1664:1.0 1727:1.0 1785:1.0 1827:1.0 1865:1.0 1953:1.0 1985:1.0 2051:1.0 2123:1.0 
-3.7311406001626227E-4 57:1.0 98:1.0 135:1.0 218:1.0 295:1.0 345:1.0 418:1.0 456:1.0 542:1.0 630:1.0 664:1.0 736:1.0 832:1.0 895:1.0 955:1.0 1002:1.0 1063:1.0 1115:1.0 1195:1.0 1257:1.0 1315:1.0 1355:1.0 1451:1.0 1515:1.0 1579:1.0 1641:1.0 1697:1.0 1731:1.0 1804:1.0 1901:1.0 1971:1.0 1995:1.0 2090:1.0 2149:1.0 
0.03427154134746262 24:1.0 96:1.0 192:1.0 254:1.0 312:1.0 350:1.0 437:1.0 465:1.0 513:1.0 578:1.0 648:1.0 735:1.0 826:1.0 872:1.0 927:1.0 1018:1.0 1063:1.0 1114:1.0 1189:1.0 1235:1.0 1290:1.0 1381:1.0 1427:1.0 1482:1.0 1576:1.0 1629:1.0 1714:1.0 1735:1.0 1820:1.0 1902:1.0 1973:1.0 2004:1.0 2062:1.0 2168:1.0 
-0.0015136252284051683 62:1.0 118:1.0 150:1.0 213:1.0 275:1.0 331:1.0 426:1.0 486:1.0 533:1.0 593:1.0 644:1.0 718:1.0 822:1.0 856:1.0 927:1.0 1018:1.0 1063:1.0 1114:1.0 1190:1.0 1240:1.0 1312:1.0 1406:1.0 1462:1.0 1494:1.0 1557:1.0 1619:1.0 1673:1.0 1762:1.0 1798:1.0 1880:1.0 1952:1.0 2048:1.0 2110:1.0 2165:1.0 
-4.953358081210903E-4 60:1.0 112:1.0 190:1.0 248:1.0 286:1.0 375:1.0 409:1.0 481:1.0 515:1.0 587:1.0 684:1.0 751:1.0 827:1.0 875:1.0 939:1.0 1002:1.0 1063:1.0 1114:1.0 1191:1.0 1241:1.0 1315:1.0 1354:1.0 1448:1.0 1502:1.0 1591:1.0 1627:1.0 1708:1.0 1776:1.0 1856:1.0 1920:1.0 1984:1.0 2046:1.0 2102:1.0 2133:1.0 
6.291678118715117E-4 51:1.0 74:1.0 168:1.0 222:1.0 312:1.0 351:1.0 443:1.0 491:1.0 555:1.0 617:1.0 674:1.0 712:1.0 800:1.0 895:1.0 955:1.0 1002:1.0 1063:1.0 1114:1.0 1190:1.0 1238:1.0 1304:1.0 1374:1.0 1464:1.0 1502:1.0 1590:1.0 1621:1.0 1683:1.0 1738:1.0 1829:1.0 1873:1.0 1922:1.0 1989:1.0 2067:1.0 2121:1.0 
-0.03340768696681318 24:1.0 96:1.0 192:1.0 254:1.0 312:1.0 350:1.0 437:1.0 465:1.0 513:1.0 580:1.0 656:1.0 768:1.0 829:1.0 881:1.0 899:1.0 970:1.0 1063:1.0 1115:1.0 1193:1.0 1251:1.0 1289:1.0 1377:1.0 1409:1.0 1474:1.0 1544:1.0 1629:1.0 1714:1.0 1735:1.0 1820:1.0 1902:1.0 1973:1.0 2004:1.0 2062:1.0 2168:1.0 
-2.1711596467298994E-4 55:1.0 90:1.0 166:1.0 214:1.0 277:1.0 339:1.0 395:1.0 490:1.0 552:1.0 606:1.0 696:1.0 736:1.0 830:1.0 886:1.0 919:1.0 986:1.0 1063:1.0 1114:1.0 1190:1.0 1239:1.0 1307:1.0 1386:1.0 1445:1.0 1491:1.0 1547:1.0 1643:1.0 1707:1.0 1770:1.0 1829:1.0 1875:1.0 1930:1.0 2021:1.0 2067:1.0 2121:1.0 
0.0016904561844370961 52:1.0 80:1.0 191:1.0 252:1.0 302:1.0 373:1.0 404:1.0 464:1.0 573:1.0 625:1.0 644:1.0 720:1.0 832:1.0 895:1.0 955:1.0 1002:1.0 1063:1.0 1114:1.0 1190:1.0 1237:1.0 1297:1.0 1347:1.0 1419:1.0 1514:1.0 1574:1.0 1621:1.0 1684:1.0 1744:1.0 1856:1.0 1917:1.0 1972:1.0 1998:1.0 2102:1.0 2133:1.0 
-9.052027517013914E-4 55:1.0 91:1.0 171:1.0 234:1.0 294:1.0 344:1.0 414:1.0 502:1.0 536:1.0 608:1.0 702:1.0 760:1.0 799:1.0 891:1.0 938:1.0 998:1.0 1047:1.0 1114:1.0 1191:1.0 1242:1.0 1319:1.0 1372:1.0 1455:1.0 1530:1.0 1576:1.0 1632:1.0 1726:1.0 1782:1.0 1816:1.0 1887:1.0 1979:1.0 2026:1.0 2088:1.0 2141:1.0 
0.0010650430516429552 62:1.0 119:1.0 156:1.0 238:1.0 310:1.0 342:1.0 406:1.0 471:1.0 540:1.0 624:1.0 703:1.0 761:1.0 801:1.0 835:1.0 907:1.0 1002:1.0 1063:1.0 1114:1.0 1190:1.0 1238:1.0 1301:1.0 1364:1.0 1424:1.0 1535:1.0 1595:1.0 1642:1.0 1704:1.0 1758:1.0 1847:1.0 1883:1.0 1962:1.0 2024:1.0 2079:1.0 2169:1.0 
0.006920255286799383 49:1.0 67:1.0 139:1.0 233:1.0 292:1.0 336:1.0 447:1.0 505:1.0 545:1.0 577:1.0 642:1.0 709:1.0 787:1.0 842:1.0 935:1.0 986:1.0 1063:1.0 1114:1.0 1189:1.0 1233:1.0 1281:1.0 1348:1.0 1422:1.0 1528:1.0 1567:1.0 1657:1.0 1697:1.0 1732:1.0 1807:1.0 1916:1.0 1967:1.0 2044:1.0 2095:1.0 2169:1.0 
-0.0011629581680519922 58:1.0 102:1.0 152:1.0 223:1.0 313:1.0 355:1.0 394:1.0 485:1.0 531:1.0 586:1.0 680:1.0 734:1.0 824:1.0 863:1.0 955:1.0 1002:1.0 1063:1.0 1114:1.0 1191:1.0 1243:1.0 1321:1.0 1379:1.0 1417:1.0 1507:1.0 1546:1.0 1638:1.0 1685:1.0 1746:1.0 1799:1.0 1883:1.0 1962:1.0 2024:1.0 2080:1.0 2173:1.0 
-0.004716030706732615 55:1.0 89:1.0 161:1.0 196:1.0 270:1.0 374:1.0 405:1.0 466:1.0 518:1.0 597:1.0 657:1.0 708:1.0 783:1.0 891:1.0 939:1.0 1002:1.0 1063:1.0 1114:1.0 1189:1.0 1234:1.0 1285:1.0 1363:1.0 1419:1.0 1515:1.0 1579:1.0 1643:1.0 1705:1.0 1763:1.0 1802:1.0 1896:1.0 1952:1.0 2046:1.0 2102:1.0 2133:1.0 
-1.240327570316892E-4 62:1.0 118:1.0 149:1.0 209:1.0 257:1.0 321:1.0 388:1.0 462:1.0 565:1.0 596:1.0 656:1.0 768:1.0 829:1.0 882:1.0 903:1.0 986:1.0 1063:1.0 1115:1.0 1194:1.0 1254:1.0 1303:1.0 1370:1.0 1447:1.0 1497:1.0 1570:1.0 1606:1.0 1687:1.0 1755:1.0 1836:1.0 1901:1.0 1971:1.0 1996:1.0 2095:1.0 2169:1.0 
-0.0013317553313808462 57:1.0 99:1.0 139:1.0 235:1.0 298:1.0 359:1.0 409:1.0 483:1.0 522:1.0 614:1.0 663:1.0 731:1.0 811:1.0 873:1.0 931:1.0 970:1.0 1063:1.0 1114:1.0 1191:1.0 1244:1.0 1325:1.0 1394:1.0 1415:1.0 1498:1.0 1573:1.0 1617:1.0 1667:1.0 1738:1.0 1830:1.0 1879:1.0 1947:1.0 2026:1.0 2086:1.0 2133:1.0 
0.009383865844579904 54:1.0 86:1.0 151:1.0 219:1.0 298:1.0 358:1.0 405:1.0 466:1.0 520:1.0 608:1.0 704:1.0 768:1.0 829:1.0 882:1.0 903:1.0 986:1.0 1063:1.0 1114:1.0 1190:1.0 1237:1.0 1297:1.0 1345:1.0 1412:1.0 1486:1.0 1590:1.0 1624:1.0 1696:1.0 1792:1.0 1856:1.0 1920:1.0 1983:1.0 2042:1.0 2086:1.0 2133:1.0 
4.845632507791087E-4 63:1.0 123:1.0 172:1.0 237:1.0 307:1.0 331:1.0 427:1.0 490:1.0 552:1.0 607:1.0 700:1.0 751:1.0 826:1.0 872:1.0 927:1.0 1018:1.0 1063:1.0 1114:1.0 1191:1.0 1243:1.0 1324:1.0 1390:1.0 1462:1.0 1496:1.0 1568:1.0 1662:1.0 1718:1.0 1750:1.0 1813:1.0 1876:1.0 1936:1.0 2046:1.0 2101:1.0 2129:1.0 
0.004183239073825474 59:1.0 105:1.0 161:1.0 195:1.0 268:1.0 368:1.0 448:1.0 511:1.0 569:1.0 609:1.0 641:1.0 708:1.0 784:1.0 895:1.0 955:1.0 1002:1.0 1063:1.0 1115:1.0 1196:1.0 1264:1.0 1341:1.0 1394:1.0 1415:1.0 1498:1.0 1573:1.0 1619:1.0 1675:1.0 1769:1.0 1828:1.0 1871:1.0 1978:1.0 2024:1.0 2079:1.0 2169:1.0 
-8.676059937993344E-4 51:1.0 75:1.0 171:1.0 233:1.0 291:1.0 331:1.0 426:1.0 485:1.0 529:1.0 577:1.0 643:1.0 714:1.0 808:1.0 862:1.0 951:1.0 986:1.0 1063:1.0 1114:1.0 1190:1.0 1237:1.0 1297:1.0 1347:1.0 1419:1.0 1514:1.0 1574:1.0 1621:1.0 1681:1.0 1731:1.0 1801:1.0 1890:1.0 1926:1.0 2006:1.0 2071:1.0 2137:1.0 
-0.016473323378772962 24:1.0 96:1.0 192:1.0 254:1.0 312:1.0 350:1.0 437:1.0 465:1.0 513:1.0 580:1.0 656:1.0 768:1.0 829:1.0 881:1.0 899:1.0 970:1.0 1063:1.0 1114:1.0 1189:1.0 1235:1.0 1291:1.0 1385:1.0 1441:1.0 1474:1.0 1544:1.0 1629:1.0 1714:1.0 1735:1.0 1820:1.0 1902:1.0 1973:1.0 2004:1.0 2062:1.0 2168:1.0 
0.0024420628381178256 53:1.0 81:1.0 132:1.0 207:1.0 314:1.0 358:1.0 407:1.0 473:1.0 546:1.0 584:1.0 670:1.0 759:1.0 796:1.0 879:1.0 955:1.0 1002:1.0 1063:1.0 1114:1.0 1190:1.0 1238:1.0 1304:1.0 1376:1.0 1472:1.0 1533:1.0 1588:1.0 1613:1.0 1713:1.0 1732:1.0 1807:1.0 1914:1.0 1958:1.0 2007:1.0 2075:1.0 2153:1.0 
-0.002298622633971 60:1.0 111:1.0 185:1.0 227:1.0 267:1.0 364:1.0 431:1.0 507:1.0 555:1.0 619:1.0 682:1.0 742:1.0 790:1.0 853:1.0 915:1.0 970:1.0 1063:1.0 1114:1.0 1191:1.0 1244:1.0 1325:1.0 1394:1.0 1416:1.0 1504:1.0 1600:1.0 1661:1.0 1714:1.0 1734:1.0 1814:1.0 1880:1.0 1952:1.0 2048:1.0 2112:1.0 2173:1.0 
-0.003912116772683685 61:1.0 113:1.0 131:1.0 202:1.0 294:1.0 342:1.0 405:1.0 467:1.0 521:1.0 611:1.0 652:1.0 750:1.0 824:1.0 863:1.0 955:1.0 1002:1.0 1063:1.0 1114:1.0 1191:1.0 1243:1.0 1322:1.0 1382:1.0 1430:1.0 1495:1.0 1563:1.0 1641:1.0 1698:1.0 1735:1.0 1818:1.0 1894:1.0 1942:1.0 2007:1.0 2075:1.0 2153:1.0 
0.015501250074543884 9:1.0 100:1.0 143:1.0 249:1.0 290:1.0 327:1.0 412:1.0 493:1.0 563:1.0 588:1.0 688:1.0 768:1.0 829:1.0 882:1.0 903:1.0 986:1.0 1063:1.0 1114:1.0 1191:1.0 1244:1.0 1325:1.0 1393:1.0 1409:1.0 1476:1.0 1552:1.0 1664:1.0 1727:1.0 1785:1.0 1827:1.0 1865:1.0 1953:1.0 1985:1.0 2051:1.0 2123:1.0 
-0.0018954361536198865 56:1.0 94:1.0 183:1.0 218:1.0 294:1.0 341:1.0 401:1.0 451:1.0 524:1.0 624:1.0 702:1.0 759:1.0 793:1.0 867:1.0 907:1.0 1002:1.0 1063:1.0 1114:1.0 1189:1.0 1234:1.0 1287:1.0 1369:1.0 1443:1.0 1483:1.0 1580:1.0 1647:1.0 1722:1.0 1768:1.0 1824:1.0 1917:1.0 1969:1.0 1986:1.0 2054:1.0 2133:1.0 
-0.004476753266231787 57:1.0 98:1.0 135:1.0 218:1.0 296:1.0 350:1.0 439:1.0 475:1.0 553:1.0 611:1.0 652:1.0 750:1.0 822:1.0 854:1.0 918:1.0 982:1.0 1047:1.0 1114:1.0 1191:1.0 1242:1.0 1320:1.0 1375:1.0 1467:1.0 1515:1.0 1578:1.0 1638:1.0 1686:1.0 1752:1.0 1822:1.0 1912:1.0 1951:1.0 2042:1.0 2085:1.0 2129:1.0 
-9.373977404608811E-5 58:1.0 102:1.0 152:1.0 223:1.0 314:1.0 360:1.0 416:1.0 512:1.0 574:1.0 632:1.0 671:1.0 762:1.0 808:1.0 862:1.0 951:1.0 986:1.0 1063:1.0 1114:1.0 1190:1.0 1237:1.0 1299:1.0 1354:1.0 1445:1.0 1491:1.0 1545:1.0 1635:1.0 1674:1.0 1765:1.0 1810:1.0 1864:1.0 1949:1.0 2034:1.0 2054:1.0 2133:1.0 
-0.002614166701486167 9:1.0 100:1.0 143:1.0 249:1.0 290:1.0 327:1.0 412:1.0 493:1.0 563:1.0 585:1.0 675:1.0 715:1.0 812:1.0 878:1.0 951:1.0 986:1.0 1063:1.0 1114:1.0 1192:1.0 1245:1.0 1330:1.0 1350:1.0 1432:1.0 1504:1.0 1600:1.0 1664:1.0 1727:1.0 1785:1.0 1827:1.0 1865:1.0 1953:1.0 1985:1.0 2051:1.0 2123:1.0 
-8.387225521545571E-4 59:1.0 107:1.0 172:1.0 240:1.0 318:1.0 374:1.0 406:1.0 469:1.0 532:1.0 590:1.0 694:1.0 726:1.0 792:1.0 863:1.0 955:1.0 1002:1.0 1063:1.0 1114:1.0 1191:1.0 1243:1.0 1322:1.0 1382:1.0 1431:1.0 1499:1.0 1579:1.0 1642:1.0 1702:1.0 1749:1.0 1810:1.0 1862:1.0 1942:1.0 2007:1.0 2075:1.0 2153:1.0 
-0.002034412712284456 50:1.0 71:1.0 155:1.0 233:1.0 289:1.0 323:1.0 394:1.0 485:1.0 529:1.0 577:1.0 643:1.0 714:1.0 808:1.0 862:1.0 951:1.0 986:1.0 1063:1.0 1114:1.0 1190:1.0 1240:1.0 1310:1.0 1398:1.0 1432:1.0 1503:1.0 1593:1.0 1634:1.0 1671:1.0 1756:1.0 1838:1.0 1909:1.0 1940:1.0 1998:1.0 2101:1.0 2129:1.0 
0.0043883978262407655 24:1.0 96:1.0 192:1.0 254:1.0 312:1.0 350:1.0 437:1.0 465:1.0 513:1.0 580:1.0 656:1.0 766:1.0 823:1.0 859:1.0 939:1.0 1002:1.0 1063:1.0 1114:1.0 1190:1.0 1238:1.0 1303:1.0 1369:1.0 1441:1.0 1474:1.0 1544:1.0 1629:1.0 1714:1.0 1735:1.0 1820:1.0 1902:1.0 1973:1.0 2004:1.0 2062:1.0 2168:1.0 
0.0067222893644333275 54:1.0 87:1.0 155:1.0 236:1.0 304:1.0 383:1.0 443:1.0 489:1.0 545:1.0 580:1.0 656:1.0 768:1.0 832:1.0 895:1.0 955:1.0 1002:1.0 1063:1.0 1115:1.0 1195:1.0 1260:1.0 1328:1.0 1406:1.0 1461:1.0 1491:1.0 1546:1.0 1640:1.0 1695:1.0 1788:1.0 1839:1.0 1913:1.0 1953:1.0 1986:1.0 2055:1.0 2137:1.0 
-0.001331828599589697 59:1.0 105:1.0 163:1.0 203:1.0 299:1.0 361:1.0 418:1.0 454:1.0 534:1.0 600:1.0 671:1.0 762:1.0 807:1.0 859:1.0 939:1.0 1002:1.0 1063:1.0 1114:1.0 1191:1.0 1243:1.0 1321:1.0 1378:1.0 1416:1.0 1502:1.0 1590:1.0 1621:1.0 1682:1.0 1733:1.0 1810:1.0 1862:1.0 1941:1.0 2001:1.0 2051:1.0 2121:1.0 
-3.062362930529872E-5 63:1.0 123:1.0 171:1.0 233:1.0 292:1.0 335:1.0 443:1.0 489:1.0 548:1.0 592:1.0 703:1.0 762:1.0 808:1.0 863:1.0 955:1.0 1002:1.0 1063:1.0 1115:1.0 1195:1.0 1259:1.0 1322:1.0 1382:1.0 1432:1.0 1504:1.0 1600:1.0 1662:1.0 1720:1.0 1758:1.0 1845:1.0 1874:1.0 1926:1.0 2006:1.0 2070:1.0 2133:1.0 
0.009493964142891661 9:1.0 100:1.0 143:1.0 249:1.0 290:1.0 327:1.0 412:1.0 493:1.0 563:1.0 588:1.0 685:1.0 753:1.0 772:1.0 847:1.0 955:1.0 1002:1.0 1063:1.0 1114:1.0 1190:1.0 1237:1.0 1300:1.0 1360:1.0 1469:1.0 1524:1.0 1552:1.0 1664:1.0 1727:1.0 1785:1.0 1827:1.0 1865:1.0 1953:1.0 1985:1.0 2051:1.0 2123:1.0 
-3.4904372141884805E-4 53:1.0 84:1.0 142:1.0 247:1.0 283:1.0 364:1.0 431:1.0 505:1.0 546:1.0 581:1.0 657:1.0 708:1.0 784:1.0 895:1.0 955:1.0 1002:1.0 1063:1.0 1114:1.0 1189:1.0 1235:1.0 1291:1.0 1385:1.0 1441:1.0 1474:1.0 1544:1.0 1630:1.0 1718:1.0 1750:1.0 1815:1.0 1883:1.0 1963:1.0 2026:1.0 2088:1.0 2141:1.0 
-0.001398751545857716 49:1.0 67:1.0 138:1.0 230:1.0 280:1.0 351:1.0 443:1.0 489:1.0 546:1.0 583:1.0 666:1.0 742:1.0 792:1.0 863:1.0 955:1.0 1002:1.0 1063:1.0 1114:1.0 1190:1.0 1238:1.0 1302:1.0 1365:1.0 1427:1.0 1481:1.0 1572:1.0 1614:1.0 1720:1.0 1759:1.0 1851:1.0 1899:1.0 1962:1.0 2022:1.0 2072:1.0 2141:1.0 
-7.967346875229661E-4 51:1.0 74:1.0 166:1.0 216:1.0 286:1.0 375:1.0 411:1.0 492:1.0 558:1.0 632:1.0 670:1.0 760:1.0 799:1.0 891:1.0 939:1.0 1002:1.0 1063:1.0 1115:1.0 1195:1.0 1258:1.0 1318:1.0 1368:1.0 1438:1.0 1528:1.0 1566:1.0 1654:1.0 1685:1.0 1746:1.0 1798:1.0 1878:1.0 1942:1.0 2008:1.0 2080:1.0 2173:1.0 
-6.683909856558912E-4 51:1.0 76:1.0 174:1.0 248:1.0 286:1.0 374:1.0 405:1.0 467:1.0 521:1.0 611:1.0 650:1.0 741:1.0 787:1.0 842:1.0 935:1.0 986:1.0 1063:1.0 1114:1.0 1191:1.0 1243:1.0 1323:1.0 1387:1.0 1450:1.0 1509:1.0 1555:1.0 1609:1.0 1698:1.0 1734:1.0 1816:1.0 1886:1.0 1974:1.0 2008:1.0 2078:1.0 2165:1.0 
9.402733707203955E-4 54:1.0 85:1.0 147:1.0 203:1.0 298:1.0 358:1.0 407:1.0 476:1.0 559:1.0 634:1.0 677:1.0 723:1.0 780:1.0 879:1.0 955:1.0 1002:1.0 1063:1.0 1114:1.0 1190:1.0 1237:1.0 1300:1.0 1358:1.0 1464:1.0 1504:1.0 1599:1.0 1659:1.0 1706:1.0 1768:1.0 1822:1.0 1909:1.0 1938:1.0 1992:1.0 2079:1.0 2169:1.0 
-0.0014293350331839834 56:1.0 93:1.0 180:1.0 207:1.0 315:1.0 362:1.0 422:1.0 469:1.0 531:1.0 588:1.0 686:1.0 760:1.0 799:1.0 891:1.0 938:1.0 998:1.0 1047:1.0 1114:1.0 1190:1.0 1237:1.0 1300:1.0 1359:1.0 1468:1.0 1520:1.0 1599:1.0 1659:1.0 1705:1.0 1763:1.0 1802:1.0 1896:1.0 1952:1.0 2048:1.0 2110:1.0 2165:1.0 
-9.026257293995383E-4 50:1.0 72:1.0 159:1.0 251:1.0 299:1.0 363:1.0 425:1.0 483:1.0 522:1.0 613:1.0 659:1.0 716:1.0 814:1.0 885:1.0 915:1.0 970:1.0 1063:1.0 1114:1.0 1190:1.0 1238:1.0 1304:1.0 1373:1.0 1459:1.0 1483:1.0 1577:1.0 1634:1.0 1672:1.0 1758:1.0 1846:1.0 1877:1.0 1939:1.0 1994:1.0 2088:1.0 2141:1.0 
-8.303314074963498E-4 49:1.0 66:1.0 134:1.0 213:1.0 275:1.0 331:1.0 427:1.0 491:1.0 554:1.0 615:1.0 668:1.0 750:1.0 822:1.0 854:1.0 919:1.0 986:1.0 1063:1.0 1114:1.0 1190:1.0 1237:1.0 1298:1.0 1350:1.0 1432:1.0 1502:1.0 1592:1.0 1631:1.0 1721:1.0 1762:1.0 1800:1.0 1886:1.0 1975:1.0 2011:1.0 2089:1.0 2145:1.0 
5.090650658586977E-5 56:1.0 96:1.0 190:1.0 245:1.0 275:1.0 330:1.0 424:1.0 479:1.0 570:1.0 613:1.0 658:1.0 709:1.0 787:1.0 843:1.0 939:1.0 1002:1.0 1063:1.0 1114:1.0 1192:1.0 1245:1.0 1332:1.0 1360:1.0 1472:1.0 1536:1.0 1598:1.0 1654:1.0 1687:1.0 1753:1.0 1825:1.0 1857:1.0 1921:1.0 1988:1.0 2063:1.0 2169:1.0 
3.605206352575621E-4 50:1.0 69:1.0 145:1.0 195:1.0 267:1.0 361:1.0 419:1.0 459:1.0 553:1.0 609:1.0 641:1.0 706:1.0 773:1.0 851:1.0 907:1.0 1002:1.0 1063:1.0 1114:1.0 1190:1.0 1240:1.0 1311:1.0 1404:1.0 1456:1.0 1536:1.0 1597:1.0 1649:1.0 1668:1.0 1744:1.0 1854:1.0 1909:1.0 1940:1.0 2000:1.0 2112:1.0 2173:1.0 
-0.0033930677710850765 57:1.0 99:1.0 137:1.0 228:1.0 270:1.0 374:1.0 405:1.0 467:1.0 522:1.0 616:1.0 670:1.0 758:1.0 789:1.0 851:1.0 907:1.0 1002:1.0 1063:1.0 1114:1.0 1192:1.0 1246:1.0 1335:1.0 1370:1.0 1445:1.0 1491:1.0 1546:1.0 1640:1.0 1694:1.0 1784:1.0 1823:1.0 1915:1.0 1962:1.0 2024:1.0 2078:1.0 2165:1.0 
-0.002239810283365764 54:1.0 86:1.0 150:1.0 216:1.0 286:1.0 374:1.0 407:1.0 475:1.0 553:1.0 610:1.0 648:1.0 734:1.0 824:1.0 862:1.0 951:1.0 986:1.0 1063:1.0 1114:1.0 1190:1.0 1240:1.0 1311:1.0 1403:1.0 1451:1.0 1513:1.0 1569:1.0 1603:1.0 1673:1.0 1763:1.0 1802:1.0 1893:1.0 1938:1.0 1990:1.0 2070:1.0 2133:1.0 
1.914217959229784E-4 54:1.0 87:1.0 155:1.0 234:1.0 296:1.0 349:1.0 435:1.0 460:1.0 560:1.0 638:1.0 694:1.0 728:1.0 799:1.0 889:1.0 931:1.0 970:1.0 1063:1.0 1114:1.0 1191:1.0 1242:1.0 1320:1.0 1374:1.0 1463:1.0 1497:1.0 1571:1.0 1609:1.0 1699:1.0 1739:1.0 1833:1.0 1891:1.0 1930:1.0 2023:1.0 2076:1.0 2157:1.0 
-0.002123794094355352 63:1.0 122:1.0 166:1.0 216:1.0 287:1.0 379:1.0 427:1.0 490:1.0 550:1.0 597:1.0 660:1.0 719:1.0 825:1.0 867:1.0 907:1.0 1002:1.0 1063:1.0 1114:1.0 1189:1.0 1233:1.0 1282:1.0 1350:1.0 1431:1.0 1500:1.0 1582:1.0 1654:1.0 1686:1.0 1752:1.0 1822:1.0 1909:1.0 1938:1.0 1989:1.0 2067:1.0 2121:1.0 
7.36436267860646E-4 61:1.0 113:1.0 129:1.0 196:1.0 271:1.0 377:1.0 417:1.0 451:1.0 521:1.0 609:1.0 644:1.0 719:1.0 826:1.0 870:1.0 919:1.0 986:1.0 1063:1.0 1114:1.0 1192:1.0 1248:1.0 1342:1.0 1398:1.0 1429:1.0 1492:1.0 1552:1.0 1663:1.0 1723:1.0 1772:1.0 1840:1.0 1919:1.0 1977:1.0 2017:1.0 2049:1.0 2113:1.0 
0.0017398582806890173 49:1.0 68:1.0 142:1.0 246:1.0 277:1.0 338:1.0 389:1.0 467:1.0 521:1.0 611:1.0 651:1.0 745:1.0 803:1.0 843:1.0 939:1.0 1002:1.0 1063:1.0 1114:1.0 1190:1.0 1237:1.0 1297:1.0 1345:1.0 1412:1.0 1486:1.0 1590:1.0 1624:1.0 1694:1.0 1784:1.0 1822:1.0 1912:1.0 1950:1.0 2039:1.0 2076:1.0 2157:1.0 
-0.0015868530657934898 59:1.0 107:1.0 170:1.0 230:1.0 279:1.0 347:1.0 425:1.0 483:1.0 524:1.0 622:1.0 693:1.0 722:1.0 775:1.0 860:1.0 943:1.0 1018:1.0 1063:1.0 1114:1.0 1190:1.0 1237:1.0 1297:1.0 1346:1.0 1415:1.0 1500:1.0 1584:1.0 1661:1.0 1714:1.0 1735:1.0 1818:1.0 1893:1.0 1938:1.0 1991:1.0 2074:1.0 2149:1.0 
-6.76203523401827E-4 57:1.0 99:1.0 139:1.0 236:1.0 303:1.0 379:1.0 425:1.0 483:1.0 523:1.0 618:1.0 679:1.0 732:1.0 816:1.0 895:1.0 955:1.0 1002:1.0 1063:1.0 1114:1.0 1192:1.0 1247:1.0 1338:1.0 1382:1.0 1429:1.0 1490:1.0 1543:1.0 1628:1.0 1710:1.0 1784:1.0 1823:1.0 1915:1.0 1963:1.0 2026:1.0 2086:1.0 2133:1.0 
-8.721818158407438E-4 63:1.0 123:1.0 171:1.0 233:1.0 291:1.0 329:1.0 420:1.0 463:1.0 572:1.0 621:1.0 692:1.0 720:1.0 832:1.0 895:1.0 955:1.0 1002:1.0 1063:1.0 1115:1.0 1193:1.0 1251:1.0 1292:1.0 1392:1.0 1472:1.0 1536:1.0 1599:1.0 1657:1.0 1698:1.0 1733:1.0 1809:1.0 1860:1.0 1935:1.0 2043:1.0 2089:1.0 2145:1.0 
0.0038304249333066197 58:1.0 102:1.0 151:1.0 217:1.0 291:1.0 330:1.0 424:1.0 479:1.0 569:1.0 612:1.0 653:1.0 753:1.0 769:1.0 835:1.0 907:1.0 1002:1.0 1063:1.0 1114:1.0 1190:1.0 1237:1.0 1300:1.0 1360:1.0 1472:1.0 1536:1.0 1599:1.0 1659:1.0 1705:1.0 1763:1.0 1803:1.0 1899:1.0 1963:1.0 2026:1.0 2086:1.0 2133:1.0 
-0.003384784090359369 59:1.0 106:1.0 166:1.0 216:1.0 286:1.0 376:1.0 415:1.0 507:1.0 555:1.0 618:1.0 680:1.0 735:1.0 825:1.0 866:1.0 902:1.0 982:1.0 1047:1.0 1114:1.0 1190:1.0 1239:1.0 1305:1.0 1378:1.0 1414:1.0 1496:1.0 1568:1.0 1664:1.0 1727:1.0 1785:1.0 1828:1.0 1870:1.0 1976:1.0 2014:1.0 2103:1.0 2137:1.0 
-7.640210701483755E-4 24:1.0 96:1.0 192:1.0 254:1.0 312:1.0 350:1.0 437:1.0 465:1.0 513:1.0 580:1.0 656:1.0 768:1.0 829:1.0 881:1.0 899:1.0 970:1.0 1063:1.0 1114:1.0 1189:1.0 1235:1.0 1289:1.0 1379:1.0 1417:1.0 1506:1.0 1544:1.0 1629:1.0 1714:1.0 1735:1.0 1820:1.0 1902:1.0 1973:1.0 2004:1.0 2062:1.0 2168:1.0 
0.005693409149516666 9:1.0 100:1.0 143:1.0 249:1.0 290:1.0 327:1.0 412:1.0 493:1.0 563:1.0 588:1.0 688:1.0 766:1.0 824:1.0 863:1.0 955:1.0 1002:1.0 1063:1.0 1114:1.0 1190:1.0 1237:1.0 1299:1.0 1353:1.0 1441:1.0 1476:1.0 1552:1.0 1664:1.0 1727:1.0 1785:1.0 1827:1.0 1865:1.0 1953:1.0 1985:1.0 2051:1.0 2123:1.0 
-6.298502563404191E-4 60:1.0 109:1.0 180:1.0 208:1.0 317:1.0 369:1.0 386:1.0 454:1.0 536:1.0 607:1.0 700:1.0 751:1.0 828:1.0 879:1.0 955:1.0 1002:1.0 1063:1.0 1114:1.0 1191:1.0 1243:1.0 1323:1.0 1387:1.0 1451:1.0 1514:1.0 1576:1.0 1631:1.0 1721:1.0 1763:1.0 1803:1.0 1898:1.0 1957:1.0 2003:1.0 2058:1.0 2149:1.0 
-1.0692697556775024E-4 59:1.0 106:1.0 166:1.0 215:1.0 283:1.0 362:1.0 424:1.0 480:1.0 575:1.0 634:1.0 679:1.0 732:1.0 813:1.0 882:1.0 903:1.0 986:1.0 1063:1.0 1114:1.0 1192:1.0 1246:1.0 1334:1.0 1366:1.0 1431:1.0 1499:1.0 1578:1.0 1640:1.0 1694:1.0 1783:1.0 1818:1.0 1894:1.0 1942:1.0 2008:1.0 2078:1.0 2165:1.0 
4.822844480179433E-5 51:1.0 75:1.0 170:1.0 232:1.0 285:1.0 371:1.0 396:1.0 494:1.0 566:1.0 599:1.0 665:1.0 737:1.0 770:1.0 838:1.0 919:1.0 986:1.0 1063:1.0 1114:1.0 1192:1.0 1246:1.0 1334:1.0 1366:1.0 1432:1.0 1502:1.0 1590:1.0 1622:1.0 1686:1.0 1752:1.0 1822:1.0 1910:1.0 1941:1.0 2003:1.0 2057:1.0 2145:1.0 
-0.002579074310484815 53:1.0 84:1.0 143:1.0 251:1.0 298:1.0 360:1.0 416:1.0 512:1.0 574:1.0 630:1.0 664:1.0 735:1.0 825:1.0 867:1.0 907:1.0 1002:1.0 1063:1.0 1114:1.0 1189:1.0 1236:1.0 1294:1.0 1398:1.0 1431:1.0 1499:1.0 1577:1.0 1634:1.0 1670:1.0 1750:1.0 1815:1.0 1883:1.0 1963:1.0 2026:1.0 2087:1.0 2137:1.0 
0.005709246901880199 60:1.0 112:1.0 190:1.0 247:1.0 282:1.0 357:1.0 402:1.0 456:1.0 544:1.0 639:1.0 699:1.0 746:1.0 806:1.0 854:1.0 919:1.0 986:1.0 1063:1.0 1114:1.0 1192:1.0 1248:1.0 1344:1.0 1408:1.0 1472:1.0 1534:1.0 1590:1.0 1624:1.0 1694:1.0 1782:1.0 1813:1.0 1873:1.0 1924:1.0 1998:1.0 2103:1.0 2137:1.0 
-8.471705959437349E-5 57:1.0 98:1.0 135:1.0 219:1.0 299:1.0 364:1.0 430:1.0 502:1.0 536:1.0 606:1.0 695:1.0 731:1.0 809:1.0 867:1.0 906:1.0 998:1.0 1047:1.0 1114:1.0 1191:1.0 1242:1.0 1317:1.0 1363:1.0 1418:1.0 1512:1.0 1566:1.0 1654:1.0 1687:1.0 1753:1.0 1826:1.0 1862:1.0 1942:1.0 2008:1.0 2080:1.0 2173:1.0 
-1.335088694424499E-4 63:1.0 122:1.0 166:1.0 213:1.0 274:1.0 328:1.0 416:1.0 511:1.0 571:1.0 620:1.0 686:1.0 758:1.0 790:1.0 853:1.0 915:1.0 970:1.0 1063:1.0 1114:1.0 1190:1.0 1237:1.0 1299:1.0 1355:1.0 1450:1.0 1512:1.0 1568:1.0 1662:1.0 1720:1.0 1758:1.0 1847:1.0 1883:1.0 1964:1.0 2030:1.0 2103:1.0 2137:1.0 
-5.569030651466445E-4 58:1.0 104:1.0 159:1.0 251:1.0 297:1.0 355:1.0 395:1.0 489:1.0 547:1.0 587:1.0 683:1.0 745:1.0 802:1.0 840:1.0 927:1.0 1018:1.0 1063:1.0 1114:1.0 1190:1.0 1238:1.0 1301:1.0 1362:1.0 1414:1.0 1494:1.0 1558:1.0 1622:1.0 1688:1.0 1759:1.0 1851:1.0 1900:1.0 1967:1.0 2044:1.0 2095:1.0 2169:1.0 
0.0017365977426510133 52:1.0 78:1.0 184:1.0 223:1.0 313:1.0 354:1.0 389:1.0 465:1.0 514:1.0 584:1.0 672:1.0 768:1.0 832:1.0 895:1.0 955:1.0 1002:1.0 1063:1.0 1114:1.0 1190:1.0 1240:1.0 1312:1.0 1406:1.0 1462:1.0 1494:1.0 1560:1.0 1632:1.0 1728:1.0 1791:1.0 1850:1.0 1894:1.0 1943:1.0 2012:1.0 2093:1.0 2161:1.0 
-9.733544635662278E-4 63:1.0 121:1.0 162:1.0 199:1.0 284:1.0 366:1.0 437:1.0 468:1.0 526:1.0 631:1.0 665:1.0 739:1.0 778:1.0 870:1.0 919:1.0 986:1.0 1063:1.0 1114:1.0 1190:1.0 1239:1.0 1308:1.0 1391:1.0 1466:1.0 1511:1.0 1564:1.0 1648:1.0 1726:1.0 1783:1.0 1818:1.0 1894:1.0 1942:1.0 2008:1.0 2079:1.0 2169:1.0 
-3.7289879848280134E-4 54:1.0 86:1.0 151:1.0 219:1.0 299:1.0 364:1.0 432:1.0 512:1.0 575:1.0 636:1.0 688:1.0 768:1.0 831:1.0 891:1.0 939:1.0 1002:1.0 1063:1.0 1114:1.0 1189:1.0 1235:1.0 1289:1.0 1378:1.0 1414:1.0 1496:1.0 1568:1.0 1663:1.0 1723:1.0 1772:1.0 1838:1.0 1911:1.0 1948:1.0 2030:1.0 2102:1.0 2133:1.0 
-0.006444645350853438 54:1.0 87:1.0 155:1.0 235:1.0 298:1.0 359:1.0 412:1.0 494:1.0 566:1.0 599:1.0 667:1.0 747:1.0 810:1.0 870:1.0 919:1.0 986:1.0 1063:1.0 1114:1.0 1190:1.0 1237:1.0 1299:1.0 1353:1.0 1442:1.0 1480:1.0 1566:1.0 1656:1.0 1695:1.0 1787:1.0 1835:1.0 1898:1.0 1960:1.0 2016:1.0 2109:1.0 2161:1.0 
-0.009258964244930095 24:1.0 96:1.0 192:1.0 254:1.0 312:1.0 350:1.0 437:1.0 465:1.0 513:1.0 580:1.0 656:1.0 768:1.0 829:1.0 881:1.0 899:1.0 970:1.0 1063:1.0 1114:1.0 1189:1.0 1235:1.0 1292:1.0 1389:1.0 1457:1.0 1474:1.0 1544:1.0 1629:1.0 1714:1.0 1735:1.0 1820:1.0 1902:1.0 1973:1.0 2004:1.0 2062:1.0 2168:1.0 
-0.0024522662430473325 59:1.0 106:1.0 165:1.0 210:1.0 264:1.0 350:1.0 438:1.0 470:1.0 535:1.0 601:1.0 674:1.0 709:1.0 786:1.0 837:1.0 915:1.0 970:1.0 1063:1.0 1114:1.0 1190:1.0 1240:1.0 1310:1.0 1399:1.0 1435:1.0 1515:1.0 1579:1.0 1641:1.0 1699:1.0 1738:1.0 1832:1.0 1886:1.0 1974:1.0 2005:1.0 2067:1.0 2121:1.0 
-0.0023117255073628272 57:1.0 99:1.0 138:1.0 230:1.0 277:1.0 339:1.0 393:1.0 483:1.0 522:1.0 616:1.0 671:1.0 762:1.0 807:1.0 857:1.0 931:1.0 970:1.0 1063:1.0 1114:1.0 1190:1.0 1240:1.0 1311:1.0 1403:1.0 1449:1.0 1507:1.0 1546:1.0 1640:1.0 1695:1.0 1787:1.0 1833:1.0 1892:1.0 1934:1.0 2040:1.0 2078:1.0 2165:1.0 
-0.0022297029810976364 56:1.0 95:1.0 187:1.0 234:1.0 296:1.0 350:1.0 437:1.0 467:1.0 523:1.0 617:1.0 676:1.0 719:1.0 826:1.0 871:1.0 923:1.0 1002:1.0 1063:1.0 1114:1.0 1190:1.0 1237:1.0 1299:1.0 1355:1.0 1451:1.0 1515:1.0 1578:1.0 1637:1.0 1682:1.0 1736:1.0 1821:1.0 1907:1.0 1931:1.0 2026:1.0 2088:1.0 2141:1.0 
-4.7433248833003683E-4 51:1.0 73:1.0 162:1.0 199:1.0 284:1.0 366:1.0 437:1.0 467:1.0 521:1.0 611:1.0 651:1.0 747:1.0 812:1.0 878:1.0 951:1.0 986:1.0 1063:1.0 1114:1.0 1190:1.0 1239:1.0 1306:1.0 1384:1.0 1439:1.0 1530:1.0 1573:1.0 1619:1.0 1675:1.0 1769:1.0 1825:1.0 1858:1.0 1926:1.0 2006:1.0 2071:1.0 2137:1.0 
-0.0013884486238526358 54:1.0 88:1.0 158:1.0 247:1.0 283:1.0 362:1.0 422:1.0 470:1.0 534:1.0 600:1.0 671:1.0 762:1.0 808:1.0 863:1.0 955:1.0 1002:1.0 1063:1.0 1114:1.0 1190:1.0 1238:1.0 1302:1.0 1367:1.0 1433:1.0 1507:1.0 1547:1.0 1643:1.0 1707:1.0 1771:1.0 1834:1.0 1894:1.0 1941:1.0 2003:1.0 2058:1.0 2149:1.0 
0.0017576536943334385 63:1.0 121:1.0 161:1.0 196:1.0 271:1.0 379:1.0 427:1.0 489:1.0 545:1.0 579:1.0 651:1.0 745:1.0 802:1.0 838:1.0 919:1.0 986:1.0 1063:1.0 1114:1.0 1189:1.0 1235:1.0 1290:1.0 1381:1.0 1426:1.0 1477:1.0 1555:1.0 1610:1.0 1702:1.0 1750:1.0 1816:1.0 1885:1.0 1970:1.0 1990:1.0 2069:1.0 2129:1.0 
-2.1931242571471298E-4 62:1.0 118:1.0 149:1.0 212:1.0 272:1.0 383:1.0 444:1.0 494:1.0 565:1.0 593:1.0 641:1.0 705:1.0 770:1.0 840:1.0 926:1.0 1014:1.0 1047:1.0 1114:1.0 1190:1.0 1237:1.0 1297:1.0 1345:1.0 1412:1.0 1485:1.0 1586:1.0 1605:1.0 1684:1.0 1742:1.0 1848:1.0 1886:1.0 1974:1.0 2006:1.0 2069:1.0 2129:1.0 
-1.273171556926979E-4 49:1.0 66:1.0 136:1.0 222:1.0 312:1.0 351:1.0 441:1.0 483:1.0 521:1.0 612:1.0 654:1.0 758:1.0 790:1.0 854:1.0 919:1.0 986:1.0 1063:1.0 1114:1.0 1190:1.0 1237:1.0 1299:1.0 1353:1.0 1443:1.0 1481:1.0 1570:1.0 1606:1.0 1685:1.0 1746:1.0 1799:1.0 1882:1.0 1960:1.0 2016:1.0 2112:1.0 2173:1.0 
-9.680961280913603E-4 62:1.0 118:1.0 151:1.0 217:1.0 291:1.0 332:1.0 430:1.0 501:1.0 531:1.0 585:1.0 675:1.0 715:1.0 812:1.0 879:1.0 955:1.0 1002:1.0 1063:1.0 1114:1.0 1191:1.0 1243:1.0 1323:1.0 1385:1.0 1442:1.0 1479:1.0 1562:1.0 1638:1.0 1686:1.0 1750:1.0 1816:1.0 1887:1.0 1979:1.0 2028:1.0 2096:1.0 2173:1.0 
0.003124461977395951 51:1.0 76:1.0 176:1.0 255:1.0 315:1.0 361:1.0 420:1.0 462:1.0 565:1.0 594:1.0 648:1.0 735:1.0 825:1.0 865:1.0 899:1.0 970:1.0 1063:1.0 1114:1.0 1190:1.0 1237:1.0 1297:1.0 1345:1.0 1409:1.0 1473:1.0 1537:1.0 1603:1.0 1673:1.0 1761:1.0 1796:1.0 1872:1.0 1984:1.0 2045:1.0 2099:1.0 2121:1.0 
0.004270305695345308 61:1.0 114:1.0 134:1.0 216:1.0 286:1.0 376:1.0 415:1.0 507:1.0 555:1.0 620:1.0 688:1.0 768:1.0 832:1.0 895:1.0 955:1.0 1002:1.0 1063:1.0 1115:1.0 1195:1.0 1259:1.0 1321:1.0 1377:1.0 1412:1.0 1486:1.0 1591:1.0 1627:1.0 1707:1.0 1771:1.0 1836:1.0 1903:1.0 1979:1.0 2027:1.0 2090:1.0 2149:1.0 
0.0029087353355277366 55:1.0 91:1.0 171:1.0 235:1.0 298:1.0 360:1.0 416:1.0 512:1.0 574:1.0 630:1.0 662:1.0 728:1.0 799:1.0 891:1.0 939:1.0 1002:1.0 1063:1.0 1115:1.0 1195:1.0 1258:1.0 1320:1.0 1376:1.0 1472:1.0 1536:1.0 1597:1.0 1652:1.0 1678:1.0 1784:1.0 1823:1.0 1915:1.0 1963:1.0 2026:1.0 2087:1.0 2137:1.0 
0.0010377637376557543 54:1.0 85:1.0 145:1.0 195:1.0 267:1.0 362:1.0 424:1.0 480:1.0 576:1.0 639:1.0 698:1.0 741:1.0 785:1.0 833:1.0 899:1.0 970:1.0 1063:1.0 1114:1.0 1191:1.0 1242:1.0 1320:1.0 1374:1.0 1463:1.0 1498:1.0 1576:1.0 1630:1.0 1718:1.0 1750:1.0 1813:1.0 1874:1.0 1928:1.0 2015:1.0 2107:1.0 2153:1.0 
-2.594090718755771E-4 63:1.0 123:1.0 170:1.0 229:1.0 274:1.0 328:1.0 414:1.0 501:1.0 530:1.0 581:1.0 658:1.0 710:1.0 790:1.0 853:1.0 915:1.0 970:1.0 1063:1.0 1114:1.0 1191:1.0 1242:1.0 1317:1.0 1363:1.0 1419:1.0 1513:1.0 1572:1.0 1615:1.0 1723:1.0 1770:1.0 1829:1.0 1875:1.0 1931:1.0 2026:1.0 2085:1.0 2129:1.0 
4.1578340226522257E-4 63:1.0 123:1.0 170:1.0 229:1.0 274:1.0 327:1.0 409:1.0 483:1.0 521:1.0 611:1.0 651:1.0 745:1.0 804:1.0 847:1.0 955:1.0 1002:1.0 1063:1.0 1114:1.0 1190:1.0 1237:1.0 1297:1.0 1345:1.0 1411:1.0 1482:1.0 1576:1.0 1630:1.0 1719:1.0 1755:1.0 1835:1.0 1899:1.0 1961:1.0 2019:1.0 2057:1.0 2145:1.0 
0.0026410501719613525 63:1.0 122:1.0 166:1.0 216:1.0 288:1.0 381:1.0 435:1.0 457:1.0 547:1.0 585:1.0 675:1.0 713:1.0 803:1.0 842:1.0 935:1.0 986:1.0 1063:1.0 1114:1.0 1192:1.0 1246:1.0 1336:1.0 1375:1.0 1466:1.0 1512:1.0 1566:1.0 1654:1.0 1686:1.0 1752:1.0 1823:1.0 1914:1.0 1958:1.0 2008:1.0 2080:1.0 2173:1.0 
-0.002252488279598913 56:1.0 94:1.0 183:1.0 219:1.0 298:1.0 358:1.0 406:1.0 471:1.0 537:1.0 610:1.0 646:1.0 726:1.0 789:1.0 850:1.0 903:1.0 986:1.0 1063:1.0 1114:1.0 1190:1.0 1239:1.0 1305:1.0 1379:1.0 1419:1.0 1515:1.0 1578:1.0 1640:1.0 1693:1.0 1779:1.0 1803:1.0 1897:1.0 1956:1.0 1997:1.0 2097:1.0 2113:1.0 
3.878105138414061E-4 24:1.0 96:1.0 192:1.0 254:1.0 312:1.0 350:1.0 437:1.0 465:1.0 513:1.0 580:1.0 656:1.0 765:1.0 817:1.0 834:1.0 903:1.0 986:1.0 1063:1.0 1114:1.0 1191:1.0 1244:1.0 1328:1.0 1405:1.0 1457:1.0 1474:1.0 1544:1.0 1629:1.0 1714:1.0 1735:1.0 1820:1.0 1902:1.0 1973:1.0 2004:1.0 2062:1.0 2168:1.0 
-4.70637673890619E-4 60:1.0 110:1.0 184:1.0 222:1.0 310:1.0 343:1.0 411:1.0 489:1.0 546:1.0 583:1.0 667:1.0 745:1.0 804:1.0 847:1.0 955:1.0 1002:1.0 1063:1.0 1115:1.0 1194:1.0 1254:1.0 1304:1.0 1373:1.0 1459:1.0 1481:1.0 1572:1.0 1616:1.0 1728:1.0 1790:1.0 1846:1.0 1880:1.0 1950:1.0 2038:1.0 2070:1.0 2133:1.0 
1.735655454612137E-4 57:1.0 98:1.0 136:1.0 223:1.0 314:1.0 360:1.0 416:1.0 510:1.0 568:1.0 608:1.0 704:1.0 768:1.0 832:1.0 894:1.0 951:1.0 986:1.0 1063:1.0 1114:1.0 1190:1.0 1238:1.0 1301:1.0 1361:1.0 1409:1.0 1473:1.0 1537:1.0 1603:1.0 1674:1.0 1766:1.0 1814:1.0 1877:1.0 1939:1.0 1995:1.0 2091:1.0 2153:1.0 
1.1827105751163445E-4 58:1.0 104:1.0 160:1.0 254:1.0 310:1.0 344:1.0 415:1.0 507:1.0 554:1.0 616:1.0 670:1.0 760:1.0 800:1.0 895:1.0 955:1.0 1002:1.0 1063:1.0 1114:1.0 1191:1.0 1241:1.0 1313:1.0 1345:1.0 1409:1.0 1476:1.0 1551:1.0 1659:1.0 1705:1.0 1764:1.0 1805:1.0 1906:1.0 1928:1.0 2016:1.0 2110:1.0 2165:1.0 
-0.0021280644079888006 49:1.0 66:1.0 134:1.0 216:1.0 288:1.0 383:1.0 442:1.0 488:1.0 543:1.0 635:1.0 682:1.0 744:1.0 798:1.0 886:1.0 919:1.0 986:1.0 1063:1.0 1114:1.0 1190:1.0 1237:1.0 1299:1.0 1355:1.0 1450:1.0 1510:1.0 1559:1.0 1625:1.0 1699:1.0 1738:1.0 1830:1.0 1878:1.0 1942:1.0 2005:1.0 2066:1.0 2117:1.0 
-0.004564633660534206 55:1.0 90:1.0 167:1.0 220:1.0 302:1.0 374:1.0 407:1.0 475:1.0 554:1.0 615:1.0 668:1.0 750:1.0 822:1.0 854:1.0 919:1.0 986:1.0 1063:1.0 1114:1.0 1190:1.0 1237:1.0 1299:1.0 1355:1.0 1450:1.0 1510:1.0 1560:1.0 1630:1.0 1719:1.0 1754:1.0 1832:1.0 1888:1.0 1983:1.0 2043:1.0 2091:1.0 2153:1.0 
-5.736460822430955E-4 56:1.0 95:1.0 186:1.0 230:1.0 278:1.0 342:1.0 405:1.0 468:1.0 528:1.0 639:1.0 699:1.0 748:1.0 814:1.0 886:1.0 919:1.0 986:1.0 1063:1.0 1114:1.0 1191:1.0 1243:1.0 1322:1.0 1382:1.0 1430:1.0 1496:1.0 1567:1.0 1659:1.0 1707:1.0 1772:1.0 1838:1.0 1912:1.0 1950:1.0 2038:1.0 2071:1.0 2137:1.0 
-0.005317518395500855 54:1.0 88:1.0 157:1.0 241:1.0 259:1.0 329:1.0 419:1.0 460:1.0 560:1.0 639:1.0 699:1.0 745:1.0 801:1.0 835:1.0 907:1.0 1002:1.0 1063:1.0 1114:1.0 1189:1.0 1233:1.0 1283:1.0 1356:1.0 1456:1.0 1534:1.0 1590:1.0 1624:1.0 1694:1.0 1784:1.0 1823:1.0 1914:1.0 1958:1.0 2005:1.0 2067:1.0 2121:1.0 
-0.002685701318672093 59:1.0 105:1.0 163:1.0 201:1.0 292:1.0 334:1.0 440:1.0 479:1.0 571:1.0 620:1.0 687:1.0 762:1.0 808:1.0 862:1.0 951:1.0 986:1.0 1063:1.0 1114:1.0 1192:1.0 1246:1.0 1333:1.0 1361:1.0 1412:1.0 1486:1.0 1592:1.0 1632:1.0 1726:1.0 1784:1.0 1823:1.0 1915:1.0 1964:1.0 2029:1.0 2099:1.0 2121:1.0 
-3.6290491877337004E-5 51:1.0 73:1.0 163:1.0 204:1.0 301:1.0 369:1.0 385:1.0 450:1.0 518:1.0 600:1.0 671:1.0 761:1.0 803:1.0 843:1.0 939:1.0 1002:1.0 1063:1.0 1115:1.0 1195:1.0 1258:1.0 1318:1.0 1367:1.0 1433:1.0 1507:1.0 1545:1.0 1633:1.0 1667:1.0 1740:1.0 1839:1.0 1915:1.0 1962:1.0 2024:1.0 2079:1.0 2169:1.0 
0.04309696081468683 24:1.0 96:1.0 192:1.0 254:1.0 312:1.0 350:1.0 437:1.0 465:1.0 513:1.0 580:1.0 656:1.0 768:1.0 829:1.0 881:1.0 899:1.0 970:1.0 1063:1.0 1114:1.0 1192:1.0 1248:1.0 1341:1.0 1393:1.0 1409:1.0 1474:1.0 1544:1.0 1629:1.0 1714:1.0 1735:1.0 1820:1.0 1902:1.0 1973:1.0 2004:1.0 2062:1.0 2168:1.0 
-0.021128574420171103 9:1.0 100:1.0 143:1.0 249:1.0 290:1.0 327:1.0 412:1.0 493:1.0 563:1.0 588:1.0 688:1.0 766:1.0 824:1.0 864:1.0 959:1.0 1018:1.0 1063:1.0 1114:1.0 1192:1.0 1248:1.0 1341:1.0 1393:1.0 1409:1.0 1476:1.0 1552:1.0 1664:1.0 1727:1.0 1785:1.0 1827:1.0 1865:1.0 1953:1.0 1985:1.0 2051:1.0 2123:1.0 
-0.006442435464483409 9:1.0 100:1.0 143:1.0 249:1.0 290:1.0 327:1.0 412:1.0 493:1.0 563:1.0 587:1.0 683:1.0 746:1.0 806:1.0 855:1.0 923:1.0 1002:1.0 1063:1.0 1114:1.0 1190:1.0 1239:1.0 1307:1.0 1386:1.0 1446:1.0 1496:1.0 1568:1.0 1664:1.0 1727:1.0 1785:1.0 1827:1.0 1865:1.0 1953:1.0 1985:1.0 2051:1.0 2123:1.0 
0.0014819985799787462 62:1.0 118:1.0 152:1.0 224:1.0 319:1.0 379:1.0 426:1.0 488:1.0 542:1.0 632:1.0 672:1.0 766:1.0 824:1.0 863:1.0 955:1.0 1002:1.0 1063:1.0 1114:1.0 1190:1.0 1237:1.0 1297:1.0 1345:1.0 1409:1.0 1476:1.0 1551:1.0 1660:1.0 1710:1.0 1783:1.0 1820:1.0 1904:1.0 1982:1.0 2039:1.0 2076:1.0 2159:1.0 
-0.004286987075265675 24:1.0 96:1.0 192:1.0 254:1.0 312:1.0 350:1.0 437:1.0 465:1.0 513:1.0 580:1.0 654:1.0 760:1.0 798:1.0 885:1.0 915:1.0 970:1.0 1063:1.0 1114:1.0 1191:1.0 1243:1.0 1321:1.0 1379:1.0 1417:1.0 1506:1.0 1544:1.0 1629:1.0 1714:1.0 1735:1.0 1820:1.0 1902:1.0 1973:1.0 2004:1.0 2062:1.0 2168:1.0 
-1.5254904182266472E-4 53:1.0 82:1.0 134:1.0 214:1.0 280:1.0 351:1.0 443:1.0 491:1.0 555:1.0 617:1.0 675:1.0 714:1.0 806:1.0 856:1.0 927:1.0 1018:1.0 1063:1.0 1114:1.0 1190:1.0 1238:1.0 1304:1.0 1374:1.0 1461:1.0 1490:1.0 1542:1.0 1624:1.0 1694:1.0 1781:1.0 1811:1.0 1866:1.0 1958:1.0 2006:1.0 2072:1.0 2141:1.0 
-0.0015569896190056418 9:1.0 100:1.0 143:1.0 249:1.0 290:1.0 327:1.0 412:1.0 493:1.0 563:1.0 588:1.0 688:1.0 765:1.0 818:1.0 840:1.0 926:1.0 1014:1.0 1047:1.0 1114:1.0 1192:1.0 1248:1.0 1341:1.0 1393:1.0 1409:1.0 1476:1.0 1552:1.0 1664:1.0 1727:1.0 1785:1.0 1827:1.0 1865:1.0 1953:1.0 1985:1.0 2051:1.0 2123:1.0 
-0.0023254105616965317 49:1.0 65:1.0 131:1.0 203:1.0 300:1.0 366:1.0 439:1.0 473:1.0 547:1.0 586:1.0 677:1.0 721:1.0 771:1.0 843:1.0 939:1.0 1002:1.0 1063:1.0 1114:1.0 1189:1.0 1234:1.0 1286:1.0 1366:1.0 1429:1.0 1492:1.0 1552:1.0 1664:1.0 1726:1.0 1782:1.0 1816:1.0 1886:1.0 1974:1.0 2005:1.0 2065:1.0 2113:1.0 
-0.0022209132662866305 59:1.0 107:1.0 170:1.0 229:1.0 274:1.0 327:1.0 409:1.0 481:1.0 515:1.0 586:1.0 677:1.0 721:1.0 771:1.0 843:1.0 939:1.0 1002:1.0 1063:1.0 1114:1.0 1189:1.0 1234:1.0 1287:1.0 1370:1.0 1446:1.0 1494:1.0 1557:1.0 1619:1.0 1674:1.0 1768:1.0 1822:1.0 1911:1.0 1948:1.0 2032:1.0 2110:1.0 2165:1.0 
-0.0016420620193678727 57:1.0 99:1.0 140:1.0 238:1.0 310:1.0 342:1.0 406:1.0 469:1.0 530:1.0 584:1.0 671:1.0 761:1.0 804:1.0 846:1.0 950:1.0 982:1.0 1047:1.0 1114:1.0 1190:1.0 1237:1.0 1297:1.0 1347:1.0 1419:1.0 1514:1.0 1576:1.0 1631:1.0 1721:1.0 1763:1.0 1803:1.0 1898:1.0 1958:1.0 2006:1.0 2070:1.0 2133:1.0 
-0.001921722955225912 56:1.0 95:1.0 187:1.0 234:1.0 293:1.0 339:1.0 393:1.0 483:1.0 523:1.0 617:1.0 673:1.0 706:1.0 776:1.0 864:1.0 959:1.0 1018:1.0 1063:1.0 1114:1.0 1190:1.0 1240:1.0 1312:1.0 1406:1.0 1462:1.0 1493:1.0 1553:1.0 1602:1.0 1672:1.0 1758:1.0 1848:1.0 1888:1.0 1981:1.0 2035:1.0 2059:1.0 2153:1.0 
-0.0013797523526127885 58:1.0 102:1.0 151:1.0 219:1.0 298:1.0 360:1.0 414:1.0 502:1.0 536:1.0 607:1.0 698:1.0 742:1.0 792:1.0 862:1.0 951:1.0 986:1.0 1063:1.0 1114:1.0 1190:1.0 1240:1.0 1310:1.0 1398:1.0 1430:1.0 1496:1.0 1566:1.0 1654:1.0 1688:1.0 1759:1.0 1850:1.0 1896:1.0 1951:1.0 2042:1.0 2087:1.0 2137:1.0 
-0.04861284291926111 9:1.0 100:1.0 143:1.0 249:1.0 290:1.0 327:1.0 412:1.0 493:1.0 563:1.0 588:1.0 688:1.0 767:1.0 826:1.0 872:1.0 927:1.0 1018:1.0 1063:1.0 1114:1.0 1192:1.0 1248:1.0 1341:1.0 1393:1.0 1409:1.0 1476:1.0 1552:1.0 1664:1.0 1727:1.0 1785:1.0 1827:1.0 1865:1.0 1953:1.0 1985:1.0 2051:1.0 2123:1.0 
-0.0017916555895425897 59:1.0 105:1.0 164:1.0 208:1.0 318:1.0 375:1.0 410:1.0 488:1.0 542:1.0 632:1.0 670:1.0 758:1.0 792:1.0 863:1.0 955:1.0 1002:1.0 1063:1.0 1114:1.0 1189:1.0 1236:1.0 1295:1.0 1401:1.0 1443:1.0 1483:1.0 1578:1.0 1640:1.0 1696:1.0 1790:1.0 1847:1.0 1884:1.0 1967:1.0 2042:1.0 2087:1.0 2137:1.0 
-1.2024309981729842E-4 54:1.0 85:1.0 147:1.0 202:1.0 294:1.0 341:1.0 403:1.0 459:1.0 553:1.0 611:1.0 651:1.0 745:1.0 803:1.0 843:1.0 939:1.0 1002:1.0 1063:1.0 1114:1.0 1191:1.0 1243:1.0 1323:1.0 1387:1.0 1450:1.0 1512:1.0 1566:1.0 1656:1.0 1694:1.0 1784:1.0 1823:1.0 1916:1.0 1966:1.0 2040:1.0 2079:1.0 2169:1.0 
-9.570680402323955E-4 57:1.0 98:1.0 135:1.0 220:1.0 302:1.0 373:1.0 402:1.0 455:1.0 538:1.0 613:1.0 659:1.0 714:1.0 806:1.0 855:1.0 923:1.0 1002:1.0 1063:1.0 1114:1.0 1190:1.0 1237:1.0 1299:1.0 1355:1.0 1450:1.0 1509:1.0 1555:1.0 1612:1.0 1710:1.0 1784:1.0 1823:1.0 1915:1.0 1963:1.0 2026:1.0 2087:1.0 2137:1.0 
8.165156735197073E-4 24:1.0 96:1.0 192:1.0 254:1.0 312:1.0 350:1.0 437:1.0 465:1.0 513:1.0 580:1.0 656:1.0 768:1.0 829:1.0 881:1.0 899:1.0 970:1.0 1063:1.0 1114:1.0 1191:1.0 1242:1.0 1317:1.0 1364:1.0 1421:1.0 1522:1.0 1544:1.0 1629:1.0 1714:1.0 1735:1.0 1820:1.0 1902:1.0 1973:1.0 2004:1.0 2062:1.0 2168:1.0 
-0.004214987546548832 64:1.0 128:1.0 192:1.0 254:1.0 312:1.0 351:1.0 441:1.0 483:1.0 521:1.0 609:1.0 642:1.0 712:1.0 800:1.0 895:1.0 955:1.0 1002:1.0 1063:1.0 1114:1.0 1189:1.0 1235:1.0 1290:1.0 1383:1.0 1436:1.0 1520:1.0 1600:1.0 1664:1.0 1727:1.0 1785:1.0 1826:1.0 1861:1.0 1938:1.0 1990:1.0 2072:1.0 2141:1.0 
0.002892501936212803 51:1.0 76:1.0 173:1.0 244:1.0 270:1.0 375:1.0 410:1.0 487:1.0 537:1.0 611:1.0 649:1.0 737:1.0 771:1.0 842:1.0 935:1.0 986:1.0 1063:1.0 1114:1.0 1192:1.0 1248:1.0 1341:1.0 1395:1.0 1420:1.0 1518:1.0 1592:1.0 1631:1.0 1722:1.0 1765:1.0 1810:1.0 1863:1.0 1946:1.0 2022:1.0 2071:1.0 2137:1.0 
-0.001041967191619945 59:1.0 108:1.0 175:1.0 251:1.0 299:1.0 361:1.0 419:1.0 459:1.0 553:1.0 610:1.0 647:1.0 730:1.0 806:1.0 854:1.0 919:1.0 986:1.0 1063:1.0 1114:1.0 1190:1.0 1237:1.0 1299:1.0 1353:1.0 1443:1.0 1482:1.0 1574:1.0 1623:1.0 1689:1.0 1764:1.0 1808:1.0 1920:1.0 1982:1.0 2037:1.0 2066:1.0 2117:1.0 
-5.098176021127164E-4 53:1.0 81:1.0 129:1.0 195:1.0 266:1.0 360:1.0 415:1.0 506:1.0 551:1.0 604:1.0 687:1.0 763:1.0 812:1.0 878:1.0 950:1.0 982:1.0 1047:1.0 1114:1.0 1190:1.0 1238:1.0 1301:1.0 1363:1.0 1418:1.0 1509:1.0 1556:1.0 1614:1.0 1718:1.0 1751:1.0 1820:1.0 1902:1.0 1973:1.0 2002:1.0 2055:1.0 2137:1.0 
9.141850333768422E-4 56:1.0 96:1.0 190:1.0 246:1.0 278:1.0 342:1.0 406:1.0 469:1.0 531:1.0 586:1.0 680:1.0 736:1.0 832:1.0 895:1.0 955:1.0 1002:1.0 1063:1.0 1114:1.0 1190:1.0 1240:1.0 1312:1.0 1407:1.0 1466:1.0 1512:1.0 1565:1.0 1650:1.0 1671:1.0 1755:1.0 1835:1.0 1899:1.0 1962:1.0 2022:1.0 2070:1.0 2133:1.0 
-0.001003549235185235 58:1.0 102:1.0 152:1.0 223:1.0 315:1.0 363:1.0 425:1.0 482:1.0 517:1.0 595:1.0 651:1.0 746:1.0 808:1.0 863:1.0 955:1.0 1002:1.0 1063:1.0 1115:1.0 1195:1.0 1259:1.0 1322:1.0 1382:1.0 1429:1.0 1491:1.0 1546:1.0 1637:1.0 1683:1.0 1738:1.0 1830:1.0 1880:1.0 1950:1.0 2040:1.0 2079:1.0 2169:1.0 
-0.001285757625918497 53:1.0 82:1.0 135:1.0 218:1.0 294:1.0 343:1.0 411:1.0 489:1.0 545:1.0 579:1.0 649:1.0 739:1.0 780:1.0 879:1.0 955:1.0 1002:1.0 1063:1.0 1114:1.0 1192:1.0 1247:1.0 1337:1.0 1379:1.0 1418:1.0 1512:1.0 1567:1.0 1657:1.0 1698:1.0 1735:1.0 1819:1.0 1898:1.0 1959:1.0 2009:1.0 2083:1.0 2121:1.0 
-0.0028104543956536054 62:1.0 120:1.0 159:1.0 250:1.0 295:1.0 345:1.0 418:1.0 455:1.0 540:1.0 623:1.0 699:1.0 747:1.0 810:1.0 869:1.0 914:1.0 966:1.0 1047:1.0 1114:1.0 1190:1.0 1237:1.0 1300:1.0 1358:1.0 1461:1.0 1491:1.0 1546:1.0 1640:1.0 1695:1.0 1788:1.0 1840:1.0 1918:1.0 1975:1.0 2010:1.0 2087:1.0 2137:1.0 
-0.003597710038662091 49:1.0 66:1.0 135:1.0 218:1.0 294:1.0 341:1.0 402:1.0 455:1.0 538:1.0 614:1.0 662:1.0 725:1.0 787:1.0 843:1.0 938:1.0 998:1.0 1047:1.0 1114:1.0 1190:1.0 1237:1.0 1297:1.0 1346:1.0 1416:1.0 1503:1.0 1595:1.0 1642:1.0 1704:1.0 1759:1.0 1849:1.0 1890:1.0 1926:1.0 2006:1.0 2071:1.0 2137:1.0 
0.002638798628176045 58:1.0 101:1.0 147:1.0 203:1.0 299:1.0 362:1.0 424:1.0 479:1.0 571:1.0 620:1.0 687:1.0 764:1.0 816:1.0 895:1.0 955:1.0 1002:1.0 1063:1.0 1114:1.0 1190:1.0 1237:1.0 1300:1.0 1360:1.0 1470:1.0 1528:1.0 1566:1.0 1655:1.0 1690:1.0 1765:1.0 1811:1.0 1867:1.0 1962:1.0 2022:1.0 2070:1.0 2133:1.0 
0.0033157711806859496 9:1.0 100:1.0 143:1.0 249:1.0 290:1.0 327:1.0 412:1.0 493:1.0 563:1.0 588:1.0 688:1.0 765:1.0 817:1.0 834:1.0 903:1.0 986:1.0 1063:1.0 1114:1.0 1191:1.0 1244:1.0 1328:1.0 1405:1.0 1457:1.0 1476:1.0 1552:1.0 1664:1.0 1727:1.0 1785:1.0 1827:1.0 1865:1.0 1953:1.0 1985:1.0 2051:1.0 2123:1.0 
0.0021467726037613824 53:1.0 84:1.0 144:1.0 256:1.0 320:1.0 382:1.0 439:1.0 475:1.0 553:1.0 609:1.0 641:1.0 705:1.0 772:1.0 845:1.0 947:1.0 970:1.0 1063:1.0 1114:1.0 1190:1.0 1238:1.0 1304:1.0 1375:1.0 1468:1.0 1519:1.0 1594:1.0 1637:1.0 1683:1.0 1738:1.0 1832:1.0 1887:1.0 1977:1.0 2017:1.0 2051:1.0 2121:1.0 
-0.0010235766650616548 59:1.0 105:1.0 164:1.0 207:1.0 315:1.0 361:1.0 419:1.0 458:1.0 551:1.0 601:1.0 675:1.0 713:1.0 804:1.0 847:1.0 955:1.0 1002:1.0 1063:1.0 1114:1.0 1189:1.0 1233:1.0 1283:1.0 1353:1.0 1444:1.0 1488:1.0 1600:1.0 1662:1.0 1717:1.0 1748:1.0 1806:1.0 1909:1.0 1938:1.0 1989:1.0 2067:1.0 2121:1.0 
-7.861005356574683E-4 55:1.0 91:1.0 169:1.0 227:1.0 267:1.0 363:1.0 425:1.0 483:1.0 523:1.0 617:1.0 674:1.0 710:1.0 791:1.0 857:1.0 931:1.0 970:1.0 1063:1.0 1114:1.0 1190:1.0 1240:1.0 1310:1.0 1400:1.0 1438:1.0 1528:1.0 1567:1.0 1658:1.0 1704:1.0 1759:1.0 1851:1.0 1898:1.0 1957:1.0 2002:1.0 2056:1.0 2141:1.0 
-4.3190134499389147E-4 50:1.0 71:1.0 155:1.0 234:1.0 294:1.0 343:1.0 409:1.0 483:1.0 522:1.0 614:1.0 662:1.0 727:1.0 795:1.0 874:1.0 934:1.0 982:1.0 1047:1.0 1114:1.0 1191:1.0 1242:1.0 1317:1.0 1363:1.0 1419:1.0 1515:1.0 1577:1.0 1634:1.0 1670:1.0 1750:1.0 1816:1.0 1888:1.0 1983:1.0 2044:1.0 2095:1.0 2169:1.0 
-3.302493527423768E-4 54:1.0 87:1.0 155:1.0 236:1.0 303:1.0 379:1.0 426:1.0 487:1.0 540:1.0 622:1.0 694:1.0 725:1.0 788:1.0 847:1.0 955:1.0 1002:1.0 1063:1.0 1115:1.0 1194:1.0 1255:1.0 1305:1.0 1377:1.0 1411:1.0 1483:1.0 1578:1.0 1639:1.0 1689:1.0 1762:1.0 1797:1.0 1874:1.0 1928:1.0 2014:1.0 2101:1.0 2129:1.0 
-1.1332579201002408E-4 55:1.0 91:1.0 169:1.0 227:1.0 265:1.0 354:1.0 390:1.0 470:1.0 533:1.0 595:1.0 651:1.0 747:1.0 810:1.0 870:1.0 919:1.0 986:1.0 1063:1.0 1114:1.0 1191:1.0 1243:1.0 1321:1.0 1378:1.0 1414:1.0 1493:1.0 1553:1.0 1604:1.0 1679:1.0 1787:1.0 1835:1.0 1899:1.0 1962:1.0 2021:1.0 2067:1.0 2121:1.0 
5.943184625500666E-4 59:1.0 105:1.0 163:1.0 204:1.0 304:1.0 384:1.0 446:1.0 502:1.0 535:1.0 604:1.0 688:1.0 768:1.0 832:1.0 895:1.0 955:1.0 1002:1.0 1063:1.0 1114:1.0 1190:1.0 1240:1.0 1309:1.0 1393:1.0 1409:1.0 1475:1.0 1546:1.0 1638:1.0 1686:1.0 1750:1.0 1816:1.0 1886:1.0 1975:1.0 2010:1.0 2088:1.0 2141:1.0 
0.002390502379124963 54:1.0 87:1.0 155:1.0 234:1.0 293:1.0 340:1.0 400:1.0 509:1.0 564:1.0 589:1.0 689:1.0 705:1.0 771:1.0 843:1.0 939:1.0 1002:1.0 1063:1.0 1114:1.0 1190:1.0 1237:1.0 1298:1.0 1351:1.0 1433:1.0 1507:1.0 1548:1.0 1646:1.0 1719:1.0 1755:1.0 1834:1.0 1893:1.0 1940:1.0 2000:1.0 2111:1.0 2169:1.0 
-0.0018443842586430077 59:1.0 108:1.0 175:1.0 250:1.0 294:1.0 343:1.0 409:1.0 483:1.0 524:1.0 623:1.0 698:1.0 742:1.0 790:1.0 855:1.0 923:1.0 1002:1.0 1063:1.0 1114:1.0 1190:1.0 1240:1.0 1311:1.0 1402:1.0 1445:1.0 1490:1.0 1543:1.0 1627:1.0 1707:1.0 1772:1.0 1838:1.0 1910:1.0 1942:1.0 2006:1.0 2071:1.0 2137:1.0 
-0.0023266819114058017 59:1.0 107:1.0 172:1.0 239:1.0 314:1.0 360:1.0 414:1.0 504:1.0 544:1.0 638:1.0 694:1.0 726:1.0 789:1.0 851:1.0 907:1.0 1002:1.0 1063:1.0 1114:1.0 1191:1.0 1241:1.0 1315:1.0 1353:1.0 1443:1.0 1484:1.0 1582:1.0 1654:1.0 1687:1.0 1755:1.0 1833:1.0 1891:1.0 1931:1.0 2027:1.0 2091:1.0 2153:1.0 
